/*!
 * The following copyright notice may not be removed under any circumstances.
 * 
 * Copyright:
 * Copyright (URW)++, copyright 1999 by (URW)++ Design & Development; Cyrillic
 * glyphs added by Valek Filippov, copyright 2001-2002; Vietnamese characters were
 * added by Han The Thanh; copyright 2006, 2008 for TeX Gyre extensions by B.
 * Jackowski and J.M. Nowacki (on behalf of TeX users groups). This work is
 * released under the GUST Font License --  see
 * http://tug.org/fonts/licenses/GUST-FONT-LICENSE.txt for details.
 * 
 * Trademark:
 * Please refer to the Copyright section for the font trademark attribution
 * notices.
 */
Cufon.registerFont({"w":560,"face":{"font-family":"TeXGyreAdventor","font-weight":700,"font-stretch":"normal","units-per-em":"1000","panose-1":"0 0 8 0 0 0 0 0 0 0","ascent":"815","descent":"-185","x-height":"13","bbox":"-78 -1001 1051.35 250","underline-thickness":"90","underline-position":"-3","unicode-range":"U+0020-U+2122"},"glyphs":{" ":{"w":280},"!":{"d":"205,-188r-133,0r0,-551r133,0r0,551xm205,0r-133,0r0,-128r133,0r0,128","w":280},"\"":{"d":"283,-513r-76,0r0,-226r76,0r0,226xm150,-513r-76,0r0,-226r76,0r0,226","w":360},"#":{"d":"526,-422r-103,0r-12,89r89,0r0,100r-102,0r-32,233r-90,0r32,-233r-87,0r-31,233r-91,0r32,-233r-97,0r0,-100r110,0r12,-89r-96,0r0,-99r110,0r29,-218r90,0r-29,218r87,0r29,-218r90,0r-29,218r89,0r0,99xm333,-422r-86,0r-13,89r87,0"},"$":{"d":"280,-613v-35,-1,-60,28,-59,64v0,23,7,41,21,54v14,13,44,28,93,46v108,41,159,69,159,198v0,107,-59,183,-147,205r0,132r-127,0r0,-132v-91,-25,-164,-93,-161,-203r134,0v2,49,34,86,84,86v47,0,85,-37,84,-83v0,-30,-13,-53,-39,-70v-15,-9,-50,-24,-105,-45v-86,-31,-129,-91,-129,-180v0,-95,50,-165,132,-182r0,-133r127,0r0,133v68,12,123,91,124,172r-126,0v-8,-41,-30,-62,-65,-62"},"%":{"d":"631,-739r-306,739r-102,0r305,-739r103,0xm655,-348v95,0,180,85,180,180v0,97,-84,181,-181,181v-97,0,-181,-84,-181,-180v0,-99,83,-181,182,-181xm654,-94v39,0,74,-35,74,-74v0,-39,-35,-74,-74,-74v-39,0,-73,34,-73,74v0,40,34,74,73,74xm203,-752v95,0,180,85,180,180v0,97,-84,181,-181,181v-97,0,-181,-84,-181,-180v0,-99,83,-181,182,-181xm202,-498v39,0,74,-35,74,-74v0,-39,-35,-74,-74,-74v-39,0,-73,34,-73,74v0,40,34,74,73,74","w":860},"&":{"d":"488,-570v-3,102,-42,131,-116,181r67,75r72,-119r149,0r-128,219r132,141r-95,86r-105,-111v-56,70,-85,108,-188,111v-130,4,-244,-107,-241,-236v4,-110,57,-160,138,-210v-39,-48,-60,-66,-62,-136v-3,-101,85,-183,187,-183v104,0,193,79,190,182xm289,-481v44,-27,69,-32,72,-85v2,-35,-26,-61,-61,-61v-49,0,-80,56,-51,99v7,13,21,28,40,47xm168,-215v0,76,93,124,156,79v15,-11,31,-32,48,-62r-115,-124v-59,27,-89,62,-89,107","w":680},"'":{"d":"150,-513r-76,0r0,-226r76,0r0,226","w":220},"(":{"d":"209,-300v-1,120,64,245,140,292r0,145v-151,-48,-275,-242,-275,-437v0,-207,119,-379,275,-439r0,144v-93,72,-140,170,-140,295","w":380},")":{"d":"37,-739v151,47,275,243,275,437v0,207,-119,379,-275,439r0,-144v93,-72,140,-170,140,-295v1,-120,-64,-245,-140,-292r0,-145","w":380},"*":{"d":"371,-554r-97,-5r53,80r-57,38r-47,-88r-43,88r-64,-31r52,-89r-98,7r0,-71r99,5r-53,-86r63,-32r44,86r46,-87r59,36r-54,83r97,-6r0,72","w":440},"+":{"d":"546,-181r-177,0r0,177r-138,0r0,-177r-177,0r0,-138r177,0r0,-177r138,0r0,177r177,0r0,138","w":600},",":{"d":"72,73v43,-7,64,-26,58,-73r-58,0r0,-128r133,0v-3,88,14,186,-35,232v-24,23,-55,36,-98,36r0,-67","w":280},"-":{"d":"351,-229r-277,0r0,-118r277,0r0,118","w":420},".":{"d":"205,0r-133,0r0,-128r133,0r0,128","w":280},"\/":{"d":"443,-739r-323,867r-94,0r323,-867r94,0","w":460},"0":{"d":"278,-752v148,0,247,99,247,247r0,258v2,157,-90,260,-241,260v-156,0,-254,-100,-254,-260r0,-251v-2,-153,96,-254,248,-254xm163,-251v-1,86,36,141,117,142v75,0,112,-46,112,-139r0,-250v1,-80,-37,-132,-113,-132v-74,0,-116,55,-116,132r0,247"},"1":{"d":"379,0r-133,0r0,-614r-93,0r0,-125r226,0r0,739"},"2":{"d":"279,-752v134,0,241,107,241,240v0,46,-10,87,-30,122v-49,84,-185,189,-264,265r291,0r0,125r-478,0r0,-117r263,-249v57,-54,85,-103,85,-148v0,-63,-45,-117,-107,-116v-74,0,-117,66,-115,146r-131,0v-3,-158,95,-268,245,-268"},"3":{"d":"266,-752v112,-2,199,88,199,199v0,55,-21,97,-62,127v77,34,115,98,115,191v0,140,-108,248,-248,248v-140,0,-250,-103,-255,-237r134,0v7,64,52,114,120,115v67,1,117,-55,116,-123v-1,-85,-71,-131,-167,-124r0,-128v72,-2,112,-14,114,-76v1,-40,-26,-71,-65,-70v-35,0,-56,22,-62,67r-135,0v6,-113,83,-187,196,-189"},"4":{"d":"530,-111r-78,0r0,111r-133,0r0,-111r-319,0r0,-108r340,-520r112,0r0,509r78,0r0,119xm319,-230r0,-285r-184,285r184,0"},"5":{"d":"191,-478v171,-75,329,59,329,231v0,143,-110,260,-251,260v-131,0,-255,-106,-257,-234r133,0v12,65,49,111,120,112v73,1,122,-60,122,-136v0,-71,-51,-133,-120,-132v-39,0,-73,19,-103,56r-118,-32r69,-386r334,0r0,125r-234,0"},"6":{"d":"269,-476v151,-47,264,79,264,224v0,148,-107,265,-253,265v-145,0,-262,-111,-259,-255v3,-93,28,-139,73,-207r193,-290r159,0xm280,-109v72,0,120,-56,120,-130v0,-73,-51,-131,-122,-131v-74,0,-124,55,-124,131v0,74,53,130,126,130"},"7":{"d":"500,-614r-270,614r-150,0r280,-614r-295,0r0,-125r435,0r0,125"},"8":{"d":"419,-411v66,41,102,84,104,179v3,137,-108,245,-245,245v-135,0,-247,-110,-247,-244v0,-81,35,-141,106,-180v-38,-44,-59,-68,-61,-138v-3,-110,93,-203,203,-203v113,0,202,88,202,201v0,60,-21,107,-62,140xm279,-469v41,0,75,-38,75,-81v0,-43,-32,-80,-74,-80v-44,0,-77,36,-77,81v0,42,35,80,76,80xm279,-109v62,0,111,-53,111,-116v0,-61,-50,-116,-111,-116v-63,0,-115,52,-115,115v0,65,51,117,115,117"},"9":{"d":"273,-752v180,0,308,171,243,356v-11,31,-30,67,-57,106r-193,290r-159,0r178,-263v-148,53,-263,-82,-263,-224v0,-149,105,-265,251,-265xm276,-369v73,0,123,-56,123,-131v0,-74,-53,-130,-126,-130v-70,0,-118,58,-118,130v0,73,50,131,121,131"},":":{"d":"205,0r-133,0r0,-128r133,0r0,128xm205,-369r-133,0r0,-133r133,0r0,133","w":280},";":{"d":"72,73v43,-7,62,-23,59,-73r-59,0r0,-128r133,0v-3,89,14,187,-36,232v-25,23,-56,36,-97,36r0,-67xm205,-369r-133,0r0,-133r133,0r0,133","w":280},"<":{"d":"492,142r-427,-338r0,-108r427,-338r0,176r-273,216r273,216r0,176","w":600},"=":{"d":"546,-273r-492,0r0,-138r492,0r0,138xm546,-89r-492,0r0,-138r492,0r0,138","w":600},">":{"d":"492,-196r-427,338r0,-176r273,-216r-273,-216r0,-176r427,338r0,108","w":600},"?":{"d":"260,-752v126,-2,229,102,225,229v-3,92,-41,122,-102,179v-53,50,-62,61,-65,157r-133,0v3,-149,32,-177,122,-255v30,-25,45,-54,45,-85v1,-53,-42,-93,-95,-93v-53,0,-83,33,-92,100r-133,0v8,-137,94,-230,228,-232xm318,0r-133,0r0,-128r133,0r0,128"},"@":{"d":"388,-766v214,0,357,152,357,369v0,135,-83,244,-211,243v-53,0,-86,-18,-99,-54v-24,36,-62,54,-113,54v-104,0,-165,-81,-165,-191v0,-123,84,-234,202,-232v63,1,87,19,118,58r7,-54r96,0r-34,310v0,17,9,26,27,26v62,-3,99,-100,99,-176v0,-164,-117,-281,-282,-281v-178,0,-316,141,-316,320v0,178,140,314,327,314v57,0,107,-16,149,-47r46,60v-51,40,-117,60,-197,60v-222,0,-396,-169,-396,-390v0,-216,170,-389,385,-389xm355,-260v60,1,100,-51,100,-114v0,-52,-27,-90,-76,-91v-56,-1,-102,52,-102,110v0,54,27,95,78,95","w":740},"A":{"d":"733,0r-151,0r-79,-191r-263,0r-82,191r-151,0r308,-739r108,0xm448,-322r-79,-224r-79,224r158,0","w":740},"B":{"d":"422,-403v83,36,126,78,126,183v0,153,-114,220,-283,220r-197,0r0,-739r152,0v99,1,145,2,200,36v57,35,84,90,84,161v-1,77,-28,110,-82,139xm273,-131v85,-1,137,-18,137,-92v0,-65,-47,-97,-140,-97r-65,0r0,189r68,0xm205,-454v83,1,164,1,162,-76v0,-50,-35,-75,-106,-75r-56,0r0,151","w":580},"C":{"d":"416,-119v90,-2,130,-34,183,-87r161,0v-50,123,-179,216,-341,219v-209,4,-389,-177,-389,-385v0,-204,177,-384,380,-380v169,3,295,98,350,225r-153,0v-47,-59,-97,-92,-194,-93v-137,-3,-245,112,-245,249v0,134,115,256,248,252","w":780},"D":{"d":"618,-556v59,111,56,279,-6,386v-72,121,-169,170,-372,170r-172,0r0,-739r169,0v209,0,313,54,381,183xm493,-246v38,-73,37,-177,-1,-249v-49,-92,-136,-115,-287,-113r0,477v152,2,239,-21,288,-115","w":700},"E":{"d":"465,0r-397,0r0,-739r397,0r0,131r-260,0r0,174r249,0r0,131r-249,0r0,172r260,0r0,131","w":520},"F":{"d":"444,-608r-239,0r0,174r228,0r0,131r-228,0r0,303r-137,0r0,-739r376,0r0,131","w":480},"G":{"d":"168,-369v0,139,115,252,256,250v105,-2,182,-54,217,-130r-306,0r0,-128r483,0r0,18v5,201,-180,372,-386,372v-218,0,-402,-170,-402,-384v0,-208,180,-381,389,-381v164,0,320,105,361,230r-161,0v-47,-65,-114,-98,-203,-98v-140,0,-248,112,-248,251","w":840},"H":{"d":"606,0r-137,0r0,-310r-264,0r0,310r-137,0r0,-739r137,0r0,298r264,0r0,-298r137,0r0,739","w":680},"I":{"d":"205,0r-137,0r0,-739r137,0r0,739","w":280},"J":{"d":"414,-212v2,132,-72,226,-200,225v-116,0,-197,-75,-205,-188r137,0v9,37,31,56,65,56v44,0,66,-32,66,-97r0,-523r137,0r0,527","w":480},"K":{"d":"599,0r-165,0r-229,-325r0,325r-137,0r0,-739r137,0r0,319r229,-319r165,0r-278,363","w":620},"L":{"d":"431,0r-363,0r0,-739r137,0r0,608r226,0r0,131","w":440},"M":{"d":"840,0r-137,0r0,-554r-193,554r-112,0r-193,-554r0,554r-137,0r0,-739r188,0r199,560r197,-560r188,0r0,739","w":900},"N":{"d":"667,0r-153,0r-309,-537r0,537r-137,0r0,-739r156,0r306,538r0,-538r137,0r0,739","w":740},"O":{"d":"420,-752v205,0,380,177,380,382v0,210,-171,383,-381,383v-211,0,-389,-173,-389,-382v0,-212,177,-383,390,-383xm418,-119v138,0,244,-110,244,-249v0,-137,-109,-252,-244,-252v-140,0,-250,112,-250,251v0,137,114,250,250,250","w":840},"P":{"d":"540,-511v0,120,-62,205,-170,223v-34,6,-109,7,-165,7r0,281r-137,0r0,-739v124,1,305,-9,372,34v66,42,100,105,100,194xm402,-509v-2,-88,-54,-97,-151,-99r-46,0r0,196v108,1,199,0,197,-97"},"Q":{"d":"424,-752v218,0,391,169,391,386v0,97,-30,176,-89,237v45,21,55,26,102,19r0,124v-91,5,-132,-18,-193,-59v-56,39,-124,58,-205,58v-214,0,-400,-172,-400,-383v0,-212,180,-382,394,-382xm519,-138v-81,-65,-160,-97,-237,-97v-19,0,-42,3,-71,8v55,72,128,108,219,108v31,0,61,-6,89,-19xm169,-334v179,-44,355,33,448,130v40,-41,60,-95,60,-160v0,-144,-111,-256,-255,-256v-152,0,-274,121,-253,286","w":840},"R":{"d":"568,0r-169,0r-194,-283r0,283r-137,0r0,-739v152,6,332,-23,415,55v50,46,78,105,78,182v0,121,-64,197,-193,229xm272,-386v96,-1,151,-24,151,-112v0,-89,-52,-110,-157,-110r-61,0r0,222r67,0","w":580},"S":{"d":"255,-620v-44,-1,-77,31,-76,75v0,27,14,50,41,67v7,5,35,16,82,33v72,27,122,57,150,91v28,34,41,77,41,130v0,130,-106,237,-236,237v-135,0,-235,-94,-243,-224r143,0v6,61,39,92,100,92v56,0,100,-36,100,-90v0,-49,-31,-80,-68,-95v-12,-5,-43,-18,-94,-37v-87,-33,-152,-94,-154,-201v-3,-115,100,-210,215,-210v123,0,216,88,219,210r-142,0v-3,-48,-29,-78,-78,-78","w":520},"T":{"d":"418,-608r-137,0r0,608r-137,0r0,-608r-137,0r0,-131r411,0r0,131","w":420},"U":{"d":"318,-119v85,0,112,-54,112,-152r0,-468r137,0r0,468v3,172,-90,284,-250,284v-158,0,-249,-114,-249,-284r0,-468r137,0r0,468v0,98,27,152,113,152","w":640},"V":{"d":"694,-739r-286,739r-112,0r-288,-739r144,0r199,562r199,-562r144,0","w":700},"W":{"d":"898,-739r-216,739r-109,0r-119,-489r-122,489r-108,0r-217,-739r140,0r130,516r126,-516r100,0r124,516r131,-516r140,0","w":900},"X":{"d":"676,0r-159,0r-177,-255r-172,255r-163,0r254,-368r-254,-371r163,0r172,258r177,-258r159,0r-256,371","w":680},"Y":{"d":"626,-739r-243,466r0,273r-137,0r0,-273r-243,-466r148,0r164,340r163,-340r148,0","w":620},"Z":{"d":"480,0r-462,0r0,-116r280,-492r-265,0r0,-131r428,0r0,123r-278,485r297,0r0,131","w":500},"[":{"d":"209,-164v1,84,20,130,83,154r0,147v-145,-33,-218,-141,-218,-324r0,-259v3,-170,74,-252,218,-293r0,147v-70,31,-83,73,-83,173r0,255","w":320},"\\":{"d":"503,0r-94,0r-325,-739r94,0","w":640},"]":{"d":"120,-438v-1,-85,-20,-128,-83,-154r0,-147v145,33,218,141,218,324r0,259v-3,170,-74,252,-218,293r0,-147v70,-30,83,-74,83,-173r0,-255","w":320},"^":{"d":"543,-363r-104,50r-136,-276r-136,276r-104,-50r179,-376r122,0","w":600},"_":{"d":"500,138r-500,0r0,-90r500,0r0,90","w":500},"`":{"d":"303,-682r-51,78r-227,-120r54,-92","w":420},"a":{"d":"30,-275v0,-164,119,-292,282,-292v77,0,137,29,181,87r0,-74r122,0r0,554r-122,0r0,-72v-49,53,-93,83,-184,85v-160,3,-279,-127,-279,-288xm328,-109v96,0,161,-70,161,-164v0,-97,-68,-172,-163,-172v-95,0,-162,76,-162,173v0,96,68,163,164,163","w":660},"b":{"d":"359,-574v158,-3,279,133,279,293v0,160,-113,297,-270,294v-96,-2,-139,-29,-192,-84r0,71r-122,0r0,-739r133,0r0,236v47,-46,89,-70,172,-71xm343,-109v95,0,161,-74,161,-171v0,-95,-70,-172,-164,-172v-94,0,-161,75,-161,171v0,98,68,172,164,172","w":660},"c":{"d":"164,-278v0,94,69,171,161,169v53,0,95,-24,126,-73r150,0v-41,112,-133,192,-275,195v-159,3,-296,-132,-296,-290v0,-159,133,-293,292,-290v139,2,243,84,279,198r-150,0v-27,-51,-70,-76,-129,-76v-92,-2,-158,73,-158,167","w":640},"d":{"d":"30,-278v0,-158,123,-296,277,-296v73,0,131,23,173,69r0,-234r133,0r0,739r-122,0r0,-72v-50,57,-111,85,-183,85v-156,0,-278,-133,-278,-291xm329,-109v90,0,161,-79,161,-171v0,-94,-71,-172,-164,-172v-90,0,-162,77,-162,168v0,95,72,175,165,175","w":660},"e":{"d":"322,-567v180,0,314,154,281,349r-429,0v15,65,74,110,153,109v62,-1,90,-19,122,-55r145,0v-30,101,-140,175,-264,177v-163,3,-300,-127,-300,-288v0,-159,134,-292,292,-292xm477,-335v-16,-68,-70,-110,-153,-110v-81,0,-132,37,-154,110r307,0","w":640},"f":{"d":"274,-611v-58,-1,-83,10,-83,67r75,0r0,111r-75,0r0,433r-133,0r0,-433r-48,0r0,-111r48,0v16,-142,84,-207,216,-193r0,126","w":280},"g":{"d":"30,-281v0,-158,117,-286,273,-286v80,0,140,28,181,83r0,-70r127,0r0,449v0,217,-96,326,-287,326v-142,0,-244,-71,-285,-176r151,0v37,39,69,58,139,59v99,0,150,-59,155,-177v-47,55,-91,84,-182,86v-160,3,-272,-131,-272,-294xm320,-109v95,0,158,-69,158,-166v0,-98,-65,-170,-160,-170v-95,0,-154,72,-154,170v0,98,60,166,156,166","w":660},"h":{"d":"304,-445v-91,0,-117,59,-117,164r0,281r-133,0r0,-739r133,0r0,223v39,-35,86,-52,141,-52v145,0,217,85,217,255r0,313r-133,0r0,-283v-1,-102,-18,-162,-108,-162","w":600},"i":{"d":"187,0r-133,0r0,-554r133,0r0,554xm188,-634r-133,0r0,-133r133,0r0,133","w":240},"j":{"d":"17,56v57,-13,55,-22,55,-96r0,-514r133,0r0,517v2,135,-63,220,-188,222r0,-129xm206,-634r-133,0r0,-133r133,0r0,133","w":260},"k":{"d":"555,0r-179,0r-189,-259r0,259r-133,0r0,-739r133,0r0,446r177,-261r159,0r-198,271","w":580},"l":{"d":"187,0r-133,0r0,-739r133,0r0,739","w":240},"m":{"d":"176,-502v37,-43,71,-64,144,-65v73,0,127,29,163,86v43,-57,103,-86,178,-86v149,0,224,82,224,247r0,320r-133,0r0,-304v0,-92,-24,-141,-104,-141v-93,0,-112,62,-112,172r0,273r-133,0r0,-304v0,-94,-24,-141,-108,-141v-95,0,-108,61,-108,172r0,273r-133,0r0,-554r122,0r0,52","w":940},"n":{"d":"546,0r-133,0r0,-271v0,-69,-8,-116,-25,-139v-17,-23,-44,-35,-81,-35v-44,0,-77,17,-98,51v-15,23,-22,68,-22,133r0,261r-133,0r0,-554r123,0r0,53v46,-44,98,-66,156,-66v110,-2,186,58,204,154v21,112,6,282,9,413","w":600},"o":{"d":"323,-567v162,0,296,132,296,294v0,153,-140,286,-295,286v-157,0,-294,-134,-294,-290v0,-155,137,-290,293,-290xm325,-109v87,0,160,-79,160,-168v0,-89,-73,-168,-161,-168v-85,0,-160,79,-160,166v0,90,72,170,161,170","w":640},"p":{"d":"358,-567v159,0,276,127,276,288v0,162,-118,292,-277,292v-65,0,-122,-22,-170,-65r0,237r-133,0r0,-739r122,0r0,65v45,-52,105,-78,182,-78xm343,-109v88,0,157,-78,157,-167v0,-92,-69,-169,-159,-169v-91,0,-162,75,-162,167v0,94,70,169,164,169","w":660},"q":{"d":"30,-279v0,-154,127,-288,279,-288v79,0,139,28,180,84r0,-71r122,0r0,739r-133,0r0,-238v-44,44,-100,66,-167,66v-157,0,-281,-133,-281,-292xm327,-109v90,0,159,-75,159,-166v0,-93,-67,-170,-158,-170v-94,0,-164,75,-164,169v0,93,71,167,163,167","w":660},"r":{"d":"176,-500v33,-47,56,-68,130,-67r0,128v-79,2,-119,46,-119,131r0,308r-133,0r0,-554r122,0r0,54","w":320},"s":{"d":"223,-445v-41,0,-69,53,-38,77v8,6,36,15,81,30v57,18,97,40,120,64v23,24,34,57,34,98v2,104,-92,191,-198,189v-121,-2,-193,-72,-203,-189r134,0v12,41,28,66,74,67v33,1,60,-23,60,-54v0,-17,-5,-29,-15,-37v-10,-8,-36,-19,-79,-34v-55,-19,-95,-41,-119,-66v-24,-25,-35,-57,-35,-98v-2,-95,87,-169,184,-169v98,0,180,69,182,166r-130,0v-6,-29,-23,-44,-52,-44","w":440},"t":{"d":"287,-433r-80,0r0,433r-133,0r0,-433r-65,0r0,-121r65,0r0,-185r133,0r0,185r80,0r0,121","w":300},"u":{"d":"424,-53v-45,44,-80,66,-159,66v-141,0,-211,-90,-211,-270r0,-297r133,0r0,271v0,69,9,115,26,139v17,24,44,35,79,35v46,0,80,-17,101,-51v14,-23,21,-68,21,-133r0,-261r133,0r0,554r-123,0r0,-53","w":600},"v":{"d":"553,-554r-223,554r-106,0r-223,-554r148,0r128,367r126,-367r150,0"},"w":{"d":"785,-554r-200,554r-83,0r-105,-359r-107,359r-82,0r-198,-554r143,0r99,338r93,-338r106,0r91,338r101,-338r142,0","w":800},"x":{"d":"553,0r-160,0r-116,-190r-116,190r-160,0r196,-286r-170,-268r150,0r100,167r98,-167r150,0r-169,268"},"y":{"d":"568,-554r-320,739r-143,0r104,-237r-203,-502r152,0r123,359r134,-359r153,0","w":580},"z":{"d":"442,0r-422,0r0,-119r244,-316r-216,0r0,-119r375,0r0,119r-244,316r263,0r0,119","w":460},"{":{"d":"223,-54v3,85,3,94,79,102r0,80v-10,1,-24,1,-41,1v-101,-1,-142,-39,-143,-139r0,-157v0,-59,-27,-91,-81,-98r0,-81v54,-7,81,-39,81,-98r0,-157v1,-100,42,-138,143,-139v17,0,31,0,41,1r0,80v-76,8,-79,17,-79,102r0,123v-1,82,-24,111,-90,129v66,17,89,48,90,128r0,123","w":340},"|":{"d":"369,137r-138,0r0,-876r138,0r0,876","w":600},"}":{"d":"79,-740v101,1,142,39,143,139r0,157v0,59,27,91,81,98r0,81v-54,7,-81,39,-81,98r0,157v-1,100,-42,138,-143,139v-17,0,-31,0,-41,-1r0,-80v76,-8,79,-17,79,-102r0,-123v1,-82,24,-111,90,-129v-66,-17,-89,-48,-90,-128r0,-123v-3,-85,-3,-94,-79,-102r0,-80v10,-1,24,-1,41,-1","w":340},"~":{"d":"555,-347v-26,43,-49,74,-71,91v-52,39,-95,31,-165,2v-30,-12,-94,-41,-118,-41v-17,0,-33,7,-47,22v-7,7,-21,27,-40,59r-63,-75v29,-47,54,-80,73,-97v36,-34,102,-31,152,-10v34,14,111,49,138,49v24,0,50,-25,77,-74","w":600},"\u00a0":{"w":280},"\u00a1":{"d":"208,185r-133,0r0,-551r133,0r0,551xm208,-426r-133,0r0,-128r133,0r0,128","w":280},"\u00a2":{"d":"172,-379v0,61,47,110,108,109v33,0,61,-13,85,-40r146,0v-35,87,-91,141,-168,162r0,109r-125,0r0,-109v-101,-20,-180,-115,-179,-233v1,-116,77,-208,179,-230r0,-104r125,0r0,104v83,20,150,85,168,168r-142,0v-22,-31,-53,-46,-93,-46v-59,-1,-104,50,-104,110"},"\u00a3":{"d":"320,-125v87,4,131,-66,100,-149r132,0v41,119,-39,231,-140,262v-28,8,-65,12,-111,12r-260,0r0,-125r139,0v37,-70,21,-131,-38,-185r-142,0r0,-125r58,0v-66,-160,66,-317,222,-317v127,0,227,91,234,211r-135,0v-12,-50,-43,-88,-98,-89v-61,-1,-109,56,-107,119v0,29,9,54,27,76r207,0r0,125r-107,0v34,69,42,115,19,185"},"\u00a4":{"d":"33,-400v0,-63,11,-79,36,-129r-42,-45r80,-80r45,44v79,-49,178,-47,260,0r45,-43r77,81r-42,43v49,83,50,178,-1,258r42,43r-77,80r-44,-42v-82,49,-179,49,-262,0r-44,42r-79,-81r42,-43v-25,-50,-36,-65,-36,-128xm281,-273v69,0,126,-57,126,-126v0,-66,-57,-127,-123,-127v-71,0,-131,56,-131,126v0,67,61,127,128,127"},"\u00a5":{"d":"589,-739r-143,271r92,0r0,88r-140,0r-57,105r197,0r0,88r-197,0r0,187r-133,0r0,-187r-196,0r0,-88r196,0r-56,-105r-140,0r0,-88r94,0r-141,-271r149,0r160,341r161,-341r154,0"},"\u00a6":{"d":"369,-389r-138,0r0,-350r138,0r0,350xm369,137r-138,0r0,-350r138,0r0,350","w":600},"\u00a7":{"d":"285,-630v-37,-1,-67,15,-68,48v0,27,21,50,61,70r164,81v48,23,86,74,87,139v0,57,-25,105,-75,142v33,34,50,74,50,119v1,113,-97,188,-215,188v-133,0,-221,-83,-229,-212r134,0v0,60,32,90,96,90v59,0,113,-54,72,-101v-10,-10,-29,-22,-58,-37r-163,-84v-125,-57,-136,-229,-23,-306v-19,-29,-28,-60,-28,-93v-1,-102,92,-168,201,-166v125,2,192,72,206,189r-126,0v-9,-45,-37,-67,-86,-67xm368,-215v33,-23,51,-61,25,-93v-7,-9,-24,-19,-48,-31r-149,-74v-59,48,-51,85,21,122"},"\u00a8":{"d":"207,-634r-133,0r0,-133r133,0r0,133xm417,-634r-133,0r0,-133r133,0r0,133","w":500},"\u00a9":{"d":"370,-687v188,0,350,162,350,350v0,188,-162,350,-350,350v-188,0,-350,-162,-350,-350v0,-188,162,-350,350,-350xm370,-47v156,0,290,-134,290,-290v0,-156,-134,-290,-290,-290v-156,0,-290,134,-290,290v0,156,134,290,290,290xm152,-339v0,-112,107,-206,223,-204v103,2,182,58,212,136r-105,0v-25,-31,-60,-47,-105,-47v-70,0,-128,49,-128,116v0,65,62,118,129,118v36,0,69,-15,100,-45r108,0v-26,76,-108,134,-206,134v-119,0,-228,-93,-228,-208","w":740},"\u00aa":{"d":"28,-592v0,-84,66,-160,147,-158v39,0,71,17,97,50r0,-39r66,0r0,298r-66,0r0,-41v-26,34,-60,51,-102,51v-81,1,-142,-76,-142,-161xm185,-505v45,0,81,-40,81,-86v0,-46,-36,-85,-81,-85v-45,0,-81,41,-81,87v0,45,36,84,81,84xm342,-310r-311,0r0,-70r311,0r0,70","w":360},"\u00ab":{"d":"388,-108r-139,-131r0,-100r139,-130r0,123r-67,57r67,58r0,123xm175,-108r-139,-131r0,-100r139,-130r0,123r-67,57r67,58r0,123","w":460},"\u00ac":{"d":"546,-158r-138,0r0,-115r-354,0r0,-138r492,0r0,253","w":600},"\u00ad":{"d":"351,-229r-277,0r0,-118r277,0r0,118","w":420},"\u00ae":{"d":"370,-687v188,0,350,162,350,350v0,188,-162,350,-350,350v-188,0,-350,-162,-350,-350v0,-188,162,-350,350,-350xm370,-47v156,0,290,-134,290,-290v0,-156,-134,-290,-290,-290v-156,0,-290,134,-290,290v0,156,134,290,290,290xm343,-537v105,-2,167,43,167,132v0,63,-33,104,-100,123r116,144r-121,0r-95,-126r0,126r-96,0r0,-399r129,0xm301,-346v63,1,122,2,122,-57v0,-58,-58,-57,-122,-56r0,113","w":740},"\u00af":{"d":"351,-650r-277,0r0,-100r277,0r0,100","w":420},"\u00b0":{"d":"204,-686v82,0,146,71,146,153v0,83,-68,153,-150,153v-83,0,-150,-70,-150,-154v0,-84,70,-152,154,-152xm200,-437v51,0,93,-45,93,-96v0,-51,-41,-96,-91,-96v-52,0,-96,44,-96,96v0,51,44,96,94,96","w":400},"\u00b1":{"d":"546,-319r-177,0r0,57r-138,0r0,-57r-177,0r0,-138r177,0r0,-177r138,0r0,177r177,0r0,138xm546,0r-492,0r0,-138r492,0r0,138","w":600},"\u00b2":{"d":"169,-747v85,0,159,63,157,146v0,53,-30,103,-89,150r-94,75r181,0r0,80r-311,0r0,-74r170,-148v36,-31,54,-59,55,-85v1,-37,-31,-66,-68,-65v-48,0,-72,35,-73,86r-87,0v-2,-102,61,-165,159,-165","w":336},"\u00b3":{"d":"167,-746v72,-1,133,51,132,121v0,32,-11,57,-34,74v44,21,66,58,66,112v1,87,-72,151,-161,151v-91,0,-162,-61,-166,-147r88,0v6,40,33,68,78,68v41,1,75,-29,74,-69v-1,-54,-53,-75,-116,-70r0,-82v49,-3,80,-3,83,-42v2,-23,-19,-38,-43,-38v-23,0,-37,13,-42,40r-89,0v6,-74,55,-117,130,-118","w":336},"\u00b4":{"d":"395,-724r-227,120r-51,-78r224,-134","w":420},"\u00b5":{"d":"289,-112v88,0,100,-81,101,-170r0,-272r133,0r0,554r-122,0r0,-59v-37,76,-128,96,-214,58r0,186r-133,0r0,-739r133,0r0,272v1,89,14,170,102,170","w":576},"\u00b6":{"d":"37,-533v3,-153,101,-207,272,-206r218,0r0,867r-101,0r0,-760r-84,0r0,760r-101,0r0,-458v-118,1,-206,-85,-204,-203","w":600},"\u00b7":{"d":"140,-314v34,0,64,30,64,64v0,34,-30,64,-64,64v-34,0,-64,-30,-64,-64v0,-34,30,-64,64,-64","w":280},"\u00b8":{"d":"150,58v64,-28,120,34,120,94v0,57,-39,98,-96,98v-52,0,-94,-38,-100,-84r61,0v9,19,21,29,38,29v22,0,39,-22,39,-45v0,-22,-17,-44,-39,-44v-13,0,-25,9,-38,27r-52,-26r46,-112r52,0","w":340},"\u00b9":{"d":"241,-296r-88,0r0,-363r-59,0r0,-80r147,0r0,443","w":336},"\u00ba":{"d":"185,-750v83,0,153,71,153,154v0,83,-71,154,-154,154v-83,0,-153,-74,-153,-157v0,-81,73,-151,154,-151xm184,-516v45,0,81,-36,81,-81v0,-43,-38,-83,-80,-83v-43,0,-81,38,-81,81v0,47,34,83,80,83xm338,-311r-307,0r0,-70r307,0r0,70","w":360},"\u00bb":{"d":"212,-239r-139,131r0,-123r67,-58r-67,-57r0,-123r139,130r0,100xm425,-239r-139,131r0,-123r67,-58r-67,-57r0,-123r139,130r0,100","w":460},"\u00bc":{"d":"621,-739r-306,739r-95,0r306,-739r95,0xm836,-66r-48,0r0,66r-88,0r0,-66r-194,0r0,-67r208,-310r74,0r0,301r48,0r0,76xm700,-142r0,-154r-102,154r102,0xm241,-296r-88,0r0,-363r-59,0r0,-80r147,0r0,443","w":840},"\u00bd":{"d":"600,-739r-306,739r-95,0r306,-739r95,0xm241,-296r-88,0r0,-363r-59,0r0,-80r147,0r0,443xm673,-451v85,0,159,63,157,146v0,53,-30,103,-89,150r-94,75r181,0r0,80r-311,0r0,-74r170,-148v36,-31,54,-59,55,-85v1,-37,-31,-66,-68,-65v-48,0,-72,35,-73,86r-87,0v-2,-102,61,-165,159,-165","w":840},"\u00be":{"d":"651,-739r-306,739r-95,0r306,-739r95,0xm836,-66r-48,0r0,66r-88,0r0,-66r-194,0r0,-67r208,-310r74,0r0,301r48,0r0,76xm700,-142r0,-154r-102,154r102,0xm167,-746v72,-1,133,51,132,121v0,32,-11,57,-34,74v44,21,66,58,66,112v1,87,-72,151,-161,151v-91,0,-162,-61,-166,-147r88,0v6,40,33,68,78,68v41,1,75,-29,74,-69v-1,-54,-53,-75,-116,-70r0,-82v49,-3,80,-3,83,-42v2,-23,-19,-38,-43,-38v-23,0,-37,13,-42,40r-89,0v6,-74,55,-117,130,-118","w":840},"\u00bf":{"d":"208,-27v-1,53,42,93,95,93v53,0,83,-33,92,-100r133,0v-8,137,-94,230,-228,232v-126,2,-229,-102,-225,-229v3,-92,41,-122,102,-179v53,-50,62,-61,65,-157r133,0v-3,149,-32,177,-122,255v-30,25,-45,54,-45,85xm375,-426r-133,0r0,-128r133,0r0,128"},"\u00c0":{"d":"733,0r-151,0r-79,-191r-263,0r-82,191r-151,0r308,-739r108,0xm448,-322r-79,-224r-79,224r158,0xm462,-857r-51,78r-227,-120r54,-92","w":740},"\u00c1":{"d":"733,0r-151,0r-79,-191r-263,0r-82,191r-151,0r308,-739r108,0xm448,-322r-79,-224r-79,224r158,0xm554,-899r-227,120r-51,-78r224,-134","w":740},"\u00c2":{"d":"733,0r-151,0r-79,-191r-263,0r-82,191r-151,0r308,-739r108,0xm448,-322r-79,-224r-79,224r158,0xm569,-806r-145,0r-53,-64r-54,64r-147,0r147,-138r107,0","w":740},"\u00c3":{"d":"733,0r-151,0r-79,-191r-263,0r-82,191r-151,0r308,-739r108,0xm448,-322r-79,-224r-79,224r158,0xm306,-934v12,-1,94,25,107,25v25,0,47,-11,67,-34r54,81v-30,37,-61,55,-94,55v-9,3,-105,-26,-113,-25v-37,2,-37,8,-70,25r-54,-80v31,-30,52,-44,103,-47","w":740},"\u00c4":{"d":"733,0r-151,0r-79,-191r-263,0r-82,191r-151,0r308,-739r108,0xm448,-322r-79,-224r-79,224r158,0xm326,-809r-133,0r0,-133r133,0r0,133xm536,-809r-133,0r0,-133r133,0r0,133","w":740},"\u00c5":{"d":"733,0r-151,0r-79,-191r-263,0r-82,191r-151,0r308,-739r108,0xm448,-322r-79,-224r-79,224r158,0xm370,-1001v60,0,112,52,112,113v0,61,-52,113,-113,113v-61,0,-113,-52,-113,-113v0,-61,52,-113,114,-113xm369,-848v22,0,40,-19,40,-40v0,-21,-18,-40,-40,-40v-22,0,-40,19,-40,40v0,21,18,40,40,40","w":740},"\u00c6":{"d":"843,0r-355,0r0,-191r-194,0r-112,191r-165,0r487,-739r339,0r0,131r-218,0r0,174r207,0r0,131r-207,0r0,172r218,0r0,131xm488,-322r0,-191r-115,191r115,0","w":900},"\u00c7":{"d":"416,-119v90,-2,130,-34,183,-87r161,0v-49,121,-172,213,-328,219r-22,45v64,-28,120,34,120,94v0,57,-39,98,-96,98v-52,0,-94,-38,-100,-84r61,0v9,19,21,29,38,29v22,0,39,-22,39,-45v0,-22,-17,-44,-39,-44v-13,0,-25,9,-38,27r-52,-26r39,-96v-189,-12,-352,-182,-352,-383v0,-204,177,-384,380,-380v169,3,295,98,350,225r-153,0v-47,-59,-97,-92,-194,-93v-137,-3,-245,112,-245,249v0,134,115,256,248,252","w":780},"\u00c8":{"d":"465,0r-397,0r0,-739r397,0r0,131r-260,0r0,174r249,0r0,131r-249,0r0,172r260,0r0,131xm360,-857r-51,78r-227,-120r54,-92","w":520},"\u00c9":{"d":"465,0r-397,0r0,-739r397,0r0,131r-260,0r0,174r249,0r0,131r-249,0r0,172r260,0r0,131xm452,-899r-227,120r-51,-78r224,-134","w":520},"\u00ca":{"d":"465,0r-397,0r0,-739r397,0r0,131r-260,0r0,174r249,0r0,131r-249,0r0,172r260,0r0,131xm467,-806r-145,0r-53,-64r-54,64r-147,0r147,-138r107,0","w":520},"\u00cb":{"d":"465,0r-397,0r0,-739r397,0r0,131r-260,0r0,174r249,0r0,131r-249,0r0,172r260,0r0,131xm224,-809r-133,0r0,-133r133,0r0,133xm434,-809r-133,0r0,-133r133,0r0,133","w":520},"\u00cc":{"d":"205,0r-137,0r0,-739r137,0r0,739xm256,-857r-51,78r-227,-120r54,-92","w":280},"\u00cd":{"d":"205,0r-137,0r0,-739r137,0r0,739xm295,-899r-227,120r-51,-78r224,-134","w":280},"\u00ce":{"d":"205,0r-137,0r0,-739r137,0r0,739xm337,-806r-145,0r-53,-64r-54,64r-147,0r147,-138r107,0","w":280},"\u00cf":{"d":"205,0r-137,0r0,-739r137,0r0,739xm94,-809r-133,0r0,-133r133,0r0,133xm304,-809r-133,0r0,-133r133,0r0,133","w":280},"\u00d0":{"d":"660,-556v58,111,56,281,-6,387v-72,121,-170,169,-372,169r-172,0r0,-315r-96,0r0,-107r96,0r0,-317r169,0v209,0,313,54,381,183xm536,-246v38,-73,37,-178,-2,-249v-50,-92,-135,-115,-287,-113r0,186r154,0r0,107r-154,0r0,184v152,2,240,-21,289,-115","w":742},"\u00d1":{"d":"667,0r-153,0r-309,-537r0,537r-137,0r0,-739r156,0r306,538r0,-538r137,0r0,739xm305,-934v12,-1,94,25,107,25v25,0,47,-11,67,-34r54,81v-30,37,-61,55,-94,55v-9,3,-105,-26,-113,-25v-37,2,-37,8,-70,25r-54,-80v31,-30,52,-44,103,-47","w":740},"\u00d2":{"d":"420,-752v205,0,380,177,380,382v0,210,-171,383,-381,383v-211,0,-389,-173,-389,-382v0,-212,177,-383,390,-383xm418,-119v138,0,244,-110,244,-249v0,-137,-109,-252,-244,-252v-140,0,-250,112,-250,251v0,137,114,250,250,250xm513,-857r-51,78r-227,-120r54,-92","w":840},"\u00d3":{"d":"420,-752v205,0,380,177,380,382v0,210,-171,383,-381,383v-211,0,-389,-173,-389,-382v0,-212,177,-383,390,-383xm418,-119v138,0,244,-110,244,-249v0,-137,-109,-252,-244,-252v-140,0,-250,112,-250,251v0,137,114,250,250,250xm605,-899r-227,120r-51,-78r224,-134","w":840},"\u00d4":{"d":"420,-752v205,0,380,177,380,382v0,210,-171,383,-381,383v-211,0,-389,-173,-389,-382v0,-212,177,-383,390,-383xm418,-119v138,0,244,-110,244,-249v0,-137,-109,-252,-244,-252v-140,0,-250,112,-250,251v0,137,114,250,250,250xm620,-806r-145,0r-53,-64r-54,64r-147,0r147,-138r107,0","w":840},"\u00d5":{"d":"420,-752v205,0,380,177,380,382v0,210,-171,383,-381,383v-211,0,-389,-173,-389,-382v0,-212,177,-383,390,-383xm418,-119v138,0,244,-110,244,-249v0,-137,-109,-252,-244,-252v-140,0,-250,112,-250,251v0,137,114,250,250,250xm357,-934v12,-1,94,25,107,25v25,0,47,-11,67,-34r54,81v-30,37,-61,55,-94,55v-9,3,-105,-26,-113,-25v-37,2,-37,8,-70,25r-54,-80v31,-30,52,-44,103,-47","w":840},"\u00d6":{"d":"420,-752v205,0,380,177,380,382v0,210,-171,383,-381,383v-211,0,-389,-173,-389,-382v0,-212,177,-383,390,-383xm418,-119v138,0,244,-110,244,-249v0,-137,-109,-252,-244,-252v-140,0,-250,112,-250,251v0,137,114,250,250,250xm377,-809r-133,0r0,-133r133,0r0,133xm587,-809r-133,0r0,-133r133,0r0,133","w":840},"\u00d7":{"d":"523,-125r-98,98r-125,-125r-125,125r-98,-98r125,-125r-125,-125r98,-98r125,125r125,-125r98,98r-125,125","w":600},"\u00d8":{"d":"30,-370v-4,-207,178,-382,386,-382v57,0,112,12,165,35r62,-92r95,66r-61,90v84,77,126,171,126,283v0,210,-172,383,-382,383v-59,0,-115,-12,-168,-36r-60,88r-96,-65r59,-87v-71,-63,-123,-162,-126,-283xm329,-135v175,63,336,-63,336,-233v0,-65,-21,-122,-64,-172xm505,-605v-175,-62,-337,69,-337,235v0,63,22,120,65,169","w":840},"\u00d9":{"d":"318,-119v85,0,112,-54,112,-152r0,-468r137,0r0,468v3,172,-90,284,-250,284v-158,0,-249,-114,-249,-284r0,-468r137,0r0,468v0,98,27,152,113,152xm411,-857r-51,78r-227,-120r54,-92","w":640},"\u00da":{"d":"318,-119v85,0,112,-54,112,-152r0,-468r137,0r0,468v3,172,-90,284,-250,284v-158,0,-249,-114,-249,-284r0,-468r137,0r0,468v0,98,27,152,113,152xm503,-899r-227,120r-51,-78r224,-134","w":640},"\u00db":{"d":"318,-119v85,0,112,-54,112,-152r0,-468r137,0r0,468v3,172,-90,284,-250,284v-158,0,-249,-114,-249,-284r0,-468r137,0r0,468v0,98,27,152,113,152xm518,-806r-145,0r-53,-64r-54,64r-147,0r147,-138r107,0","w":640},"\u00dc":{"d":"318,-119v85,0,112,-54,112,-152r0,-468r137,0r0,468v3,172,-90,284,-250,284v-158,0,-249,-114,-249,-284r0,-468r137,0r0,468v0,98,27,152,113,152xm275,-809r-133,0r0,-133r133,0r0,133xm485,-809r-133,0r0,-133r133,0r0,133","w":640},"\u00dd":{"d":"626,-739r-243,466r0,273r-137,0r0,-273r-243,-466r148,0r164,340r163,-340r148,0xm500,-899r-227,120r-51,-78r224,-134","w":620},"\u00de":{"d":"540,-380v0,120,-61,206,-170,224v-34,6,-110,7,-165,7r0,149r-137,0r0,-739r137,0r0,131v93,-2,194,7,235,34v66,42,100,105,100,194xm402,-377v-2,-89,-53,-98,-151,-100r-46,0r0,197v108,1,199,0,197,-97"},"\u00df":{"d":"415,-408v99,22,166,84,169,192v2,133,-100,229,-234,229v-81,0,-140,-31,-177,-92r0,79r-122,0r0,-487v-2,-154,76,-263,221,-265v118,-1,218,90,218,206v0,64,-25,110,-75,138xm359,-109v52,0,92,-44,91,-96v0,-38,-14,-65,-40,-83v-27,-18,-85,-28,-155,-27r0,-118v63,5,101,-44,101,-103v1,-54,-33,-94,-85,-94v-58,0,-87,42,-87,127r0,314r82,0v7,41,47,80,93,80","w":600},"\u00e0":{"d":"30,-275v0,-164,119,-292,282,-292v77,0,137,29,181,87r0,-74r122,0r0,554r-122,0r0,-72v-49,53,-93,83,-184,85v-160,3,-279,-127,-279,-288xm328,-109v96,0,161,-70,161,-164v0,-97,-68,-172,-163,-172v-95,0,-162,76,-162,173v0,96,68,163,164,163xm423,-682r-51,78r-227,-120r54,-92","w":660},"\u00e1":{"d":"30,-275v0,-164,119,-292,282,-292v77,0,137,29,181,87r0,-74r122,0r0,554r-122,0r0,-72v-49,53,-93,83,-184,85v-160,3,-279,-127,-279,-288xm328,-109v96,0,161,-70,161,-164v0,-97,-68,-172,-163,-172v-95,0,-162,76,-162,173v0,96,68,163,164,163xm515,-724r-227,120r-51,-78r224,-134","w":660},"\u00e2":{"d":"30,-275v0,-164,119,-292,282,-292v77,0,137,29,181,87r0,-74r122,0r0,554r-122,0r0,-72v-49,53,-93,83,-184,85v-160,3,-279,-127,-279,-288xm328,-109v96,0,161,-70,161,-164v0,-97,-68,-172,-163,-172v-95,0,-162,76,-162,173v0,96,68,163,164,163xm530,-631r-145,0r-53,-64r-54,64r-147,0r147,-138r107,0","w":660},"\u00e3":{"d":"30,-275v0,-164,119,-292,282,-292v77,0,137,29,181,87r0,-74r122,0r0,554r-122,0r0,-72v-49,53,-93,83,-184,85v-160,3,-279,-127,-279,-288xm328,-109v96,0,161,-70,161,-164v0,-97,-68,-172,-163,-172v-95,0,-162,76,-162,173v0,96,68,163,164,163xm267,-759v12,-1,94,25,107,25v25,0,47,-11,67,-34r54,81v-30,37,-61,55,-94,55v-9,3,-105,-26,-113,-25v-37,2,-37,8,-70,25r-54,-80v31,-30,52,-44,103,-47","w":660},"\u00e4":{"d":"30,-275v0,-164,119,-292,282,-292v77,0,137,29,181,87r0,-74r122,0r0,554r-122,0r0,-72v-49,53,-93,83,-184,85v-160,3,-279,-127,-279,-288xm328,-109v96,0,161,-70,161,-164v0,-97,-68,-172,-163,-172v-95,0,-162,76,-162,173v0,96,68,163,164,163xm287,-634r-133,0r0,-133r133,0r0,133xm497,-634r-133,0r0,-133r133,0r0,133","w":660},"\u00e5":{"d":"30,-275v0,-164,119,-292,282,-292v77,0,137,29,181,87r0,-74r122,0r0,554r-122,0r0,-72v-49,53,-93,83,-184,85v-160,3,-279,-127,-279,-288xm328,-109v96,0,161,-70,161,-164v0,-97,-68,-172,-163,-172v-95,0,-162,76,-162,173v0,96,68,163,164,163xm331,-823v60,0,112,52,112,113v0,61,-52,113,-113,113v-61,0,-113,-52,-113,-113v0,-61,52,-113,114,-113xm330,-670v21,0,40,-19,40,-40v0,-21,-19,-40,-40,-40v-21,0,-40,19,-40,40v0,21,19,40,40,40","w":660},"\u00e6":{"d":"774,-567v172,-2,316,160,268,348r-428,0v20,64,76,110,156,110v47,0,86,-18,117,-55r145,0v-27,94,-139,178,-256,177v-71,0,-127,-24,-169,-73r0,60r-122,0r0,-60v-43,49,-80,72,-165,73v-163,4,-290,-126,-290,-288v0,-161,128,-292,288,-292v68,0,124,23,167,68r0,-55r122,0r0,55v45,-45,100,-68,167,-68xm325,-109v89,0,156,-76,156,-167v0,-92,-69,-169,-158,-169v-88,0,-159,76,-159,165v0,95,68,171,161,171xm911,-337v-19,-72,-69,-108,-150,-108v-77,0,-129,36,-154,108r304,0","w":1080},"\u00e7":{"d":"164,-278v0,94,69,171,161,169v53,0,95,-24,126,-73r150,0v-39,109,-127,187,-259,195r-22,45v64,-28,120,34,120,94v0,57,-39,98,-96,98v-52,0,-94,-38,-100,-84r61,0v9,19,21,29,38,29v22,0,39,-22,39,-45v0,-22,-17,-44,-39,-44v-13,0,-25,9,-38,27r-52,-26r39,-96v-141,-11,-262,-137,-262,-288v0,-159,133,-293,292,-290v139,2,243,84,279,198r-150,0v-27,-51,-70,-76,-129,-76v-92,-2,-158,73,-158,167","w":640},"\u00e8":{"d":"322,-567v180,0,314,154,281,349r-429,0v15,65,74,110,153,109v62,-1,90,-19,122,-55r145,0v-30,101,-140,175,-264,177v-163,3,-300,-127,-300,-288v0,-159,134,-292,292,-292xm477,-335v-16,-68,-70,-110,-153,-110v-81,0,-132,37,-154,110r307,0xm415,-682r-51,78r-227,-120r54,-92","w":640},"\u00e9":{"d":"322,-567v180,0,314,154,281,349r-429,0v15,65,74,110,153,109v62,-1,90,-19,122,-55r145,0v-30,101,-140,175,-264,177v-163,3,-300,-127,-300,-288v0,-159,134,-292,292,-292xm477,-335v-16,-68,-70,-110,-153,-110v-81,0,-132,37,-154,110r307,0xm507,-724r-227,120r-51,-78r224,-134","w":640},"\u00ea":{"d":"322,-567v180,0,314,154,281,349r-429,0v15,65,74,110,153,109v62,-1,90,-19,122,-55r145,0v-30,101,-140,175,-264,177v-163,3,-300,-127,-300,-288v0,-159,134,-292,292,-292xm477,-335v-16,-68,-70,-110,-153,-110v-81,0,-132,37,-154,110r307,0xm522,-631r-145,0r-53,-64r-54,64r-147,0r147,-138r107,0","w":640},"\u00eb":{"d":"322,-567v180,0,314,154,281,349r-429,0v15,65,74,110,153,109v62,-1,90,-19,122,-55r145,0v-30,101,-140,175,-264,177v-163,3,-300,-127,-300,-288v0,-159,134,-292,292,-292xm477,-335v-16,-68,-70,-110,-153,-110v-81,0,-132,37,-154,110r307,0xm279,-634r-133,0r0,-133r133,0r0,133xm489,-634r-133,0r0,-133r133,0r0,133","w":640},"\u00ec":{"d":"187,0r-133,0r0,-554r133,0r0,554xm238,-682r-51,78r-227,-120r54,-92","w":240},"\u00ed":{"d":"187,0r-133,0r0,-554r133,0r0,554xm281,-724r-227,120r-51,-78r224,-134","w":240},"\u00ee":{"d":"187,0r-133,0r0,-554r133,0r0,554xm321,-631r-145,0r-53,-64r-54,64r-147,0r147,-138r107,0","w":240},"\u00ef":{"d":"187,0r-133,0r0,-554r133,0r0,554xm78,-634r-133,0r0,-133r133,0r0,133xm288,-634r-133,0r0,-133r133,0r0,133","w":240},"\u00f0":{"d":"272,-756r65,47r87,-40r41,49r-78,35v85,73,144,139,179,197v35,58,53,119,53,184v0,162,-132,297,-294,297v-157,0,-295,-135,-295,-291v0,-165,152,-319,335,-269r-28,-28v-19,-19,-35,-34,-49,-46r-87,40r-40,-46r78,-37r-70,-57xm325,-109v87,0,160,-79,160,-168v0,-89,-73,-168,-161,-168v-85,0,-160,79,-160,166v0,90,72,170,161,170","w":640},"\u00f1":{"d":"546,0r-133,0r0,-271v0,-69,-8,-116,-25,-139v-17,-23,-44,-35,-81,-35v-44,0,-77,17,-98,51v-15,23,-22,68,-22,133r0,261r-133,0r0,-554r123,0r0,53v46,-44,98,-66,156,-66v110,-2,186,58,204,154v21,112,6,282,9,413xm237,-759v12,-1,94,25,107,25v25,0,47,-11,67,-34r54,81v-30,37,-61,55,-94,55v-9,3,-105,-26,-113,-25v-37,2,-37,8,-70,25r-54,-80v31,-30,52,-44,103,-47","w":600},"\u00f2":{"d":"323,-567v162,0,296,132,296,294v0,153,-140,286,-295,286v-157,0,-294,-134,-294,-290v0,-155,137,-290,293,-290xm325,-109v87,0,160,-79,160,-168v0,-89,-73,-168,-161,-168v-85,0,-160,79,-160,166v0,90,72,170,161,170xm416,-682r-51,78r-227,-120r54,-92","w":640},"\u00f3":{"d":"323,-567v162,0,296,132,296,294v0,153,-140,286,-295,286v-157,0,-294,-134,-294,-290v0,-155,137,-290,293,-290xm325,-109v87,0,160,-79,160,-168v0,-89,-73,-168,-161,-168v-85,0,-160,79,-160,166v0,90,72,170,161,170xm508,-724r-227,120r-51,-78r224,-134","w":640},"\u00f4":{"d":"323,-567v162,0,296,132,296,294v0,153,-140,286,-295,286v-157,0,-294,-134,-294,-290v0,-155,137,-290,293,-290xm325,-109v87,0,160,-79,160,-168v0,-89,-73,-168,-161,-168v-85,0,-160,79,-160,166v0,90,72,170,161,170xm523,-631r-145,0r-53,-64r-54,64r-147,0r147,-138r107,0","w":640},"\u00f5":{"d":"323,-567v162,0,296,132,296,294v0,153,-140,286,-295,286v-157,0,-294,-134,-294,-290v0,-155,137,-290,293,-290xm325,-109v87,0,160,-79,160,-168v0,-89,-73,-168,-161,-168v-85,0,-160,79,-160,166v0,90,72,170,161,170xm260,-759v12,-1,94,25,107,25v25,0,47,-11,67,-34r54,81v-30,37,-61,55,-94,55v-9,3,-105,-26,-113,-25v-37,2,-37,8,-70,25r-54,-80v31,-30,52,-44,103,-47","w":640},"\u00f6":{"d":"323,-567v162,0,296,132,296,294v0,153,-140,286,-295,286v-157,0,-294,-134,-294,-290v0,-155,137,-290,293,-290xm325,-109v87,0,160,-79,160,-168v0,-89,-73,-168,-161,-168v-85,0,-160,79,-160,166v0,90,72,170,161,170xm280,-634r-133,0r0,-133r133,0r0,133xm490,-634r-133,0r0,-133r133,0r0,133","w":640},"\u00f7":{"d":"546,-181r-492,0r0,-138r492,0r0,138xm300,-499v34,0,64,30,64,64v0,35,-30,64,-64,64v-34,0,-64,-29,-64,-64v0,-34,30,-64,64,-64xm300,-129v34,0,64,29,64,64v0,34,-30,64,-64,64v-34,0,-64,-30,-64,-64v0,-35,30,-64,64,-64","w":600},"\u00f8":{"d":"30,-277v0,-192,203,-350,405,-269r52,-77r86,58r-50,73v65,59,97,131,97,215v0,200,-219,358,-420,262r-56,82r-85,-57r57,-84v-57,-54,-86,-122,-86,-203xm363,-440v-144,-37,-252,130,-172,255xm271,-119v112,42,217,-51,215,-157v0,-39,-12,-75,-36,-107","w":660},"\u00f9":{"d":"424,-53v-45,44,-80,66,-159,66v-141,0,-211,-90,-211,-270r0,-297r133,0r0,271v0,69,9,115,26,139v17,24,44,35,79,35v46,0,80,-17,101,-51v14,-23,21,-68,21,-133r0,-261r133,0r0,554r-123,0r0,-53xm394,-682r-51,78r-227,-120r54,-92","w":600},"\u00fa":{"d":"424,-53v-45,44,-80,66,-159,66v-141,0,-211,-90,-211,-270r0,-297r133,0r0,271v0,69,9,115,26,139v17,24,44,35,79,35v46,0,80,-17,101,-51v14,-23,21,-68,21,-133r0,-261r133,0r0,554r-123,0r0,-53xm486,-724r-227,120r-51,-78r224,-134","w":600},"\u00fb":{"d":"424,-53v-45,44,-80,66,-159,66v-141,0,-211,-90,-211,-270r0,-297r133,0r0,271v0,69,9,115,26,139v17,24,44,35,79,35v46,0,80,-17,101,-51v14,-23,21,-68,21,-133r0,-261r133,0r0,554r-123,0r0,-53xm501,-631r-145,0r-53,-64r-54,64r-147,0r147,-138r107,0","w":600},"\u00fc":{"d":"424,-53v-45,44,-80,66,-159,66v-141,0,-211,-90,-211,-270r0,-297r133,0r0,271v0,69,9,115,26,139v17,24,44,35,79,35v46,0,80,-17,101,-51v14,-23,21,-68,21,-133r0,-261r133,0r0,554r-123,0r0,-53xm258,-634r-133,0r0,-133r133,0r0,133xm468,-634r-133,0r0,-133r133,0r0,133","w":600},"\u00fd":{"d":"568,-554r-320,739r-143,0r104,-237r-203,-502r152,0r123,359r134,-359r153,0xm472,-724r-227,120r-51,-78r224,-134","w":580},"\u00fe":{"d":"359,-567v160,0,275,128,275,290v0,163,-115,290,-275,290v-71,0,-128,-24,-172,-72r0,244r-133,0r0,-924r133,0r0,244v44,-48,101,-72,172,-72xm341,-109v89,0,159,-77,159,-168v0,-91,-70,-168,-159,-168v-91,0,-162,74,-162,166v0,94,69,170,162,170","w":660},"\u00ff":{"d":"568,-554r-320,739r-143,0r104,-237r-203,-502r152,0r123,359r134,-359r153,0xm244,-634r-133,0r0,-133r133,0r0,133xm454,-634r-133,0r0,-133r133,0r0,133","w":580},"\u0152":{"d":"38,-369v0,-213,164,-383,375,-383v101,0,179,32,234,95r0,-82r357,0r0,131r-218,0r0,174r207,0r0,131r-207,0r0,172r218,0r0,131r-357,0r0,-81v-57,63,-133,94,-229,94v-212,0,-380,-170,-380,-382xm416,-119v137,0,236,-110,236,-249v0,-138,-101,-252,-237,-252v-137,0,-239,117,-239,255v0,134,106,246,240,246","w":1060},"\u0153":{"d":"762,-567v183,-2,317,150,281,349r-429,0v20,62,75,109,153,109v49,0,98,-25,121,-54r142,0v-33,99,-135,176,-262,176v-97,0,-172,-38,-225,-113v-52,75,-125,113,-219,113v-163,0,-294,-127,-294,-290v0,-158,132,-290,290,-290v91,0,165,37,223,111v57,-68,111,-110,219,-111xm329,-109v89,0,157,-76,157,-167v0,-92,-71,-169,-161,-169v-87,0,-161,76,-161,164v0,95,71,172,165,172xm910,-335v-21,-73,-71,-110,-150,-110v-76,0,-127,37,-152,110r302,0","w":1080},"\u0178":{"d":"626,-739r-243,466r0,273r-137,0r0,-273r-243,-466r148,0r164,340r163,-340r148,0xm272,-809r-133,0r0,-133r133,0r0,133xm482,-809r-133,0r0,-133r133,0r0,133","w":620},"\u02c6":{"d":"470,-631r-145,0r-53,-64r-54,64r-147,0r147,-138r107,0","w":540},"\u02dc":{"d":"177,-759v12,-1,94,25,107,25v25,0,47,-11,67,-34r54,81v-30,37,-61,55,-94,55v-9,3,-105,-26,-113,-25v-37,2,-37,8,-70,25r-54,-80v31,-30,52,-44,103,-47","w":480},"\u2013":{"d":"500,-229r-500,0r0,-118r500,0r0,118","w":500},"\u2014":{"d":"1000,-229r-1000,0r0,-118r1000,0r0,118","w":1000},"\u2018":{"d":"205,-672v-43,7,-64,26,-58,73r58,0r0,133r-133,0v4,-90,-15,-189,36,-236v25,-23,56,-37,97,-37r0,67","w":280},"\u2019":{"d":"72,-533v44,-7,64,-29,58,-78r-58,0r0,-128r133,0v-4,90,14,190,-35,237v-24,23,-55,36,-98,36r0,-67","w":280},"\u201a":{"d":"70,73v43,-7,64,-26,58,-73r-58,0r0,-128r133,0v-3,88,14,186,-35,232v-24,23,-55,36,-98,36r0,-67","w":280},"\u201c":{"d":"203,-672v-43,7,-63,24,-58,73r58,0r0,133r-133,0v4,-90,-15,-189,36,-236v25,-23,56,-37,97,-37r0,67xm410,-672v-43,7,-64,26,-58,73r58,0r0,133r-133,0v4,-90,-15,-189,36,-236v25,-23,56,-37,97,-37r0,67","w":480},"\u201d":{"d":"70,-533v42,-7,64,-30,58,-78r-58,0r0,-128r133,0v-4,90,15,190,-35,237v-24,23,-56,36,-98,36r0,-67xm277,-533v44,-7,64,-29,58,-78r-58,0r0,-128r133,0v-4,90,15,190,-35,237v-24,23,-56,36,-98,36r0,-67","w":480},"\u201e":{"d":"70,73v43,-7,64,-26,58,-73r-58,0r0,-128r133,0v-3,88,14,186,-35,232v-24,23,-55,36,-98,36r0,-67xm277,73v43,-7,64,-26,58,-73r-58,0r0,-128r133,0v-3,88,14,186,-35,232v-25,23,-56,36,-98,36r0,-67","w":480},"\u2022":{"d":"302,-484v91,0,169,77,169,168v0,93,-78,169,-171,169v-89,0,-166,-80,-166,-169v0,-89,79,-168,168,-168","w":600},"\u2026":{"d":"233,0r-133,0r0,-128r133,0r0,128xm565,0r-133,0r0,-128r133,0r0,128xm899,0r-134,0r0,-128r134,0r0,128","w":1000},"\u2039":{"d":"175,-108r-139,-131r0,-100r139,-130r0,123r-67,57r67,58r0,123","w":240},"\u203a":{"d":"212,-239r-139,131r0,-123r67,-58r-67,-57r0,-123r139,130r0,100","w":240},"\u20ac":{"d":"70,-481v40,-170,117,-269,306,-269v102,0,145,23,219,66r-39,103v-65,-39,-126,-58,-183,-58v-108,0,-143,61,-171,158r315,0r-33,88r-289,0r0,45r272,0r-34,88r-233,0v21,88,79,154,179,155v33,0,81,-13,146,-40r0,123v-110,46,-232,46,-325,-13v-78,-50,-105,-112,-131,-225r-101,0r24,-88r69,0r1,-45r-95,0r24,-88r79,0"},"\u2122":{"d":"349,-643r-91,0r0,336r-113,0r0,-336r-91,0r0,-96r295,0r0,96xm946,-739r0,432r-113,0r0,-263r-110,263r-88,0r-110,-263r0,263r-113,0r0,-432r143,0r125,293r123,-293r143,0","w":1000}}});
