/*!
 * The following copyright notice may not be removed under any circumstances.
 * 
 * Copyright:
 * Copyright (URW)++, copyright 1999 by (URW)++ Design & Development; Cyrillic
 * glyphs added by Valek Filippov, copyright 2001-2002; Vietnamese characters were
 * added by Han The Thanh; copyright 2006, 2008 for TeX Gyre extensions by B.
 * Jackowski and J.M. Nowacki (on behalf of TeX users groups). This work is
 * released under the GUST Font License --  see
 * http://tug.org/fonts/licenses/GUST-FONT-LICENSE.txt for details.
 * 
 * Trademark:
 * Please refer to the Copyright section for the font trademark attribution
 * notices.
 */
Cufon.registerFont({"w":560,"face":{"font-family":"TeXGyreAdventor","font-weight":700,"font-style":"italic","font-stretch":"normal","units-per-em":"1000","panose-1":"0 0 8 0 0 0 0 0 0 0","ascent":"815","descent":"-185","x-height":"13","bbox":"-63 -1001 1111 250.021","underline-thickness":"90","underline-position":"-3","slope":"-10.5","unicode-range":"U+0020-U+2122"},"glyphs":{" ":{"w":280},"!":{"d":"210,-188r-133,0r102,-551r133,0xm199,-128r-24,128r-133,0r24,-128r133,0","w":280},"\"":{"d":"257,-739r-42,226r-76,0r42,-226r76,0xm390,-739r-42,226r-76,0r42,-226r76,0","w":360},"#":{"d":"575,-422r-103,0r-28,89r88,0r-19,100r-102,0r-75,233r-91,0r76,-233r-84,0r-75,233r-91,0r75,-233r-99,0r19,-100r111,0r29,-89r-95,0r18,-100r109,0r70,-217r91,0r-70,217r84,0r70,-217r89,0r-69,217r90,0xm381,-422r-84,0r-29,89r85,0"},"$":{"d":"365,-613v-59,-3,-101,85,-56,124v35,30,50,28,118,56v58,24,88,65,88,125v0,135,-81,230,-190,262r-24,132r-127,0r24,-132v-86,-20,-145,-97,-123,-203r134,0v-12,52,23,84,66,86v74,5,144,-101,75,-153v-11,-9,-43,-24,-96,-45v-67,-27,-100,-72,-100,-137v0,-107,74,-209,170,-225r24,-133r127,0r-24,133v65,16,106,88,91,172r-126,0v0,-36,-17,-60,-51,-62"},"%":{"d":"738,-739r-443,739r-102,0r442,-739r103,0xm688,-348v83,0,150,64,150,147v0,110,-110,214,-221,214v-81,0,-147,-65,-147,-146v0,-110,108,-215,218,-215xm639,-94v44,0,91,-45,91,-89v0,-32,-30,-59,-63,-59v-45,0,-89,43,-89,88v0,34,27,60,61,60xm312,-752v83,0,150,64,150,147v0,109,-110,214,-220,214v-84,0,-148,-66,-148,-149v0,-108,110,-212,218,-212xm265,-498v43,0,89,-44,89,-87v0,-34,-28,-61,-63,-61v-41,0,-89,44,-89,84v0,38,25,64,63,64","w":860},"&":{"d":"407,-752v87,0,162,57,161,141v0,47,-11,87,-32,120v-21,33,-62,67,-121,102r54,76r93,-120r149,0r-169,220r106,141r-111,85r-84,-111v-67,68,-101,108,-208,111v-116,4,-204,-78,-204,-192v0,-106,61,-191,184,-254v-27,-39,-39,-50,-41,-101v-4,-111,111,-218,223,-218xm349,-481v53,-21,89,-55,89,-103v0,-25,-24,-43,-51,-43v-39,0,-76,36,-75,75v0,19,12,43,37,71xm175,-198v0,49,35,80,85,79v43,0,83,-26,119,-79r-92,-124v-42,18,-71,38,-87,58v-16,20,-25,42,-25,66","w":680},"'":{"d":"257,-739r-42,226r-76,0r42,-226r76,0","w":220},"(":{"d":"293,137v-114,-37,-206,-191,-201,-349v6,-206,126,-387,262,-476v26,-17,60,-34,102,-51r-27,144v-111,78,-197,198,-200,366v-1,89,39,185,91,221","w":380},")":{"d":"145,-739v115,37,202,189,202,344v0,112,-33,218,-100,317v-67,99,-155,170,-264,215r27,-144v110,-76,197,-202,200,-369v1,-85,-41,-184,-92,-218","w":380},"*":{"d":"460,-591r-13,70r-96,-22r38,91r-65,27r-30,-96r-60,79r-58,-42r70,-80r-100,-11r13,-71r98,23r-37,-96r69,-20r28,93r60,-77r54,47r-69,73","w":440},"+":{"d":"569,-181r-177,0r0,177r-138,0r0,-177r-177,0r0,-138r177,0r0,-177r138,0r0,177r177,0r0,138","w":600},",":{"d":"200,-128v-20,86,-18,183,-78,231v-32,26,-61,39,-105,37r12,-67v47,-6,71,-30,72,-73r-58,0r24,-128r133,0","w":280},"-":{"d":"391,-347r-22,118r-277,0r22,-118r277,0","w":420},".":{"d":"200,-128r-24,128r-134,0r24,-128r134,0","w":280},"\/":{"d":"550,-739r-483,867r-95,0r484,-867r94,0","w":460},"0":{"d":"383,-752v144,-2,232,96,204,247r-48,258v-25,149,-128,257,-288,260v-151,3,-236,-104,-207,-260r47,-251v25,-144,132,-252,292,-254xm457,-540v0,-57,-36,-90,-94,-90v-78,1,-126,60,-139,132r-46,247v-3,13,-4,27,-4,44v0,65,32,98,97,98v73,0,118,-46,135,-138r47,-251v3,-13,4,-27,4,-42"},"1":{"d":"486,-739r-137,739r-133,0r114,-614r-93,0r23,-125r226,0"},"2":{"d":"389,-752v115,-2,202,78,200,191v0,57,-14,106,-41,149v-59,92,-229,207,-329,287r291,0r-23,125r-475,0r22,-117r306,-249v39,-32,68,-61,86,-88v18,-27,26,-55,26,-84v1,-52,-33,-93,-84,-92v-71,0,-118,49,-143,146r-131,0v18,-80,28,-110,68,-160v49,-61,127,-106,227,-108"},"3":{"d":"452,-426v53,31,82,64,83,140v5,160,-141,299,-301,299v-131,0,-231,-97,-208,-237r134,0v-3,69,33,113,97,115v74,2,143,-76,141,-146v-1,-72,-61,-108,-145,-101r24,-128v78,-1,125,-22,127,-91v0,-33,-18,-55,-50,-55v-39,0,-64,22,-75,67r-135,0v25,-106,111,-187,231,-189v98,-1,167,64,166,161v0,73,-30,128,-89,165"},"4":{"d":"543,-229r-22,118r-78,0r-21,111r-133,0r21,-111r-320,0r20,-107r437,-521r112,0r-94,510r78,0xm332,-229r53,-286r-237,286r184,0"},"5":{"d":"350,-499v117,-1,190,82,190,201v0,157,-148,311,-306,311v-124,0,-235,-100,-211,-234r133,0v-1,69,34,111,100,112v80,1,147,-85,147,-166v0,-60,-39,-103,-98,-102v-37,0,-75,19,-112,56r-112,-32r141,-386r334,0r-23,125r-234,0r-50,136v40,-14,74,-21,101,-21"},"6":{"d":"389,-486v104,-1,165,79,165,184v0,157,-147,315,-308,315v-116,0,-214,-85,-214,-197v0,-87,38,-176,114,-265r247,-290r159,0r-226,263v21,-7,42,-10,63,-10xm271,-109v78,0,146,-78,146,-158v0,-60,-40,-102,-100,-102v-83,0,-148,75,-148,160v0,61,41,100,102,100"},"7":{"d":"584,-614r-380,614r-149,0r388,-614r-293,0r23,-125r434,0"},"8":{"d":"462,-411v50,33,73,61,75,137v4,147,-145,287,-293,287v-122,0,-207,-82,-205,-203v2,-101,63,-187,141,-221v-115,-148,52,-341,208,-341v93,0,166,65,164,157v-1,81,-36,149,-90,184xm332,-469v47,0,92,-48,92,-96v0,-40,-22,-65,-61,-65v-47,0,-93,50,-93,98v0,34,28,63,62,63xm268,-109v68,0,132,-70,132,-138v0,-53,-38,-94,-91,-94v-68,0,-133,70,-133,138v0,56,37,94,92,94"},"9":{"d":"384,-752v119,0,214,82,214,198v0,87,-38,175,-114,264r-247,290r-159,0r227,-263v-128,46,-227,-46,-227,-174v0,-157,147,-315,306,-315xm313,-368v83,0,148,-76,148,-162v0,-59,-42,-100,-101,-100v-81,0,-145,82,-145,161v0,57,41,101,98,101"},":":{"d":"268,-502r-24,128r-134,0r24,-128r134,0xm200,-128r-24,128r-134,0r24,-128r134,0","w":280},";":{"d":"200,-128v-20,86,-18,183,-78,231v-32,26,-61,39,-105,37r12,-67v47,-6,71,-30,72,-73r-58,0r24,-128r133,0xm268,-502r-24,128r-134,0r24,-128r134,0","w":280},"<":{"d":"515,142r-427,-338r0,-108r427,-338r0,176r-273,216r273,216r0,176","w":600},"=":{"d":"569,-273r-492,0r0,-138r492,0r0,138xm569,-89r-492,0r0,-138r492,0r0,138","w":600},">":{"d":"515,-196r-427,338r0,-176r273,-216r-273,-216r0,-176r427,338r0,108","w":600},"?":{"d":"371,-752v107,-2,187,76,185,184v0,49,-13,92,-40,131v-17,23,-51,53,-100,93v-63,51,-77,66,-93,157r-133,0v30,-147,58,-174,167,-255v41,-30,62,-65,62,-104v1,-44,-34,-75,-79,-74v-53,0,-89,33,-108,100r-133,0v27,-127,129,-231,272,-232xm289,0r-133,0r23,-128r133,0"},"@":{"d":"500,-766v177,-1,301,104,301,283v0,171,-106,330,-266,329v-55,0,-85,-18,-90,-54v-31,36,-73,54,-125,54v-82,1,-133,-55,-133,-138v0,-142,115,-285,251,-285v50,0,85,19,106,58r17,-54r97,0r-89,295v-6,24,-9,41,20,41v34,0,66,-25,97,-75v31,-50,47,-105,47,-164v1,-135,-101,-217,-241,-217v-205,0,-390,182,-390,386v0,149,122,247,278,247v56,0,110,-16,162,-47r35,60v-69,41,-111,58,-209,60v-190,4,-335,-125,-334,-307v2,-185,108,-334,235,-408v72,-42,149,-64,231,-64xm376,-260v64,0,122,-71,122,-138v0,-41,-20,-67,-60,-67v-66,0,-127,69,-127,137v0,42,23,68,65,68","w":740},"A":{"d":"703,0r-151,0r-44,-191r-263,0r-117,191r-151,0r445,-739r108,0xm478,-323r-38,-223r-120,223r158,0","w":740},"B":{"d":"467,-403v63,28,96,58,96,139v0,167,-143,264,-328,264r-197,0r137,-739r153,0v98,1,140,-1,191,35v40,27,58,70,58,124v0,84,-37,143,-110,177xm423,-241v0,-87,-98,-79,-189,-79r-35,188r68,0v104,0,156,-36,156,-109xm437,-549v0,-39,-31,-58,-94,-58r-56,0r-28,153r44,0v89,0,134,-32,134,-95","w":580},"C":{"d":"385,13v-184,3,-326,-135,-323,-316v2,-173,115,-312,235,-385v128,-77,299,-88,418,-6v55,38,93,94,113,167r-154,0v-37,-63,-83,-91,-176,-93v-148,-4,-296,142,-296,293v0,118,88,211,205,208v95,-2,136,-35,200,-87r161,0v-68,118,-213,216,-383,219","w":780},"D":{"d":"620,-667v108,89,104,295,32,430v-82,156,-201,242,-442,237r-172,0r137,-739r169,0v127,0,219,25,276,72xm564,-421v-1,-156,-102,-190,-276,-187r-89,477v131,2,218,-16,280,-81v57,-59,85,-128,85,-209","w":700},"E":{"d":"548,-607r-260,0r-33,172r249,0r-24,132r-249,0r-32,171r260,0r-24,132r-397,0r137,-739r397,0","w":520},"F":{"d":"527,-607r-239,0r-33,172r228,0r-24,132r-228,0r-56,303r-137,0r137,-739r376,0","w":480},"G":{"d":"201,-324v0,121,92,207,217,205v108,-2,193,-58,240,-130r-306,0r24,-128r482,0v-17,150,-127,273,-246,335v-69,36,-139,55,-212,55v-190,0,-342,-129,-339,-313v2,-176,115,-317,239,-389v137,-79,317,-88,440,4v61,45,97,99,108,163r-161,0v-40,-65,-100,-98,-180,-98v-158,0,-306,142,-306,296","w":840},"H":{"d":"713,-739r-137,739r-137,0r57,-310r-264,0r-57,310r-137,0r137,-739r137,0r-55,297r264,0r55,-297r137,0","w":680},"I":{"d":"312,-739r-137,739r-137,0r137,-739r137,0","w":280},"J":{"d":"147,-175v3,36,21,57,56,56v44,0,72,-32,84,-97r97,-523r137,0r-98,527v-22,128,-107,223,-241,225v-108,2,-190,-72,-172,-188r137,0","w":480},"K":{"d":"706,-739r-344,363r207,376r-164,0r-170,-325r-60,325r-137,0r137,-739r137,0r-59,319r289,-319r164,0","w":620},"L":{"d":"402,0r-364,0r137,-739r137,0r-113,607r227,0","w":440},"M":{"d":"947,-739r-137,739r-137,0r103,-554r-296,554r-112,0r-90,-554r-103,554r-137,0r137,-739r188,0r95,560r301,-560r188,0","w":900},"N":{"d":"774,-739r-137,739r-153,0r-209,-537r-100,537r-137,0r137,-739r156,0r206,538r100,-538r137,0","w":740},"O":{"d":"529,-752v180,0,319,133,316,313v-3,176,-110,318,-233,389v-71,41,-147,63,-226,63v-184,0,-328,-132,-325,-313v3,-177,118,-321,243,-390v73,-40,147,-62,225,-62xm410,-119v151,0,295,-146,295,-300v0,-116,-87,-201,-203,-201v-150,0,-301,148,-301,297v0,117,91,204,209,204","w":840},"P":{"d":"540,-705v75,54,84,162,45,257v-29,71,-90,131,-159,153v-36,11,-127,15,-199,14r-52,281r-137,0r137,-739v119,2,306,-8,365,34xm251,-412v117,3,218,-10,218,-117v0,-75,-43,-75,-135,-78r-46,0"},"Q":{"d":"531,-752v187,0,328,123,328,307v0,129,-47,235,-140,316v34,20,56,26,99,19r-23,124v-90,4,-125,-14,-182,-59v-71,39,-143,58,-218,58v-184,0,-337,-133,-334,-312v2,-178,114,-320,239,-391v73,-41,150,-62,231,-62xm514,-138v-86,-80,-165,-113,-292,-89v53,98,172,134,292,89xm624,-204v54,-43,95,-122,95,-214v2,-120,-91,-202,-213,-202v-159,0,-299,131,-306,286v174,-37,316,5,424,130","w":840},"R":{"d":"627,-553v0,154,-101,249,-238,280r149,273r-169,0r-142,-283r-52,283r-137,0r137,-739r213,0v159,0,239,62,239,186xm314,-386v107,2,173,-43,173,-135v0,-75,-48,-84,-138,-86r-61,0r-41,221r67,0","w":580},"S":{"d":"338,-620v-71,-3,-129,98,-61,142v10,7,36,17,76,33v93,36,150,72,155,180v5,140,-141,278,-282,278v-130,0,-225,-85,-205,-224r143,0v-9,59,27,92,84,92v63,0,120,-47,120,-108v0,-43,-25,-63,-54,-77v-11,-6,-40,-18,-86,-37v-81,-32,-121,-87,-121,-165v0,-126,128,-246,255,-246v116,0,210,83,183,210r-141,0v0,-55,-15,-76,-66,-78","w":520},"T":{"d":"501,-607r-139,0r-113,607r-137,0r113,-607r-136,0r24,-132r412,0","w":420},"U":{"d":"217,-201v-1,46,45,82,92,82v75,0,123,-51,142,-152r86,-468r137,0r-86,468v-26,161,-134,280,-303,284v-113,3,-208,-79,-206,-189v0,-29,3,-61,10,-95r86,-468r137,0r-86,468v-6,32,-9,55,-9,70","w":640},"V":{"d":"801,-739r-423,739r-112,0r-151,-739r144,0r95,562r303,-562r144,0","w":700},"W":{"d":"1005,-739r-353,739r-109,0r-28,-489r-213,489r-108,0r-80,-739r140,0r34,516r222,-516r100,0r28,516r227,-516r140,0","w":900},"X":{"d":"783,-739r-325,371r188,368r-159,0r-130,-255r-219,255r-163,0r322,-368r-185,-371r163,0r124,258r225,-258r159,0","w":680},"Y":{"d":"733,-739r-329,466r-51,273r-137,0r51,-273r-157,-466r148,0r100,340r227,-340r148,0","w":620},"Z":{"d":"450,0r-462,0r21,-117r372,-490r-265,0r24,-132r428,0r-23,124r-368,483r297,0","w":500},"[":{"d":"206,-108v1,59,16,77,58,98r-27,147v-97,-22,-166,-98,-167,-210v0,-35,4,-73,11,-114r48,-259v26,-154,124,-258,270,-293r-27,147v-78,31,-94,75,-113,173r-48,255v-3,20,-5,39,-5,56","w":320},"\\":{"d":"473,0r-96,0r-186,-739r96,0","w":640},"]":{"d":"145,-739v101,16,171,98,171,210v0,35,-4,73,-11,114r-48,259v-29,156,-123,260,-274,293r27,-147v80,-29,98,-73,117,-173r48,-255v3,-20,5,-39,5,-56v-1,-61,-17,-77,-62,-98","w":320},"^":{"d":"580,-358r-115,33r-83,-270r-184,271r-98,-55r245,-371r121,0","w":600},"_":{"d":"445,138r-501,0r16,-90r501,0","w":500},"`":{"d":"401,-691r-73,88r-200,-116r84,-99","w":420},"a":{"d":"45,-213v0,-186,161,-354,345,-354v77,0,132,29,163,87r13,-74r122,0r-102,554r-122,0r13,-72v-59,57,-126,85,-200,85v-137,0,-232,-91,-232,-226xm317,-109v110,0,197,-92,197,-204v0,-81,-53,-132,-134,-132v-104,0,-198,100,-198,205v0,80,54,131,135,131","w":660},"b":{"d":"440,-574v129,-2,225,100,225,231v0,180,-155,360,-326,356v-98,-2,-130,-25,-180,-84r-13,71r-122,0r137,-739r133,0r-44,236v59,-46,98,-69,190,-71xm332,-109v105,0,196,-98,196,-205v0,-82,-52,-138,-133,-138v-109,0,-198,101,-198,211v0,78,57,132,135,132","w":660},"c":{"d":"47,-223v0,-176,173,-348,350,-344v133,3,224,77,243,198r-150,0v-15,-51,-53,-76,-113,-76v-104,0,-193,95,-193,200v0,80,52,137,131,136v57,0,104,-24,140,-73r150,0v-61,109,-160,192,-311,195v-136,3,-247,-102,-247,-236","w":640},"d":{"d":"386,-574v68,0,131,28,158,69r43,-234r133,0r-137,739r-122,0r14,-72v-61,57,-127,85,-199,85v-137,0,-230,-96,-230,-233v0,-179,164,-354,340,-354xm321,-109v99,0,195,-104,195,-205v0,-81,-53,-138,-133,-138v-106,0,-200,98,-200,204v0,81,58,139,138,139","w":660},"e":{"d":"398,-567v134,0,239,93,237,225v0,51,-7,92,-20,124r-429,0v-1,67,60,109,130,109v53,0,98,-18,135,-55r145,0v-52,98,-160,175,-299,177v-142,2,-251,-97,-251,-236v0,-176,175,-344,352,-344xm511,-336v-4,-73,-49,-109,-134,-109v-80,0,-151,48,-173,109r307,0","w":640},"f":{"d":"128,-544v32,-123,108,-207,255,-193r-24,126v-58,-4,-92,16,-98,67r78,0r-21,111r-78,0r-80,433r-133,0r80,-433r-48,0r21,-111r48,0","w":280},"g":{"d":"381,-567v85,2,128,28,163,83r13,-70r127,0r-83,449v-40,217,-156,326,-349,326v-136,0,-220,-59,-252,-176r151,0v30,41,62,59,129,59v116,0,160,-70,188,-177v-57,53,-101,84,-197,86v-137,2,-225,-93,-225,-230v0,-182,156,-354,335,-350xm311,-109v109,0,193,-98,193,-206v0,-78,-53,-130,-131,-130v-112,0,-190,96,-190,212v0,78,50,124,128,124","w":660},"h":{"d":"402,-568v104,-2,182,60,181,160v0,29,-3,61,-10,95r-58,313r-133,0r52,-283v6,-32,9,-59,9,-81v0,-53,-34,-84,-87,-82v-99,4,-128,63,-147,165r-52,281r-133,0r137,-739r133,0r-41,223v41,-35,91,-52,149,-52","w":600},"i":{"d":"260,-554r-103,554r-133,0r103,-554r133,0xm300,-766r-25,132r-133,0r25,-132r133,0","w":240},"j":{"d":"278,-554r-96,517v-19,126,-96,218,-229,222r24,-129v60,-13,61,-29,73,-96r95,-514r133,0xm318,-766r-25,132r-133,0r25,-132r133,0","w":260},"k":{"d":"525,0r-179,0r-141,-259r-48,259r-133,0r137,-739r133,0r-83,446r225,-261r159,0r-248,271","w":580},"l":{"d":"294,-739r-137,739r-133,0r137,-739r133,0","w":240},"m":{"d":"737,-567v112,-1,185,57,185,165v0,24,-3,51,-8,82r-59,320r-133,0r56,-304v5,-29,7,-52,7,-67v0,-44,-37,-74,-83,-74v-39,0,-70,12,-92,36v-22,24,-40,69,-53,136r-51,273r-133,0r56,-304v20,-82,0,-141,-81,-141v-39,0,-69,13,-90,37v-21,24,-38,69,-50,135r-51,273r-133,0r103,-554r122,0r-10,52v43,-43,96,-65,158,-65v73,0,121,29,145,86v51,-57,116,-86,195,-86","w":940},"n":{"d":"405,-567v111,-2,178,56,178,164v0,27,-4,62,-12,106r-55,297r-133,0r50,-271v6,-33,9,-63,9,-92v0,-55,-28,-82,-84,-82v-39,0,-71,13,-96,39v-25,26,-44,74,-57,145r-48,261r-133,0r103,-554r123,0r-10,53v54,-41,85,-65,165,-66","w":600},"o":{"d":"401,-567v138,0,244,103,244,240v0,175,-179,340,-357,340v-133,0,-242,-102,-242,-234v0,-178,175,-346,355,-346xm315,-109v97,0,193,-102,193,-200v0,-76,-56,-136,-130,-136v-99,0,-195,101,-195,201v0,75,57,135,132,135","w":640},"p":{"d":"432,-567v133,-2,229,89,229,223v0,187,-152,357,-336,357v-66,0,-119,-22,-158,-65r-44,237r-133,0r137,-739r122,0r-12,65v41,-45,114,-78,195,-78xm333,-109v96,0,191,-103,191,-200v0,-76,-53,-136,-131,-136v-103,0,-196,100,-196,204v0,75,60,132,136,132","w":660},"q":{"d":"47,-223v0,-174,166,-344,339,-344v80,0,134,28,162,84r14,-71r122,0r-137,739r-133,0r44,-238v-50,44,-111,66,-182,66v-135,0,-229,-100,-229,-236xm316,-109v100,0,194,-97,194,-198v0,-80,-51,-138,-130,-138v-104,0,-196,97,-196,202v0,81,51,134,132,134","w":660},"r":{"d":"382,-567r-24,128v-81,1,-130,56,-144,131r-57,308r-133,0r103,-554r122,0r-10,54v40,-46,66,-67,143,-67","w":320},"s":{"d":"275,-445v-39,0,-79,52,-46,81v7,6,32,13,70,26v79,27,122,43,126,129v5,116,-119,222,-237,222v-95,0,-170,-59,-169,-150v0,-6,1,-19,2,-39r134,0v1,45,22,67,62,67v49,0,96,-59,55,-95v-10,-8,-32,-18,-66,-30v-81,-31,-123,-45,-126,-136v-4,-107,109,-197,220,-197v75,0,154,57,152,128v0,10,-1,23,-3,38r-130,0v-1,-29,-16,-44,-44,-44","w":440},"t":{"d":"360,-554r-23,121r-80,0r-80,433r-133,0r80,-433r-65,0r23,-121r65,0r34,-185r133,0r-34,185r80,0","w":300},"u":{"d":"198,-187v0,49,32,78,82,78v44,0,78,-12,102,-37v24,-25,44,-74,57,-147r48,-261r133,0r-103,554r-123,0r10,-53v-53,44,-111,66,-174,66v-103,0,-172,-67,-172,-165v0,-27,4,-62,12,-105r55,-297r133,0r-50,271v-7,38,-11,70,-10,96","w":600},"v":{"d":"626,-554r-326,554r-106,0r-120,-554r148,0r60,367r194,-367r150,0"},"w":{"d":"858,-554r-303,554r-83,0r-38,-359r-174,359r-82,0r-95,-554r143,0r36,338r156,-338r106,0r28,338r164,-338r142,0","w":800},"x":{"d":"524,0r-160,0r-81,-190r-152,190r-160,0r250,-286r-120,-268r150,0r69,167r129,-167r150,0r-219,268"},"y":{"d":"641,-554r-455,739r-143,0r146,-237r-110,-502r152,0r56,359r201,-359r153,0","w":580},"z":{"d":"435,-118r-22,118r-423,0r22,-118r305,-318r-217,0r22,-118r376,0r-22,118r-304,318r263,0","w":460},"{":{"d":"248,128v-88,6,-163,-10,-159,-94v4,-81,38,-155,38,-235v0,-34,-21,-55,-63,-64r15,-81v60,-14,84,-36,95,-98r29,-157v17,-105,82,-146,206,-138r-15,80v-48,7,-70,10,-81,48v-16,56,-26,117,-36,177v-13,78,-50,117,-114,129v47,10,71,29,71,82v0,82,-28,155,-37,229v3,32,18,36,66,42","w":340},"|":{"d":"392,137r-138,0r0,-876r138,0r0,876","w":600},"}":{"d":"270,-444v-11,53,12,94,60,98r-15,81v-58,10,-84,41,-96,98v-20,91,-24,218,-84,265v-32,25,-91,34,-151,30r15,-80v83,-12,72,-15,94,-102v17,-70,20,-166,58,-210v18,-22,47,-34,79,-42v-48,-13,-71,-29,-71,-85v0,-74,37,-159,37,-222v0,-41,-22,-37,-66,-46r15,-80v88,-6,164,10,159,94v-3,63,-22,140,-34,201","w":340},"~":{"d":"382,-369v22,8,37,21,66,22v24,0,54,-25,91,-74r50,74v-33,42,-63,72,-88,90v-57,38,-96,33,-165,3v-27,-11,-90,-42,-110,-42v-17,0,-34,7,-51,22v-7,6,-24,26,-51,60r-49,-75v36,-47,65,-79,89,-97v44,-32,99,-34,155,-10","w":600},"\u00a0":{"w":280},"\u00a1":{"d":"144,185r-133,0r102,-551r133,0xm281,-554r-24,128r-133,0r24,-128r133,0","w":280},"\u00a2":{"d":"303,-270v45,-1,55,-15,90,-40r146,0v-51,85,-100,133,-198,162r-21,109r-125,0r21,-109v-84,-16,-140,-90,-140,-185v-1,-137,107,-253,225,-278r20,-104r125,0r-20,104v76,16,134,82,137,168r-142,0v-9,-24,-48,-46,-81,-46v-68,0,-127,63,-127,131v0,53,37,90,90,88"},"\u00a3":{"d":"370,-630v-84,-1,-161,106,-118,195r207,0r-24,125r-107,0v25,72,18,113,-14,185v86,3,124,-46,127,-149r132,0v8,51,0,70,-22,118v-30,64,-88,118,-153,140v-32,11,-75,16,-127,16r-261,0r23,-125r140,0v43,-60,49,-131,-4,-185r-142,0r24,-125r58,0v-4,-13,-6,-26,-6,-39v-5,-141,142,-278,285,-278v117,0,215,85,196,211r-135,0v2,-51,-33,-88,-79,-89"},"\u00a4":{"d":"577,-446v-2,87,-21,114,-65,174r34,43r-92,81r-37,-42v-82,45,-182,53,-262,0r-51,42r-65,-81r51,-43v-12,-26,-18,-51,-18,-74v0,-67,22,-128,66,-183r-35,-45r95,-80r37,44v81,-47,184,-49,260,0r53,-44r62,82r-50,43v11,29,17,57,17,83xm299,-273v77,0,155,-73,155,-149v0,-57,-47,-103,-103,-103v-78,0,-156,71,-156,154v0,51,52,98,104,98"},"\u00a5":{"d":"696,-739r-191,272r95,0r-16,87r-144,0r-76,106r192,0r-16,87r-192,0r-35,187r-133,0r35,-187r-194,0r16,-87r194,0r-36,-106r-144,0r16,-87r97,0r-90,-272r149,0r97,341r222,-341r154,0"},"\u00a6":{"d":"392,-389r-138,0r0,-350r138,0r0,350xm392,137r-138,0r0,-350r138,0r0,350","w":600},"\u00a7":{"d":"374,-630v-44,0,-78,19,-78,59v0,21,16,41,49,59r149,81v44,23,66,60,66,110v0,87,-42,121,-105,171v21,23,31,52,31,87v2,121,-126,220,-255,220v-124,0,-213,-82,-190,-212r133,0v-20,58,29,90,84,90v49,0,100,-32,100,-77v0,-11,-4,-20,-12,-27v-50,-40,-138,-82,-198,-118v-48,-28,-76,-55,-76,-123v0,-77,37,-138,110,-183v-9,-19,-14,-39,-14,-62v-1,-116,114,-197,237,-197v116,0,184,67,172,189r-126,0v-5,-51,-22,-66,-77,-67xm432,-286v0,-33,-19,-35,-52,-53r-135,-74v-39,29,-57,38,-52,71v2,17,19,34,50,51r138,76v34,-24,51,-48,51,-71"},"\u00a8":{"d":"318,-766r-25,132r-133,0r25,-132r133,0xm528,-766r-25,132r-133,0r25,-132r133,0","w":500},"\u00a9":{"d":"393,-687v188,0,350,162,350,350v0,188,-162,350,-350,350v-188,0,-350,-162,-350,-350v0,-188,162,-350,350,-350xm393,-47v156,0,290,-134,290,-290v0,-156,-134,-290,-290,-290v-156,0,-290,134,-290,290v0,156,134,290,290,290xm591,-265v-37,73,-128,133,-231,134v-105,1,-188,-71,-192,-170v-5,-124,136,-246,263,-242v98,3,171,52,188,136r-106,0v-19,-31,-51,-47,-96,-47v-74,0,-153,63,-151,136v2,58,49,99,109,98v35,0,71,-15,108,-45r108,0","w":740},"\u00aa":{"d":"108,-560v0,-96,90,-192,183,-192v37,0,65,17,85,50r8,-39r66,0r-56,298r-66,0r8,-41v-32,34,-69,51,-112,51v-69,1,-116,-58,-116,-127xm252,-506v53,0,100,-53,100,-107v0,-36,-31,-66,-67,-66v-48,0,-98,54,-98,103v0,38,28,70,65,70xm388,-382r-13,70r-315,0r13,-70r315,0","w":360},"\u00ab":{"d":"193,-231r-23,123r-115,-131r19,-100r163,-130r-23,123r-78,57xm406,-231r-23,123r-115,-131r19,-100r163,-130r-23,123r-78,57","w":460},"\u00ac":{"d":"569,-158r-138,0r0,-115r-354,0r0,-138r492,0r0,253","w":600},"\u00ad":{"d":"391,-347r-22,118r-277,0r22,-118r277,0","w":420},"\u00ae":{"d":"393,-687v188,0,350,162,350,350v0,188,-162,350,-350,350v-188,0,-350,-162,-350,-350v0,-188,162,-350,350,-350xm393,-47v156,0,290,-134,290,-290v0,-156,-134,-290,-290,-290v-156,0,-290,134,-290,290v0,156,134,290,290,290xm567,-433v0,82,-53,131,-124,151r89,144r-121,0r-72,-126r-23,126r-96,0r74,-399r129,0v93,0,144,35,144,104xm469,-412v0,-41,-49,-35,-95,-36r-17,92r28,0v57,0,84,-19,84,-56","w":740},"\u00af":{"d":"441,-651r-279,0r17,-99r280,0","w":420},"\u00b0":{"d":"282,-686v80,0,150,70,150,150v0,81,-71,150,-153,150v-82,0,-152,-69,-152,-151v0,-82,72,-149,155,-149xm279,-443v51,0,96,-43,96,-93v0,-49,-45,-93,-94,-93v-51,0,-97,42,-97,92v0,51,45,94,95,94","w":400},"\u00b1":{"d":"569,-319r-177,0r0,57r-138,0r0,-57r-177,0r0,-138r177,0r0,-177r138,0r0,177r177,0r0,138xm569,0r-492,0r0,-138r492,0r0,138","w":600},"\u00b2":{"d":"280,-746v72,-2,131,47,130,116v0,63,-40,123,-120,179r-104,73r178,0r-15,82r-309,0r15,-75r193,-147v47,-35,70,-68,70,-97v0,-32,-20,-51,-53,-51v-43,0,-71,28,-86,85r-89,0v19,-99,83,-163,190,-165","w":336},"\u00b3":{"d":"272,-746v63,-1,114,41,113,101v0,38,-19,69,-56,94v36,19,54,47,54,86v2,95,-97,177,-195,177v-82,0,-149,-60,-134,-148r91,0v-3,41,21,67,58,68v44,1,90,-39,88,-81v-2,-50,-38,-55,-98,-56r16,-84v56,0,84,-16,84,-48v0,-19,-11,-29,-34,-29v-23,0,-38,13,-43,39r-92,0v16,-67,69,-118,148,-119","w":336},"\u00b4":{"d":"498,-719r-243,116r-40,-88r236,-127","w":420},"\u00b5":{"d":"208,-276v-18,85,25,165,101,167v53,1,98,-44,111,-93v4,-14,10,-44,19,-91r48,-261r133,0r-103,554r-123,0r10,-53v-68,83,-179,92,-237,1r-44,237r-133,0r137,-739r133,0","w":576},"\u00b6":{"d":"272,-330v-103,-4,-169,-56,-169,-159v0,-121,77,-207,177,-235v90,-24,239,-12,354,-15r-161,867r-102,0r141,-760r-83,0r-141,760r-101,0","w":600},"\u00b7":{"d":"163,-314v34,0,64,30,64,64v0,34,-30,64,-64,64v-34,0,-64,-30,-64,-64v0,-34,30,-64,64,-64","w":280},"\u00b8":{"d":"213,132v-1,68,-49,117,-116,118v-51,1,-84,-34,-84,-84r61,0v5,19,15,29,32,29v24,1,49,-28,49,-53v0,-19,-13,-36,-32,-36v-13,0,-27,9,-43,27r-47,-26r66,-112r52,0r-42,63v57,-25,105,19,104,74","w":340},"\u00b9":{"d":"266,-296r-87,0r67,-361r-67,0r15,-82r154,0","w":336},"\u00ba":{"d":"295,-752v75,0,126,52,126,127v0,92,-92,181,-185,181v-68,0,-128,-57,-128,-125v0,-95,92,-183,187,-183xm250,-517v48,0,97,-47,97,-95v0,-38,-29,-70,-66,-70v-50,0,-99,50,-99,100v0,38,29,65,68,65xm380,-383r-13,70r-307,0r13,-70r307,0","w":360},"\u00bb":{"d":"250,-339r-19,100r-163,131r23,-123r79,-58r-58,-57r23,-123xm463,-339r-19,100r-163,131r23,-123r79,-58r-58,-57r23,-123","w":460},"\u00bc":{"d":"815,-65r-48,0r-12,65r-91,0r12,-65r-198,0r13,-68r270,-310r76,0r-56,301r48,0xm690,-142r28,-152r-130,152r102,0xm717,-739r-443,739r-95,0r443,-739r95,0xm266,-296r-87,0r67,-361r-67,0r15,-82r154,0","w":840},"\u00bd":{"d":"713,-739r-443,739r-95,0r443,-739r95,0xm729,-450v72,-2,131,47,130,116v0,63,-40,123,-120,179r-104,73r178,0r-15,82r-309,0r15,-75r193,-147v47,-35,70,-68,70,-97v0,-32,-20,-51,-53,-51v-43,0,-71,28,-86,85r-89,0v19,-99,83,-163,190,-165xm271,-296r-87,0r67,-361r-67,0r15,-82r154,0","w":840},"\u00be":{"d":"815,-65r-48,0r-12,65r-91,0r12,-65r-198,0r13,-68r270,-310r76,0r-56,301r48,0xm690,-142r28,-152r-130,152r102,0xm749,-739r-443,739r-95,0r443,-739r95,0xm272,-746v63,-1,114,41,113,101v0,38,-19,69,-56,94v36,19,54,47,54,86v2,95,-97,177,-195,177v-82,0,-149,-60,-134,-148r91,0v-3,41,21,67,58,68v44,1,90,-39,88,-81v-2,-50,-38,-55,-98,-56r16,-84v56,0,84,-16,84,-48v0,-19,-11,-29,-34,-29v-23,0,-38,13,-43,39r-92,0v16,-67,69,-118,148,-119","w":840},"\u00bf":{"d":"184,-8v-1,44,34,75,79,74v53,0,89,-33,108,-100r133,0v-27,127,-129,231,-272,232v-107,2,-187,-76,-185,-184v0,-49,13,-92,40,-131v17,-23,51,-53,100,-93v63,-51,77,-66,93,-157r133,0v-30,147,-58,174,-167,255v-41,30,-62,65,-62,104xm424,-426r-133,0r23,-128r133,0"},"\u00c0":{"d":"703,0r-151,0r-44,-191r-263,0r-117,191r-151,0r445,-739r108,0xm478,-323r-38,-223r-120,223r158,0xm592,-866r-73,88r-200,-116r84,-99","w":740},"\u00c1":{"d":"703,0r-151,0r-44,-191r-263,0r-117,191r-151,0r445,-739r108,0xm478,-323r-38,-223r-120,223r158,0xm690,-894r-243,116r-40,-88r236,-127","w":740},"\u00c2":{"d":"703,0r-151,0r-44,-191r-263,0r-117,191r-151,0r445,-739r108,0xm478,-323r-38,-223r-120,223r158,0xm688,-806r-145,0r-41,-64r-66,64r-147,0r173,-138r107,0","w":740},"\u00c3":{"d":"703,0r-151,0r-44,-191r-263,0r-117,191r-151,0r445,-739r108,0xm478,-323r-38,-223r-120,223r158,0xm544,-909v44,-2,42,-11,81,-35r34,82v-30,37,-66,56,-108,56v-2,3,-119,-34,-121,-31v-13,0,-32,10,-55,30r-38,-85v21,-23,60,-47,97,-48v9,-3,102,33,110,31","w":740},"\u00c4":{"d":"703,0r-151,0r-44,-191r-263,0r-117,191r-151,0r445,-739r108,0xm478,-323r-38,-223r-120,223r158,0xm469,-941r-25,132r-133,0r25,-132r133,0xm679,-941r-25,132r-133,0r25,-132r133,0","w":740},"\u00c5":{"d":"703,0r-151,0r-44,-191r-263,0r-117,191r-151,0r445,-739r108,0xm478,-323r-38,-223r-120,223r158,0xm525,-1001v52,0,94,40,94,91v0,70,-68,135,-138,135v-53,0,-93,-38,-93,-91v0,-70,68,-135,137,-135xm497,-848v23,0,47,-24,47,-47v0,-17,-16,-33,-33,-33v-24,0,-49,25,-48,49v0,16,17,31,34,31","w":740},"\u00c6":{"d":"926,-607r-218,0r-33,172r207,0r-24,132r-207,0r-32,171r218,0r-24,132r-355,0r35,-191r-194,0r-148,191r-164,0r624,-739r339,0xm518,-323r35,-190r-150,190r115,0","w":900},"\u00c7":{"d":"359,12v-168,-8,-299,-140,-297,-315v2,-173,115,-312,235,-385v128,-77,299,-88,418,-6v55,38,93,94,113,167r-154,0v-37,-63,-83,-91,-176,-93v-148,-4,-296,142,-296,293v0,118,88,211,205,208v95,-2,136,-35,200,-87r161,0v-66,113,-201,208,-359,218r-30,46v57,-25,105,19,104,74v-1,68,-49,117,-116,118v-51,1,-84,-34,-84,-84r61,0v5,19,15,29,32,29v24,1,49,-28,49,-53v0,-19,-13,-36,-32,-36v-13,0,-27,9,-43,27r-47,-26","w":780},"\u00c8":{"d":"548,-607r-260,0r-33,172r249,0r-24,132r-249,0r-32,171r260,0r-24,132r-397,0r137,-739r397,0xm490,-866r-73,88r-200,-116r84,-99","w":520},"\u00c9":{"d":"548,-607r-260,0r-33,172r249,0r-24,132r-249,0r-32,171r260,0r-24,132r-397,0r137,-739r397,0xm588,-894r-243,116r-40,-88r236,-127","w":520},"\u00ca":{"d":"548,-607r-260,0r-33,172r249,0r-24,132r-249,0r-32,171r260,0r-24,132r-397,0r137,-739r397,0xm586,-806r-145,0r-41,-64r-66,64r-147,0r173,-138r107,0","w":520},"\u00cb":{"d":"548,-607r-260,0r-33,172r249,0r-24,132r-249,0r-32,171r260,0r-24,132r-397,0r137,-739r397,0xm367,-941r-25,132r-133,0r25,-132r133,0xm577,-941r-25,132r-133,0r25,-132r133,0","w":520},"\u00cc":{"d":"312,-739r-137,739r-137,0r137,-739r137,0xm392,-866r-73,88r-200,-116r84,-99","w":280},"\u00cd":{"d":"312,-739r-137,739r-137,0r137,-739r137,0xm426,-894r-243,116r-40,-88r236,-127","w":280},"\u00ce":{"d":"312,-739r-137,739r-137,0r137,-739r137,0xm456,-806r-145,0r-41,-64r-66,64r-147,0r173,-138r107,0","w":280},"\u00cf":{"d":"312,-739r-137,739r-137,0r137,-739r137,0xm237,-941r-25,132r-133,0r25,-132r133,0xm447,-941r-25,132r-133,0r25,-132r133,0","w":280},"\u00d0":{"d":"662,-667v109,88,103,297,33,430v-81,153,-206,242,-445,237r-172,0r59,-321r-94,0r20,-107r94,0r58,-311r169,0v129,0,221,25,278,72xm606,-424v0,-154,-106,-187,-279,-184r-33,180r149,0r-20,107r-149,0r-35,190v130,2,220,-16,282,-81v45,-47,85,-126,85,-212","w":742},"\u00d1":{"d":"774,-739r-137,739r-153,0r-209,-537r-100,537r-137,0r137,-739r156,0r206,538r100,-538r137,0xm543,-909v44,-2,42,-11,81,-35r34,82v-30,37,-66,56,-108,56v-2,3,-119,-34,-121,-31v-13,0,-32,10,-55,30r-38,-85v21,-23,60,-47,97,-48v10,-3,102,33,110,31","w":740},"\u00d2":{"d":"529,-752v180,0,319,133,316,313v-3,176,-110,318,-233,389v-71,41,-147,63,-226,63v-184,0,-328,-132,-325,-313v3,-177,118,-321,243,-390v73,-40,147,-62,225,-62xm410,-119v151,0,295,-146,295,-300v0,-116,-87,-201,-203,-201v-150,0,-301,148,-301,297v0,117,91,204,209,204xm643,-866r-73,88r-200,-116r84,-99","w":840},"\u00d3":{"d":"529,-752v180,0,319,133,316,313v-3,176,-110,318,-233,389v-71,41,-147,63,-226,63v-184,0,-328,-132,-325,-313v3,-177,118,-321,243,-390v73,-40,147,-62,225,-62xm410,-119v151,0,295,-146,295,-300v0,-116,-87,-201,-203,-201v-150,0,-301,148,-301,297v0,117,91,204,209,204xm741,-894r-243,116r-40,-88r236,-127","w":840},"\u00d4":{"d":"529,-752v180,0,319,133,316,313v-3,176,-110,318,-233,389v-71,41,-147,63,-226,63v-184,0,-328,-132,-325,-313v3,-177,118,-321,243,-390v73,-40,147,-62,225,-62xm410,-119v151,0,295,-146,295,-300v0,-116,-87,-201,-203,-201v-150,0,-301,148,-301,297v0,117,91,204,209,204xm739,-806r-145,0r-41,-64r-66,64r-147,0r173,-138r107,0","w":840},"\u00d5":{"d":"529,-752v180,0,319,133,316,313v-3,176,-110,318,-233,389v-71,41,-147,63,-226,63v-184,0,-328,-132,-325,-313v3,-177,118,-321,243,-390v73,-40,147,-62,225,-62xm410,-119v151,0,295,-146,295,-300v0,-116,-87,-201,-203,-201v-150,0,-301,148,-301,297v0,117,91,204,209,204xm595,-909v44,-2,42,-11,81,-35r34,82v-30,37,-66,56,-108,56v-2,3,-119,-34,-121,-31v-13,0,-32,10,-55,30r-38,-85v21,-23,60,-47,97,-48v10,-3,102,33,110,31","w":840},"\u00d6":{"d":"529,-752v180,0,319,133,316,313v-3,176,-110,318,-233,389v-71,41,-147,63,-226,63v-184,0,-328,-132,-325,-313v3,-177,118,-321,243,-390v73,-40,147,-62,225,-62xm410,-119v151,0,295,-146,295,-300v0,-116,-87,-201,-203,-201v-150,0,-301,148,-301,297v0,117,91,204,209,204xm520,-941r-25,132r-133,0r25,-132r133,0xm730,-941r-25,132r-133,0r25,-132r133,0","w":840},"\u00d7":{"d":"546,-125r-98,98r-125,-125r-125,125r-98,-98r125,-125r-125,-125r98,-98r125,125r125,-125r98,98r-125,125","w":600},"\u00d8":{"d":"769,-655v106,101,100,295,19,431v-94,158,-330,306,-559,201r-88,103r-80,-69r83,-98v-105,-118,-96,-294,-14,-433v93,-158,326,-296,554,-199r92,-107r81,69xm504,-620v-150,0,-298,148,-298,298v0,37,12,78,36,121r345,-405v-27,-9,-55,-14,-83,-14xm325,-136v195,74,388,-100,386,-279v0,-52,-13,-94,-38,-127","w":840},"\u00d9":{"d":"217,-201v-1,46,45,82,92,82v75,0,123,-51,142,-152r86,-468r137,0r-86,468v-26,161,-134,280,-303,284v-113,3,-208,-79,-206,-189v0,-29,3,-61,10,-95r86,-468r137,0r-86,468v-6,32,-9,55,-9,70xm541,-866r-73,88r-200,-116r84,-99","w":640},"\u00da":{"d":"217,-201v-1,46,45,82,92,82v75,0,123,-51,142,-152r86,-468r137,0r-86,468v-26,161,-134,280,-303,284v-113,3,-208,-79,-206,-189v0,-29,3,-61,10,-95r86,-468r137,0r-86,468v-6,32,-9,55,-9,70xm639,-894r-243,116r-40,-88r236,-127","w":640},"\u00db":{"d":"217,-201v-1,46,45,82,92,82v75,0,123,-51,142,-152r86,-468r137,0r-86,468v-26,161,-134,280,-303,284v-113,3,-208,-79,-206,-189v0,-29,3,-61,10,-95r86,-468r137,0r-86,468v-6,32,-9,55,-9,70xm637,-806r-145,0r-41,-64r-66,64r-147,0r173,-138r107,0","w":640},"\u00dc":{"d":"217,-201v-1,46,45,82,92,82v75,0,123,-51,142,-152r86,-468r137,0r-86,468v-26,161,-134,280,-303,284v-113,3,-208,-79,-206,-189v0,-29,3,-61,10,-95r86,-468r137,0r-86,468v-6,32,-9,55,-9,70xm418,-941r-25,132r-133,0r25,-132r133,0xm628,-941r-25,132r-133,0r25,-132r133,0","w":640},"\u00dd":{"d":"733,-739r-329,466r-51,273r-137,0r51,-273r-157,-466r148,0r100,340r227,-340r148,0xm636,-894r-243,116r-40,-88r236,-127","w":620},"\u00de":{"d":"514,-565v74,54,84,162,45,257v-29,71,-90,131,-159,153v-36,11,-127,15,-199,14r-26,141r-137,0r137,-739r137,0r-26,140v90,-2,194,9,228,34xm225,-272v117,3,218,-10,218,-117v0,-75,-43,-75,-135,-78r-46,0"},"\u00df":{"d":"382,-752v103,-2,183,67,183,167v0,82,-35,141,-104,176v91,24,137,74,137,149v0,145,-135,273,-279,273v-84,0,-138,-31,-161,-92r-15,79r-122,0r90,-487v24,-144,116,-263,271,-265xm351,-109v58,0,110,-58,110,-117v0,-32,-12,-54,-34,-68v-22,-14,-79,-22,-144,-21r22,-118v74,6,123,-61,123,-130v0,-41,-28,-68,-70,-67v-58,0,-95,42,-111,127r-58,314r82,0v7,53,34,80,80,80","w":600},"\u00e0":{"d":"45,-213v0,-186,161,-354,345,-354v77,0,132,29,163,87r13,-74r122,0r-102,554r-122,0r13,-72v-59,57,-126,85,-200,85v-137,0,-232,-91,-232,-226xm317,-109v110,0,197,-92,197,-204v0,-81,-53,-132,-134,-132v-104,0,-198,100,-198,205v0,80,54,131,135,131xm506,-691r-73,88r-200,-116r84,-99","w":660},"\u00e1":{"d":"45,-213v0,-186,161,-354,345,-354v77,0,132,29,163,87r13,-74r122,0r-102,554r-122,0r13,-72v-59,57,-126,85,-200,85v-137,0,-232,-91,-232,-226xm317,-109v110,0,197,-92,197,-204v0,-81,-53,-132,-134,-132v-104,0,-198,100,-198,205v0,80,54,131,135,131xm603,-719r-243,116r-40,-88r236,-127","w":660},"\u00e2":{"d":"45,-213v0,-186,161,-354,345,-354v77,0,132,29,163,87r13,-74r122,0r-102,554r-122,0r13,-72v-59,57,-126,85,-200,85v-137,0,-232,-91,-232,-226xm317,-109v110,0,197,-92,197,-204v0,-81,-53,-132,-134,-132v-104,0,-198,100,-198,205v0,80,54,131,135,131xm601,-631r-145,0r-41,-64r-66,64r-147,0r173,-138r107,0","w":660},"\u00e3":{"d":"45,-213v0,-186,161,-354,345,-354v77,0,132,29,163,87r13,-74r122,0r-102,554r-122,0r13,-72v-59,57,-126,85,-200,85v-137,0,-232,-91,-232,-226xm317,-109v110,0,197,-92,197,-204v0,-81,-53,-132,-134,-132v-104,0,-198,100,-198,205v0,80,54,131,135,131xm458,-734v44,-2,42,-11,81,-35r34,82v-30,37,-66,56,-108,56v-2,3,-119,-34,-121,-31v-13,0,-32,10,-55,30r-38,-85v21,-23,60,-47,97,-48v9,-3,102,33,110,31","w":660},"\u00e4":{"d":"45,-213v0,-186,161,-354,345,-354v77,0,132,29,163,87r13,-74r122,0r-102,554r-122,0r13,-72v-59,57,-126,85,-200,85v-137,0,-232,-91,-232,-226xm317,-109v110,0,197,-92,197,-204v0,-81,-53,-132,-134,-132v-104,0,-198,100,-198,205v0,80,54,131,135,131xm383,-766r-25,132r-133,0r25,-132r133,0xm593,-766r-25,132r-133,0r25,-132r133,0","w":660},"\u00e5":{"d":"45,-213v0,-186,161,-354,345,-354v77,0,132,29,163,87r13,-74r122,0r-102,554r-122,0r13,-72v-59,57,-126,85,-200,85v-137,0,-232,-91,-232,-226xm317,-109v110,0,197,-92,197,-204v0,-81,-53,-132,-134,-132v-104,0,-198,100,-198,205v0,80,54,131,135,131xm439,-823v51,0,93,40,93,91v0,70,-68,135,-137,135v-53,0,-94,-38,-94,-91v0,-70,68,-135,138,-135xm410,-670v23,0,47,-24,47,-47v0,-17,-16,-33,-33,-33v-24,0,-49,25,-48,49v0,16,17,31,34,31","w":660},"\u00e6":{"d":"852,-567v127,0,229,98,226,225v0,39,-9,80,-27,123r-428,0v7,66,61,111,135,110v49,0,92,-18,128,-55r145,0v-49,93,-159,177,-288,177v-80,0,-122,-21,-156,-73r-12,60r-122,0r12,-60v-54,48,-87,71,-177,73v-139,3,-242,-93,-242,-229v0,-179,166,-356,344,-351v79,2,119,22,156,68r10,-55r122,0r-10,55v51,-45,112,-68,184,-68xm313,-109v102,0,191,-99,191,-203v0,-77,-57,-133,-129,-133v-105,0,-192,99,-192,205v0,78,52,131,130,131xm942,-337v-14,-78,-46,-108,-130,-108v-79,0,-137,36,-174,108r304,0","w":1080},"\u00e7":{"d":"47,-223v0,-176,173,-348,350,-344v133,3,224,77,243,198r-150,0v-15,-51,-53,-76,-113,-76v-104,0,-193,95,-193,200v0,80,52,137,131,136v57,0,104,-24,140,-73r150,0v-57,104,-150,181,-285,194r-31,46v57,-25,105,19,104,74v-1,68,-49,117,-116,118v-51,1,-84,-34,-84,-84r61,0v5,19,15,29,32,29v24,1,49,-28,49,-53v0,-19,-13,-36,-32,-36v-13,0,-27,9,-43,27r-47,-26r56,-95v-123,-7,-222,-106,-222,-235","w":640},"\u00e8":{"d":"398,-567v134,0,239,93,237,225v0,51,-7,92,-20,124r-429,0v-1,67,60,109,130,109v53,0,98,-18,135,-55r145,0v-52,98,-160,175,-299,177v-142,2,-251,-97,-251,-236v0,-176,175,-344,352,-344xm511,-336v-4,-73,-49,-109,-134,-109v-80,0,-151,48,-173,109r307,0xm514,-691r-73,88r-200,-116r84,-99","w":640},"\u00e9":{"d":"398,-567v134,0,239,93,237,225v0,51,-7,92,-20,124r-429,0v-1,67,60,109,130,109v53,0,98,-18,135,-55r145,0v-52,98,-160,175,-299,177v-142,2,-251,-97,-251,-236v0,-176,175,-344,352,-344xm511,-336v-4,-73,-49,-109,-134,-109v-80,0,-151,48,-173,109r307,0xm611,-719r-243,116r-40,-88r236,-127","w":640},"\u00ea":{"d":"398,-567v134,0,239,93,237,225v0,51,-7,92,-20,124r-429,0v-1,67,60,109,130,109v53,0,98,-18,135,-55r145,0v-52,98,-160,175,-299,177v-142,2,-251,-97,-251,-236v0,-176,175,-344,352,-344xm511,-336v-4,-73,-49,-109,-134,-109v-80,0,-151,48,-173,109r307,0xm609,-631r-145,0r-41,-64r-66,64r-147,0r173,-138r107,0","w":640},"\u00eb":{"d":"398,-567v134,0,239,93,237,225v0,51,-7,92,-20,124r-429,0v-1,67,60,109,130,109v53,0,98,-18,135,-55r145,0v-52,98,-160,175,-299,177v-142,2,-251,-97,-251,-236v0,-176,175,-344,352,-344xm511,-336v-4,-73,-49,-109,-134,-109v-80,0,-151,48,-173,109r307,0xm391,-766r-25,132r-133,0r25,-132r133,0xm601,-766r-25,132r-133,0r25,-132r133,0","w":640},"\u00ec":{"d":"260,-554r-103,554r-133,0r103,-554r133,0xm342,-691r-73,88r-200,-116r84,-99","w":240},"\u00ed":{"d":"260,-554r-103,554r-133,0r103,-554r133,0xm378,-719r-243,116r-40,-88r236,-127","w":240},"\u00ee":{"d":"260,-554r-103,554r-133,0r103,-554r133,0xm407,-631r-145,0r-41,-64r-66,64r-147,0r173,-138r107,0","w":240},"\u00ef":{"d":"260,-554r-103,554r-133,0r103,-554r133,0xm189,-766r-25,132r-133,0r25,-132r133,0xm399,-766r-25,132r-133,0r25,-132r133,0","w":240},"\u00f0":{"d":"482,-659v89,77,163,176,168,316v6,182,-175,356,-356,356v-141,0,-248,-102,-248,-242v0,-165,168,-334,334,-327v18,0,41,5,70,16v-27,-33,-52,-59,-75,-78r-85,33r-34,-48r75,-30v-17,-17,-37,-31,-56,-46r93,-48v29,21,51,40,67,55r92,-37r42,44xm318,-109v98,0,195,-102,195,-200v0,-76,-57,-136,-132,-136v-101,0,-198,100,-198,202v0,76,59,134,135,134","w":640},"\u00f1":{"d":"405,-567v111,-2,178,56,178,164v0,27,-4,62,-12,106r-55,297r-133,0r50,-271v6,-33,9,-63,9,-92v0,-55,-28,-82,-84,-82v-39,0,-71,13,-96,39v-25,26,-44,74,-57,145r-48,261r-133,0r103,-554r123,0r-10,53v54,-41,85,-65,165,-66xm443,-734v44,-2,42,-11,81,-35r34,82v-30,37,-66,56,-108,56v-2,3,-119,-34,-121,-31v-13,0,-32,10,-55,30r-38,-85v21,-23,60,-47,97,-48v10,-3,102,33,110,31","w":600},"\u00f2":{"d":"401,-567v138,0,244,103,244,240v0,175,-179,340,-357,340v-133,0,-242,-102,-242,-234v0,-178,175,-346,355,-346xm315,-109v97,0,193,-102,193,-200v0,-76,-56,-136,-130,-136v-99,0,-195,101,-195,201v0,75,57,135,132,135xm517,-691r-73,88r-200,-116r84,-99","w":640},"\u00f3":{"d":"401,-567v138,0,244,103,244,240v0,175,-179,340,-357,340v-133,0,-242,-102,-242,-234v0,-178,175,-346,355,-346xm315,-109v97,0,193,-102,193,-200v0,-76,-56,-136,-130,-136v-99,0,-195,101,-195,201v0,75,57,135,132,135xm614,-719r-243,116r-40,-88r236,-127","w":640},"\u00f4":{"d":"401,-567v138,0,244,103,244,240v0,175,-179,340,-357,340v-133,0,-242,-102,-242,-234v0,-178,175,-346,355,-346xm315,-109v97,0,193,-102,193,-200v0,-76,-56,-136,-130,-136v-99,0,-195,101,-195,201v0,75,57,135,132,135xm612,-631r-145,0r-41,-64r-66,64r-147,0r173,-138r107,0","w":640},"\u00f5":{"d":"401,-567v138,0,244,103,244,240v0,175,-179,340,-357,340v-133,0,-242,-102,-242,-234v0,-178,175,-346,355,-346xm315,-109v97,0,193,-102,193,-200v0,-76,-56,-136,-130,-136v-99,0,-195,101,-195,201v0,75,57,135,132,135xm469,-734v44,-2,42,-11,81,-35r34,82v-30,37,-66,56,-108,56v-2,3,-119,-34,-121,-31v-13,0,-32,10,-55,30r-38,-85v21,-23,60,-47,97,-48v10,-3,102,33,110,31","w":640},"\u00f6":{"d":"401,-567v138,0,244,103,244,240v0,175,-179,340,-357,340v-133,0,-242,-102,-242,-234v0,-178,175,-346,355,-346xm315,-109v97,0,193,-102,193,-200v0,-76,-56,-136,-130,-136v-99,0,-195,101,-195,201v0,75,57,135,132,135xm394,-766r-25,132r-133,0r25,-132r133,0xm604,-766r-25,132r-133,0r25,-132r133,0","w":640},"\u00f7":{"d":"569,-181r-492,0r0,-138r492,0r0,138xm323,-499v34,0,64,30,64,64v0,35,-30,64,-64,64v-34,0,-64,-29,-64,-64v0,-34,30,-64,64,-64xm323,-129v34,0,64,29,64,64v0,34,-30,64,-64,64v-34,0,-64,-30,-64,-64v0,-35,30,-64,64,-64","w":600},"\u00f8":{"d":"106,-68v-169,-210,65,-499,297,-499v39,0,76,8,109,23r65,-76r73,62r-60,71v39,46,58,99,58,159v0,171,-179,341,-352,341v-39,0,-77,-8,-114,-24r-63,75r-73,-62xm314,-109v99,4,197,-99,197,-199v0,-31,-5,-54,-16,-69r-222,261v13,5,26,7,41,7xm378,-445v-116,0,-234,140,-178,267r223,-260v-19,-5,-34,-7,-45,-7","w":660},"\u00f9":{"d":"198,-187v0,49,32,78,82,78v44,0,78,-12,102,-37v24,-25,44,-74,57,-147r48,-261r133,0r-103,554r-123,0r10,-53v-53,44,-111,66,-174,66v-103,0,-172,-67,-172,-165v0,-27,4,-62,12,-105r55,-297r133,0r-50,271v-7,38,-11,70,-10,96xm491,-691r-73,88r-200,-116r84,-99","w":600},"\u00fa":{"d":"198,-187v0,49,32,78,82,78v44,0,78,-12,102,-37v24,-25,44,-74,57,-147r48,-261r133,0r-103,554r-123,0r10,-53v-53,44,-111,66,-174,66v-103,0,-172,-67,-172,-165v0,-27,4,-62,12,-105r55,-297r133,0r-50,271v-7,38,-11,70,-10,96xm588,-719r-243,116r-40,-88r236,-127","w":600},"\u00fb":{"d":"198,-187v0,49,32,78,82,78v44,0,78,-12,102,-37v24,-25,44,-74,57,-147r48,-261r133,0r-103,554r-123,0r10,-53v-53,44,-111,66,-174,66v-103,0,-172,-67,-172,-165v0,-27,4,-62,12,-105r55,-297r133,0r-50,271v-7,38,-11,70,-10,96xm586,-631r-145,0r-41,-64r-66,64r-147,0r173,-138r107,0","w":600},"\u00fc":{"d":"198,-187v0,49,32,78,82,78v44,0,78,-12,102,-37v24,-25,44,-74,57,-147r48,-261r133,0r-103,554r-123,0r10,-53v-53,44,-111,66,-174,66v-103,0,-172,-67,-172,-165v0,-27,4,-62,12,-105r55,-297r133,0r-50,271v-7,38,-11,70,-10,96xm368,-766r-25,132r-133,0r25,-132r133,0xm578,-766r-25,132r-133,0r25,-132r133,0","w":600},"\u00fd":{"d":"641,-554r-455,739r-143,0r146,-237r-110,-502r152,0r56,359r201,-359r153,0xm575,-719r-243,116r-40,-88r236,-127","w":580},"\u00fe":{"d":"432,-567v133,-2,229,89,229,223v0,187,-152,357,-336,357v-66,0,-119,-22,-158,-65r-44,237r-133,0r171,-924r122,0r-46,250v41,-45,114,-78,195,-78xm333,-109v96,0,191,-103,191,-200v0,-76,-53,-136,-131,-136v-103,0,-196,100,-196,204v0,75,60,132,136,132","w":660},"\u00ff":{"d":"641,-554r-455,739r-143,0r146,-237r-110,-502r152,0r56,359r201,-359r153,0xm355,-766r-25,132r-133,0r25,-132r133,0xm565,-766r-25,132r-133,0r25,-132r133,0","w":580},"\u0152":{"d":"388,13v-181,3,-320,-125,-318,-303v2,-181,105,-325,229,-398v70,-42,145,-64,224,-64v103,0,175,32,217,96r15,-83r356,0r-24,132r-217,0r-33,172r206,0r-24,132r-206,0r-32,171r217,0r-24,132r-356,0r15,-82v-54,53,-145,94,-245,95xm409,-120v154,0,286,-145,286,-301v0,-116,-79,-198,-194,-198v-152,0,-291,150,-291,301v0,115,83,198,199,198","w":1060},"\u0153":{"d":"833,-567v136,-4,244,89,242,220v0,33,-8,76,-23,129r-429,0v7,66,62,109,133,109v51,0,105,-26,131,-54r141,0v-33,88,-175,176,-294,176v-96,0,-172,-46,-204,-113v-65,75,-146,113,-241,113v-140,0,-243,-96,-243,-235v0,-175,170,-350,346,-345v107,3,159,40,204,111v72,-67,122,-108,237,-111xm315,-109v104,0,193,-102,193,-202v0,-78,-53,-134,-131,-134v-102,0,-194,98,-194,202v0,75,57,134,132,134xm941,-336v-10,-72,-49,-108,-129,-109v-75,0,-133,36,-173,109r302,0","w":1080},"\u0178":{"d":"733,-739r-329,466r-51,273r-137,0r51,-273r-157,-466r148,0r100,340r227,-340r148,0xm415,-941r-25,132r-133,0r25,-132r133,0xm625,-941r-25,132r-133,0r25,-132r133,0","w":620},"\u02c6":{"d":"556,-631r-145,0r-41,-64r-66,64r-147,0r173,-138r107,0","w":540},"\u02dc":{"d":"383,-734v44,-2,42,-11,81,-35r34,82v-30,37,-66,56,-108,56v-2,3,-119,-34,-121,-31v-13,0,-32,10,-55,30r-38,-85v21,-23,60,-47,97,-48v10,-3,102,33,110,31","w":480},"\u2013":{"d":"540,-347r-22,118r-500,0r22,-118r500,0","w":500},"\u2014":{"d":"1040,-347r-22,118r-1000,0r22,-118r1000,0","w":1000},"\u2018":{"d":"313,-739r-13,67v-48,11,-65,27,-72,78r58,0r-24,128r-131,0r26,-140v8,-75,74,-133,156,-133","w":280},"\u2019":{"d":"312,-739r-26,140v-3,73,-79,135,-157,133r12,-67v45,-6,69,-32,73,-78r-58,0r24,-128r132,0","w":280},"\u201a":{"d":"198,-128v-19,86,-19,185,-78,232v-32,26,-61,38,-104,36r12,-67v46,-7,70,-31,72,-73r-58,0r24,-128r132,0","w":280},"\u201c":{"d":"311,-739r-13,67v-48,11,-65,27,-72,78r58,0r-24,128r-131,0r26,-140v8,-75,74,-133,156,-133xm518,-739r-13,67v-48,11,-65,27,-72,78r58,0r-24,128r-131,0r26,-140v8,-75,74,-133,156,-133","w":480},"\u201d":{"d":"310,-739r-26,140v-4,72,-79,136,-157,133r12,-67v45,-6,69,-32,73,-78r-58,0r24,-128r132,0xm517,-739r-26,140v-4,72,-79,136,-157,133r12,-67v45,-6,69,-32,73,-78r-58,0r24,-128r132,0","w":480},"\u201e":{"d":"198,-128r-26,140v-11,71,-76,134,-157,133r12,-67v45,-6,69,-32,73,-78r-58,0r24,-128r132,0xm405,-128r-26,140v-8,71,-77,135,-157,133r12,-67v45,-6,69,-32,73,-78r-58,0r24,-128r132,0","w":480},"\u2022":{"d":"332,-487v91,0,171,80,171,171v0,94,-80,172,-173,172v-91,0,-170,-80,-170,-172v0,-92,80,-171,172,-171","w":600},"\u2026":{"d":"228,-128r-24,128r-134,0r24,-128r134,0xm561,-128r-24,128r-134,0r24,-128r134,0xm894,-128r-24,128r-134,0r24,-128r134,0","w":1000},"\u2039":{"d":"193,-231r-23,123r-115,-131r19,-100r163,-130r-23,123r-78,57","w":240},"\u203a":{"d":"250,-339r-19,100r-163,131r23,-123r79,-58r-58,-57r23,-123","w":240},"\u20ac":{"d":"169,-260v7,93,52,155,149,155v32,0,84,-13,155,-40r-23,123v-113,43,-232,50,-322,-13v-67,-47,-85,-109,-90,-225r-101,0r41,-88r68,0v4,-22,7,-37,9,-45r-94,0r40,-88r79,0v39,-95,89,-162,146,-206v78,-60,206,-81,316,-49v30,9,64,27,101,52r-59,103v-59,-39,-115,-59,-169,-59v-118,0,-156,63,-203,159r315,0r-50,88r-288,0r-9,45r272,0r-50,88r-233,0"},"\u2122":{"d":"482,-643r-89,0r-62,336r-109,0r62,-336r-87,0r17,-96r286,0xm1077,-739r-80,432r-109,0r48,-263r-155,263r-85,0r-57,-263r-49,263r-109,0r80,-432r138,0r66,293r174,-293r138,0","w":1023}}});
