/*!
 * The following copyright notice may not be removed under any circumstances.
 * 
 * Copyright:
 * Copyright (URW)++, copyright 1999 by (URW)++ Design & Development; Cyrillic
 * glyphs added by Valek Filippov, copyright 2001-2002; Vietnamese characters were
 * added by Han The Thanh; copyright 2006, 2008 for TeX Gyre extensions by B.
 * Jackowski and J.M. Nowacki (on behalf of TeX users groups). This work is
 * released under the GUST Font License --  see
 * http://tug.org/fonts/licenses/GUST-FONT-LICENSE.txt for details.
 * 
 * Trademark:
 * Please refer to the Copyright section for the font trademark attribution
 * notices.
 */
Cufon.registerFont({"w":554,"face":{"font-family":"TeXGyreAdventor","font-weight":400,"font-style":"italic","font-stretch":"normal","units-per-em":"1000","panose-1":"0 0 5 0 0 0 0 0 0 0","ascent":"808","descent":"-192","x-height":"13","bbox":"-111 -966 1245 251","underline-thickness":"58","underline-position":"-38","slope":"-10.5","unicode-range":"U+0020-U+2122"},"glyphs":{" ":{"w":277},"!":{"d":"155,0r-74,0r23,-126r74,0xm192,-197r-74,0r100,-542r74,0","w":295},"\"":{"d":"231,-739r-42,226r-50,0r42,-226r50,0xm344,-739r-42,226r-50,0r42,-226r50,0","w":309},"#":{"d":"599,-453r-122,0r-57,156r115,0r-11,60r-126,0r-87,237r-66,0r87,-237r-129,0r-88,237r-66,0r89,-237r-117,0r11,-60r128,0r59,-156r-121,0r11,-60r132,0r85,-226r64,0r-84,226r127,0r83,-226r66,0r-83,226r111,0xm411,-453r-127,0r-58,156r128,0"},"$":{"d":"379,-665v-79,-1,-142,68,-140,149v0,19,8,35,23,48v15,13,42,27,81,40v60,21,102,43,121,68v54,69,31,181,-26,246v-38,44,-88,74,-152,85r-16,85r-66,0r16,-85v-89,-12,-162,-89,-132,-199r68,0v-14,84,31,136,105,138v85,2,160,-76,156,-162v-3,-74,-41,-87,-112,-111v-87,-30,-135,-56,-138,-150v-3,-110,85,-200,183,-215r15,-82r66,0r-15,82v93,19,137,72,127,181r-70,0v14,-74,-29,-116,-94,-118"},"%":{"d":"696,-739r-471,739r-72,0r468,-739r75,0xm610,-338v80,0,145,63,145,143v0,104,-105,208,-210,208v-83,0,-147,-62,-147,-145v0,-104,107,-206,212,-206xm554,-55v68,0,133,-63,133,-130v0,-46,-41,-85,-88,-85v-66,0,-133,63,-133,128v0,48,40,87,88,87xm299,-749v80,0,145,63,145,143v0,104,-105,209,-209,209v-83,0,-148,-62,-148,-145v0,-102,106,-207,212,-207xm243,-465v68,0,133,-63,133,-130v0,-47,-40,-86,-88,-86v-68,0,-133,61,-133,129v0,49,39,87,88,87","w":775},"&":{"d":"432,-752v84,0,150,54,149,135v0,46,-13,84,-39,115v-26,31,-74,61,-141,91r115,138r146,-208r82,0r-184,261r153,182r-60,51r-141,-166v-71,111,-157,166,-256,166v-115,0,-194,-73,-193,-186v2,-95,58,-178,127,-214r88,-46v-37,-50,-55,-92,-55,-127v0,-101,105,-192,209,-192xm135,-177v-1,71,58,124,131,122v34,0,69,-13,104,-39v35,-26,68,-63,97,-112r-146,-174v-68,31,-116,62,-144,92v-28,30,-42,68,-42,111xm421,-684v-73,0,-153,81,-109,157v8,15,23,36,45,63v61,-25,102,-47,122,-66v20,-19,30,-43,30,-73v0,-52,-35,-81,-88,-81","w":757},"'":{"d":"231,-739r-42,226r-50,0r42,-226r50,0","w":198},"(":{"d":"282,125v-122,-44,-206,-187,-206,-346v0,-162,80,-301,174,-396v58,-58,121,-99,192,-122r-12,63v-90,54,-157,123,-206,202v-111,180,-93,427,70,534","w":369},")":{"d":"140,-739v119,39,209,192,207,347v-2,163,-80,299,-175,392v-57,57,-121,99,-192,125r12,-64v136,-67,278,-257,278,-443v0,-123,-47,-221,-142,-292","w":369},"*":{"d":"438,-547r-102,-21r39,100r-53,19r-35,-101r-70,80r-44,-36r75,-79r-106,-17r10,-52r105,22r-40,-102r55,-18r34,100r70,-82r41,38r-73,81r103,16","w":425},"+":{"d":"566,-213r-203,0r0,203r-74,0r0,-203r-203,0r0,-74r203,0r0,-203r74,0r0,203r203,0r0,74","w":606},",":{"d":"246,-126r-124,193r-73,0r124,-193r73,0","w":277},"-":{"d":"334,-296r-12,63r-272,0r12,-63r272,0","w":332},".":{"d":"145,0r-74,0r23,-126r74,0","w":277},"\/":{"d":"504,-739r-451,867r-67,0r449,-867r69,0","w":437},"0":{"d":"388,-752v111,-3,205,72,203,177v-2,110,-31,207,-48,306v-33,188,-134,282,-296,282v-122,0,-207,-70,-206,-188v0,-35,5,-66,10,-94r39,-210v29,-164,123,-270,298,-273xm118,-189v-1,81,60,134,142,134v57,0,102,-18,138,-53v67,-65,83,-234,107,-354v6,-35,9,-64,9,-88v2,-82,-59,-135,-140,-134v-117,0,-190,74,-215,222v-16,93,-39,166,-41,273"},"1":{"d":"461,-739r-137,739r-73,0r125,-672r-126,0r12,-67r199,0"},"2":{"d":"381,-752v112,0,197,70,196,180v0,49,-13,94,-39,134v-26,40,-74,88,-143,144r-280,227r369,0r-12,67r-469,0r12,-67r306,-250v71,-58,119,-103,143,-136v24,-33,36,-68,36,-107v1,-75,-55,-125,-132,-124v-110,1,-178,80,-193,184r-73,0v18,-138,129,-252,279,-252"},"3":{"d":"379,-752v90,-2,156,60,155,148v0,75,-36,136,-108,181v61,33,92,84,92,153v0,143,-136,283,-278,283v-112,0,-200,-76,-199,-184v0,-15,1,-35,3,-60r73,0v-6,109,30,176,130,176v100,0,196,-96,194,-197v-2,-106,-69,-135,-181,-136r12,-66r39,2v79,2,146,-61,146,-141v0,-54,-38,-91,-93,-91v-73,0,-132,60,-137,129r-73,0v20,-111,105,-195,225,-197"},"4":{"d":"523,-135r-68,0r-25,135r-73,0r25,-135r-375,0r12,-67r461,-537r87,0r-100,537r68,0xm475,-637r-370,435r289,0"},"5":{"d":"347,-503v118,-2,200,88,200,206v0,154,-150,310,-301,310v-113,0,-213,-88,-209,-203r0,-42r72,0v-2,108,48,175,144,177v116,3,217,-113,217,-231v0,-86,-59,-150,-144,-149v-57,0,-113,27,-168,82r-53,-22r133,-364r335,0r-12,67r-276,0r-74,204v49,-23,95,-35,136,-35"},"6":{"d":"267,-482v144,-67,282,34,282,183v0,161,-143,312,-302,312v-120,0,-213,-84,-211,-202v0,-47,8,-89,24,-125v16,-36,53,-88,110,-153r233,-272r85,0xm261,-55v111,0,211,-118,211,-231v0,-87,-55,-149,-141,-149v-114,0,-218,113,-218,231v0,89,59,149,148,149"},"7":{"d":"585,-672r-429,672r-78,0r431,-672r-350,0r12,-67r426,0"},"8":{"d":"550,-603v-2,93,-46,161,-119,190v63,33,95,82,95,146v0,150,-127,280,-277,280v-118,0,-202,-73,-201,-189v2,-112,77,-200,165,-237v-42,-34,-60,-50,-62,-114v-5,-117,120,-225,236,-225v93,0,164,59,163,149xm259,-55v103,0,192,-92,192,-195v0,-75,-56,-125,-132,-125v-103,0,-194,90,-194,194v0,73,60,126,134,126xm332,-444v73,0,141,-72,141,-143v0,-59,-40,-97,-100,-97v-76,0,-145,68,-145,143v0,55,48,97,104,97"},"9":{"d":"382,-752v122,0,215,82,213,202v0,47,-11,93,-32,137v-15,31,-49,78,-103,141r-233,272r-85,0r222,-257v-142,67,-282,-33,-282,-178v0,-162,141,-317,300,-317xm299,-304v116,0,219,-111,219,-228v0,-88,-61,-152,-148,-152v-111,0,-211,119,-211,229v0,88,54,151,140,151"},":":{"d":"217,-381r-74,0r23,-126r74,0xm145,0r-74,0r23,-126r74,0","w":277},";":{"d":"196,-126r-124,193r-73,0r125,-193r72,0xm245,-381r-74,0r23,-126r74,0","w":277},"<":{"d":"503,95r-378,-317r0,-56r378,-317r0,96r-296,249r296,249r0,96","w":606},"=":{"d":"566,-305r-480,0r0,-74r480,0r0,74xm566,-121r-480,0r0,-74r480,0r0,74","w":606},">":{"d":"503,-222r-378,317r0,-96r296,-249r-296,-249r0,-96r378,317r0,56","w":606},"?":{"d":"305,0r-74,0r23,-126r74,0xm408,-752v110,-2,190,68,189,175v0,43,-8,79,-25,108v-17,29,-51,63,-101,104v-69,57,-111,91,-132,172r-70,0v6,-68,52,-136,139,-204v44,-35,72,-62,85,-81v18,-26,27,-56,27,-89v1,-70,-54,-117,-126,-117v-99,0,-164,59,-195,176r-70,0v28,-141,125,-241,279,-244","w":591},"@":{"d":"568,-752v157,0,288,110,285,263v-2,120,-83,239,-159,297v-46,35,-89,53,-132,53v-50,0,-69,-16,-79,-57v-44,35,-87,52,-129,52v-69,1,-114,-44,-113,-113v3,-115,90,-228,167,-283v48,-34,93,-53,136,-53v55,0,89,23,102,69r26,-50r61,0r-145,278v-23,52,-34,49,-34,85v0,12,17,21,31,20v27,0,57,-15,91,-43v58,-47,123,-150,124,-248v2,-131,-111,-218,-248,-218v-196,0,-396,198,-396,393v0,154,119,268,275,268v91,0,175,-33,252,-99r34,33v-87,79,-188,118,-304,118v-175,0,-313,-135,-310,-311v3,-178,113,-320,237,-391v72,-41,147,-63,228,-63xm313,-271v-1,41,25,69,64,69v27,0,51,-10,76,-28v48,-35,149,-192,145,-252v-2,-37,-26,-60,-66,-59v-29,0,-61,15,-96,45v-56,46,-120,138,-123,225","w":867},"A":{"d":"699,0r-81,0r-61,-249r-344,0r-154,249r-78,0r454,-739r83,0xm541,-316r-80,-339r-207,339r287,0","w":740},"B":{"d":"457,-394v63,33,101,55,101,134v0,128,-73,218,-180,246v-80,22,-225,12,-332,14r137,-739v173,4,394,-32,394,144v0,97,-45,173,-120,201xm426,-113v61,-46,80,-178,5,-221v-32,-18,-168,-21,-248,-20r-51,287r101,0v92,0,155,-17,193,-46xm500,-578v0,-35,-13,-59,-36,-74v-34,-22,-146,-20,-219,-20r-47,251v101,-2,208,9,257,-41v29,-29,45,-67,45,-116","w":574},"C":{"d":"153,-310v0,146,114,255,261,255v103,0,196,-46,281,-139r82,0v-77,114,-203,204,-375,207v-185,4,-328,-123,-326,-303v2,-182,108,-325,233,-399v127,-75,307,-88,427,-6v56,38,90,87,103,148r-82,0v-41,-91,-117,-137,-228,-137v-145,0,-263,89,-323,190v-35,58,-53,119,-53,184","w":813},"D":{"d":"744,-448v0,221,-138,367,-311,424v-99,33,-254,22,-387,24r137,-739r174,0v124,0,214,19,269,58v79,54,118,132,118,233xm636,-287v48,-112,42,-259,-42,-325v-50,-39,-131,-60,-246,-60r-103,0r-113,605v102,1,223,0,291,-23v97,-32,173,-103,213,-197","w":744},"E":{"d":"575,-672r-330,0r-50,265r319,0r-12,67r-319,0r-51,273r330,0r-12,67r-404,0r137,-739r404,0","w":536},"F":{"d":"546,-672r-301,0r-50,267r290,0r-12,67r-290,0r-63,338r-74,0r137,-739r375,0","w":485},"G":{"d":"154,-312v0,153,118,259,271,257v156,-1,285,-103,338,-219r-414,0r12,-67r503,0v-39,179,-236,354,-448,354v-190,0,-342,-127,-339,-313v1,-132,67,-245,141,-316v74,-73,191,-135,327,-136v157,-2,286,83,312,210r-84,0v-28,-84,-120,-142,-231,-142v-200,0,-388,175,-388,372","w":872},"H":{"d":"714,-739r-137,739r-74,0r64,-347r-383,0r-64,347r-74,0r137,-739r74,0r-60,325r383,0r60,-325r74,0","w":683},"I":{"d":"257,-739r-137,739r-74,0r137,-739r74,0","w":226},"J":{"d":"86,-175v9,78,24,121,102,121v102,0,137,-76,156,-177r95,-508r74,0r-95,508v-25,142,-93,242,-241,245v-112,2,-179,-70,-164,-189r73,0","w":482},"K":{"d":"692,-739r-359,360r222,379r-93,0r-187,-320r-118,118r-37,202r-74,0r137,-739r74,0r-79,425r421,-425r93,0","w":591},"L":{"d":"426,0r-380,0r137,-739r74,0r-125,672r306,0","w":462},"M":{"d":"950,-739r-137,739r-74,0r122,-658r-400,658r-64,0r-155,-658r-122,658r-74,0r137,-739r115,0r152,629r385,-629r115,0","w":919},"N":{"d":"771,-739r-137,739r-74,0r-320,-650r-120,650r-74,0r137,-739r100,0r300,613r114,-613r74,0","w":740},"O":{"d":"548,-752v174,0,326,139,322,316v-4,174,-117,316,-242,386v-73,41,-150,63,-230,63v-175,0,-326,-139,-322,-315v4,-175,117,-317,242,-387v73,-41,150,-63,230,-63xm410,-55v188,0,383,-182,383,-367v0,-149,-113,-262,-263,-262v-182,0,-377,188,-377,368v0,142,116,261,257,261","w":869},"P":{"d":"577,-700v65,44,70,156,37,238v-46,113,-131,167,-297,163r-142,0r-55,299r-74,0r137,-739v134,2,321,-11,394,39xm507,-419v47,-47,82,-190,4,-231v-30,-25,-182,-23,-266,-22r-57,306v81,-1,191,6,250,-12v28,-8,50,-22,69,-41","w":592},"Q":{"d":"551,-752v190,0,334,121,332,305v-1,153,-82,286,-180,354v35,29,61,42,104,37r-13,69v-82,-3,-104,-18,-150,-64v-68,43,-146,64,-233,64v-184,0,-338,-132,-336,-312v2,-179,119,-323,246,-392v74,-40,150,-61,230,-61xm171,-216v20,81,140,161,250,161v59,0,117,-15,172,-45v-80,-86,-152,-134,-299,-137v-45,0,-86,7,-123,21xm659,-142v88,-81,143,-145,147,-285v4,-153,-112,-257,-266,-257v-211,0,-395,182,-388,399r-1,6v116,-36,249,-37,345,10v48,24,102,66,163,127","w":871},"R":{"d":"643,-553v2,155,-115,268,-263,277r156,276r-92,0r-187,-335v160,-4,223,-7,279,-95v41,-64,44,-172,-20,-212v-47,-29,-176,-31,-271,-30r-125,672r-74,0r137,-739r183,0v100,0,172,15,214,45v42,30,63,76,63,141","w":607},"S":{"d":"348,-684v-91,0,-180,92,-150,187v9,27,22,35,45,47v12,6,36,15,72,27v73,25,120,50,141,76v21,27,32,61,32,101v0,133,-133,259,-269,259v-109,0,-195,-72,-193,-178v0,-7,1,-21,2,-42r79,0v0,100,34,150,127,152v93,2,180,-84,177,-177v0,-31,-10,-54,-30,-72v-20,-18,-56,-35,-109,-52v-65,-20,-107,-42,-127,-66v-20,-24,-30,-56,-30,-98v-3,-119,121,-232,246,-232v113,0,191,80,170,200r-77,0v0,-88,-35,-132,-106,-132","w":498},"T":{"d":"514,-672r-169,0r-125,672r-74,0r125,-672r-169,0r12,-67r412,0","w":426},"U":{"d":"165,-188v-1,80,62,135,144,133v132,-4,195,-93,218,-223r85,-461r74,0r-85,461v-18,97,-53,169,-107,218v-54,49,-120,73,-198,73v-116,0,-208,-74,-207,-186v0,-29,4,-64,11,-105r85,-461r74,0r-85,461v-6,32,-9,62,-9,90","w":655},"V":{"d":"799,-739r-443,739r-72,0r-167,-739r81,0r140,647r381,-647r80,0","w":702},"W":{"d":"1057,-739r-349,739r-95,0r-52,-606r-274,606r-96,0r-74,-739r76,0r63,643r296,-643r70,0r58,643r301,-643r76,0","w":960},"X":{"d":"571,0r-88,0r-149,-316r-269,316r-87,0r321,-378r-170,-361r87,0r141,296r250,-296r86,0r-304,361","w":609},"Y":{"d":"697,-739r-349,492r-46,247r-74,0r46,-247r-165,-492r82,0r133,414r292,-414r81,0","w":592},"Z":{"d":"444,0r-457,0r12,-67r476,-605r-352,0r12,-67r435,0r-12,67r-475,605r373,0","w":480},"[":{"d":"274,50r-14,75v-130,-40,-176,-139,-148,-289r55,-298v20,-136,125,-247,253,-277r-14,75v-103,41,-150,96,-172,216r-50,271v-25,114,-7,184,90,227","w":351},"\\":{"d":"434,0r-71,0r-172,-739r72,0","w":605},"]":{"d":"144,-739v87,25,157,95,158,198v0,29,-3,59,-9,91r-55,297v-27,142,-119,242,-254,278r14,-75v101,-37,150,-100,172,-216r50,-272v25,-113,7,-185,-90,-226","w":351},"^":{"d":"591,-180r-81,0r-114,-477r-292,477r-83,0r347,-559r84,0","w":606},"_":{"d":"458,67r-11,58r-500,0r11,-58r500,0","w":500},"`":{"d":"354,-650r-45,56r-172,-114r46,-58","w":375},"a":{"d":"58,-216v0,-180,166,-344,346,-344v93,0,158,37,195,110r18,-97r74,0r-101,547r-74,0r18,-96v-73,70,-112,106,-231,109v-141,3,-245,-91,-245,-229xm318,-55v130,0,253,-132,253,-264v0,-98,-76,-173,-174,-173v-133,0,-262,125,-262,257v0,106,76,180,183,180","w":683},"b":{"d":"425,-560v135,-2,241,97,241,230v0,180,-168,343,-348,343v-93,0,-162,-43,-194,-107r-17,94r-74,0r137,-739r74,0r-53,286v50,-61,132,-105,234,-107xm329,-55v135,0,260,-128,260,-263v0,-103,-74,-174,-178,-174v-130,0,-263,127,-263,255v0,102,78,182,181,182","w":682},"c":{"d":"135,-233v0,103,79,180,183,178v41,0,74,-7,102,-21v28,-14,63,-42,106,-85r83,0v-47,63,-93,109,-141,135v-48,26,-101,39,-159,39v-144,0,-251,-94,-251,-235v0,-173,175,-338,350,-338v127,0,220,72,241,179r-83,0v-24,-66,-84,-109,-170,-111v-134,-3,-261,126,-261,259","w":647},"d":{"d":"58,-217v0,-178,171,-343,350,-343v85,0,150,33,195,100r52,-279r74,0r-137,739r-74,0r18,-99v-63,69,-116,109,-231,112v-137,3,-247,-96,-247,-230xm320,-55v128,0,256,-134,256,-263v0,-100,-83,-174,-184,-174v-130,0,-257,127,-257,256v0,107,77,181,185,181","w":685},"e":{"d":"398,-560v134,0,239,95,237,228v0,21,-3,49,-9,83r-495,0v-1,16,-2,25,-2,28v-2,93,84,168,179,166v90,-2,180,-61,214,-125r77,0v-53,102,-165,190,-304,193v-132,3,-237,-102,-237,-233v0,-174,166,-340,340,-340xm565,-316v-4,-104,-73,-177,-180,-176v-113,0,-210,85,-239,176r419,0","w":650},"f":{"d":"172,-547v24,-125,104,-195,245,-192r-12,67v-101,-3,-143,37,-159,125r135,0r-12,67r-135,0r-89,480r-74,0r89,-480r-85,0r12,-67r85,0","w":314},"g":{"d":"396,-560v109,3,143,34,193,110r18,-97r74,0r-84,449v-22,109,-32,153,-90,215v-61,66,-142,98,-242,98v-142,0,-215,-67,-235,-198r72,0v42,90,64,130,177,130v157,0,228,-109,247,-258v-54,83,-131,124,-231,124v-135,0,-238,-98,-238,-232v0,-173,167,-346,339,-341xm307,-55v132,0,255,-133,255,-270v0,-96,-80,-167,-177,-167v-126,0,-251,125,-251,256v0,104,65,181,173,181","w":673},"h":{"d":"380,-560v121,-1,199,66,199,184v0,17,-3,45,-10,82r-54,294r-74,0r54,-294v5,-29,7,-53,7,-72v1,-74,-62,-128,-139,-126v-115,2,-181,83,-200,192r-56,300r-74,0r137,-739r74,0r-49,263v51,-56,112,-84,185,-84","w":610},"i":{"d":"107,0r-74,0r101,-547r74,0xm220,-607r-74,0r23,-126r74,0","w":200},"j":{"d":"118,-38v-23,147,-100,223,-229,230r13,-71v101,-10,123,-57,142,-159r94,-509r74,0xm224,-607r-74,0r23,-126r74,0","w":203},"k":{"d":"467,0r-92,0r-141,-219r-106,106r-21,113r-74,0r137,-739r74,0r-97,524r316,-332r91,0r-264,275","w":502},"l":{"d":"244,-739r-137,739r-74,0r137,-739r74,0","w":200},"m":{"d":"731,-560v102,-2,181,60,180,158v0,21,-3,46,-8,77r-60,325r-74,0r59,-317v4,-24,6,-45,6,-62v1,-70,-47,-114,-118,-113v-106,3,-164,73,-182,175r-59,317r-74,0r59,-319v4,-21,6,-38,6,-53v2,-76,-49,-120,-121,-120v-101,0,-162,79,-179,173r-59,319r-74,0r101,-547r74,0r-11,63v56,-53,76,-76,166,-76v85,0,138,35,159,105v58,-64,104,-102,209,-105","w":938},"n":{"d":"383,-560v115,-2,197,69,196,181v0,23,-4,54,-11,92r-53,287r-74,0r53,-287v5,-30,8,-55,8,-74v1,-81,-57,-132,-139,-131v-117,3,-179,78,-200,191r-56,301r-74,0r101,-547r74,0r-13,71v58,-56,121,-84,188,-84","w":610},"o":{"d":"405,-560v136,0,234,93,234,228v0,178,-163,345,-336,345v-139,0,-246,-92,-246,-228v0,-181,169,-345,348,-345xm313,-55v139,0,249,-127,249,-270v0,-96,-74,-167,-170,-167v-137,0,-258,127,-258,264v0,102,75,173,179,173","w":655},"p":{"d":"425,-560v141,-1,240,96,240,235v0,172,-171,338,-345,338v-93,0,-159,-36,-196,-107r-53,286r-74,0r137,-739r74,0r-17,94v44,-61,134,-106,234,-107xm325,-55v133,0,263,-124,263,-262v0,-100,-78,-175,-179,-175v-132,0,-262,125,-262,265v0,97,80,172,178,172","w":682},"q":{"d":"57,-217v0,-177,168,-343,345,-343v97,0,162,36,197,107r17,-94r74,0r-137,739r-74,0r53,-286v-61,71,-140,107,-237,107v-134,0,-238,-98,-238,-230xm310,-55v136,0,265,-126,265,-263v0,-100,-81,-174,-182,-174v-134,0,-259,129,-259,263v0,100,76,174,176,174","w":682},"r":{"d":"366,-560r-14,73v-105,11,-167,67,-186,168r-59,319r-74,0r101,-547r74,0r-14,78v40,-58,83,-85,172,-91","w":301},"s":{"d":"254,-492v-47,0,-97,46,-97,92v0,25,13,45,38,59v11,6,43,21,95,44v48,21,72,57,72,108v0,107,-98,202,-203,202v-97,0,-164,-70,-143,-174r73,0v0,74,18,104,83,106v59,2,115,-54,113,-112v0,-21,-6,-36,-17,-47v-28,-30,-135,-60,-162,-94v-16,-20,-26,-43,-26,-72v0,-93,95,-182,188,-180v80,2,140,59,126,148r-75,0v0,-53,-22,-80,-65,-80","w":388},"t":{"d":"386,-480r-129,0r-89,480r-74,0r89,-480r-112,0r12,-67r112,0r36,-192r74,0r-36,192r129,0","w":339},"u":{"d":"146,-185v0,84,48,132,134,130v124,-3,186,-87,209,-211r53,-281r74,0r-102,547r-74,0r16,-85v-49,63,-95,96,-196,98v-110,2,-192,-62,-191,-168v0,-31,3,-64,9,-97r55,-295r74,0r-55,295v-4,17,-6,40,-6,67","w":608},"v":{"d":"617,-547r-331,547r-78,0r-129,-547r75,0r107,460r281,-460r75,0"},"w":{"d":"895,-547r-313,547r-79,0r-52,-363r-185,363r-80,0r-108,-547r74,0r89,458r202,-391r61,0r56,391r263,-458r72,0","w":831},"x":{"d":"442,0r-85,0r-106,-219r-189,219r-84,0r242,-279r-141,-268r84,0r109,211r186,-211r85,0r-240,268","w":480},"y":{"d":"598,-547r-453,739r-78,0r127,-210r-114,-529r81,0r92,436r266,-436r79,0","w":536},"z":{"d":"385,0r-405,0r12,-67r379,-413r-292,0r12,-67r376,0r-11,63r-377,417r318,0","w":425},"{":{"d":"126,-215v0,-47,-17,-45,-62,-57r13,-69v63,-12,79,-26,91,-90r32,-170v34,-114,44,-132,178,-138r-13,67v-69,8,-76,10,-88,71r-32,170v-18,81,-37,99,-112,125v48,18,70,27,70,85v0,87,-33,154,-38,239v-2,38,27,36,65,41r-13,67v-49,-1,-80,-6,-93,-14v-25,-15,-37,-38,-37,-71v3,-97,39,-163,39,-256","w":351},"|":{"d":"396,125r-74,0r0,-864r74,0r0,864","w":672},"}":{"d":"234,-390v2,37,24,40,62,49r-13,69v-71,15,-78,18,-91,89r-31,170v-22,106,-55,137,-177,139r12,-67v72,-8,77,-7,89,-72r31,-170v12,-74,43,-102,111,-123v-48,-25,-70,-23,-70,-79v0,-77,26,-144,37,-216v1,-3,1,-13,1,-31v1,-38,-25,-35,-63,-40r12,-67v49,1,80,6,93,14v38,24,44,66,33,124r-32,170","w":351},"~":{"d":"589,-343v-36,53,-91,108,-162,112v-50,3,-152,-68,-206,-68v-21,0,-38,6,-53,17v-15,11,-37,35,-66,72r-33,-47v32,-43,61,-75,86,-93v50,-34,92,-35,153,-8v35,15,101,49,135,49v31,0,68,-27,111,-81","w":606},"\u00a0":{"w":277},"\u00a1":{"d":"232,-421r-74,0r23,-126r74,0xm118,192r-74,0r100,-542r74,0","w":295},"\u00a2":{"d":"257,-151v-98,-7,-174,-84,-174,-187v1,-142,123,-264,260,-276r17,-93r67,0r-17,93v84,14,142,68,155,151r-82,0v-22,-52,-65,-84,-129,-84v-99,0,-194,95,-194,194v0,80,55,137,134,136v55,0,106,-24,153,-73r80,0v-33,68,-117,127,-203,139r-16,89r-67,0"},"\u00a3":{"d":"322,-67v131,2,209,-74,209,-201r72,0v2,169,-119,268,-290,268r-285,0r12,-67r138,0v36,-33,66,-90,66,-153v0,-61,-30,-84,-69,-127r-124,0r13,-67r76,0v-8,-27,-12,-49,-12,-67v-6,-143,146,-271,286,-271v123,0,226,84,209,211r-70,0v1,-87,-62,-143,-151,-143v-126,0,-238,138,-182,270r283,0r-13,67r-216,0v69,97,59,177,-9,280r57,0"},"\u00a4":{"d":"191,-507v62,-30,84,-47,158,-47v58,0,105,16,142,47r51,-42r43,54r-49,43v54,107,8,237,-55,299r34,42r-64,53r-33,-42v-103,62,-221,71,-302,0r-51,42r-44,-53r51,-42v-15,-26,-23,-58,-23,-97v0,-73,26,-141,78,-202r-35,-43r64,-54xm272,-123v113,0,216,-104,216,-217v0,-87,-63,-141,-147,-141v-112,0,-220,103,-220,211v0,89,61,147,151,147"},"\u00a5":{"d":"696,-739r-195,276r102,0r-13,67r-138,0r-66,92r180,0r-12,67r-205,0r-44,237r-74,0r44,-237r-208,0r12,-67r182,0r-32,-92r-140,0r13,-67r104,0r-97,-276r76,0r145,412r290,-412r76,0"},"\u00a6":{"d":"396,-393r-74,0r0,-346r74,0r0,346xm396,125r-74,0r0,-346r74,0r0,346","w":672},"\u00a7":{"d":"400,-684v-61,0,-121,50,-120,109v0,31,15,55,45,70r143,74v57,29,85,68,85,116v0,62,-35,118,-104,169v21,25,31,51,31,76v0,118,-111,211,-224,211v-110,0,-191,-86,-169,-205r68,0v-11,82,40,137,116,137v68,0,143,-61,141,-125v0,-29,-27,-56,-78,-85v-63,-35,-153,-72,-198,-119v-14,-15,-20,-34,-20,-54v2,-84,56,-147,118,-181v-16,-19,-24,-42,-24,-70v-3,-101,102,-191,206,-191v83,0,165,57,148,146r-71,0v-2,-52,-33,-78,-93,-78xm265,-454v-36,22,-77,71,-77,121v0,24,22,45,41,55r181,96v47,-31,71,-71,71,-118v0,-28,-15,-50,-45,-65","w":615},"\u00a8":{"d":"229,-607r-74,0r23,-126r74,0xm376,-607r-74,0r23,-126r74,0","w":369},"\u00a9":{"d":"397,-695v189,0,354,165,354,354v0,189,-165,353,-354,353v-189,0,-353,-164,-353,-353v0,-189,164,-354,353,-354xm397,-25v170,0,317,-146,317,-316v0,-170,-147,-317,-317,-317v-170,0,-316,147,-316,317v0,170,146,316,316,316xm601,-253v-45,72,-128,125,-235,127v-111,2,-199,-67,-203,-170v-5,-140,136,-260,280,-260v92,0,177,50,187,126r-61,0v-24,-49,-69,-74,-135,-74v-106,0,-215,90,-212,193v2,79,70,133,153,133v60,0,115,-25,164,-75r62,0","w":747},"\u00aa":{"d":"115,-569v0,-122,191,-250,276,-125r8,-45r48,0r-54,291r-48,0r8,-45v-33,35,-71,52,-114,52v-68,0,-124,-59,-124,-128xm250,-490v56,0,120,-64,120,-120v0,-46,-34,-86,-79,-86v-60,0,-123,62,-123,121v0,45,37,85,82,85xm379,-319r-318,0r9,-52r318,0","w":369},"\u00ab":{"d":"206,-132r-65,33r-75,-201r149,-199r53,32r-124,167xm380,-132r-65,33r-75,-201r149,-199r53,32r-124,167","w":425},"\u00ac":{"d":"566,-379r0,221r-74,0r0,-147r-406,0r0,-74r480,0","w":606},"\u00ad":{"d":"334,-296r-12,63r-272,0r12,-63r272,0","w":332},"\u00ae":{"d":"397,-695v189,0,354,165,354,354v0,189,-165,353,-354,353v-189,0,-353,-164,-353,-353v0,-189,164,-354,353,-354xm397,-25v170,0,317,-146,317,-316v0,-170,-147,-317,-317,-317v-170,0,-316,147,-316,317v0,170,146,316,316,316xm408,-549v107,1,167,18,172,107v4,87,-66,149,-148,158r97,151r-73,0r-124,-197v100,-2,139,1,174,-48v23,-33,21,-86,-14,-104v-26,-14,-101,-16,-153,-15r-67,364r-57,0r77,-416r116,0","w":747},"\u00af":{"d":"511,-701r-12,62r-337,0r12,-62r337,0","w":485},"\u00b0":{"d":"282,-681v80,0,150,71,150,150v0,81,-71,150,-153,150v-82,0,-152,-69,-152,-151v0,-82,72,-149,155,-149xm279,-438v51,0,96,-43,96,-93v0,-49,-45,-93,-94,-93v-51,0,-97,42,-97,92v0,51,45,94,95,94","w":400},"\u00b1":{"d":"566,-287r-203,0r0,146r-74,0r0,-146r-203,0r0,-74r203,0r0,-203r74,0r0,203r203,0r0,74xm566,0r-480,0r0,-74r480,0r0,74","w":606},"\u00b2":{"d":"278,-747v72,0,128,43,127,113v0,29,-7,56,-25,79v-53,71,-175,145,-251,206r223,0r-9,52r-306,0r9,-49r191,-146v51,-39,82,-65,93,-80v11,-15,17,-34,17,-57v0,-41,-37,-66,-81,-66v-63,0,-101,36,-114,107r-57,0v12,-93,82,-159,183,-159","w":332},"\u00b3":{"d":"381,-653v0,47,-30,86,-64,103v37,19,56,51,56,94v0,86,-92,167,-181,167v-88,0,-148,-60,-128,-154r57,0v-2,38,-3,61,22,82v65,53,172,-9,172,-83v0,-55,-44,-81,-120,-79r10,-50v63,5,116,-18,118,-71v0,-33,-23,-51,-56,-51v-47,0,-74,25,-82,75r-57,0v8,-69,71,-127,147,-127v62,0,106,35,106,94","w":332},"\u00b4":{"d":"440,-708r-214,114r-24,-56r214,-116","w":375},"\u00b5":{"d":"456,-85v-41,62,-77,98,-167,98v-75,0,-130,-36,-165,-107r-53,286r-74,0r137,-739r74,0r-52,281v-5,25,-7,48,-7,68v0,95,50,143,149,143v49,0,89,-16,121,-47v32,-31,55,-86,70,-164r53,-281r74,0r-102,547r-74,0","w":608},"\u00b6":{"d":"105,-510v0,-136,113,-229,262,-229r231,0r-161,872r-74,0r149,-805r-116,0r-149,805r-74,0r90,-488v-92,-9,-158,-59,-158,-155","w":564},"\u00b7":{"d":"162,-313v34,0,63,29,63,63v0,34,-29,63,-63,63v-34,0,-63,-29,-63,-63v0,-34,29,-63,63,-63","w":277},"\u00b8":{"d":"234,118v0,74,-61,132,-135,133v-49,0,-75,-28,-80,-85r54,-6v3,24,12,33,38,33v32,1,58,-30,58,-64v0,-50,-65,-48,-91,-21r-28,-19r55,-94r39,0r-27,53v62,-18,117,12,117,70","w":324},"\u00b9":{"d":"259,-297r-58,0r72,-390r-76,0r9,-52r134,0","w":332},"\u00ba":{"d":"296,-745v70,0,124,56,124,126v0,90,-94,177,-186,177v-68,0,-123,-56,-123,-125v0,-91,92,-178,185,-178xm246,-491v64,0,121,-61,121,-126v0,-42,-38,-79,-80,-79v-65,0,-123,59,-123,124v0,46,36,81,82,81xm367,-319r-305,0r9,-52r305,0","w":369},"\u00bb":{"d":"237,-300r-149,201r-53,-33r124,-168r-62,-167r65,-32xm411,-300r-149,201r-53,-33r124,-168r-62,-167r65,-32","w":425},"\u00bc":{"d":"786,-79r-42,0r-15,79r-58,0r15,-79r-232,0r9,-48r285,-315r63,0r-58,311r42,0xm738,-358r-204,227r161,0xm720,-739r-479,739r-54,0r479,-739r54,0xm266,-297r-58,0r72,-390r-76,0r9,-52r134,0","w":831},"\u00bd":{"d":"710,-739r-479,739r-54,0r479,-739r54,0xm256,-297r-58,0r72,-390r-76,0r9,-52r134,0xm717,-450v72,0,128,43,127,113v0,29,-8,56,-26,79v-53,71,-174,145,-250,206r223,0r-9,52r-306,0r9,-49r191,-146v51,-39,82,-65,93,-80v11,-15,17,-34,17,-57v0,-41,-37,-66,-81,-66v-63,0,-101,36,-114,107r-57,0v12,-93,82,-159,183,-159","w":831},"\u00be":{"d":"786,-79r-42,0r-15,79r-58,0r15,-79r-232,0r9,-48r285,-315r63,0r-58,311r42,0xm738,-358r-204,227r161,0xm730,-739r-479,739r-54,0r479,-739r54,0xm381,-653v0,47,-30,86,-64,103v37,19,56,51,56,94v0,86,-92,167,-181,167v-88,0,-148,-60,-128,-154r57,0v-2,38,-3,61,22,82v65,53,172,-9,172,-83v0,-55,-44,-81,-120,-79r10,-50v63,5,116,-18,118,-71v0,-33,-23,-51,-56,-51v-47,0,-74,25,-82,75r-57,0v8,-69,71,-127,147,-127v62,0,106,35,106,94","w":831},"\u00bf":{"d":"378,-421r-74,0r23,-126r74,0xm112,20v-1,70,54,117,126,117v99,0,164,-59,195,-176r70,0v-28,141,-125,241,-279,244v-110,2,-190,-68,-189,-175v0,-43,8,-79,25,-108v17,-29,51,-63,101,-104v69,-57,111,-91,132,-172r70,0v-6,68,-52,136,-139,204v-44,35,-72,62,-85,81v-18,26,-27,56,-27,89","w":591},"\u00c0":{"d":"699,0r-81,0r-61,-249r-344,0r-154,249r-78,0r454,-739r83,0xm541,-316r-80,-339r-207,339r287,0xm570,-832r-45,56r-172,-114r46,-58","w":740},"\u00c1":{"d":"699,0r-81,0r-61,-249r-344,0r-154,249r-78,0r454,-739r83,0xm541,-316r-80,-339r-207,339r287,0xm655,-890r-214,114r-24,-56r214,-116","w":740},"\u00c2":{"d":"699,0r-81,0r-61,-249r-344,0r-154,249r-78,0r454,-739r83,0xm541,-316r-80,-339r-207,339r287,0xm663,-789r-89,0r-72,-74r-102,74r-91,0r168,-126r66,0","w":740},"\u00c3":{"d":"699,0r-81,0r-61,-249r-344,0r-154,249r-78,0r454,-739r83,0xm541,-316r-80,-339r-207,339r287,0xm441,-902v11,-4,96,39,105,37v24,0,48,-13,71,-38r21,46v-27,37,-57,55,-92,55v-18,0,-50,-11,-96,-33v-5,-3,-10,-4,-17,-4v-27,0,-26,13,-58,33r-23,-45v33,-34,62,-51,89,-51","w":740},"\u00c4":{"d":"699,0r-81,0r-61,-249r-344,0r-154,249r-78,0r454,-739r83,0xm541,-316r-80,-339r-207,339r287,0xm448,-789r-74,0r23,-126r74,0xm595,-789r-74,0r23,-126r74,0","w":740},"\u00c5":{"d":"699,0r-81,0r-61,-249r-344,0r-154,249r-78,0r454,-739r83,0xm541,-316r-80,-339r-207,339r287,0xm516,-966v51,0,86,36,86,87v0,57,-64,115,-122,115v-46,0,-84,-34,-84,-79v0,-64,56,-123,120,-123xm488,-808v32,0,72,-35,72,-66v0,-26,-24,-48,-51,-48v-34,0,-71,34,-71,68v0,27,22,46,50,46","w":740},"\u00c6":{"d":"1031,-672r-319,0r-50,265r308,0r-12,67r-308,0r-51,273r319,0r-12,67r-393,0r46,-250r-271,0r-219,250r-88,0r648,-739r414,0xm572,-317r60,-327r-284,327r224,0","w":992},"\u00c7":{"d":"153,-310v0,146,114,255,261,255v103,0,196,-46,281,-139r82,0v-76,115,-202,203,-372,207r-18,35v62,-18,117,12,117,70v0,74,-61,132,-135,133v-49,0,-75,-28,-80,-85r54,-6v3,24,12,33,38,33v32,1,58,-30,58,-64v0,-50,-65,-48,-91,-21r-28,-19r45,-78v-164,-11,-290,-130,-289,-301v2,-182,108,-325,233,-399v127,-75,307,-88,427,-6v56,38,90,87,103,148r-82,0v-41,-91,-117,-137,-228,-137v-145,0,-263,89,-323,190v-35,58,-53,119,-53,184","w":813},"\u00c8":{"d":"575,-672r-330,0r-50,265r319,0r-12,67r-319,0r-51,273r330,0r-12,67r-404,0r137,-739r404,0xm478,-832r-45,56r-172,-114r46,-58","w":536},"\u00c9":{"d":"575,-672r-330,0r-50,265r319,0r-12,67r-319,0r-51,273r330,0r-12,67r-404,0r137,-739r404,0xm564,-890r-214,114r-24,-56r214,-116","w":536},"\u00ca":{"d":"575,-672r-330,0r-50,265r319,0r-12,67r-319,0r-51,273r330,0r-12,67r-404,0r137,-739r404,0xm572,-789r-89,0r-72,-74r-102,74r-91,0r168,-126r66,0","w":536},"\u00cb":{"d":"575,-672r-330,0r-50,265r319,0r-12,67r-319,0r-51,273r330,0r-12,67r-404,0r137,-739r404,0xm356,-789r-74,0r23,-126r74,0xm503,-789r-74,0r23,-126r74,0","w":536},"\u00cc":{"d":"257,-739r-137,739r-74,0r137,-739r74,0xm309,-832r-45,56r-172,-114r46,-58","w":226},"\u00cd":{"d":"257,-739r-137,739r-74,0r137,-739r74,0xm403,-890r-214,114r-24,-56r214,-116","w":226},"\u00ce":{"d":"257,-739r-137,739r-74,0r137,-739r74,0xm407,-789r-89,0r-72,-74r-102,74r-91,0r168,-126r66,0","w":226},"\u00cf":{"d":"257,-739r-137,739r-74,0r137,-739r74,0xm191,-789r-74,0r23,-126r74,0xm338,-789r-74,0r23,-126r74,0","w":226},"\u00d0":{"d":"790,-451v0,144,-54,261,-165,349v-89,71,-180,101,-334,102r-199,0r64,-347r-93,0r12,-67r93,0r61,-325v167,2,347,-12,443,58v77,57,118,131,118,230xm682,-287v48,-112,42,-259,-42,-325v-50,-39,-131,-60,-246,-60r-103,0r-49,258r206,0r-12,67r-206,0r-51,280v102,1,222,0,290,-23v97,-32,173,-103,213,-197","w":790},"\u00d1":{"d":"771,-739r-137,739r-74,0r-320,-650r-120,650r-74,0r137,-739r100,0r300,613r114,-613r74,0xm441,-902v11,-4,96,39,105,37v24,0,48,-13,71,-38r21,46v-27,37,-57,55,-92,55v-18,0,-50,-11,-96,-33v-5,-3,-10,-4,-17,-4v-27,0,-26,13,-58,33r-23,-45v33,-34,62,-51,89,-51","w":740},"\u00d2":{"d":"548,-752v174,0,326,139,322,316v-4,174,-117,316,-242,386v-73,41,-150,63,-230,63v-175,0,-326,-139,-322,-315v4,-175,117,-317,242,-387v73,-41,150,-63,230,-63xm410,-55v188,0,383,-182,383,-367v0,-149,-113,-262,-263,-262v-182,0,-377,188,-377,368v0,142,116,261,257,261xm639,-832r-45,56r-172,-114r46,-58","w":869},"\u00d3":{"d":"548,-752v174,0,326,139,322,316v-4,174,-117,316,-242,386v-73,41,-150,63,-230,63v-175,0,-326,-139,-322,-315v4,-175,117,-317,242,-387v73,-41,150,-63,230,-63xm410,-55v188,0,383,-182,383,-367v0,-149,-113,-262,-263,-262v-182,0,-377,188,-377,368v0,142,116,261,257,261xm724,-890r-214,114r-24,-56r214,-116","w":869},"\u00d4":{"d":"548,-752v174,0,326,139,322,316v-4,174,-117,316,-242,386v-73,41,-150,63,-230,63v-175,0,-326,-139,-322,-315v4,-175,117,-317,242,-387v73,-41,150,-63,230,-63xm410,-55v188,0,383,-182,383,-367v0,-149,-113,-262,-263,-262v-182,0,-377,188,-377,368v0,142,116,261,257,261xm732,-789r-89,0r-72,-74r-102,74r-91,0r168,-126r66,0","w":869},"\u00d5":{"d":"548,-752v174,0,326,139,322,316v-4,174,-117,316,-242,386v-73,41,-150,63,-230,63v-175,0,-326,-139,-322,-315v4,-175,117,-317,242,-387v73,-41,150,-63,230,-63xm410,-55v188,0,383,-182,383,-367v0,-149,-113,-262,-263,-262v-182,0,-377,188,-377,368v0,142,116,261,257,261xm510,-902v11,-4,96,39,105,37v24,0,48,-13,71,-38r21,46v-27,37,-57,55,-92,55v-18,0,-50,-11,-96,-33v-5,-3,-10,-4,-17,-4v-27,0,-26,13,-58,33r-23,-45v33,-34,62,-51,89,-51","w":869},"\u00d6":{"d":"548,-752v174,0,326,139,322,316v-4,174,-117,316,-242,386v-73,41,-150,63,-230,63v-175,0,-326,-139,-322,-315v4,-175,117,-317,242,-387v73,-41,150,-63,230,-63xm410,-55v188,0,383,-182,383,-367v0,-149,-113,-262,-263,-262v-182,0,-377,188,-377,368v0,142,116,261,257,261xm517,-789r-74,0r23,-126r74,0xm664,-789r-74,0r23,-126r74,0","w":869},"\u00d7":{"d":"522,-106r-52,52r-144,-144r-144,144r-52,-52r144,-144r-144,-144r52,-52r144,144r144,-144r52,52r-144,144","w":606},"\u00d8":{"d":"401,13v-71,1,-150,-24,-193,-55r-118,125r-48,-41r117,-124v-115,-107,-106,-300,-21,-438v76,-123,218,-232,396,-232v77,0,144,19,199,56r117,-125r45,43r-114,122v113,107,107,297,20,435v-76,122,-222,232,-400,234xm524,-684v-187,0,-379,193,-374,375v3,90,17,112,61,171r471,-503v-41,-29,-94,-43,-158,-43xm410,-55v188,0,380,-181,380,-371v0,-88,-22,-117,-61,-174r-470,503v50,28,100,42,151,42","w":868},"\u00d9":{"d":"165,-188v-1,80,62,135,144,133v132,-4,195,-93,218,-223r85,-461r74,0r-85,461v-18,97,-53,169,-107,218v-54,49,-120,73,-198,73v-116,0,-208,-74,-207,-186v0,-29,4,-64,11,-105r85,-461r74,0r-85,461v-6,32,-9,62,-9,90xm529,-832r-45,56r-172,-114r46,-58","w":655},"\u00da":{"d":"165,-188v-1,80,62,135,144,133v132,-4,195,-93,218,-223r85,-461r74,0r-85,461v-18,97,-53,169,-107,218v-54,49,-120,73,-198,73v-116,0,-208,-74,-207,-186v0,-29,4,-64,11,-105r85,-461r74,0r-85,461v-6,32,-9,62,-9,90xm614,-890r-214,114r-24,-56r214,-116","w":655},"\u00db":{"d":"165,-188v-1,80,62,135,144,133v132,-4,195,-93,218,-223r85,-461r74,0r-85,461v-18,97,-53,169,-107,218v-54,49,-120,73,-198,73v-116,0,-208,-74,-207,-186v0,-29,4,-64,11,-105r85,-461r74,0r-85,461v-6,32,-9,62,-9,90xm622,-789r-89,0r-72,-74r-102,74r-91,0r168,-126r66,0","w":655},"\u00dc":{"d":"165,-188v-1,80,62,135,144,133v132,-4,195,-93,218,-223r85,-461r74,0r-85,461v-18,97,-53,169,-107,218v-54,49,-120,73,-198,73v-116,0,-208,-74,-207,-186v0,-29,4,-64,11,-105r85,-461r74,0r-85,461v-6,32,-9,62,-9,90xm407,-789r-74,0r23,-126r74,0xm554,-789r-74,0r23,-126r74,0","w":655},"\u00dd":{"d":"697,-739r-349,492r-46,247r-74,0r46,-247r-165,-492r82,0r133,414r292,-414r81,0xm581,-890r-214,114r-24,-56r214,-116","w":592},"\u00de":{"d":"549,-552v67,42,70,156,37,238v-46,113,-131,166,-297,162r-141,0r-28,152r-74,0r137,-739r74,0r-27,147r130,0v87,0,149,15,189,40xm479,-272v47,-47,82,-190,4,-231v-30,-25,-182,-23,-266,-22r-57,306v81,-1,191,6,250,-12v28,-8,50,-22,69,-41","w":592},"\u00df":{"d":"373,-752v99,0,173,66,173,164v0,88,-38,154,-115,199v69,24,104,72,104,144v0,134,-115,258,-247,258v-85,0,-140,-41,-165,-122r-20,109r-74,0r89,-481v18,-93,48,-161,90,-205v42,-44,97,-66,165,-66xm298,-55v85,0,162,-88,160,-175v-2,-93,-97,-123,-201,-111r13,-67v111,8,198,-68,199,-166v1,-65,-44,-111,-109,-110v-45,0,-81,16,-108,48v-27,32,-47,84,-60,155r-51,278r51,0v-19,82,31,148,106,148"},"\u00e0":{"d":"58,-216v0,-180,166,-344,346,-344v93,0,158,37,195,110r18,-97r74,0r-101,547r-74,0r18,-96v-73,70,-112,106,-231,109v-141,3,-245,-91,-245,-229xm318,-55v130,0,253,-132,253,-264v0,-98,-76,-173,-174,-173v-133,0,-262,125,-262,257v0,106,76,180,183,180xm497,-650r-45,56r-172,-114r46,-58","w":683},"\u00e1":{"d":"58,-216v0,-180,166,-344,346,-344v93,0,158,37,195,110r18,-97r74,0r-101,547r-74,0r18,-96v-73,70,-112,106,-231,109v-141,3,-245,-91,-245,-229xm318,-55v130,0,253,-132,253,-264v0,-98,-76,-173,-174,-173v-133,0,-262,125,-262,257v0,106,76,180,183,180xm582,-708r-214,114r-24,-56r214,-116","w":683},"\u00e2":{"d":"58,-216v0,-180,166,-344,346,-344v93,0,158,37,195,110r18,-97r74,0r-101,547r-74,0r18,-96v-73,70,-112,106,-231,109v-141,3,-245,-91,-245,-229xm318,-55v130,0,253,-132,253,-264v0,-98,-76,-173,-174,-173v-133,0,-262,125,-262,257v0,106,76,180,183,180xm589,-607r-89,0r-72,-74r-102,74r-91,0r168,-126r66,0","w":683},"\u00e3":{"d":"58,-216v0,-180,166,-344,346,-344v93,0,158,37,195,110r18,-97r74,0r-101,547r-74,0r18,-96v-73,70,-112,106,-231,109v-141,3,-245,-91,-245,-229xm318,-55v130,0,253,-132,253,-264v0,-98,-76,-173,-174,-173v-133,0,-262,125,-262,257v0,106,76,180,183,180xm366,-720v11,-4,96,39,105,37v24,0,48,-13,71,-38r21,46v-27,37,-57,55,-92,55v-18,0,-50,-11,-96,-33v-5,-3,-10,-4,-17,-4v-27,0,-26,13,-58,33r-23,-45v33,-34,62,-51,89,-51","w":683},"\u00e4":{"d":"58,-216v0,-180,166,-344,346,-344v93,0,158,37,195,110r18,-97r74,0r-101,547r-74,0r18,-96v-73,70,-112,106,-231,109v-141,3,-245,-91,-245,-229xm318,-55v130,0,253,-132,253,-264v0,-98,-76,-173,-174,-173v-133,0,-262,125,-262,257v0,106,76,180,183,180xm374,-607r-74,0r23,-126r74,0xm521,-607r-74,0r23,-126r74,0","w":683},"\u00e5":{"d":"58,-216v0,-180,166,-344,346,-344v93,0,158,37,195,110r18,-97r74,0r-101,547r-74,0r18,-96v-73,70,-112,106,-231,109v-141,3,-245,-91,-245,-229xm318,-55v130,0,253,-132,253,-264v0,-98,-76,-173,-174,-173v-133,0,-262,125,-262,257v0,106,76,180,183,180xm443,-781v50,0,85,36,85,87v0,57,-64,115,-122,115v-46,0,-83,-34,-83,-79v0,-64,56,-123,120,-123xm414,-623v32,0,73,-35,73,-66v0,-27,-24,-48,-52,-48v-33,0,-70,35,-70,68v0,27,21,46,49,46","w":683},"\u00e6":{"d":"906,-560v134,0,238,94,236,227v0,27,-3,55,-10,86r-495,0v-13,113,76,192,181,192v91,-1,177,-58,211,-123r77,0v-38,94,-176,191,-302,191v-85,0,-152,-35,-200,-105r-17,92r-71,0r17,-92v-68,70,-146,105,-233,105v-141,0,-242,-93,-242,-232v0,-171,169,-341,344,-341v96,0,162,36,198,108r18,-95r71,0r-18,95v70,-72,148,-108,235,-108xm1073,-314v0,-107,-70,-178,-177,-178v-114,0,-217,85,-243,178r420,0xm312,-55v134,0,262,-129,262,-264v0,-102,-75,-173,-178,-173v-137,0,-261,127,-261,261v0,101,76,176,177,176","w":1157},"\u00e7":{"d":"135,-233v0,103,79,180,183,178v41,0,74,-7,102,-21v28,-14,63,-42,106,-85r83,0v-45,62,-92,107,-139,133v-47,26,-98,40,-155,41r-18,35v62,-18,117,12,117,70v0,74,-61,132,-135,133v-49,0,-75,-28,-80,-85r54,-6v3,24,12,33,38,33v32,1,58,-30,58,-64v0,-50,-65,-48,-91,-21r-28,-19r45,-78v-124,-11,-217,-100,-217,-233v0,-173,175,-338,350,-338v127,0,220,72,241,179r-83,0v-24,-66,-84,-109,-170,-111v-134,-3,-261,126,-261,259","w":647},"\u00e8":{"d":"398,-560v134,0,239,95,237,228v0,21,-3,49,-9,83r-495,0v-1,16,-2,25,-2,28v-2,93,84,168,179,166v90,-2,180,-61,214,-125r77,0v-53,102,-165,190,-304,193v-132,3,-237,-102,-237,-233v0,-174,166,-340,340,-340xm565,-316v-4,-104,-73,-177,-180,-176v-113,0,-210,85,-239,176r419,0xm491,-650r-45,56r-172,-114r46,-58","w":650},"\u00e9":{"d":"398,-560v134,0,239,95,237,228v0,21,-3,49,-9,83r-495,0v-1,16,-2,25,-2,28v-2,93,84,168,179,166v90,-2,180,-61,214,-125r77,0v-53,102,-165,190,-304,193v-132,3,-237,-102,-237,-233v0,-174,166,-340,340,-340xm565,-316v-4,-104,-73,-177,-180,-176v-113,0,-210,85,-239,176r419,0xm576,-708r-214,114r-24,-56r214,-116","w":650},"\u00ea":{"d":"398,-560v134,0,239,95,237,228v0,21,-3,49,-9,83r-495,0v-1,16,-2,25,-2,28v-2,93,84,168,179,166v90,-2,180,-61,214,-125r77,0v-53,102,-165,190,-304,193v-132,3,-237,-102,-237,-233v0,-174,166,-340,340,-340xm565,-316v-4,-104,-73,-177,-180,-176v-113,0,-210,85,-239,176r419,0xm583,-607r-89,0r-72,-74r-102,74r-91,0r168,-126r66,0","w":650},"\u00eb":{"d":"398,-560v134,0,239,95,237,228v0,21,-3,49,-9,83r-495,0v-1,16,-2,25,-2,28v-2,93,84,168,179,166v90,-2,180,-61,214,-125r77,0v-53,102,-165,190,-304,193v-132,3,-237,-102,-237,-233v0,-174,166,-340,340,-340xm565,-316v-4,-104,-73,-177,-180,-176v-113,0,-210,85,-239,176r419,0xm368,-607r-74,0r23,-126r74,0xm515,-607r-74,0r23,-126r74,0","w":650},"\u00ec":{"d":"107,0r-74,0r101,-547r74,0xm262,-650r-45,56r-172,-114r46,-58","w":200},"\u00ed":{"d":"107,0r-74,0r101,-547r74,0xm356,-708r-214,114r-24,-56r214,-116","w":200},"\u00ee":{"d":"107,0r-74,0r101,-547r74,0xm359,-607r-89,0r-72,-74r-102,74r-91,0r168,-126r66,0","w":200},"\u00ef":{"d":"107,0r-74,0r101,-547r74,0xm144,-607r-74,0r23,-126r74,0xm291,-607r-74,0r23,-126r74,0","w":200},"\u00f0":{"d":"57,-220v0,-172,163,-337,335,-337v29,0,60,6,91,17r-74,-92r-95,40r-28,-45r86,-37r-46,-45r55,-37v7,5,26,24,58,55r100,-40r29,45r-93,37v112,115,168,220,168,313v0,190,-154,359,-341,359v-144,0,-245,-91,-245,-233xm315,-55v136,0,251,-125,251,-264v0,-101,-71,-173,-171,-173v-138,0,-261,125,-261,263v0,105,75,174,181,174","w":655},"\u00f1":{"d":"383,-560v115,-2,197,69,196,181v0,23,-4,54,-11,92r-53,287r-74,0r53,-287v5,-30,8,-55,8,-74v1,-81,-57,-132,-139,-131v-117,3,-179,78,-200,191r-56,301r-74,0r101,-547r74,0r-13,71v58,-56,121,-84,188,-84xm340,-720v11,-4,96,39,105,37v24,0,48,-13,71,-38r21,46v-27,37,-57,55,-92,55v-18,0,-50,-11,-96,-33v-5,-3,-10,-4,-17,-4v-27,0,-26,13,-58,33r-23,-45v33,-34,62,-51,89,-51","w":610},"\u00f2":{"d":"405,-560v136,0,234,93,234,228v0,178,-163,345,-336,345v-139,0,-246,-92,-246,-228v0,-181,169,-345,348,-345xm313,-55v139,0,249,-127,249,-270v0,-96,-74,-167,-170,-167v-137,0,-258,127,-258,264v0,102,75,173,179,173xm498,-650r-45,56r-172,-114r46,-58","w":655},"\u00f3":{"d":"405,-560v136,0,234,93,234,228v0,178,-163,345,-336,345v-139,0,-246,-92,-246,-228v0,-181,169,-345,348,-345xm313,-55v139,0,249,-127,249,-270v0,-96,-74,-167,-170,-167v-137,0,-258,127,-258,264v0,102,75,173,179,173xm583,-708r-214,114r-24,-56r214,-116","w":655},"\u00f4":{"d":"405,-560v136,0,234,93,234,228v0,178,-163,345,-336,345v-139,0,-246,-92,-246,-228v0,-181,169,-345,348,-345xm313,-55v139,0,249,-127,249,-270v0,-96,-74,-167,-170,-167v-137,0,-258,127,-258,264v0,102,75,173,179,173xm590,-607r-89,0r-72,-74r-102,74r-91,0r168,-126r66,0","w":655},"\u00f5":{"d":"405,-560v136,0,234,93,234,228v0,178,-163,345,-336,345v-139,0,-246,-92,-246,-228v0,-181,169,-345,348,-345xm313,-55v139,0,249,-127,249,-270v0,-96,-74,-167,-170,-167v-137,0,-258,127,-258,264v0,102,75,173,179,173xm367,-720v11,-4,96,39,105,37v24,0,48,-13,71,-38r21,46v-27,37,-57,55,-92,55v-18,0,-50,-11,-96,-33v-5,-3,-10,-4,-17,-4v-27,0,-26,13,-58,33r-23,-45v33,-34,62,-51,89,-51","w":655},"\u00f6":{"d":"405,-560v136,0,234,93,234,228v0,178,-163,345,-336,345v-139,0,-246,-92,-246,-228v0,-181,169,-345,348,-345xm313,-55v139,0,249,-127,249,-270v0,-96,-74,-167,-170,-167v-137,0,-258,127,-258,264v0,102,75,173,179,173xm375,-607r-74,0r23,-126r74,0xm522,-607r-74,0r23,-126r74,0","w":655},"\u00f7":{"d":"566,-213r-480,0r0,-74r480,0r0,74xm326,-498v34,0,63,29,63,63v0,34,-29,63,-63,63v-34,0,-63,-29,-63,-63v0,-34,29,-63,63,-63xm326,-128v34,0,63,29,63,63v0,34,-29,63,-63,63v-34,0,-63,-29,-63,-63v0,-34,29,-63,63,-63","w":606},"\u00f8":{"d":"108,-68v-32,-49,-49,-77,-49,-146v0,-136,89,-246,181,-300v94,-55,216,-64,301,-5r70,-74r46,42r-70,73v35,37,52,83,52,138v0,234,-261,446,-485,312r-63,66r-45,-40xm491,-468v-169,-89,-357,82,-355,243v0,37,8,71,23,104xm299,-55v149,3,267,-128,263,-281v0,-30,-8,-60,-25,-90r-334,347v48,17,45,23,96,24","w":653},"\u00f9":{"d":"146,-185v0,84,48,132,134,130v124,-3,186,-87,209,-211r53,-281r74,0r-102,547r-74,0r16,-85v-49,63,-95,96,-196,98v-110,2,-192,-62,-191,-168v0,-31,3,-64,9,-97r55,-295r74,0r-55,295v-4,17,-6,40,-6,67xm470,-650r-45,56r-172,-114r46,-58","w":608},"\u00fa":{"d":"146,-185v0,84,48,132,134,130v124,-3,186,-87,209,-211r53,-281r74,0r-102,547r-74,0r16,-85v-49,63,-95,96,-196,98v-110,2,-192,-62,-191,-168v0,-31,3,-64,9,-97r55,-295r74,0r-55,295v-4,17,-6,40,-6,67xm555,-708r-214,114r-24,-56r214,-116","w":608},"\u00fb":{"d":"146,-185v0,84,48,132,134,130v124,-3,186,-87,209,-211r53,-281r74,0r-102,547r-74,0r16,-85v-49,63,-95,96,-196,98v-110,2,-192,-62,-191,-168v0,-31,3,-64,9,-97r55,-295r74,0r-55,295v-4,17,-6,40,-6,67xm562,-607r-89,0r-72,-74r-102,74r-91,0r168,-126r66,0","w":608},"\u00fc":{"d":"146,-185v0,84,48,132,134,130v124,-3,186,-87,209,-211r53,-281r74,0r-102,547r-74,0r16,-85v-49,63,-95,96,-196,98v-110,2,-192,-62,-191,-168v0,-31,3,-64,9,-97r55,-295r74,0r-55,295v-4,17,-6,40,-6,67xm347,-607r-74,0r23,-126r74,0xm494,-607r-74,0r23,-126r74,0","w":608},"\u00fd":{"d":"598,-547r-453,739r-78,0r127,-210r-114,-529r81,0r92,436r266,-436r79,0xm521,-708r-214,114r-24,-56r214,-116","w":536},"\u00fe":{"d":"425,-560v141,-1,240,96,240,235v0,172,-171,338,-345,338v-93,0,-159,-36,-196,-107r-53,286r-74,0r173,-931r74,0r-53,286v44,-61,134,-106,234,-107xm325,-55v133,0,263,-124,263,-262v0,-102,-78,-175,-180,-175v-131,0,-261,125,-261,265v0,97,80,172,178,172","w":682},"\u00ff":{"d":"598,-547r-453,739r-78,0r127,-210r-114,-529r81,0r92,436r266,-436r79,0xm313,-607r-74,0r23,-126r74,0xm460,-607r-74,0r23,-126r74,0","w":536},"\u0152":{"d":"542,-752v140,0,239,60,281,160r28,-147r394,0r-13,67r-319,0r-49,265r308,0r-12,67r-308,0r-51,273r319,0r-12,67r-394,0r28,-151v-85,109,-195,164,-330,164v-195,0,-336,-122,-336,-313v0,-238,226,-452,466,-452xm153,-313v0,149,111,261,266,258v145,-3,260,-89,319,-191v34,-59,53,-122,53,-190v2,-149,-111,-248,-263,-248v-192,0,-375,180,-375,371","w":1194},"\u0153":{"d":"889,-560v131,0,236,92,234,221v0,22,-4,52,-13,91r-488,0v-1,17,-2,28,-2,32v-1,89,88,161,184,161v87,0,157,-41,209,-124r75,0v-41,94,-165,193,-296,192v-114,-1,-200,-56,-226,-151v-48,56,-55,71,-106,103v-52,33,-105,48,-158,48v-138,3,-245,-94,-244,-230v1,-136,86,-247,179,-299v52,-30,106,-44,161,-44v127,0,168,50,219,146v42,-71,158,-146,272,-146xm1054,-315v6,-105,-77,-178,-176,-177v-124,2,-201,79,-243,177r419,0xm308,-55v131,0,252,-133,252,-265v0,-101,-72,-172,-173,-172v-132,0,-252,127,-252,262v0,100,73,175,173,175","w":1137},"\u0178":{"d":"697,-739r-349,492r-46,247r-74,0r46,-247r-165,-492r82,0r133,414r292,-414r81,0xm373,-789r-74,0r23,-126r74,0xm520,-789r-74,0r23,-126r74,0","w":592},"\u02c6":{"d":"510,-607r-89,0r-72,-74r-102,74r-91,0r168,-126r66,0","w":502},"\u02dc":{"d":"256,-720v11,-4,96,39,105,37v24,0,48,-13,71,-38r21,46v-27,37,-57,55,-92,55v-18,0,-50,-11,-96,-33v-5,-3,-10,-4,-17,-4v-27,0,-26,13,-58,33r-23,-45v33,-34,62,-51,89,-51","w":439},"\u2013":{"d":"532,-296r-12,63r-501,0r12,-63r501,0","w":500},"\u2014":{"d":"1032,-296r-12,63r-1001,0r12,-63r1001,0","w":1000},"\u2018":{"d":"331,-547r-74,0r-52,-192r74,0","w":351},"\u2019":{"d":"360,-739r-124,192r-74,0r124,-192r74,0","w":351},"\u201a":{"d":"244,-126r-124,193r-73,0r124,-193r73,0","w":354},"\u201c":{"d":"329,-547r-74,0r-52,-192r74,0xm477,-547r-74,0r-52,-192r74,0","w":502},"\u201d":{"d":"356,-739r-124,192r-74,0r124,-192r74,0xm500,-739r-124,192r-74,0r124,-192r74,0","w":484},"\u201e":{"d":"245,-126r-124,192r-74,0r124,-192r74,0xm391,-126r-124,192r-74,0r124,-192r74,0","w":502},"\u2022":{"d":"329,-489v103,0,188,85,188,188v0,103,-86,188,-190,188v-99,0,-186,-90,-186,-190v0,-99,89,-186,188,-186","w":606},"\u2026":{"d":"174,0r-74,0r23,-126r74,0xm507,0r-74,0r23,-126r74,0xm840,0r-74,0r23,-126r74,0","w":1000},"\u2039":{"d":"206,-132r-65,33r-75,-201r149,-199r53,32r-124,167","w":251},"\u203a":{"d":"237,-300r-149,201r-53,-33r124,-168r-62,-167r65,-32","w":251},"\u20ac":{"d":"268,13v-175,0,-233,-98,-234,-285r-96,0r35,-59r68,0v3,-23,7,-46,14,-69r-94,0r35,-59r75,0v36,-95,58,-146,117,-204v61,-59,134,-89,218,-89v114,0,153,39,202,124r-43,67v-42,-80,-65,-125,-166,-125v-59,0,-107,17,-145,50v-38,33,-74,92,-109,177r351,0r-35,59r-333,0v-6,23,-10,46,-13,69r303,0r-35,59r-274,0v-7,132,44,220,165,220v38,0,69,-6,94,-18v25,-12,63,-39,112,-78r-14,86v-57,50,-123,75,-198,75"},"\u2122":{"d":"489,-687r-108,0r-69,369r-60,0r69,-369r-107,0r9,-52r275,0xm1067,-739r-78,421r-60,0r63,-340r-230,340r-48,0r-103,-340r-63,340r-60,0r78,-421r83,0r105,338r229,-338r84,0","w":1023}}});
