/*!
 * The following copyright notice may not be removed under any circumstances.
 * 
 * Copyright:
 * Copyright (URW)++, copyright 1999 by (URW)++ Design & Development; Cyrillic
 * glyphs added by Valek Filippov, copyright 2001-2002; Vietnamese characters were
 * added by Han The Thanh; copyright 2006, 2008 for TeX Gyre extensions by B.
 * Jackowski and J.M. Nowacki (on behalf of TeX users groups). This work is
 * released under the GUST Font License --  see
 * http://tug.org/fonts/licenses/GUST-FONT-LICENSE.txt for details.
 * 
 * Trademark:
 * Please refer to the Copyright section for the font trademark attribution
 * notices.
 */
Cufon.registerFont({"w":554,"face":{"font-family":"TeXGyreAdventor","font-weight":400,"font-stretch":"normal","units-per-em":"1000","panose-1":"0 0 5 0 0 0 0 0 0 0","ascent":"808","descent":"-192","x-height":"13","bbox":"-77 -966 1138 251.014","underline-thickness":"58","underline-position":"-38","unicode-range":"U+0020-U+2122"},"glyphs":{" ":{"w":277},"!":{"d":"185,0r-74,0r0,-126r74,0r0,126xm185,-197r-74,0r0,-542r74,0r0,542","w":295},"\"":{"d":"237,-513r-50,0r0,-226r50,0r0,226xm124,-513r-50,0r0,-226r50,0r0,226","w":309},"#":{"d":"549,-453r-110,0r-28,155r123,0r0,61r-135,0r-43,237r-66,0r43,-237r-164,0r-45,237r-65,0r45,-237r-99,0r0,-61r111,0r29,-155r-124,0r0,-61r135,0r42,-225r64,0r-41,225r163,0r40,-225r67,0r-41,225r99,0r0,61xm373,-453r-163,0r-29,155r163,0"},"$":{"d":"287,-665v-70,0,-114,48,-113,119v0,31,9,54,26,70v17,16,49,33,96,48v62,20,104,42,128,65v36,35,55,80,55,137v2,105,-72,189,-168,197r0,85r-66,0r0,-85v-113,-21,-170,-87,-170,-199r69,0v-1,83,52,138,133,138v74,0,130,-59,128,-134v-3,-86,-53,-115,-135,-139v-66,-19,-96,-32,-131,-73v-26,-31,-39,-70,-39,-116v0,-95,61,-161,145,-176r0,-82r66,0r0,82v93,12,162,79,162,181r-70,0v1,-71,-46,-118,-116,-118"},"%":{"d":"588,-739r-334,739r-72,0r332,-739r74,0xm578,-338v92,0,174,83,174,175v0,95,-81,176,-176,176v-93,0,-175,-82,-175,-175v0,-96,81,-176,177,-176xm576,-53v57,0,108,-51,108,-109v0,-58,-50,-110,-107,-110v-60,0,-109,50,-109,110v0,58,51,109,108,109xm190,-749v92,0,174,83,174,176v0,95,-81,176,-176,176v-94,0,-175,-82,-175,-176v0,-96,81,-176,177,-176xm188,-463v58,0,108,-51,108,-110v0,-58,-50,-110,-107,-110v-60,0,-110,50,-110,110v0,58,51,110,109,110","w":775},"&":{"d":"320,-752v99,0,180,72,178,169v0,39,-10,71,-30,94v-20,23,-57,49,-114,78r140,138r108,-208r82,0r-136,261r187,182r-51,51r-171,-166v-29,58,-62,101,-97,127v-35,26,-77,39,-126,39v-128,0,-235,-100,-233,-226v0,-49,14,-89,41,-123v27,-34,70,-66,129,-97v-48,-53,-79,-80,-82,-155v-4,-91,82,-164,175,-164xm130,-205v-2,83,71,151,155,151v35,0,66,-12,93,-35v27,-23,53,-62,80,-117r-178,-174v-55,27,-93,54,-116,80v-23,26,-34,58,-34,95xm322,-685v-55,0,-104,42,-103,95v0,35,27,77,81,126v44,-17,76,-36,97,-56v21,-20,31,-43,31,-69v1,-55,-49,-96,-106,-96","w":757},"'":{"d":"124,-513r-50,0r0,-226r50,0r0,226","w":198},"(":{"d":"131,-309v0,166,88,301,204,369r0,65v-147,-48,-280,-244,-278,-434v0,-92,26,-180,77,-263v51,-83,118,-138,201,-167r0,63v-114,63,-204,207,-204,367","w":369},")":{"d":"34,-739v147,46,278,245,278,434v0,92,-25,180,-76,263v-51,83,-119,138,-202,167r0,-64v114,-61,204,-208,204,-367v0,-163,-89,-303,-204,-368r0,-65","w":369},"*":{"d":"360,-583r-102,0r55,88r-47,27r-53,-91r-53,91r-48,-28r57,-87r-105,0r0,-49r105,0r-56,-92r49,-28r53,90r52,-90r47,28r-57,92r103,0r0,49","w":425},"+":{"d":"543,-213r-203,0r0,203r-74,0r0,-203r-203,0r0,-74r203,0r0,-203r74,0r0,203r203,0r0,74","w":606},",":{"d":"253,-126r-88,193r-74,0r88,-193r74,0","w":277},"-":{"d":"302,-233r-271,0r0,-63r271,0r0,63","w":332},".":{"d":"175,0r-74,0r0,-126r74,0r0,126","w":277},"\/":{"d":"397,-739r-290,867r-67,0r287,-867r70,0","w":437},"0":{"d":"277,-752v160,0,248,101,248,273r0,210v0,188,-81,282,-242,282v-169,0,-253,-102,-253,-282r0,-210v-2,-171,85,-273,247,-273xm280,-54v133,0,171,-80,172,-227r0,-181v-2,-136,-40,-223,-174,-223v-129,0,-176,79,-175,223r0,181v-1,148,46,227,177,227"},"1":{"d":"354,0r-73,0r0,-672r-126,0r0,-67r199,0r0,739"},"2":{"d":"273,-752v131,0,236,96,233,225v0,39,-10,76,-29,109v-19,33,-55,75,-107,124r-237,227r369,0r0,67r-469,0r0,-67r317,-306v33,-38,82,-85,82,-158v0,-89,-70,-155,-160,-154v-104,1,-162,74,-160,185r-73,0v-2,-150,89,-252,234,-252"},"3":{"d":"269,-752v107,0,186,80,186,187v0,59,-25,107,-76,142v83,42,125,108,125,199v0,129,-104,237,-232,237v-138,0,-243,-102,-239,-244r73,0v-3,110,64,175,164,177v89,2,160,-76,160,-166v0,-80,-57,-148,-125,-162v-16,-3,-45,-5,-86,-6r0,-66v92,13,162,-29,162,-114v0,-67,-46,-117,-112,-117v-75,0,-115,52,-114,130r-73,0v-2,-116,74,-197,187,-197"},"4":{"d":"527,-135r-68,0r0,135r-73,0r0,-135r-374,0r0,-67r360,-537r87,0r0,537r68,0r0,67xm386,-202r0,-435r-289,435r289,0"},"5":{"d":"283,-503v136,-3,245,119,245,257v0,140,-111,261,-248,259v-146,-2,-237,-106,-254,-245r72,0v10,96,79,177,179,178v99,1,177,-90,177,-192v0,-103,-77,-190,-177,-190v-57,0,-108,28,-153,83r-57,-22r66,-364r333,0r0,67r-274,0r-36,204v42,-23,84,-35,127,-35"},"6":{"d":"207,-482v166,-77,322,70,322,233v0,145,-106,262,-249,262v-177,0,-305,-176,-238,-357v12,-30,36,-71,71,-123r183,-272r85,0xm280,-54v102,0,175,-87,175,-192v0,-106,-74,-190,-177,-190v-101,0,-179,86,-179,188v0,107,77,194,181,194"},"7":{"d":"490,-672r-302,672r-78,0r304,-672r-350,0r0,-67r426,0r0,67"},"8":{"d":"278,-752v110,0,195,82,195,191v0,71,-29,121,-88,148v85,37,127,102,127,195v0,132,-100,231,-232,231v-131,0,-238,-98,-238,-228v0,-92,42,-158,125,-198v-57,-35,-86,-84,-86,-148v0,-108,88,-191,197,-191xm279,-54v92,0,159,-70,159,-162v0,-92,-68,-159,-160,-159v-92,0,-162,67,-162,159v0,93,69,162,163,162xm281,-444v66,0,118,-54,118,-121v0,-68,-53,-120,-122,-120v-69,0,-122,49,-122,118v0,70,55,123,126,123"},"9":{"d":"274,-752v177,0,305,177,237,357v-12,30,-35,71,-70,123r-183,272r-85,0r174,-257v-166,77,-322,-70,-322,-233v0,-145,106,-262,249,-262xm276,-303v101,0,179,-86,179,-188v0,-107,-77,-194,-181,-194v-103,0,-175,86,-175,192v0,106,74,190,177,190"},":":{"d":"175,0r-74,0r0,-126r74,0r0,126xm175,-381r-74,0r0,-126r74,0r0,126","w":277},";":{"d":"203,-126r-88,193r-74,0r88,-193r74,0xm199,-381r-74,0r0,-126r74,0r0,126","w":277},"<":{"d":"480,95r-378,-317r0,-56r378,-317r0,96r-296,249r296,249r0,96","w":606},"=":{"d":"543,-305r-480,0r0,-74r480,0r0,74xm543,-121r-480,0r0,-74r480,0r0,74","w":606},">":{"d":"480,-222r-378,317r0,-96r296,-249r-296,-249r0,-96r378,317r0,56","w":606},"?":{"d":"335,0r-74,0r0,-126r74,0r0,126xm299,-752v126,-1,226,92,226,217v0,165,-191,185,-192,342r-70,0v5,-104,39,-141,104,-204v33,-32,57,-56,67,-75v53,-100,-26,-217,-135,-213v-104,4,-166,66,-164,177r-70,0v-3,-149,93,-242,234,-244","w":591},"@":{"d":"453,-752v181,0,344,141,344,319v0,130,-109,298,-233,294v-51,-1,-73,-18,-88,-57v-35,35,-74,52,-119,52v-82,1,-138,-65,-138,-148v0,-137,116,-301,244,-301v56,0,94,23,115,69r17,-50r61,0r-93,278v-13,41,-20,66,-20,77v0,17,16,28,34,28v84,0,170,-150,170,-243v0,-153,-137,-267,-295,-267v-177,0,-329,156,-329,333v0,179,151,331,330,331v92,0,170,-34,234,-101r40,33v-55,68,-160,116,-276,118v-207,4,-380,-173,-380,-380v0,-207,175,-385,382,-385xm291,-294v0,51,31,92,80,92v43,0,82,-30,115,-89v23,-39,52,-117,54,-168v1,-47,-28,-80,-74,-80v-94,-1,-175,140,-175,245","w":867},"A":{"d":"729,0r-81,0r-107,-249r-344,0r-108,249r-78,0r317,-739r83,0xm512,-316r-142,-339r-145,339r287,0","w":740},"B":{"d":"249,-739v161,0,253,47,253,192v0,71,-27,122,-82,153v83,33,124,94,124,182v0,166,-101,211,-285,212r-183,0r0,-739r173,0xm251,-67v136,-2,218,-20,218,-141v0,-76,-30,-118,-94,-134v-65,-16,-143,-10,-225,-12r0,287r101,0xm240,-421v123,-2,187,-16,187,-125v0,-111,-60,-123,-188,-126r-89,0r0,251r90,0","w":574},"C":{"d":"431,-55v131,-3,187,-55,257,-139r82,0v-75,138,-187,207,-338,207v-215,0,-388,-167,-388,-380v0,-216,167,-385,383,-385v161,0,289,87,340,205r-83,0v-58,-91,-143,-137,-254,-137v-172,0,-311,141,-311,314v0,168,145,320,312,315","w":813},"D":{"d":"700,-367v-4,238,-167,372,-425,367r-199,0r0,-739v111,1,255,-6,340,13v172,37,287,171,284,359xm625,-370v-1,-118,-57,-205,-134,-254v-67,-43,-211,-51,-341,-48r0,605v89,0,200,1,263,-15v129,-33,213,-144,212,-288","w":744},"E":{"d":"480,0r-404,0r0,-739r404,0r0,67r-330,0r0,265r319,0r0,67r-319,0r0,273r330,0r0,67","w":536},"F":{"d":"451,-672r-301,0r0,267r290,0r0,67r-290,0r0,338r-74,0r0,-739r375,0r0,67","w":485},"G":{"d":"119,-369v0,173,149,314,324,314v141,0,276,-104,299,-219r-413,0r0,-67r502,0v-8,188,-181,354,-385,354v-218,0,-402,-170,-402,-384v0,-210,180,-381,392,-381v163,0,306,90,350,210r-83,0v-46,-83,-139,-140,-261,-142v-177,-3,-323,140,-323,315","w":872},"H":{"d":"607,0r-74,0r0,-347r-383,0r0,347r-74,0r0,-739r74,0r0,325r383,0r0,-325r74,0r0,739","w":683},"I":{"d":"150,0r-74,0r0,-739r74,0r0,739","w":226},"J":{"d":"84,-175v4,72,51,121,126,121v81,0,122,-59,122,-177r0,-508r74,0r0,508v1,150,-58,244,-197,245v-119,1,-193,-74,-198,-189r73,0","w":482},"K":{"d":"585,0r-93,0r-246,-320r-96,118r0,202r-74,0r0,-739r74,0r0,425r342,-425r93,0r-292,360","w":591},"L":{"d":"456,0r-380,0r0,-739r74,0r0,672r306,0r0,67","w":462},"M":{"d":"843,0r-74,0r0,-658r-278,658r-64,0r-277,-658r0,658r-74,0r0,-739r115,0r269,629r268,-629r115,0r0,739","w":919},"N":{"d":"664,0r-74,0r-440,-650r0,650r-74,0r0,-739r100,0r414,613r0,-613r74,0r0,739","w":740},"O":{"d":"435,-752v207,0,390,177,390,383v0,205,-184,382,-390,382v-211,0,-391,-177,-391,-387v0,-201,188,-378,391,-378xm435,-55v167,0,315,-147,315,-313v0,-168,-148,-316,-315,-316v-165,0,-316,147,-316,312v0,170,146,317,316,317","w":869},"P":{"d":"280,-739v186,1,285,52,285,224v0,162,-95,216,-273,216r-142,0r0,299r-74,0r0,-739r204,0xm287,-366v133,-1,203,-28,203,-149v0,-80,-25,-128,-92,-145v-70,-18,-159,-10,-248,-12r0,306r137,0","w":592},"Q":{"d":"444,-752v219,0,395,164,395,381v0,115,-41,208,-123,278v44,29,67,42,111,37r0,69v-80,-3,-115,-22,-162,-64v-63,43,-137,64,-222,64v-212,0,-399,-173,-399,-382v0,-217,180,-383,400,-383xm161,-216v42,84,159,162,282,161v59,0,113,-15,162,-45v-94,-84,-174,-133,-328,-137v-42,0,-81,7,-116,21xm288,-305v178,0,262,68,375,163v67,-65,101,-141,101,-229v0,-175,-145,-313,-322,-313v-204,0,-369,182,-312,405v52,-17,105,-26,158,-26","w":871},"R":{"d":"502,-504v0,-139,-93,-166,-248,-168r-104,0r0,672r-74,0r0,-739r183,0v113,0,193,19,243,59v50,40,75,100,75,179v-1,138,-86,213,-218,225r207,276r-92,0r-249,-335v105,0,177,-11,217,-35v40,-24,60,-69,60,-134","w":607},"S":{"d":"249,-684v-72,0,-130,56,-128,129v0,37,12,66,35,86v15,13,52,29,109,46v64,19,110,39,137,59v49,37,74,89,74,158v0,124,-99,219,-223,219v-134,0,-227,-91,-231,-220r79,0v8,89,63,151,154,152v83,2,148,-64,146,-147v0,-41,-12,-72,-35,-94v-23,-22,-67,-42,-130,-61v-73,-23,-96,-27,-138,-65v-35,-32,-52,-76,-52,-131v0,-114,90,-199,205,-199v118,0,209,82,207,200r-77,0v2,-77,-57,-132,-132,-132","w":498},"T":{"d":"419,-672r-169,0r0,672r-74,0r0,-672r-169,0r0,-67r412,0r0,67","w":426},"U":{"d":"327,13v-166,0,-251,-110,-251,-291r0,-461r74,0r0,461v0,149,59,223,178,223v118,0,177,-74,177,-223r0,-461r74,0r0,461v2,181,-84,291,-252,291","w":655},"V":{"d":"692,-739r-306,739r-72,0r-304,-739r81,0r260,647r261,-647r80,0","w":702},"W":{"d":"950,-739r-212,739r-95,0r-164,-606r-162,606r-96,0r-211,-739r76,0r182,643r177,-643r70,0r177,643r182,-643r76,0","w":960},"X":{"d":"601,0r-87,0r-209,-316r-210,316r-87,0r251,-378r-237,-361r87,0r196,296r195,-296r86,0r-237,361","w":609},"Y":{"d":"590,-739r-258,492r0,247r-74,0r0,-247r-256,-492r82,0r210,414r215,-414r81,0","w":592},"Z":{"d":"474,0r-457,0r0,-67r363,-605r-352,0r0,-67r435,0r0,67r-362,605r373,0r0,67","w":480},"[":{"d":"182,-177v2,136,35,182,131,227r0,75v-134,-39,-201,-136,-201,-289r0,-298v-1,-146,83,-246,201,-277r0,75v-93,43,-131,88,-131,216r0,271","w":351},"\\":{"d":"464,0r-70,0r-310,-739r70,0","w":605},"]":{"d":"169,-438v-2,-135,-35,-181,-131,-226r0,-75v134,39,201,135,201,289r0,297v1,147,-83,247,-201,278r0,-75v94,-44,131,-87,131,-216r0,-272","w":351},"^":{"d":"588,-180r-81,0r-203,-480r-205,480r-81,0r243,-559r85,0","w":606},"_":{"d":"500,125r-500,0r0,-58r500,0r0,58","w":500},"`":{"d":"263,-650r-34,56r-193,-114r34,-58","w":375},"a":{"d":"42,-272v0,-160,128,-288,288,-288v92,0,164,37,216,110r0,-97r74,0r0,547r-74,0r0,-96v-54,70,-101,107,-211,109v-163,4,-293,-124,-293,-285xm336,-55v117,0,210,-102,210,-221v0,-118,-97,-216,-214,-216v-115,0,-215,100,-215,215v0,122,97,222,219,222","w":683},"b":{"d":"352,-560v158,0,288,128,288,286v0,161,-128,290,-289,287v-97,-2,-173,-45,-214,-107r0,94r-74,0r0,-739r74,0r0,286v49,-71,120,-107,215,-107xm349,-55v121,0,216,-99,216,-221v0,-120,-95,-216,-215,-216v-119,0,-218,97,-218,216v0,118,100,221,217,221","w":682},"c":{"d":"337,-55v96,-3,137,-42,187,-106r84,0v-61,116,-151,174,-268,174v-162,0,-298,-127,-298,-288v0,-156,135,-288,293,-285v131,2,234,79,272,179r-83,0v-43,-74,-107,-111,-190,-111v-119,0,-217,100,-217,219v0,119,101,221,220,218","w":647},"d":{"d":"42,-273v0,-160,130,-287,291,-287v88,0,160,33,215,100r0,-279r74,0r0,739r-74,0r0,-99v-49,70,-102,110,-208,112v-163,4,-298,-125,-298,-286xm338,-55v115,0,213,-104,213,-220v0,-117,-102,-217,-220,-217v-116,0,-214,100,-214,216v0,122,99,221,221,221","w":685},"e":{"d":"42,-276v0,-155,129,-284,284,-284v170,0,290,132,285,311r-495,0v2,105,104,196,213,194v88,-1,165,-57,191,-125r77,0v-30,99,-141,193,-266,193v-158,0,-289,-131,-289,-289xm537,-316v-22,-100,-97,-175,-212,-176v-109,0,-191,79,-207,176r419,0","w":650},"f":{"d":"311,-480r-136,0r0,480r-74,0r0,-480r-85,0r0,-67r85,0v-2,-128,68,-192,210,-192r0,67v-99,1,-136,29,-136,125r136,0r0,67","w":314},"g":{"d":"42,-271v0,-160,122,-289,280,-289v89,0,160,37,214,110r0,-97r74,0r0,449v-1,102,-10,159,-51,215v-48,66,-123,98,-222,98v-147,-1,-239,-79,-275,-198r72,0v50,84,87,128,201,130v149,2,210,-98,201,-258v-42,83,-112,124,-209,124v-156,0,-285,-128,-285,-284xm327,-55v119,0,209,-103,209,-225v0,-115,-95,-212,-210,-212v-120,0,-209,93,-209,215v0,122,90,222,210,222","w":673},"h":{"d":"311,-560v155,1,236,100,236,266r0,294r-74,0r0,-294v2,-122,-57,-198,-169,-198v-108,0,-167,74,-167,192r0,300r-74,0r0,-739r74,0r0,263v39,-56,97,-84,174,-84","w":610},"i":{"d":"137,0r-74,0r0,-547r74,0r0,547xm137,-607r-74,0r0,-126r74,0r0,126","w":200},"j":{"d":"-45,121v92,-8,111,-54,111,-159r0,-509r74,0r0,509v0,148,-51,222,-185,230r0,-71xm140,-607r-74,0r0,-126r74,0r0,126","w":203},"k":{"d":"497,0r-92,0r-182,-219r-86,106r0,113r-74,0r0,-739r74,0r0,524r255,-332r91,0r-213,275","w":502},"l":{"d":"137,0r-74,0r0,-739r74,0r0,739","w":200},"m":{"d":"660,-561v135,1,215,92,215,236r0,325r-74,0r0,-317v0,-117,-48,-176,-145,-176v-100,0,-150,67,-150,176r0,317r-74,0r0,-319v2,-107,-51,-173,-148,-173v-97,0,-147,71,-147,173r0,319r-74,0r0,-547r74,0r0,63v38,-50,74,-76,154,-76v93,0,140,40,179,105v45,-71,108,-106,190,-106","w":938},"n":{"d":"313,-560v156,0,234,103,234,273r0,287r-74,0r0,-287v0,-137,-56,-205,-169,-205v-111,0,-167,70,-167,191r0,301r-74,0r0,-547r74,0r0,71v46,-56,105,-84,176,-84","w":610},"o":{"d":"329,-560v162,0,284,126,284,288v0,159,-120,285,-278,285v-166,0,-293,-125,-293,-290v0,-157,129,-283,287,-283xm333,-55v118,0,205,-95,205,-216v0,-122,-89,-221,-209,-221v-120,0,-212,97,-212,217v0,125,92,220,216,220","w":655},"p":{"d":"352,-560v159,0,288,129,288,288v0,157,-132,285,-290,285v-93,0,-164,-36,-213,-107r0,286r-74,0r0,-739r74,0r0,94v47,-71,119,-107,215,-107xm350,-55v119,0,215,-98,215,-217v0,-122,-95,-220,-216,-220v-118,0,-217,98,-217,216v0,124,95,221,218,221","w":682},"q":{"d":"42,-273v0,-159,129,-287,288,-287v97,0,168,36,215,107r0,-94r74,0r0,739r-74,0r0,-286v-49,71,-120,107,-213,107v-158,0,-290,-128,-290,-286xm333,-55v118,0,217,-98,217,-215v0,-123,-95,-222,-217,-222v-121,0,-216,98,-216,220v0,120,96,217,216,217","w":682},"r":{"d":"292,-487v-103,10,-155,66,-155,168r0,319r-74,0r0,-547r74,0r0,78v29,-59,73,-86,155,-91r0,73","w":301},"s":{"d":"192,-492v-43,0,-80,36,-79,79v0,31,17,55,50,72v13,7,48,21,103,44v63,27,95,73,95,140v0,98,-70,170,-167,170v-104,0,-178,-70,-176,-174r73,0v-1,63,41,106,103,106v53,0,93,-42,92,-95v0,-27,-8,-47,-22,-60v-13,-20,-135,-64,-156,-75v-37,-21,-70,-68,-70,-121v0,-88,68,-154,155,-154v87,0,156,62,154,148r-75,0v1,-50,-31,-80,-80,-80","w":388},"t":{"d":"327,-480r-123,0r0,480r-74,0r0,-480r-118,0r0,-67r118,0r0,-192r74,0r0,192r123,0r0,67","w":339},"u":{"d":"301,-55v116,0,170,-82,170,-211r0,-281r74,0r0,547r-74,0r0,-85v-35,65,-94,98,-176,98v-155,0,-232,-88,-232,-265r0,-295r74,0r0,295v0,131,55,197,164,197","w":608},"v":{"d":"546,-547r-230,547r-78,0r-230,-547r75,0r192,460r196,-460r75,0"},"w":{"d":"824,-547r-212,547r-79,0r-119,-363r-118,363r-80,0r-209,-547r74,0r174,458r129,-391r61,0r129,391r178,-458r72,0","w":831},"x":{"d":"472,0r-85,0r-147,-219r-148,219r-84,0r190,-279r-190,-268r84,0r148,211r147,-211r85,0r-191,268","w":480},"y":{"d":"527,-547r-316,739r-79,0r89,-210r-212,-529r81,0r173,436r185,-436r79,0","w":536},"z":{"d":"415,0r-405,0r0,-67r302,-413r-292,0r0,-67r376,0r0,63r-299,417r318,0r0,67","w":425},"{":{"d":"104,-306v66,28,89,38,89,124r0,170v-1,59,23,66,78,71r0,67v-119,-3,-155,-26,-155,-139r0,-170v-2,-69,-17,-75,-79,-89r0,-69v63,-12,79,-20,79,-89r0,-170v3,-115,35,-133,155,-139r0,67v-65,9,-78,6,-78,71r0,170v3,81,-31,105,-89,125","w":351},"|":{"d":"373,125r-74,0r0,-864r74,0r0,864","w":672},"}":{"d":"193,-430v1,68,15,77,76,89r0,69v-61,12,-76,21,-76,89r0,170v-3,114,-35,136,-155,139r0,-67v51,-2,78,-14,78,-71r0,-170v2,-86,23,-96,89,-124v-34,-16,-33,-16,-59,-34v-28,-18,-30,-48,-30,-91r0,-170v5,-57,-26,-69,-78,-71r0,-67v120,6,155,25,155,139r0,170","w":351},"~":{"d":"555,-343v-27,54,-74,109,-140,112v-50,2,-168,-69,-221,-69v-21,0,-38,6,-50,18v-12,12,-30,36,-51,72r-42,-47v24,-43,47,-75,69,-93v46,-37,87,-34,151,-8v37,15,111,50,145,50v31,0,63,-27,95,-82","w":606},"\u00a0":{"w":277},"\u00a1":{"d":"184,-421r-74,0r0,-126r74,0r0,126xm184,192r-74,0r0,-542r74,0r0,542","w":295},"\u00a2":{"d":"45,-382v0,-128,94,-222,214,-232r0,-93r66,0r0,93v89,12,158,73,184,151r-83,0v-31,-56,-79,-84,-143,-84v-93,0,-164,71,-164,164v0,90,74,166,163,166v51,0,98,-24,140,-73r81,0v-24,70,-97,128,-178,138r0,90r-66,0r0,-90v-117,-6,-214,-107,-214,-230"},"\u00a3":{"d":"342,-67v128,4,196,-76,170,-201r72,0v37,165,-72,268,-240,268r-285,0r0,-67r139,0v45,-46,56,-135,22,-195v-13,-22,-38,-51,-76,-85r-126,0r0,-67r75,0v-74,-168,44,-338,213,-338v133,0,236,90,248,211r-69,0v-17,-85,-81,-143,-178,-144v-96,-1,-164,74,-162,172v0,31,9,64,28,99r284,0r0,67r-215,0v78,86,93,167,43,280r57,0"},"\u00a4":{"d":"428,-100v-50,32,-81,49,-152,50v-51,0,-101,-17,-150,-50r-42,42r-53,-54r41,-41v-61,-82,-62,-216,1,-299r-44,-42r55,-54r43,42v92,-63,211,-62,299,-1r43,-42r54,55r-41,42v60,83,63,222,-1,299r42,42r-54,53xm279,-122v100,0,178,-81,178,-181v0,-100,-77,-180,-177,-180v-104,0,-183,77,-183,181v0,101,81,180,182,180"},"\u00a5":{"d":"589,-739r-146,276r103,0r0,67r-139,0r-48,92r180,0r0,67r-206,0r0,237r-73,0r0,-237r-210,0r0,-67r183,0r-49,-92r-141,0r0,-67r105,0r-148,-276r76,0r221,412r216,-412r76,0"},"\u00a6":{"d":"373,-393r-74,0r0,-346r74,0r0,346xm373,125r-74,0r0,-346r74,0r0,346","w":672},"\u00a7":{"d":"307,-685v-58,0,-105,38,-104,94v0,39,20,67,59,86r158,74v73,34,109,81,109,142v0,58,-25,106,-76,143v32,34,48,70,48,109v2,101,-86,178,-188,178v-117,0,-206,-89,-207,-205r68,0v5,78,59,138,139,138v85,0,161,-97,98,-162v-68,-71,-235,-106,-300,-178v-17,-19,-24,-44,-24,-73v0,-61,29,-111,86,-152v-25,-27,-38,-60,-38,-98v-2,-93,77,-163,172,-163v94,0,171,60,176,146r-71,0v-11,-53,-46,-79,-105,-79xm407,-182v69,-46,75,-144,-7,-183r-188,-89v-65,42,-84,137,-3,176","w":615},"\u00a8":{"d":"148,-607r-74,0r0,-126r74,0r0,126xm295,-607r-74,0r0,-126r74,0r0,126","w":369},"\u00a9":{"d":"374,-695v189,0,354,165,354,354v0,189,-165,353,-354,353v-189,0,-353,-164,-353,-353v0,-189,164,-354,353,-354xm374,-25v170,0,317,-146,317,-316v0,-170,-147,-317,-317,-317v-170,0,-316,147,-316,317v0,170,146,316,316,316xm386,-178v76,-2,109,-29,151,-75r63,0v-45,85,-116,127,-213,127v-128,0,-238,-91,-238,-214v0,-125,106,-216,235,-216v101,0,184,52,213,126r-63,0v-33,-49,-82,-74,-149,-74v-96,0,-179,69,-179,163v0,90,87,166,180,163","w":747},"\u00aa":{"d":"183,-745v43,0,86,24,102,51r0,-45r48,0r0,291r-48,0r0,-45v-27,35,-62,52,-103,52v-79,0,-151,-73,-151,-153v0,-81,71,-151,152,-151xm184,-490v51,0,98,-51,98,-102v0,-53,-46,-104,-98,-104v-51,0,-100,50,-100,101v0,53,48,105,100,105xm339,-319r-308,0r0,-51r308,0r0,51","w":369},"\u00ab":{"d":"212,-132r-59,33r-113,-201r113,-199r59,32r-94,167xm385,-132r-59,33r-115,-201r115,-199r59,32r-94,167","w":425},"\u00ac":{"d":"543,-379r0,221r-74,0r0,-147r-406,0r0,-74r480,0","w":606},"\u00ad":{"d":"302,-233r-271,0r0,-63r271,0r0,63","w":332},"\u00ae":{"d":"374,-695v189,0,354,165,354,354v0,189,-165,353,-354,353v-189,0,-353,-164,-353,-353v0,-189,164,-354,353,-354xm374,-25v170,0,317,-146,317,-316v0,-170,-147,-317,-317,-317v-170,0,-316,147,-316,317v0,170,146,316,316,316xm333,-549v122,0,195,31,195,137v0,73,-41,116,-122,128r125,151r-73,0r-161,-197v67,1,113,-5,137,-16v24,-11,37,-33,37,-68v0,-73,-56,-81,-141,-83r-56,0r0,364r-57,0r0,-416r116,0","w":747},"\u00af":{"d":"411,-638r-337,0r0,-64r337,0r0,64","w":485},"\u00b0":{"d":"204,-686v82,0,146,71,146,153v0,83,-68,153,-150,153v-83,0,-150,-70,-150,-154v0,-84,70,-152,154,-152xm200,-437v51,0,93,-45,93,-96v0,-51,-41,-96,-91,-96v-52,0,-96,44,-96,96v0,51,44,96,94,96","w":400},"\u00b1":{"d":"543,-287r-203,0r0,146r-74,0r0,-146r-203,0r0,-74r203,0r0,-203r74,0r0,203r203,0r0,74xm543,0r-480,0r0,-74r480,0r0,74","w":606},"\u00b2":{"d":"171,-747v104,0,190,113,129,208v-44,68,-138,136,-199,196r217,0r0,55r-306,0r0,-51r163,-150v37,-34,61,-58,70,-71v9,-13,14,-29,14,-48v1,-45,-45,-85,-91,-84v-59,1,-95,44,-92,109r-60,0v0,-100,57,-164,155,-164","w":332},"\u00b3":{"d":"290,-628v-1,43,-15,57,-41,82v47,29,70,68,70,119v0,79,-74,148,-153,147v-91,-1,-150,-66,-153,-159r61,0v2,64,33,102,91,104v47,2,93,-43,93,-90v0,-61,-43,-92,-130,-92r0,-54v53,6,101,-12,101,-60v1,-34,-28,-62,-63,-61v-42,1,-63,31,-62,77r-61,0v0,-77,48,-132,124,-132v67,0,125,53,123,119","w":332},"\u00b4":{"d":"339,-708r-193,114r-34,-56r193,-116","w":375},"\u00b5":{"d":"307,-54v114,0,164,-83,164,-212r0,-281r74,0r0,547r-74,0r0,-85v-33,65,-88,98,-164,98v-74,0,-131,-33,-170,-98r0,277r-74,0r0,-739r74,0r0,281v1,91,7,122,53,165v33,31,72,47,117,47","w":608},"\u00b6":{"d":"37,-549v0,-123,89,-190,223,-190r231,0r0,872r-75,0r0,-805r-114,0r0,805r-75,0r0,-488v-109,-9,-190,-80,-190,-194","w":564},"\u00b7":{"d":"139,-313v34,0,63,29,63,63v0,34,-29,63,-63,63v-34,0,-63,-29,-63,-63v0,-34,29,-63,63,-63","w":277},"\u00b8":{"d":"157,48v70,-21,131,25,131,89v1,63,-46,115,-111,114v-54,-1,-86,-38,-96,-85r53,-6v7,22,21,33,44,33v28,1,48,-23,48,-51v0,-31,-20,-53,-51,-53v-18,0,-33,6,-46,19r-32,-19r38,-94r39,0","w":324},"\u00b9":{"d":"233,-288r-60,0r0,-396r-75,0r0,-55r135,0r0,451","w":332},"\u00ba":{"d":"185,-745v80,0,152,72,152,151v0,80,-73,152,-153,152v-82,0,-152,-71,-152,-154v0,-78,74,-149,153,-149xm185,-491v52,0,99,-48,99,-101v0,-57,-43,-104,-100,-104v-54,0,-99,48,-99,102v0,55,45,103,100,103xm337,-319r-305,0r0,-51r305,0r0,51","w":369},"\u00bb":{"d":"385,-300r-113,201r-59,-33r94,-168r-94,-167r59,-32xm214,-300r-115,201r-59,-33r94,-168r-94,-167r59,-32","w":425},"\u00bc":{"d":"803,-79r-42,0r0,79r-60,0r0,-79r-231,0r0,-50r226,-322r65,0r0,317r42,0r0,55xm701,-134r0,-225r-156,225r156,0xm607,-739r-342,739r-54,0r341,-739r55,0xm236,-288r-60,0r0,-396r-75,0r0,-55r135,0r0,451","w":831},"\u00bd":{"d":"602,-739r-342,739r-54,0r341,-739r55,0xm231,-288r-60,0r0,-396r-75,0r0,-55r135,0r0,451xm665,-459v104,0,190,113,129,208v-44,68,-138,136,-199,196r217,0r0,55r-306,0r0,-51r163,-150v37,-34,61,-58,70,-71v9,-13,14,-29,14,-48v1,-45,-45,-85,-91,-84v-59,1,-95,44,-92,109r-60,0v0,-100,57,-164,155,-164","w":831},"\u00be":{"d":"803,-79r-42,0r0,79r-60,0r0,-79r-231,0r0,-50r226,-322r65,0r0,317r42,0r0,55xm701,-134r0,-225r-156,225r156,0xm635,-739r-342,739r-54,0r341,-739r55,0xm290,-628v-1,43,-15,57,-41,82v47,29,70,69,70,119v0,79,-74,147,-153,147v-89,0,-154,-66,-153,-159r61,0v2,65,32,102,91,104v47,2,93,-43,93,-90v0,-61,-43,-92,-130,-92r0,-54v53,6,101,-12,101,-60v1,-34,-28,-62,-63,-61v-42,1,-63,31,-62,77r-61,0v0,-77,48,-132,124,-132v67,0,125,53,123,119","w":831},"\u00bf":{"d":"330,-421r-74,0r0,-126r74,0r0,126xm292,138v104,-4,166,-66,164,-177r70,0v3,149,-93,242,-234,244v-126,1,-226,-92,-226,-217v0,-165,191,-185,192,-342r70,0v-5,104,-39,141,-104,204v-33,32,-58,56,-68,75v-53,100,27,217,136,213","w":591},"\u00c0":{"d":"729,0r-81,0r-107,-249r-344,0r-108,249r-78,0r317,-739r83,0xm512,-316r-142,-339r-145,339r287,0xm445,-832r-34,56r-193,-114r34,-58","w":740},"\u00c1":{"d":"729,0r-81,0r-107,-249r-344,0r-108,249r-78,0r317,-739r83,0xm512,-316r-142,-339r-145,339r287,0xm521,-890r-193,114r-34,-56r193,-116","w":740},"\u00c2":{"d":"729,0r-81,0r-107,-249r-344,0r-108,249r-78,0r317,-739r83,0xm512,-316r-142,-339r-145,339r287,0xm547,-789r-89,0r-86,-74r-88,74r-91,0r145,-126r66,0","w":740},"\u00c3":{"d":"729,0r-81,0r-107,-249r-344,0r-108,249r-78,0r317,-739r83,0xm512,-316r-142,-339r-145,339r287,0xm318,-900v10,0,95,35,107,31v18,0,37,-10,57,-31r33,46v-13,24,-56,49,-91,49v-19,4,-76,-32,-106,-32v-30,0,-38,15,-60,32r-33,-46v25,-33,56,-49,93,-49","w":740},"\u00c4":{"d":"729,0r-81,0r-107,-249r-344,0r-108,249r-78,0r317,-739r83,0xm512,-316r-142,-339r-145,339r287,0xm333,-789r-74,0r0,-126r74,0r0,126xm480,-789r-74,0r0,-126r74,0r0,126","w":740},"\u00c5":{"d":"729,0r-81,0r-107,-249r-344,0r-108,249r-78,0r317,-739r83,0xm512,-316r-142,-339r-145,339r287,0xm371,-966v53,0,100,48,100,101v0,55,-47,101,-101,101v-54,0,-101,-46,-101,-100v0,-56,46,-102,102,-102xm370,-809v30,0,56,-26,56,-56v0,-30,-26,-56,-56,-56v-30,0,-56,26,-56,57v0,30,26,55,56,55","w":740},"\u00c6":{"d":"936,0r-393,0r0,-250r-271,0r-173,250r-88,0r511,-739r414,0r0,67r-319,0r0,265r308,0r0,67r-308,0r0,273r319,0r0,67xm543,-317r0,-327r-224,327r224,0","w":992},"\u00c7":{"d":"431,-55v131,-3,187,-55,257,-139r82,0v-73,136,-184,205,-332,207r-11,35v70,-21,131,25,131,89v1,63,-46,115,-111,114v-54,-1,-86,-38,-96,-85r53,-6v7,22,21,33,44,33v28,1,48,-23,48,-51v0,-31,-20,-53,-51,-53v-18,0,-33,6,-46,19r-32,-19r31,-77v-195,-11,-354,-174,-354,-379v0,-216,167,-385,383,-385v161,0,289,87,340,205r-83,0v-58,-91,-143,-137,-254,-137v-172,0,-311,141,-311,314v0,168,145,320,312,315","w":813},"\u00c8":{"d":"480,0r-404,0r0,-739r404,0r0,67r-330,0r0,265r319,0r0,67r-319,0r0,273r330,0r0,67xm354,-832r-34,56r-193,-114r34,-58","w":536},"\u00c9":{"d":"480,0r-404,0r0,-739r404,0r0,67r-330,0r0,265r319,0r0,67r-319,0r0,273r330,0r0,67xm429,-890r-193,114r-34,-56r193,-116","w":536},"\u00ca":{"d":"480,0r-404,0r0,-739r404,0r0,67r-330,0r0,265r319,0r0,67r-319,0r0,273r330,0r0,67xm455,-789r-89,0r-86,-74r-88,74r-91,0r145,-126r66,0","w":536},"\u00cb":{"d":"480,0r-404,0r0,-739r404,0r0,67r-330,0r0,265r319,0r0,67r-319,0r0,273r330,0r0,67xm242,-789r-74,0r0,-126r74,0r0,126xm389,-789r-74,0r0,-126r74,0r0,126","w":536},"\u00cc":{"d":"150,0r-74,0r0,-739r74,0r0,739xm184,-832r-34,56r-193,-114r34,-58","w":226},"\u00cd":{"d":"150,0r-74,0r0,-739r74,0r0,739xm269,-890r-193,114r-34,-56r193,-116","w":226},"\u00ce":{"d":"150,0r-74,0r0,-739r74,0r0,739xm290,-789r-89,0r-86,-74r-88,74r-91,0r145,-126r66,0","w":226},"\u00cf":{"d":"150,0r-74,0r0,-739r74,0r0,739xm77,-789r-74,0r0,-126r74,0r0,126xm224,-789r-74,0r0,-126r74,0r0,126","w":226},"\u00d0":{"d":"746,-367v0,238,-167,372,-425,367r-199,0r0,-347r-96,0r0,-67r96,0r0,-325v111,1,255,-6,340,13v171,39,284,159,284,359xm671,-370v-1,-118,-57,-205,-134,-254v-67,-43,-211,-51,-341,-48r0,258r205,0r0,67r-205,0r0,280v89,0,200,1,263,-15v129,-33,213,-144,212,-288","w":790},"\u00d1":{"d":"664,0r-74,0r-440,-650r0,650r-74,0r0,-739r100,0r414,613r0,-613r74,0r0,739xm319,-900v10,0,95,35,107,31v18,0,37,-10,57,-31r33,46v-13,24,-56,49,-91,49v-19,4,-76,-32,-106,-32v-30,0,-38,15,-60,32r-33,-46v25,-33,56,-49,93,-49","w":740},"\u00d2":{"d":"435,-752v207,0,390,177,390,383v0,205,-184,382,-390,382v-211,0,-391,-177,-391,-387v0,-201,188,-378,391,-378xm435,-55v167,0,315,-147,315,-313v0,-168,-148,-316,-315,-316v-165,0,-316,147,-316,312v0,170,146,317,316,317xm511,-832r-34,56r-193,-114r34,-58","w":869},"\u00d3":{"d":"435,-752v207,0,390,177,390,383v0,205,-184,382,-390,382v-211,0,-391,-177,-391,-387v0,-201,188,-378,391,-378xm435,-55v167,0,315,-147,315,-313v0,-168,-148,-316,-315,-316v-165,0,-316,147,-316,312v0,170,146,317,316,317xm586,-890r-193,114r-34,-56r193,-116","w":869},"\u00d4":{"d":"435,-752v207,0,390,177,390,383v0,205,-184,382,-390,382v-211,0,-391,-177,-391,-387v0,-201,188,-378,391,-378xm435,-55v167,0,315,-147,315,-313v0,-168,-148,-316,-315,-316v-165,0,-316,147,-316,312v0,170,146,317,316,317xm612,-789r-89,0r-86,-74r-88,74r-91,0r145,-126r66,0","w":869},"\u00d5":{"d":"435,-752v207,0,390,177,390,383v0,205,-184,382,-390,382v-211,0,-391,-177,-391,-387v0,-201,188,-378,391,-378xm435,-55v167,0,315,-147,315,-313v0,-168,-148,-316,-315,-316v-165,0,-316,147,-316,312v0,170,146,317,316,317xm384,-900v10,0,95,35,107,31v18,0,37,-10,57,-31r33,46v-13,24,-56,49,-91,49v-19,4,-76,-32,-106,-32v-30,0,-38,15,-60,32r-33,-46v25,-33,56,-49,93,-49","w":869},"\u00d6":{"d":"435,-752v207,0,390,177,390,383v0,205,-184,382,-390,382v-211,0,-391,-177,-391,-387v0,-201,188,-378,391,-378xm435,-55v167,0,315,-147,315,-313v0,-168,-148,-316,-315,-316v-165,0,-316,147,-316,312v0,170,146,317,316,317xm399,-789r-74,0r0,-126r74,0r0,126xm546,-789r-74,0r0,-126r74,0r0,126","w":869},"\u00d7":{"d":"499,-106r-52,52r-144,-144r-144,144r-52,-52r144,-144r-144,-144r52,-52r144,144r144,-144r52,52r-144,144","w":606},"\u00d8":{"d":"44,-370v0,-210,176,-382,387,-382v82,0,150,19,205,56r94,-125r54,42r-92,123v88,74,132,169,132,284v0,210,-177,385,-387,385v-75,0,-143,-18,-204,-55r-94,125r-56,-41r93,-124v-88,-73,-132,-169,-132,-288xm430,-684v-171,0,-311,146,-311,318v0,89,33,165,100,228r376,-503v-47,-29,-102,-43,-165,-43xm436,-55v170,0,313,-144,313,-314v0,-90,-33,-167,-99,-231r-376,503v53,28,107,42,162,42","w":868},"\u00d9":{"d":"327,13v-166,0,-251,-110,-251,-291r0,-461r74,0r0,461v0,149,59,223,178,223v118,0,177,-74,177,-223r0,-461r74,0r0,461v2,181,-84,291,-252,291xm403,-832r-34,56r-193,-114r34,-58","w":655},"\u00da":{"d":"327,13v-166,0,-251,-110,-251,-291r0,-461r74,0r0,461v0,149,59,223,178,223v118,0,177,-74,177,-223r0,-461r74,0r0,461v2,181,-84,291,-252,291xm479,-890r-193,114r-34,-56r193,-116","w":655},"\u00db":{"d":"327,13v-166,0,-251,-110,-251,-291r0,-461r74,0r0,461v0,149,59,223,178,223v118,0,177,-74,177,-223r0,-461r74,0r0,461v2,181,-84,291,-252,291xm505,-789r-89,0r-86,-74r-88,74r-91,0r145,-126r66,0","w":655},"\u00dc":{"d":"327,13v-166,0,-251,-110,-251,-291r0,-461r74,0r0,461v0,149,59,223,178,223v118,0,177,-74,177,-223r0,-461r74,0r0,461v2,181,-84,291,-252,291xm291,-789r-74,0r0,-126r74,0r0,126xm438,-789r-74,0r0,-126r74,0r0,126","w":655},"\u00dd":{"d":"590,-739r-258,492r0,247r-74,0r0,-247r-256,-492r82,0r210,414r215,-414r81,0xm446,-890r-193,114r-34,-56r193,-116","w":592},"\u00de":{"d":"280,-606v186,1,285,52,285,224v0,162,-95,216,-273,216r-142,0r0,166r-74,0r0,-739r67,0r0,133r137,0xm287,-233v133,-1,203,-28,203,-149v0,-80,-25,-127,-92,-144v-70,-18,-159,-11,-248,-13r0,306r137,0","w":592},"\u00df":{"d":"389,-389v81,25,134,89,135,190v2,117,-89,212,-205,212v-87,0,-149,-41,-186,-122r0,109r-74,0r0,-481v0,-181,68,-271,204,-271v118,0,211,91,211,208v0,69,-28,121,-85,155xm317,-55v75,0,133,-66,132,-142v-2,-111,-99,-159,-225,-144r0,-67v103,3,174,-44,175,-140v1,-77,-58,-138,-134,-136v-107,3,-131,80,-132,203r0,278r51,0v-1,81,55,148,133,148"},"\u00e0":{"d":"42,-272v0,-160,128,-288,288,-288v92,0,164,37,216,110r0,-97r74,0r0,547r-74,0r0,-96v-54,70,-101,107,-211,109v-163,4,-293,-124,-293,-285xm336,-55v117,0,210,-102,210,-221v0,-118,-97,-216,-214,-216v-115,0,-215,100,-215,215v0,122,97,222,219,222xm406,-650r-34,56r-193,-114r34,-58","w":683},"\u00e1":{"d":"42,-272v0,-160,128,-288,288,-288v92,0,164,37,216,110r0,-97r74,0r0,547r-74,0r0,-96v-54,70,-101,107,-211,109v-163,4,-293,-124,-293,-285xm336,-55v117,0,210,-102,210,-221v0,-118,-97,-216,-214,-216v-115,0,-215,100,-215,215v0,122,97,222,219,222xm481,-708r-193,114r-34,-56r193,-116","w":683},"\u00e2":{"d":"42,-272v0,-160,128,-288,288,-288v92,0,164,37,216,110r0,-97r74,0r0,547r-74,0r0,-96v-54,70,-101,107,-211,109v-163,4,-293,-124,-293,-285xm336,-55v117,0,210,-102,210,-221v0,-118,-97,-216,-214,-216v-115,0,-215,100,-215,215v0,122,97,222,219,222xm507,-607r-89,0r-86,-74r-88,74r-91,0r145,-126r66,0","w":683},"\u00e3":{"d":"42,-272v0,-160,128,-288,288,-288v92,0,164,37,216,110r0,-97r74,0r0,547r-74,0r0,-96v-54,70,-101,107,-211,109v-163,4,-293,-124,-293,-285xm336,-55v117,0,210,-102,210,-221v0,-118,-97,-216,-214,-216v-115,0,-215,100,-215,215v0,122,97,222,219,222xm278,-718v10,0,95,35,107,31v18,0,37,-10,57,-31r33,46v-13,24,-56,49,-91,49v-19,4,-76,-32,-106,-32v-30,0,-38,15,-60,32r-33,-46v25,-33,56,-49,93,-49","w":683},"\u00e4":{"d":"42,-272v0,-160,128,-288,288,-288v92,0,164,37,216,110r0,-97r74,0r0,547r-74,0r0,-96v-54,70,-101,107,-211,109v-163,4,-293,-124,-293,-285xm336,-55v117,0,210,-102,210,-221v0,-118,-97,-216,-214,-216v-115,0,-215,100,-215,215v0,122,97,222,219,222xm293,-607r-74,0r0,-126r74,0r0,126xm440,-607r-74,0r0,-126r74,0r0,126","w":683},"\u00e5":{"d":"42,-272v0,-160,128,-288,288,-288v92,0,164,37,216,110r0,-97r74,0r0,547r-74,0r0,-96v-54,70,-101,107,-211,109v-163,4,-293,-124,-293,-285xm336,-55v117,0,210,-102,210,-221v0,-118,-97,-216,-214,-216v-115,0,-215,100,-215,215v0,122,97,222,219,222xm331,-781v53,0,100,48,100,101v0,55,-47,101,-101,101v-54,0,-101,-46,-101,-100v0,-56,46,-102,102,-102xm330,-624v30,0,56,-26,56,-56v0,-30,-26,-56,-56,-56v-30,0,-56,26,-56,57v0,30,26,55,56,55","w":683},"\u00e6":{"d":"42,-272v0,-158,128,-288,288,-288v93,0,165,36,218,108r0,-95r71,0r0,95v57,-72,129,-108,216,-108v171,1,288,128,283,313r-495,0v6,105,104,193,216,192v90,-1,163,-55,189,-123r77,0v-33,105,-136,191,-266,191v-87,0,-160,-35,-220,-105r0,92r-71,0r0,-92v-55,65,-110,103,-217,105v-159,4,-289,-127,-289,-285xm1046,-314v-16,-100,-98,-178,-210,-178v-111,0,-197,78,-210,178r420,0xm333,-55v119,0,217,-100,217,-219v0,-124,-94,-218,-217,-218v-120,0,-215,97,-215,218v0,119,96,219,215,219","w":1157},"\u00e7":{"d":"337,-55v96,-3,137,-42,187,-106r84,0v-60,114,-147,172,-260,174r-11,35v70,-21,131,25,131,89v1,63,-46,115,-111,114v-54,-1,-86,-38,-96,-85r53,-6v7,22,21,33,44,33v28,1,48,-23,48,-51v0,-31,-20,-53,-51,-53v-18,0,-33,6,-46,19r-32,-19r31,-78v-145,-10,-266,-132,-266,-286v0,-156,135,-288,293,-285v131,2,234,79,272,179r-83,0v-43,-74,-107,-111,-190,-111v-119,0,-217,100,-217,219v0,119,101,221,220,218","w":647},"\u00e8":{"d":"42,-276v0,-155,129,-284,284,-284v170,0,290,132,285,311r-495,0v2,105,104,196,213,194v88,-1,165,-57,191,-125r77,0v-30,99,-141,193,-266,193v-158,0,-289,-131,-289,-289xm537,-316v-22,-100,-97,-175,-212,-176v-109,0,-191,79,-207,176r419,0xm402,-650r-34,56r-193,-114r34,-58","w":650},"\u00e9":{"d":"42,-276v0,-155,129,-284,284,-284v170,0,290,132,285,311r-495,0v2,105,104,196,213,194v88,-1,165,-57,191,-125r77,0v-30,99,-141,193,-266,193v-158,0,-289,-131,-289,-289xm537,-316v-22,-100,-97,-175,-212,-176v-109,0,-191,79,-207,176r419,0xm477,-708r-193,114r-34,-56r193,-116","w":650},"\u00ea":{"d":"42,-276v0,-155,129,-284,284,-284v170,0,290,132,285,311r-495,0v2,105,104,196,213,194v88,-1,165,-57,191,-125r77,0v-30,99,-141,193,-266,193v-158,0,-289,-131,-289,-289xm537,-316v-22,-100,-97,-175,-212,-176v-109,0,-191,79,-207,176r419,0xm503,-607r-89,0r-86,-74r-88,74r-91,0r145,-126r66,0","w":650},"\u00eb":{"d":"42,-276v0,-155,129,-284,284,-284v170,0,290,132,285,311r-495,0v2,105,104,196,213,194v88,-1,165,-57,191,-125r77,0v-30,99,-141,193,-266,193v-158,0,-289,-131,-289,-289xm537,-316v-22,-100,-97,-175,-212,-176v-109,0,-191,79,-207,176r419,0xm289,-607r-74,0r0,-126r74,0r0,126xm436,-607r-74,0r0,-126r74,0r0,126","w":650},"\u00ec":{"d":"137,0r-74,0r0,-547r74,0r0,547xm171,-650r-34,56r-193,-114r34,-58","w":200},"\u00ed":{"d":"137,0r-74,0r0,-547r74,0r0,547xm256,-708r-193,114r-34,-56r193,-116","w":200},"\u00ee":{"d":"137,0r-74,0r0,-547r74,0r0,547xm277,-607r-89,0r-86,-74r-88,74r-91,0r145,-126r66,0","w":200},"\u00ef":{"d":"137,0r-74,0r0,-547r74,0r0,547xm63,-607r-74,0r0,-126r74,0r0,126xm210,-607r-74,0r0,-126r74,0r0,126","w":200},"\u00f0":{"d":"42,-274v0,-187,175,-336,370,-264v-42,-43,-74,-73,-95,-92r-87,39r-36,-46r79,-35r-60,-55r53,-29v27,20,49,38,68,55r95,-42r39,44r-89,39v79,70,139,134,177,193v38,59,57,121,57,188v0,166,-115,292,-279,292v-164,0,-292,-124,-292,-287xm333,-55v120,0,205,-95,205,-217v0,-122,-89,-220,-209,-220v-120,0,-212,97,-212,217v0,125,92,220,216,220","w":655},"\u00f1":{"d":"313,-560v156,0,234,103,234,273r0,287r-74,0r0,-287v0,-137,-56,-205,-169,-205v-111,0,-167,70,-167,191r0,301r-74,0r0,-547r74,0r0,71v46,-56,105,-84,176,-84xm253,-718v10,0,95,35,107,31v18,0,37,-10,57,-31r33,46v-13,24,-56,49,-91,49v-19,4,-76,-32,-106,-32v-30,0,-38,15,-60,32r-33,-46v25,-33,56,-49,93,-49","w":610},"\u00f2":{"d":"329,-560v162,0,284,126,284,288v0,159,-120,285,-278,285v-166,0,-293,-125,-293,-290v0,-157,129,-283,287,-283xm333,-55v118,0,205,-95,205,-216v0,-122,-89,-221,-209,-221v-120,0,-212,97,-212,217v0,125,92,220,216,220xm405,-650r-34,56r-193,-114r34,-58","w":655},"\u00f3":{"d":"329,-560v162,0,284,126,284,288v0,159,-120,285,-278,285v-166,0,-293,-125,-293,-290v0,-157,129,-283,287,-283xm333,-55v118,0,205,-95,205,-216v0,-122,-89,-221,-209,-221v-120,0,-212,97,-212,217v0,125,92,220,216,220xm480,-708r-193,114r-34,-56r193,-116","w":655},"\u00f4":{"d":"329,-560v162,0,284,126,284,288v0,159,-120,285,-278,285v-166,0,-293,-125,-293,-290v0,-157,129,-283,287,-283xm333,-55v118,0,205,-95,205,-216v0,-122,-89,-221,-209,-221v-120,0,-212,97,-212,217v0,125,92,220,216,220xm506,-607r-89,0r-86,-74r-88,74r-91,0r145,-126r66,0","w":655},"\u00f5":{"d":"329,-560v162,0,284,126,284,288v0,159,-120,285,-278,285v-166,0,-293,-125,-293,-290v0,-157,129,-283,287,-283xm333,-55v118,0,205,-95,205,-216v0,-122,-89,-221,-209,-221v-120,0,-212,97,-212,217v0,125,92,220,216,220xm277,-718v10,0,95,35,107,31v18,0,37,-10,57,-31r33,46v-13,24,-56,49,-91,49v-19,4,-76,-32,-106,-32v-30,0,-38,15,-60,32r-33,-46v25,-33,56,-49,93,-49","w":655},"\u00f6":{"d":"329,-560v162,0,284,126,284,288v0,159,-120,285,-278,285v-166,0,-293,-125,-293,-290v0,-157,129,-283,287,-283xm333,-55v118,0,205,-95,205,-216v0,-122,-89,-221,-209,-221v-120,0,-212,97,-212,217v0,125,92,220,216,220xm292,-607r-74,0r0,-126r74,0r0,126xm439,-607r-74,0r0,-126r74,0r0,126","w":655},"\u00f7":{"d":"543,-213r-480,0r0,-74r480,0r0,74xm303,-498v34,0,63,29,63,63v0,34,-29,63,-63,63v-34,0,-63,-29,-63,-63v0,-34,29,-63,63,-63xm303,-128v34,0,63,29,63,63v0,34,-29,63,-63,63v-34,0,-63,-29,-63,-63v0,-34,29,-63,63,-63","w":606},"\u00f8":{"d":"42,-272v-4,-155,131,-288,286,-288v53,0,102,14,146,41r57,-75r53,42r-56,74v55,51,83,116,83,197v0,166,-119,297,-283,294v-49,0,-99,-14,-150,-41r-52,67r-53,-40r51,-67v-52,-62,-80,-107,-82,-204xm329,-492v-120,-2,-212,104,-212,226v0,51,16,99,49,145r268,-347v-32,-16,-67,-24,-105,-24xm323,-55v125,2,213,-98,213,-225v0,-57,-16,-105,-49,-146r-269,347v35,16,70,24,105,24","w":653},"\u00f9":{"d":"301,-55v116,0,170,-82,170,-211r0,-281r74,0r0,547r-74,0r0,-85v-35,65,-94,98,-176,98v-155,0,-232,-88,-232,-265r0,-295r74,0r0,295v0,131,55,197,164,197xm380,-650r-34,56r-193,-114r34,-58","w":608},"\u00fa":{"d":"301,-55v116,0,170,-82,170,-211r0,-281r74,0r0,547r-74,0r0,-85v-35,65,-94,98,-176,98v-155,0,-232,-88,-232,-265r0,-295r74,0r0,295v0,131,55,197,164,197xm455,-708r-193,114r-34,-56r193,-116","w":608},"\u00fb":{"d":"301,-55v116,0,170,-82,170,-211r0,-281r74,0r0,547r-74,0r0,-85v-35,65,-94,98,-176,98v-155,0,-232,-88,-232,-265r0,-295r74,0r0,295v0,131,55,197,164,197xm481,-607r-89,0r-86,-74r-88,74r-91,0r145,-126r66,0","w":608},"\u00fc":{"d":"301,-55v116,0,170,-82,170,-211r0,-281r74,0r0,547r-74,0r0,-85v-35,65,-94,98,-176,98v-155,0,-232,-88,-232,-265r0,-295r74,0r0,295v0,131,55,197,164,197xm267,-607r-74,0r0,-126r74,0r0,126xm414,-607r-74,0r0,-126r74,0r0,126","w":608},"\u00fd":{"d":"527,-547r-316,739r-79,0r89,-210r-212,-529r81,0r173,436r185,-436r79,0xm420,-708r-193,114r-34,-56r193,-116","w":536},"\u00fe":{"d":"352,-560v159,0,288,129,288,288v0,157,-132,285,-290,285v-93,0,-164,-36,-213,-107r0,286r-74,0r0,-931r74,0r0,286v47,-71,119,-107,215,-107xm350,-55v119,0,215,-98,215,-217v0,-122,-95,-220,-216,-220v-118,0,-217,98,-217,216v0,124,95,221,218,221","w":682},"\u00ff":{"d":"527,-547r-316,739r-79,0r89,-210r-212,-529r81,0r173,436r185,-436r79,0xm232,-607r-74,0r0,-126r74,0r0,126xm379,-607r-74,0r0,-126r74,0r0,126","w":536},"\u0152":{"d":"432,-752v146,2,257,64,313,160r0,-147r393,0r0,67r-319,0r0,265r308,0r0,67r-308,0r0,273r319,0r0,67r-393,0r0,-151v-63,109,-163,164,-300,164v-223,0,-401,-164,-401,-384v0,-214,172,-384,388,-381xm439,-55v176,0,307,-140,307,-317v0,-178,-135,-312,-314,-312v-173,0,-313,137,-313,309v0,180,140,320,320,320","w":1194},"\u0153":{"d":"817,-560v165,0,302,132,279,312r-488,0v3,106,107,193,216,193v85,0,148,-41,188,-124r74,0v-25,99,-133,194,-258,192v-122,-1,-216,-64,-257,-151v-54,92,-113,148,-240,151v-158,4,-289,-129,-289,-287v0,-157,126,-286,282,-286v106,0,188,49,247,146v57,-97,139,-146,246,-146xm1027,-315v-14,-99,-101,-178,-212,-177v-112,1,-185,78,-207,177r419,0xm331,-55v115,0,205,-101,205,-218v0,-121,-91,-219,-210,-219v-119,0,-209,98,-209,219v0,119,95,218,214,218","w":1137},"\u0178":{"d":"590,-739r-258,492r0,247r-74,0r0,-247r-256,-492r82,0r210,414r215,-414r81,0xm259,-789r-74,0r0,-126r74,0r0,126xm406,-789r-74,0r0,-126r74,0r0,126","w":592},"\u02c6":{"d":"428,-607r-89,0r-86,-74r-88,74r-91,0r145,-126r66,0","w":502},"\u02dc":{"d":"168,-718v10,0,95,35,107,31v18,0,37,-10,57,-31r33,46v-13,24,-56,49,-91,49v-19,4,-76,-32,-106,-32v-30,0,-38,15,-60,32r-33,-46v25,-33,56,-49,93,-49","w":439},"\u2013":{"d":"500,-233r-500,0r0,-63r500,0r0,63","w":500},"\u2014":{"d":"1000,-233r-1000,0r0,-63r1000,0r0,63","w":1000},"\u2018":{"d":"260,-547r-74,0r-88,-192r74,0","w":351},"\u2019":{"d":"253,-739r-88,192r-74,0r88,-192r74,0","w":351},"\u201a":{"d":"251,-126r-88,193r-74,0r88,-193r74,0","w":354},"\u201c":{"d":"406,-547r-74,0r-88,-192r74,0xm258,-547r-74,0r-88,-192r74,0","w":502},"\u201d":{"d":"249,-739r-88,192r-74,0r88,-192r74,0xm393,-739r-88,192r-74,0r88,-192r74,0","w":484},"\u201e":{"d":"251,-126r-88,193r-74,0r88,-193r74,0xm398,-126r-88,193r-74,0r88,-193r74,0","w":502},"\u2022":{"d":"303,-488v100,0,185,84,185,184v0,102,-85,186,-187,186v-98,0,-183,-87,-183,-185v0,-100,85,-185,185,-185","w":606},"\u2026":{"d":"204,0r-74,0r0,-126r74,0r0,126xm537,0r-74,0r0,-126r74,0r0,126xm870,0r-74,0r0,-126r74,0r0,126","w":1000},"\u2039":{"d":"211,-132r-59,33r-112,-201r112,-199r59,32r-93,167","w":251},"\u203a":{"d":"211,-300r-112,201r-59,-33r93,-168r-93,-167r59,-32","w":251},"\u20ac":{"d":"349,13v-180,0,-255,-113,-284,-285r-96,0r24,-59r68,0v-1,-28,-1,-29,1,-69r-94,0r24,-59r75,0v19,-107,54,-182,99,-227v65,-66,207,-87,302,-40v32,17,68,49,105,98r-31,69v-33,-48,-63,-81,-90,-99v-66,-46,-186,-32,-235,23v-31,35,-58,93,-75,176r351,0r-25,59r-332,0v-1,23,-2,35,-2,38v0,11,0,22,1,31r303,0r-24,59r-274,0v16,126,79,217,208,220v39,0,70,-6,94,-18v24,-12,55,-36,94,-73r0,81v-50,49,-96,75,-187,75"},"\u2122":{"d":"348,-739r0,52r-111,0r0,369r-62,0r0,-369r-112,0r0,-52r285,0xm937,-318r-62,0r0,-340r-173,340r-50,0r-171,-340r0,340r-63,0r0,-421r87,0r173,338r173,-338r86,0r0,421","w":1000}}});
