/*!
 * The following copyright notice may not be removed under any circumstances.
 * 
 * Copyright:
 * Copyright (URW)++, copyright 1999 by (URW)++ Design & Development; Cyrillic
 * glyphs added by Valek Filippov, copyright 2001-2002; Vietnamese characters were
 * added by Han The Thanh; copyright 2006, 2008 for TeX Gyre extensions by B.
 * Jackowski and J.M. Nowacki (on behalf of TeX users groups). This work is
 * released under the GUST Font License --  see
 * http://tug.org/fonts/licenses/GUST-FONT-LICENSE.txt for details.
 * 
 * Trademark:
 * Please refer to the Copyright section for the font trademark attribution
 * notices.
 */
Cufon.registerFont({"w":556,"face":{"font-family":"TeXGyreHeros","font-weight":400,"font-style":"italic","font-stretch":"normal","units-per-em":"1000","panose-1":"0 0 5 0 0 0 0 0 0 0","ascent":"784","descent":"-216","x-height":"15","bbox":"-115 -961 1058 230.02","underline-thickness":"50","underline-position":"-77","slope":"-12","unicode-range":"U+0020-U+2122"},"glyphs":{" ":{"w":278},"!":{"d":"212,-379r-67,211r-40,0r23,-211r74,-350r84,0xm153,-103r-22,103r-84,0r22,-103r84,0","w":278},"\"":{"d":"246,-709r-24,111r-55,134r-39,0r0,-134r24,-111r94,0xm405,-709r-24,111r-55,134r-39,0r0,-134r24,-111r94,0","w":355},"#":{"d":"599,-503r-14,64r-105,0r-73,184r107,0r-14,64r-118,0r-83,211r-76,0r83,-211r-125,0r-83,211r-76,0r83,-211r-101,0r14,-64r112,0r73,-184r-109,0r13,-64r121,0r77,-194r76,0r-76,194r124,0r77,-194r76,0r-77,194r94,0xm404,-439r-124,0r-74,184r125,0"},"$":{"d":"405,-716v110,2,179,82,152,197r-79,0v4,-42,2,-76,-22,-100v-17,-16,-39,-26,-66,-27r-53,249v60,19,100,35,121,48v38,25,57,61,57,106v2,154,-112,266,-267,266r-22,103r-59,0r22,-103v-103,-17,-167,-51,-170,-157v0,-19,3,-44,8,-74r79,0v-4,46,-9,96,19,122v16,15,41,29,78,40r58,-272v-60,-21,-98,-38,-114,-52v-30,-26,-45,-59,-45,-99v0,-143,103,-240,244,-247r11,-54r59,0xm331,-645v-78,2,-148,67,-146,144v2,63,38,76,95,96xm262,-46v99,-7,165,-63,165,-165v0,-65,-46,-76,-109,-98"},"%":{"d":"775,-709r-550,729r-66,0r550,-729r66,0xm295,-682v74,0,138,57,138,130v0,105,-106,206,-213,206v-76,0,-136,-57,-136,-132v0,-102,108,-204,211,-204xm236,-412v62,0,127,-61,127,-122v0,-49,-35,-82,-84,-82v-61,0,-125,61,-125,122v0,46,36,82,82,82xm707,-320v74,0,138,57,138,130v0,105,-106,206,-213,206v-76,0,-136,-57,-136,-132v0,-102,108,-204,211,-204xm648,-50v62,0,127,-61,127,-122v0,-49,-35,-82,-84,-82v-61,0,-125,61,-125,122v0,46,36,82,82,82","w":889},"&":{"d":"405,-709v78,0,134,46,133,122v0,43,-15,82,-44,116v-29,34,-75,65,-137,93r98,163v29,-33,49,-73,60,-119r79,0v-13,66,-47,127,-100,183r90,151r-106,0r-46,-78v-78,60,-119,98,-229,101v-100,3,-170,-55,-170,-151v0,-55,16,-103,48,-142v32,-39,84,-79,157,-120v-15,-40,-41,-83,-41,-133v0,-98,107,-186,208,-186xm386,-639v-70,0,-128,73,-98,145v5,12,18,31,39,60v46,-23,79,-46,99,-67v20,-21,29,-46,29,-73v0,-40,-28,-65,-69,-65xm121,-159v-1,65,44,106,109,105v46,0,102,-28,168,-83r-119,-199v-56,30,-96,58,-121,86v-25,28,-37,58,-37,91","w":667},"'":{"d":"242,-709r-24,111r-55,134r-39,0r0,-134r24,-111r94,0","w":191},"(":{"d":"196,213r-55,0v-52,-91,-78,-201,-78,-329v0,-101,24,-206,73,-314v49,-108,118,-208,205,-299r55,0v-170,209,-255,425,-255,650v0,99,18,197,55,292","w":333},")":{"d":"198,-729v44,76,77,205,77,322v0,104,-24,211,-73,320v-49,109,-117,209,-204,300r-55,0v83,-101,145,-207,189,-317v83,-204,89,-423,11,-625r55,0","w":333},"*":{"d":"421,-593r-113,27r53,91r-58,37r-44,-96r-81,95r-47,-40r92,-88r-104,-31r30,-59r100,40r20,-112r62,0r-29,112r110,-38","w":389},"+":{"d":"516,-216r-190,0r0,190r-68,0r0,-190r-190,0r0,-68r190,0r0,-190r68,0r0,190r190,0r0,68","w":584},",":{"d":"164,-103v-26,107,-32,251,-159,250r8,-38v62,-4,70,-43,83,-109r-59,0r22,-103r105,0","w":278},"-":{"d":"286,-240r-239,0r15,-72r239,0","w":333},".":{"d":"163,-103r-22,103r-104,0r22,-103r104,0","w":278},"\/":{"d":"384,-729r-391,749r-55,0r391,-749r55,0","w":278},"0":{"d":"368,-709v116,-1,180,77,180,195v0,144,-50,322,-110,407v-57,81,-126,122,-210,122v-111,0,-178,-76,-178,-193v0,-143,51,-324,110,-409v56,-81,125,-122,208,-122xm138,-189v0,72,34,127,101,127v84,0,118,-55,152,-124v34,-69,69,-220,69,-318v0,-75,-34,-127,-104,-128v-63,0,-112,41,-150,123v-33,71,-68,221,-68,320"},"1":{"d":"448,-709r-151,709r-88,0r108,-505r-159,0r13,-63v150,-24,159,-28,219,-141r58,0"},"2":{"d":"378,-709v112,-2,192,65,192,172v0,100,-66,183,-198,250r-112,57v-93,47,-148,95,-163,143r377,0r-19,87r-471,0v54,-184,98,-216,263,-307v68,-38,158,-70,201,-127v22,-29,34,-59,34,-91v1,-65,-50,-108,-116,-107v-112,3,-153,69,-181,169r-88,0v36,-154,108,-243,281,-246"},"3":{"d":"428,-371v50,26,76,51,78,118v1,153,-129,268,-290,268v-119,0,-193,-54,-193,-167v0,-16,2,-37,5,-62r88,0v-3,17,-5,30,-5,52v0,64,52,100,118,100v109,0,191,-70,189,-178v0,-79,-89,-99,-177,-89r16,-75v125,3,203,-29,204,-141v0,-56,-46,-88,-106,-87v-103,3,-147,57,-168,152r-88,0v38,-144,107,-224,268,-229v100,-2,182,52,182,146v0,104,-46,149,-121,192"},"4":{"d":"523,-248r-17,78r-106,0r-36,170r-88,0r36,-170r-299,0r20,-92r416,-447r66,0r-98,461r106,0xm329,-248r65,-308r-286,308r221,0"},"5":{"d":"331,-467v109,-2,186,66,186,172v0,165,-135,312,-294,310v-126,-2,-210,-62,-201,-197r88,0v3,80,44,120,125,120v114,0,194,-90,194,-207v0,-78,-47,-123,-126,-121v-79,2,-94,23,-149,67r-80,0r132,-371r370,0r-18,87r-300,0r-67,183v47,-29,93,-43,140,-43"},"6":{"d":"338,-442v104,0,178,68,178,171v0,148,-133,286,-278,286v-116,0,-194,-71,-194,-186v0,-128,52,-310,104,-389v64,-99,142,-149,237,-149v111,-1,188,68,175,185r-88,0v3,-63,-37,-109,-101,-108v-51,0,-95,25,-133,74v-38,49,-64,115,-79,200v56,-56,116,-84,179,-84xm251,-62v101,0,177,-90,177,-194v0,-65,-48,-109,-114,-109v-101,0,-182,85,-182,187v0,69,51,116,119,116"},"7":{"d":"601,-613v-152,146,-343,408,-416,613r-98,0v116,-261,218,-375,420,-607r-383,0r19,-87r475,0"},"8":{"d":"371,-709v101,0,183,54,183,148v0,101,-55,144,-127,188v56,32,84,75,84,130v0,138,-139,258,-278,258v-116,0,-207,-56,-208,-164v0,-101,53,-176,158,-224v-36,-32,-64,-46,-64,-107v0,-126,123,-229,252,-229xm314,-408v83,0,153,-58,152,-137v0,-58,-46,-87,-109,-87v-83,0,-151,60,-150,141v0,56,46,83,107,83xm239,-62v100,0,184,-70,184,-168v0,-69,-56,-104,-129,-104v-97,0,-181,75,-181,170v0,66,57,102,126,102"},"9":{"d":"354,-709v115,0,196,74,195,184v0,68,-13,152,-40,251v-24,89,-63,160,-117,212v-54,52,-114,77,-182,77v-111,1,-187,-68,-174,-185r87,0v0,67,33,108,99,108v101,0,171,-90,211,-270v-68,52,-82,78,-178,80v-106,3,-177,-68,-177,-173v0,-143,124,-284,276,-284xm279,-329v100,0,183,-88,183,-189v0,-66,-54,-114,-120,-114v-98,0,-177,91,-177,192v0,71,43,111,114,111"},":":{"d":"166,-103r-22,103r-104,0r22,-103r104,0xm256,-524r-22,103r-104,0r14,-103r112,0","w":278},";":{"d":"252,-524r-22,103r-104,0r22,-103r104,0xm164,-103v-26,107,-32,251,-159,250r8,-38v62,-4,70,-43,83,-109r-59,0r22,-103r105,0","w":278},"<":{"d":"448,69r-334,-293r0,-52r334,-293r0,90r-260,229r260,229r0,90","w":584},"=":{"d":"516,-307r-448,0r0,-68r448,0r0,68xm516,-125r-448,0r0,-68r448,0r0,68","w":584},">":{"d":"448,-224r-334,293r0,-90r260,-229r-260,-229r0,-90r334,293r0,52","w":584},"?":{"d":"393,-741v103,0,180,57,181,151v0,39,-11,75,-34,110v-23,35,-61,71,-111,110v-63,49,-82,55,-104,124r-10,47r-90,0v10,-46,21,-98,44,-127v22,-28,159,-128,185,-173v14,-25,24,-50,24,-79v0,-53,-50,-87,-107,-86v-103,3,-137,61,-158,157r-85,0v31,-156,120,-234,265,-234xm295,-103r-22,103r-90,0r22,-103r90,0"},"@":{"d":"631,-741v192,-3,355,124,355,307v0,196,-155,380,-340,377v-60,0,-104,-17,-99,-77r-67,47v-22,14,-49,25,-85,25v-81,0,-136,-57,-135,-139v3,-117,88,-223,169,-275v50,-32,98,-48,147,-48v61,0,97,30,109,89r36,-66r82,0r-149,280v-16,30,-24,49,-24,58v-1,19,21,37,41,36v88,-4,161,-84,197,-155v23,-45,35,-89,35,-132v2,-149,-136,-253,-293,-250v-184,4,-342,119,-421,244v-47,73,-71,147,-71,224v-1,162,137,261,307,261v55,0,123,-11,204,-32r13,67v-77,28,-158,42,-245,42v-191,0,-367,-134,-367,-324v0,-91,28,-180,81,-266v94,-153,289,-290,520,-293xm352,-210v0,46,31,88,76,86v77,-3,144,-97,174,-160v20,-42,30,-77,30,-106v0,-43,-23,-65,-68,-65v-96,0,-212,148,-212,245","w":1015},"A":{"d":"603,0r-102,0r-27,-219r-285,0r-123,219r-99,0r415,-729r120,0xm464,-297r-40,-333r-191,333r231,0","w":667},"B":{"d":"525,-384v61,28,94,51,97,126v4,142,-122,258,-263,258r-330,0r155,-729r296,0v102,-2,181,50,181,145v0,100,-59,167,-136,200xm391,-415v105,2,172,-50,174,-146v0,-57,-41,-86,-124,-86r-180,0r-50,232r180,0xm367,-82v92,2,159,-68,159,-160v0,-61,-35,-91,-106,-91r-226,0r-54,251r227,0","w":667},"C":{"d":"159,-265v0,114,65,203,173,202v63,0,113,-16,150,-47v37,-31,72,-83,105,-156r98,0v-43,101,-92,174,-149,218v-57,44,-130,66,-218,66v-158,0,-257,-107,-255,-265v1,-140,59,-277,128,-359v79,-93,175,-141,292,-141v149,1,232,94,237,244r-96,0v-8,-109,-61,-163,-158,-163v-91,0,-166,44,-226,133v-54,81,-81,170,-81,268","w":722},"D":{"d":"476,-729v143,-3,233,101,233,241v0,137,-38,253,-113,347v-75,94,-166,141,-275,141r-282,0r155,-729r282,0xm613,-480v1,-104,-66,-167,-171,-167r-171,0r-121,565r172,0v86,0,156,-37,210,-112v54,-75,81,-171,81,-286","w":722},"E":{"d":"563,0r-523,0r155,-729r506,0r-17,82r-412,0r-50,233r396,0r-18,82r-395,0r-54,250r429,0","w":667},"F":{"d":"667,-647r-395,0r-50,233r347,0r-17,82r-347,0r-71,332r-94,0r155,-729r489,0","w":611},"G":{"d":"156,-282v0,138,68,219,206,219v136,0,252,-96,275,-214r6,-26r-222,0r18,-82r304,0r-82,385r-59,0r-5,-86v-83,67,-138,103,-268,104v-165,2,-272,-113,-269,-284v3,-181,93,-328,214,-409v70,-47,147,-72,232,-72v153,-1,260,84,253,239r-91,0v0,-101,-78,-158,-180,-158v-188,0,-332,192,-332,384","w":778},"H":{"d":"749,-729r-155,729r-94,0r71,-332r-373,0r-71,332r-94,0r155,-729r94,0r-67,315r373,0r67,-315r94,0","w":722},"I":{"d":"299,-729r-155,729r-94,0r155,-729r94,0","w":278},"J":{"d":"98,-173v-18,64,23,112,86,110v94,-5,125,-65,145,-158r108,-508r94,0r-115,542v-25,122,-112,203,-252,205v-112,2,-188,-79,-160,-193r13,-59r94,0","w":500},"K":{"d":"763,-729r-361,298r206,431r-110,0r-168,-376r-154,127r-53,249r-94,0r155,-729r94,0r-79,373r444,-373r120,0","w":667},"L":{"d":"484,0r-454,0r155,-729r94,0r-138,647r360,0"},"M":{"d":"866,-729r-155,729r-89,0r129,-605r-334,605r-97,0r-77,-605r-129,605r-89,0r155,-729r129,0r80,627r346,-627r131,0","w":833},"N":{"d":"751,-729r-155,729r-106,0r-249,-591r-126,591r-89,0r155,-729r104,0r250,598r127,-598r89,0","w":722},"O":{"d":"488,-747v177,-2,292,101,291,277v-2,188,-85,336,-207,418v-68,46,-145,70,-230,70v-178,1,-289,-106,-287,-286v2,-181,96,-331,215,-410v68,-45,139,-69,218,-69xm151,-276v0,130,78,213,204,213v138,-1,241,-98,287,-201v27,-59,41,-121,41,-188v2,-131,-78,-215,-207,-214v-137,1,-238,98,-284,201v-27,59,-41,122,-41,189","w":778},"P":{"d":"683,-568v0,138,-113,259,-254,259r-228,0r-66,309r-94,0r155,-729r302,0v123,0,185,54,185,161xm412,-391v96,3,176,-68,175,-159v0,-65,-40,-97,-120,-97r-194,0r-55,256r194,0","w":667},"Q":{"d":"779,-462v-2,165,-76,296,-173,381r78,77r-60,58r-87,-87v-68,35,-104,50,-196,51v-179,1,-287,-109,-286,-287v2,-181,93,-330,211,-409v68,-45,141,-69,222,-69v181,-2,293,106,291,285xm151,-277v-1,132,78,215,209,214v36,0,76,-10,119,-29r-62,-62r58,-56r74,73v89,-86,134,-191,134,-315v0,-132,-79,-214,-207,-214v-136,1,-238,98,-284,201v-27,59,-41,122,-41,188","w":778},"R":{"d":"640,-264v4,13,-27,134,-27,188v0,23,7,40,21,53r-5,23r-113,0v-18,-89,28,-145,28,-239v0,-50,-34,-75,-101,-75r-239,0r-67,314r-94,0r155,-729r336,0v120,0,186,41,186,154v0,116,-56,167,-140,215v40,28,58,40,60,96xm452,-396v105,2,172,-64,172,-162v0,-69,-41,-89,-119,-89r-230,0r-54,251r231,0","w":722},"S":{"d":"421,-666v-101,-3,-196,52,-196,142v0,61,39,68,101,86r172,49v66,17,122,72,122,147v0,68,-46,139,-87,176v-61,55,-144,84,-252,84v-161,0,-274,-94,-232,-255r87,0v-20,118,40,174,161,174v67,0,121,-14,163,-43v42,-29,64,-65,64,-108v0,-63,-50,-82,-113,-100r-171,-49v-59,-15,-111,-66,-111,-135v0,-59,39,-131,72,-164v56,-56,134,-85,238,-85v145,0,257,79,218,226r-88,0v19,-100,-31,-143,-148,-145","w":667},"T":{"d":"681,-647r-238,0r-138,647r-94,0r138,-647r-241,0r17,-82r573,0","w":611},"U":{"d":"176,-222v-28,103,55,159,156,159v114,0,196,-63,216,-159r108,-507r94,0r-108,507v-27,141,-160,240,-328,240v-127,0,-237,-64,-239,-178v0,-20,5,-52,14,-96r101,-473r94,0","w":722},"V":{"d":"750,-729r-408,729r-100,0r-107,-729r97,0r83,617r336,-617r99,0","w":667},"W":{"d":"1034,-729r-340,729r-102,0r-41,-592r-290,592r-134,0r0,-729r115,0r0,592r288,-592r96,0r41,592r263,-592r104,0","w":944},"X":{"d":"600,0r-115,0r-134,-304r-264,304r-115,0r339,-374r-167,-355r113,0r125,285r248,-285r114,0r-323,355","w":667},"Y":{"d":"766,-729r-368,443r-61,286r-94,0r61,-286r-186,-443r112,0r136,357r289,-357r111,0","w":667},"Z":{"d":"534,0r-556,0r18,-84r555,-563r-406,0r17,-82r525,0r-18,84r-556,563r438,0","w":611},"[":{"d":"340,-657r-102,0r-170,798r102,0r-15,72r-186,0r200,-942r186,0","w":278},"\\":{"d":"230,20r-55,0r-78,-749r55,0","w":278},"]":{"d":"114,213r-187,0r15,-72r103,0r170,-798r-103,0r15,-72r187,0","w":278},"^":{"d":"446,-329r-69,0r-58,-299r-182,299r-72,0r234,-380r73,0","w":469},"_":{"d":"501,127r-11,50r-599,0r11,-50r599,0"},"`":{"d":"270,-581r-60,0r-117,-148r112,0","w":333},"a":{"d":"344,-539v103,0,191,44,168,150r-61,287v-9,31,21,45,54,37r-13,65v-34,6,-52,9,-53,9v-53,1,-85,-14,-78,-67v-62,51,-105,71,-200,73v-86,1,-145,-42,-145,-124v0,-88,77,-152,160,-173v33,-9,179,-17,221,-37v23,-11,31,-49,31,-79v0,-43,-56,-64,-106,-64v-72,0,-118,31,-137,93r-84,0v19,-113,108,-170,243,-170xm401,-258v-45,21,-220,30,-261,66v-22,19,-36,42,-36,73v0,41,30,62,90,62v80,0,176,-52,189,-115"},"b":{"d":"361,-539v103,-2,179,90,177,196v-2,133,-56,243,-138,305v-46,35,-97,53,-154,53v-70,0,-120,-32,-149,-97r-18,82r-75,0r155,-729r84,0r-58,275v58,-58,81,-83,176,-85xm248,-62v117,0,202,-132,202,-262v0,-81,-40,-138,-117,-138v-116,0,-197,142,-197,275v0,75,40,125,112,125"},"c":{"d":"115,-185v0,74,43,123,114,123v75,0,126,-39,155,-118r84,0v-37,127,-103,192,-253,195v-112,2,-188,-79,-188,-189v0,-198,115,-365,304,-365v102,0,188,69,171,176r-1,15r-84,0v10,-72,-33,-114,-101,-114v-123,0,-201,146,-201,277","w":500},"d":{"d":"313,-539v81,0,113,32,143,91r60,-281r84,0r-155,729r-81,0r17,-80v-25,52,-110,95,-185,95v-106,1,-172,-79,-172,-189v0,-191,112,-366,289,-365xm230,-62v113,0,193,-140,193,-265v0,-81,-40,-135,-118,-135v-116,-1,-193,142,-193,268v0,81,40,132,118,132"},"e":{"d":"339,-539v101,-2,191,73,191,171v0,29,-8,82,-16,130r-386,0v-21,98,22,176,120,176v67,0,118,-32,154,-97r84,0v-27,101,-127,174,-252,174v-113,0,-200,-84,-199,-192v0,-88,43,-201,83,-254v44,-59,125,-106,221,-108xm440,-310v13,-90,-33,-152,-114,-152v-89,0,-160,75,-180,152r294,0"},"f":{"d":"306,-457r-86,0r-97,457r-84,0r97,-457r-70,0r14,-67r70,0v15,-68,22,-140,70,-176v37,-28,88,-39,143,-27r-15,69v-60,-8,-87,11,-99,65r-15,69r86,0","w":278},"g":{"d":"24,-169v0,-181,121,-370,295,-370v64,0,110,31,139,93r17,-78r76,0r-93,439v-25,112,-42,176,-104,236v-46,45,-112,67,-195,67v-105,0,-192,-48,-175,-158r84,0v-12,115,180,99,232,42v30,-33,56,-95,69,-166v-51,53,-108,79,-172,79v-103,1,-173,-79,-173,-184xm221,-57v125,1,198,-147,198,-282v0,-70,-39,-123,-106,-123v-121,0,-201,148,-201,277v0,74,39,128,109,128"},"h":{"d":"389,-539v94,-3,151,66,131,163r-80,376r-84,0r73,-343v22,-69,-15,-124,-79,-124v-102,0,-165,83,-185,178r-61,289r-84,0r155,-729r84,0r-57,270v56,-51,95,-78,187,-80"},"i":{"d":"103,0r-84,0r111,-524r84,0xm262,-707r-22,103r-104,0r22,-103r104,0","w":222},"j":{"d":"80,109v-22,88,-64,108,-176,109v-5,0,-12,-1,-19,-3r15,-71v67,7,90,-8,103,-68r127,-600r84,0xm262,-707r-22,103r-104,0r22,-103r104,0","w":222},"k":{"d":"452,0r-96,0r-114,-291r-107,88r-43,203r-84,0r155,-729r84,0r-90,423r269,-218r108,0r-222,181","w":500},"l":{"d":"257,-729r-155,729r-84,0r155,-729r84,0","w":222},"m":{"d":"675,-539v94,0,141,73,121,166r-79,373r-84,0r72,-341v24,-67,-1,-125,-67,-126v-78,0,-142,68,-157,138r-70,329r-84,0r77,-361v3,-11,4,-24,4,-37v0,-43,-36,-70,-82,-69v-72,0,-137,72,-151,138r-70,329r-84,0r111,-524r76,0r-13,65v56,-50,90,-80,178,-80v65,0,105,28,121,83v57,-55,118,-83,181,-83","w":833},"n":{"d":"388,-539v93,0,153,67,132,163r-80,376r-84,0r74,-349v4,-21,6,-34,6,-37v1,-47,-40,-82,-87,-81v-102,2,-164,83,-184,178r-61,289r-84,0r111,-524r76,0r-13,65v52,-53,117,-80,194,-80"},"o":{"d":"334,-539v113,0,192,78,192,187v0,196,-118,367,-305,367v-111,0,-191,-73,-190,-183v1,-142,55,-258,142,-320v47,-34,100,-51,161,-51xm235,-62v125,1,203,-136,203,-271v0,-78,-42,-129,-117,-129v-123,-1,-202,142,-202,274v0,76,42,126,116,126"},"p":{"d":"362,-539v110,0,174,81,174,195v0,186,-113,361,-290,359v-79,-1,-114,-31,-144,-87r-61,285r-84,0r157,-737r81,0r-18,84v22,-53,111,-99,185,-99xm254,-62v117,0,194,-136,194,-262v0,-82,-41,-138,-119,-138v-116,-1,-195,147,-195,274v0,76,46,126,120,126"},"q":{"d":"200,15v-102,2,-180,-87,-178,-192v2,-134,56,-245,138,-308v46,-35,98,-54,156,-54v74,0,123,34,147,101r19,-86r75,0r-157,737r-84,0r60,-279v-63,56,-79,79,-176,81xm228,-62v117,-2,196,-138,196,-271v0,-74,-40,-129,-110,-129v-122,1,-204,136,-204,272v0,76,45,128,118,128"},"r":{"d":"189,-442v52,-56,82,-92,165,-97v8,0,19,1,32,3r-18,85v-116,-3,-181,56,-207,179r-58,272r-84,0r111,-524r76,0","w":333},"s":{"d":"289,-462v-66,0,-125,29,-126,87v0,26,29,45,85,60v88,24,198,29,197,134v-1,127,-110,196,-246,196v-121,0,-211,-57,-180,-179r89,0v-13,75,35,101,106,102v68,2,143,-34,143,-96v0,-62,-91,-61,-144,-78v-50,-16,-87,-28,-107,-45v-20,-17,-31,-41,-31,-72v0,-115,106,-186,231,-186v101,0,188,57,158,161r-84,0v9,-59,-32,-84,-91,-84","w":500},"t":{"d":"138,-106v-8,28,9,40,34,41v9,0,25,-3,48,-8r-16,73v-16,5,-38,7,-65,7v-64,2,-100,-44,-86,-110r76,-354r-71,0r14,-67r71,0r31,-144r84,0r-31,144r89,0r-14,67r-89,0","w":278},"u":{"d":"134,-161v-15,63,25,105,86,104v98,-2,160,-86,179,-178r61,-289r84,0r-111,524r-76,0r13,-61v-55,51,-119,76,-192,76v-92,0,-155,-50,-135,-143r84,-396r84,0"},"v":{"d":"548,-524r-311,524r-91,0r-74,-524r92,0r49,422r244,-422r91,0","w":500},"w":{"d":"770,-524r-264,524r-107,0r0,-418r-195,418r-96,0r-40,-524r110,0r0,408r189,-408r116,0r0,408r196,-408r91,0","w":722},"x":{"d":"423,0r-94,0r-90,-200r-174,200r-98,0r239,-267r-118,-257r93,0r88,192r167,-192r97,0r-233,257","w":500},"y":{"d":"540,-524r-368,634v-42,72,-97,108,-165,108v-18,0,-34,-3,-49,-10r16,-75v75,11,94,-1,124,-48r52,-81r-68,-528r90,0r46,407r233,-407r89,0","w":500},"z":{"d":"408,0r-427,0r18,-74r395,-378r-294,0r15,-72r392,0r-18,75r-392,377r326,0","w":500},"{":{"d":"126,-259v36,24,47,41,48,97v0,21,-2,42,-6,61r-39,181v-11,40,-3,69,50,67r16,0r-14,66r-47,0v-52,1,-88,-28,-86,-79v4,-101,50,-188,50,-287v0,-41,-19,-65,-57,-71r15,-69v70,-14,88,-61,106,-138r36,-166v15,-76,58,-129,136,-132r47,0r-14,65v-62,-2,-82,13,-94,67r-39,181v-15,73,-51,125,-108,157","w":334},"|":{"d":"164,213r-68,0r0,-942r68,0r0,942","w":260},"}":{"d":"181,-729v49,-1,89,33,86,82v-5,97,-50,191,-50,288v0,38,19,60,57,66r-15,70v-57,9,-88,55,-106,138r-36,166v-19,88,-65,132,-136,132r-47,0r14,-65v62,2,82,-13,94,-67r39,-181v18,-88,37,-123,108,-157v-45,-39,-57,-91,-42,-159r39,-181v11,-40,3,-69,-50,-67r-16,0r14,-65r47,0","w":334},"~":{"d":"87,-293v21,-76,58,-145,138,-145v18,0,35,5,51,16r102,69v55,36,100,14,114,-58r52,0v-12,78,-58,140,-136,143v-27,0,-51,-9,-74,-26r-85,-63v-54,-36,-88,-6,-110,64r-52,0","w":584},"\u00a0":{"w":278},"\u00a1":{"d":"87,205r-84,0r74,-350r67,-211r40,0r-23,211xm242,-524r-22,103r-84,0r22,-103r84,0","w":278},"\u00a2":{"d":"270,-53v81,-11,117,-54,145,-127r84,0v-33,125,-103,193,-245,203r-21,97r-40,0r21,-98v-99,-9,-168,-86,-168,-193v0,-192,113,-353,287,-367r19,-90r40,0r-19,90v92,0,178,73,160,175r-1,15r-84,0v9,-69,-24,-108,-91,-115xm316,-460v-106,16,-182,151,-182,277v0,69,37,120,97,127"},"\u00a3":{"d":"374,-652v-108,0,-200,104,-158,212r21,64r160,0r-12,55r-137,0v14,70,-22,141,-56,175v-16,15,-51,43,-106,85v74,-34,116,-51,186,-30v88,27,121,32,196,-10r25,70v-92,69,-158,65,-281,19v-68,-25,-116,-10,-181,26r-37,-66v116,-77,174,-150,174,-219v0,-12,-3,-29,-10,-50r-113,0r12,-55r83,0v-9,-35,-29,-62,-30,-104v-4,-130,147,-249,282,-249v101,0,186,55,186,150v0,19,-3,46,-9,82r-88,0v6,-22,9,-41,9,-57v0,-63,-50,-98,-116,-98"},"\u00a4":{"d":"596,-555r-67,54v25,38,32,88,19,150v-12,59,-40,109,-82,151r42,56r-55,45r-43,-58v-80,68,-229,78,-298,0r-67,58r-35,-45r66,-56v-25,-41,-31,-91,-18,-151v13,-61,39,-111,81,-150r-43,-54r58,-48r45,56v80,-63,222,-73,290,0r69,-56xm265,-172v99,0,192,-92,210,-179v19,-95,-45,-177,-135,-177v-98,0,-191,92,-209,177v-20,97,43,179,134,179"},"\u00a5":{"d":"646,-709r-277,355r154,0r-11,51r-172,0r-17,77r172,0r-10,51r-173,0r-37,175r-88,0r37,-175r-174,0r11,-51r174,0r17,-77r-175,0r11,-51r154,0r-130,-355r85,0r116,322r248,-322r85,0"},"\u00a6":{"d":"164,-352r-68,0r0,-377r68,0r0,377xm164,213r-68,0r0,-377r68,0r0,377","w":260},"\u00a7":{"d":"368,-652v-62,0,-129,66,-96,128v5,9,16,20,33,33r127,101v33,27,55,47,64,62v9,15,13,36,13,61v-1,96,-66,173,-147,196v94,127,-49,284,-187,284v-114,0,-193,-85,-151,-199r85,0v-26,68,13,122,79,122v57,0,113,-47,112,-102v0,-26,-13,-50,-38,-72r-145,-124v-42,-35,-63,-73,-63,-112v0,-60,39,-125,82,-154v11,-8,31,-19,61,-35v-87,-123,60,-266,189,-266v84,0,154,54,153,135v-1,28,-10,43,-14,70r-84,0v28,-65,-3,-128,-73,-128xm237,-428v-56,34,-95,51,-95,119v0,44,15,54,44,80r138,121v105,-52,133,-141,44,-214"},"\u00a8":{"d":"209,-604r-91,0r22,-102r91,0xm371,-604r-91,0r22,-102r91,0","w":333},"\u00a9":{"d":"369,-683v187,0,349,162,349,349v0,187,-162,348,-349,348v-187,0,-348,-161,-348,-348v0,-187,161,-349,348,-349xm369,-29v165,0,306,-140,306,-305v0,-165,-141,-306,-306,-306v-165,0,-305,141,-305,306v0,165,140,305,305,305xm549,-285v-45,99,-93,157,-219,160v-93,2,-157,-56,-157,-145v0,-150,103,-273,247,-273v89,0,141,52,145,139r-64,0v-5,-59,-36,-88,-92,-88v-97,0,-176,111,-172,210v3,59,41,107,101,106v88,-2,111,-41,145,-109r66,0","w":737},"\u00aa":{"d":"356,-354r-11,51r-288,0r11,-51r288,0xm349,-468v-5,19,15,24,33,19r-9,44v-40,12,-80,7,-83,-37v-31,29,-67,43,-109,43v-57,1,-95,-26,-95,-80v0,-39,17,-68,50,-89v23,-15,68,-26,134,-32v48,-4,62,-14,62,-56v0,-23,-21,-35,-62,-35v-42,0,-69,19,-80,57r-56,0v24,-81,55,-108,153,-108v61,0,116,22,103,84xm199,-449v41,0,99,-34,104,-66r10,-51v-37,12,-131,19,-145,36v-15,10,-22,25,-22,44v0,25,18,37,53,37","w":370},"\u00ab":{"d":"240,-188r-18,82r-125,-121r19,-89r177,-122r-18,83r-121,84xm445,-188r-18,82r-125,-121r19,-89r177,-122r-18,83r-121,84"},"\u00ac":{"d":"516,-159r-68,0r0,-148r-380,0r0,-68r448,0r0,216","w":584},"\u00ad":{"d":"286,-240r-239,0r15,-72r239,0","w":333},"\u00ae":{"d":"369,-683v187,0,349,162,349,349v0,187,-162,348,-349,348v-187,0,-348,-161,-348,-348v0,-187,161,-349,348,-349xm369,-29v165,0,306,-140,306,-305v0,-165,-141,-306,-306,-306v-165,0,-305,141,-305,306v0,165,140,305,305,305xm449,-135v-12,-43,13,-77,13,-131v0,-25,-19,-37,-57,-37r-137,0r-36,168r-63,0r85,-398r201,0v76,0,114,29,115,86v1,49,-25,87,-76,115v55,32,18,80,18,152v0,12,6,21,14,27r-4,18r-73,0xm411,-355v57,1,97,-30,95,-82v-1,-35,-26,-44,-68,-44r-132,0r-27,126r132,0","w":737},"\u00af":{"d":"399,-690r-15,69r-275,0r15,-69r275,0","w":333},"\u00b0":{"d":"394,-661v74,108,-37,250,-157,250v-79,0,-133,-63,-115,-146v16,-75,90,-147,177,-146v41,0,75,13,95,42xm184,-486v53,77,170,-2,182,-71v9,-53,-26,-105,-76,-103v-76,2,-159,98,-106,174","w":400},"\u00b1":{"d":"516,-284r-190,0r0,155r-68,0r0,-155r-190,0r0,-68r190,0r0,-190r68,0r0,190r190,0r0,68xm516,0r-448,0r0,-68r448,0r0,68","w":584},"\u00b2":{"d":"376,-598v-10,47,-47,83,-109,113v-55,26,-116,43,-140,99r201,0r-11,51r-267,0v27,-96,58,-120,146,-164v45,-22,116,-50,124,-97v7,-40,-21,-66,-60,-66v-48,0,-80,29,-96,87r-54,0v21,-89,75,-134,161,-134v69,0,121,41,105,111","w":333},"\u00b3":{"d":"260,-662v-57,1,-78,27,-89,78r-55,0v20,-83,71,-125,154,-125v69,0,114,36,99,106v-7,35,-29,59,-66,74v38,15,53,44,44,88v-14,70,-78,118,-161,118v-81,0,-125,-41,-107,-125r55,0v-9,56,10,79,63,79v51,0,87,-28,95,-72v11,-62,-30,-60,-96,-63r10,-45v67,-1,96,-4,108,-53v10,-39,-15,-61,-54,-60","w":333},"\u00b4":{"d":"450,-729r-180,148r-60,0r128,-148r112,0","w":333},"\u00b5":{"d":"133,-160v-15,64,21,112,83,110v97,-2,161,-86,180,-177r63,-297r84,0r-93,436v-8,32,20,50,54,39r-14,63v-35,6,-53,9,-54,9v-58,3,-83,-28,-72,-83v-53,55,-114,83,-183,83v-35,0,-62,-10,-81,-29r-48,226r-84,0r158,-744r84,0"},"\u00b6":{"d":"95,-436v0,-145,139,-293,282,-293r250,0r-14,64r-56,0r-179,843r-64,0r179,-843r-83,0r-179,843r-64,0r93,-437v-102,-2,-165,-72,-165,-177","w":537},"\u00b7":{"d":"139,-302v29,0,52,23,52,52v0,29,-23,52,-52,52v-29,0,-52,-23,-52,-52v0,-29,23,-52,52,-52","w":278},"\u00b8":{"d":"126,54v51,-7,87,26,88,67v1,73,-68,110,-145,109v-34,0,-73,-11,-118,-34r28,-38v38,19,69,29,94,29v35,1,63,-22,63,-55v0,-32,-28,-46,-58,-34r-23,-6r51,-97r51,0","w":333},"\u00b9":{"d":"232,-335r-54,0r55,-260r-87,0r9,-41v75,-5,92,-16,120,-73r37,0","w":333},"\u00ba":{"d":"338,-354r-11,51r-263,0r11,-51r263,0xm286,-742v71,0,116,45,116,115v0,119,-75,228,-190,228v-65,0,-113,-45,-113,-110v0,-124,71,-233,187,-233xm226,-451v72,-1,116,-85,116,-166v0,-43,-24,-73,-65,-73v-73,0,-118,84,-118,165v0,45,23,74,67,74","w":365},"\u00bb":{"d":"269,-317r-19,89r-179,122r18,-83r123,-84r-88,-83r18,-82xm468,-317r-19,89r-179,122r18,-83r123,-84r-88,-83r18,-82"},"\u00bc":{"d":"243,-335r-54,0r55,-260r-87,0r9,-41v75,-5,92,-16,120,-73r37,0xm782,-709r-608,734r-58,0r608,-734r58,0xm736,-88r-59,0r-19,88r-54,0r19,-88r-166,0r11,-52r229,-234r40,0r-50,239r59,0xm633,-135r31,-149r-145,149r114,0","w":834},"\u00bd":{"d":"243,-335r-54,0r55,-260r-87,0r9,-41v75,-5,92,-16,120,-73r37,0xm738,-709r-608,734r-58,0r608,-734r58,0xm769,-263v-10,47,-47,83,-109,113v-55,26,-116,43,-140,99r201,0r-11,51r-267,0v26,-97,58,-121,146,-165v45,-22,115,-49,123,-96v7,-40,-21,-66,-60,-66v-47,0,-79,29,-95,87r-55,0v21,-89,75,-134,161,-134v70,0,120,41,106,111","w":834},"\u00be":{"d":"290,-662v-57,1,-78,27,-89,78r-55,0v20,-83,71,-125,154,-125v69,0,114,36,99,106v-7,35,-29,59,-66,74v38,15,53,44,44,88v-14,70,-78,118,-161,118v-81,0,-125,-41,-107,-125r55,0v-9,56,10,79,63,79v51,0,87,-28,95,-72v11,-62,-30,-60,-96,-63r10,-45v67,-1,96,-4,108,-53v10,-39,-15,-61,-54,-60xm802,-709r-608,734r-58,0r608,-734r58,0xm726,-88r-59,0r-19,88r-54,0r19,-88r-166,0r11,-52r229,-234r40,0r-50,239r59,0xm623,-135r31,-149r-145,149r114,0","w":834},"\u00bf":{"d":"196,140v103,-3,137,-61,158,-157r85,0v-31,156,-120,234,-265,234v-103,0,-180,-57,-181,-151v0,-39,11,-75,34,-110v23,-35,61,-71,111,-110v63,-49,82,-55,104,-124r10,-47r90,0v-10,46,-21,98,-44,127v-22,28,-160,128,-186,173v-14,25,-23,50,-23,79v0,53,50,87,107,86xm384,-524r-22,103r-90,0r22,-103r90,0"},"\u00c0":{"d":"603,0r-102,0r-27,-219r-285,0r-123,219r-99,0r415,-729r120,0xm464,-297r-40,-333r-191,333r231,0xm489,-783r-72,0r-159,-133r134,0","w":667},"\u00c1":{"d":"603,0r-102,0r-27,-219r-285,0r-123,219r-99,0r415,-729r120,0xm464,-297r-40,-333r-191,333r231,0xm705,-916r-216,133r-72,0r154,-133r134,0","w":667},"\u00c2":{"d":"603,0r-102,0r-27,-219r-285,0r-123,219r-99,0r415,-729r120,0xm464,-297r-40,-333r-191,333r231,0xm625,-783r-75,0r-67,-89r-125,89r-77,0r154,-135r114,0","w":667},"\u00c3":{"d":"603,0r-102,0r-27,-219r-285,0r-123,219r-99,0r415,-729r120,0xm464,-297r-40,-333r-191,333r231,0xm530,-867v29,-2,32,-14,48,-37r53,0v-17,53,-51,107,-108,107v-18,0,-52,-9,-103,-26v-11,-4,-20,-6,-27,-6v-31,1,-32,12,-50,33r-53,0v23,-60,39,-99,104,-103v4,-2,130,36,136,32","w":667},"\u00c4":{"d":"603,0r-102,0r-27,-219r-285,0r-123,219r-99,0r415,-729r120,0xm464,-297r-40,-333r-191,333r231,0xm421,-799r-91,0r22,-102r91,0xm583,-799r-91,0r22,-102r91,0","w":667},"\u00c5":{"d":"603,0r-102,0r-27,-219r-285,0r-123,219r-99,0r415,-729r120,0xm464,-297r-40,-333r-191,333r231,0xm491,-961v43,0,79,31,79,73v0,61,-60,119,-120,119v-43,0,-78,-35,-78,-77v0,-56,62,-115,119,-115xm461,-817v28,0,59,-30,59,-57v0,-22,-16,-39,-37,-39v-29,0,-60,29,-60,57v0,22,16,39,38,39","w":667},"\u00c6":{"d":"900,0r-482,0r45,-214r-269,0r-130,214r-103,0r454,-729r622,0r-17,82r-371,0r-49,233r351,0r-18,82r-351,0r-53,250r388,0xm481,-295r74,-352r-100,0r-212,352r238,0","w":1000},"\u00c7":{"d":"159,-265v0,114,65,203,173,202v63,0,113,-16,150,-47v37,-31,72,-83,105,-156r98,0v-41,96,-88,166,-141,210v-53,44,-119,69,-199,73r-19,37v51,-7,87,26,88,67v1,73,-68,110,-145,109v-34,0,-73,-11,-118,-34r28,-38v38,19,69,29,94,29v35,1,63,-22,63,-55v0,-32,-28,-46,-58,-34r-23,-6r39,-75v-142,-7,-232,-114,-231,-264v1,-140,59,-277,128,-359v79,-93,175,-141,292,-141v149,1,232,94,237,244r-96,0v-8,-109,-61,-163,-158,-163v-91,0,-166,44,-226,133v-54,81,-81,170,-81,268","w":722},"\u00c8":{"d":"563,0r-523,0r155,-729r506,0r-17,82r-412,0r-50,233r396,0r-18,82r-395,0r-54,250r429,0xm495,-783r-72,0r-159,-133r134,0","w":667},"\u00c9":{"d":"563,0r-523,0r155,-729r506,0r-17,82r-412,0r-50,233r396,0r-18,82r-395,0r-54,250r429,0xm711,-916r-216,133r-72,0r154,-133r134,0","w":667},"\u00ca":{"d":"563,0r-523,0r155,-729r506,0r-17,82r-412,0r-50,233r396,0r-18,82r-395,0r-54,250r429,0xm631,-783r-75,0r-67,-89r-125,89r-77,0r154,-135r114,0","w":667},"\u00cb":{"d":"563,0r-523,0r155,-729r506,0r-17,82r-412,0r-50,233r396,0r-18,82r-395,0r-54,250r429,0xm427,-799r-91,0r22,-102r91,0xm589,-799r-91,0r22,-102r91,0","w":667},"\u00cc":{"d":"299,-729r-155,729r-94,0r155,-729r94,0xm310,-783r-72,0r-159,-133r134,0","w":278},"\u00cd":{"d":"299,-729r-155,729r-94,0r155,-729r94,0xm504,-916r-216,133r-72,0r154,-133r134,0","w":278},"\u00ce":{"d":"299,-729r-155,729r-94,0r155,-729r94,0xm435,-783r-75,0r-67,-89r-125,89r-77,0r154,-135r114,0","w":278},"\u00cf":{"d":"299,-729r-155,729r-94,0r155,-729r94,0xm231,-799r-91,0r22,-102r91,0xm393,-799r-91,0r22,-102r91,0","w":278},"\u00d0":{"d":"476,-729v143,-3,233,101,233,241v0,137,-38,253,-113,347v-75,94,-166,141,-275,141r-282,0r72,-341r-68,0r13,-67r70,0r68,-321r282,0xm613,-480v1,-105,-66,-168,-171,-167r-171,0r-51,239r166,0r-14,67r-167,0r-55,259r172,0v86,0,156,-37,210,-112v54,-75,81,-171,81,-286","w":722},"\u00d1":{"d":"751,-729r-155,729r-106,0r-249,-591r-126,591r-89,0r155,-729r104,0r250,598r127,-598r89,0xm554,-867v29,-2,32,-14,48,-37r53,0v-17,53,-51,107,-108,107v-18,0,-52,-9,-103,-26v-11,-4,-20,-6,-27,-6v-31,1,-32,12,-50,33r-53,0v23,-60,39,-99,104,-103v4,-2,130,36,136,32","w":722},"\u00d2":{"d":"488,-747v177,-2,292,101,291,277v-2,188,-85,336,-207,418v-68,46,-145,70,-230,70v-178,1,-289,-106,-287,-286v2,-181,96,-331,215,-410v68,-45,139,-69,218,-69xm151,-276v0,130,78,213,204,213v138,-1,241,-98,287,-201v27,-59,41,-121,41,-188v2,-131,-78,-215,-207,-214v-137,1,-238,98,-284,201v-27,59,-41,122,-41,189xm532,-783r-72,0r-159,-133r134,0","w":778},"\u00d3":{"d":"488,-747v177,-2,292,101,291,277v-2,188,-85,336,-207,418v-68,46,-145,70,-230,70v-178,1,-289,-106,-287,-286v2,-181,96,-331,215,-410v68,-45,139,-69,218,-69xm151,-276v0,130,78,213,204,213v138,-1,241,-98,287,-201v27,-59,41,-121,41,-188v2,-131,-78,-215,-207,-214v-137,1,-238,98,-284,201v-27,59,-41,122,-41,189xm747,-916r-216,133r-72,0r154,-133r134,0","w":778},"\u00d4":{"d":"488,-747v177,-2,292,101,291,277v-2,188,-85,336,-207,418v-68,46,-145,70,-230,70v-178,1,-289,-106,-287,-286v2,-181,96,-331,215,-410v68,-45,139,-69,218,-69xm151,-276v0,130,78,213,204,213v138,-1,241,-98,287,-201v27,-59,41,-121,41,-188v2,-131,-78,-215,-207,-214v-137,1,-238,98,-284,201v-27,59,-41,122,-41,189xm667,-783r-75,0r-67,-89r-125,89r-77,0r154,-135r114,0","w":778},"\u00d5":{"d":"488,-747v177,-2,292,101,291,277v-2,188,-85,336,-207,418v-68,46,-145,70,-230,70v-178,1,-289,-106,-287,-286v2,-181,96,-331,215,-410v68,-45,139,-69,218,-69xm151,-276v0,130,78,213,204,213v138,-1,241,-98,287,-201v27,-59,41,-121,41,-188v2,-131,-78,-215,-207,-214v-137,1,-238,98,-284,201v-27,59,-41,122,-41,189xm573,-867v29,-2,32,-14,48,-37r53,0v-17,53,-51,107,-108,107v-18,0,-52,-9,-103,-26v-11,-4,-20,-6,-27,-6v-31,1,-32,12,-50,33r-53,0v23,-60,39,-99,104,-103v4,-2,130,36,136,32","w":778},"\u00d6":{"d":"488,-747v177,-2,292,101,291,277v-2,188,-85,336,-207,418v-68,46,-145,70,-230,70v-178,1,-289,-106,-287,-286v2,-181,96,-331,215,-410v68,-45,139,-69,218,-69xm151,-276v0,130,78,213,204,213v138,-1,241,-98,287,-201v27,-59,41,-121,41,-188v2,-131,-78,-215,-207,-214v-137,1,-238,98,-284,201v-27,59,-41,122,-41,189xm464,-799r-91,0r22,-102r91,0xm626,-799r-91,0r22,-102r91,0","w":778},"\u00d7":{"d":"474,-116r-48,48r-134,-134r-134,134r-48,-48r134,-134r-134,-134r48,-48r134,134r134,-134r48,48r-134,134","w":584},"\u00d8":{"d":"842,-708r-99,87v61,109,37,277,-17,389v-64,133,-199,249,-384,250v-97,0,-171,-29,-222,-87r-96,85r-32,-37r100,-88v-61,-114,-40,-276,20,-391v67,-128,199,-247,376,-247v99,0,175,29,227,86r94,-84xm642,-264v39,-85,57,-196,23,-288r-471,418v71,94,234,89,330,15v50,-39,91,-86,118,-145xm640,-595v-67,-93,-237,-88,-332,-15v-89,69,-156,188,-157,334v0,37,6,70,18,98","w":778},"\u00d9":{"d":"176,-222v-28,103,55,159,156,159v114,0,196,-63,216,-159r108,-507r94,0r-108,507v-27,141,-160,240,-328,240v-127,0,-237,-64,-239,-178v0,-20,5,-52,14,-96r101,-473r94,0xm517,-783r-72,0r-159,-133r134,0","w":722},"\u00da":{"d":"176,-222v-28,103,55,159,156,159v114,0,196,-63,216,-159r108,-507r94,0r-108,507v-27,141,-160,240,-328,240v-127,0,-237,-64,-239,-178v0,-20,5,-52,14,-96r101,-473r94,0xm733,-916r-216,133r-72,0r154,-133r134,0","w":722},"\u00db":{"d":"176,-222v-28,103,55,159,156,159v114,0,196,-63,216,-159r108,-507r94,0r-108,507v-27,141,-160,240,-328,240v-127,0,-237,-64,-239,-178v0,-20,5,-52,14,-96r101,-473r94,0xm653,-783r-75,0r-67,-89r-125,89r-77,0r154,-135r114,0","w":722},"\u00dc":{"d":"176,-222v-28,103,55,159,156,159v114,0,196,-63,216,-159r108,-507r94,0r-108,507v-27,141,-160,240,-328,240v-127,0,-237,-64,-239,-178v0,-20,5,-52,14,-96r101,-473r94,0xm449,-799r-91,0r22,-102r91,0xm611,-799r-91,0r22,-102r91,0","w":722},"\u00dd":{"d":"766,-729r-368,443r-61,286r-94,0r61,-286r-186,-443r112,0r136,357r289,-357r111,0xm708,-916r-216,133r-72,0r154,-133r134,0","w":667},"\u00de":{"d":"658,-450v0,138,-113,259,-254,259r-228,0r-41,191r-94,0r155,-729r94,0r-25,118r208,0v123,0,185,54,185,161xm387,-273v96,3,176,-68,175,-159v0,-65,-40,-97,-120,-97r-195,0r-54,256r194,0","w":667},"\u00df":{"d":"461,-401v71,18,119,91,101,182v-26,133,-126,238,-275,239v-31,0,-59,-1,-83,-4r18,-83v27,3,52,5,75,5v97,2,186,-90,182,-191v-3,-84,-69,-94,-163,-96r17,-82v78,2,172,-53,172,-130v0,-58,-62,-90,-124,-90v-74,0,-151,50,-164,113r-114,538r-83,0r114,-538v18,-104,139,-191,261,-191v102,0,200,55,199,151v0,83,-65,156,-133,177","w":611},"\u00e0":{"d":"344,-539v103,0,191,44,168,150r-61,287v-9,31,21,45,54,37r-13,65v-34,6,-52,9,-53,9v-53,1,-85,-14,-78,-67v-62,51,-105,71,-200,73v-86,1,-145,-42,-145,-124v0,-88,77,-152,160,-173v33,-9,179,-17,221,-37v23,-11,31,-49,31,-79v0,-43,-56,-64,-106,-64v-72,0,-118,31,-137,93r-84,0v19,-113,108,-170,243,-170xm401,-258v-45,21,-220,30,-261,66v-22,19,-36,42,-36,73v0,41,30,62,90,62v80,0,176,-52,189,-115xm383,-581r-60,0r-117,-148r112,0"},"\u00e1":{"d":"344,-539v103,0,191,44,168,150r-61,287v-9,31,21,45,54,37r-13,65v-34,6,-52,9,-53,9v-53,1,-85,-14,-78,-67v-62,51,-105,71,-200,73v-86,1,-145,-42,-145,-124v0,-88,77,-152,160,-173v33,-9,179,-17,221,-37v23,-11,31,-49,31,-79v0,-43,-56,-64,-106,-64v-72,0,-118,31,-137,93r-84,0v19,-113,108,-170,243,-170xm401,-258v-45,21,-220,30,-261,66v-22,19,-36,42,-36,73v0,41,30,62,90,62v80,0,176,-52,189,-115xm562,-729r-180,148r-60,0r128,-148r112,0"},"\u00e2":{"d":"344,-539v103,0,191,44,168,150r-61,287v-9,31,21,45,54,37r-13,65v-34,6,-52,9,-53,9v-53,1,-85,-14,-78,-67v-62,51,-105,71,-200,73v-86,1,-145,-42,-145,-124v0,-88,77,-152,160,-173v33,-9,179,-17,221,-37v23,-11,31,-49,31,-79v0,-43,-56,-64,-106,-64v-72,0,-118,31,-137,93r-84,0v19,-113,108,-170,243,-170xm401,-258v-45,21,-220,30,-261,66v-22,19,-36,42,-36,73v0,41,30,62,90,62v80,0,176,-52,189,-115xm495,-580r-63,0r-56,-99r-104,99r-64,0r128,-150r95,0"},"\u00e3":{"d":"344,-539v103,0,191,44,168,150r-61,287v-9,31,21,45,54,37r-13,65v-34,6,-52,9,-53,9v-53,1,-85,-14,-78,-67v-62,51,-105,71,-200,73v-86,1,-145,-42,-145,-124v0,-88,77,-152,160,-173v33,-9,179,-17,221,-37v23,-11,31,-49,31,-79v0,-43,-56,-64,-106,-64v-72,0,-118,31,-137,93r-84,0v19,-113,108,-170,243,-170xm401,-258v-45,21,-220,30,-261,66v-22,19,-36,42,-36,73v0,41,30,62,90,62v80,0,176,-52,189,-115xm430,-672v29,-2,32,-14,48,-37r53,0v-17,53,-51,107,-108,107v-18,0,-52,-9,-103,-26v-11,-4,-20,-6,-27,-6v-31,1,-32,12,-50,33r-53,0v23,-60,39,-99,104,-103v4,-2,130,36,136,32"},"\u00e4":{"d":"344,-539v103,0,191,44,168,150r-61,287v-9,31,21,45,54,37r-13,65v-34,6,-52,9,-53,9v-53,1,-85,-14,-78,-67v-62,51,-105,71,-200,73v-86,1,-145,-42,-145,-124v0,-88,77,-152,160,-173v33,-9,179,-17,221,-37v23,-11,31,-49,31,-79v0,-43,-56,-64,-106,-64v-72,0,-118,31,-137,93r-84,0v19,-113,108,-170,243,-170xm401,-258v-45,21,-220,30,-261,66v-22,19,-36,42,-36,73v0,41,30,62,90,62v80,0,176,-52,189,-115xm321,-604r-91,0r22,-102r91,0xm483,-604r-91,0r22,-102r91,0"},"\u00e5":{"d":"344,-539v103,0,191,44,168,150r-61,287v-9,31,21,45,54,37r-13,65v-34,6,-52,9,-53,9v-53,1,-85,-14,-78,-67v-62,51,-105,71,-200,73v-86,1,-145,-42,-145,-124v0,-88,77,-152,160,-173v33,-9,179,-17,221,-37v23,-11,31,-49,31,-79v0,-43,-56,-64,-106,-64v-72,0,-118,31,-137,93r-84,0v19,-113,108,-170,243,-170xm401,-258v-45,21,-220,30,-261,66v-22,19,-36,42,-36,73v0,41,30,62,90,62v80,0,176,-52,189,-115xm388,-751v43,0,79,31,79,73v0,61,-60,119,-120,119v-43,0,-78,-35,-78,-77v0,-56,62,-115,119,-115xm358,-607v28,0,59,-30,59,-57v0,-22,-16,-39,-37,-39v-29,0,-60,29,-60,57v0,22,16,39,38,39"},"\u00e6":{"d":"678,-539v95,0,187,77,187,169v0,30,-8,89,-17,136r-386,0v-5,19,-6,46,-5,71v3,54,61,101,127,101v66,0,117,-32,153,-97r84,0v-27,96,-131,175,-253,174v-78,0,-136,-34,-174,-102v-70,68,-150,102,-241,102v-83,1,-146,-40,-144,-120v2,-99,77,-155,161,-177v32,-9,176,-13,216,-35v23,-12,34,-53,34,-88v0,-42,-52,-58,-104,-57v-82,1,-120,29,-141,93r-84,0v31,-127,99,-165,246,-170v64,-2,141,24,159,65v49,-43,109,-65,182,-65xm391,-257v-46,21,-218,29,-258,65v-22,19,-35,42,-35,73v0,41,30,62,91,62v77,0,171,-55,184,-115xm774,-306v16,-90,-30,-156,-112,-156v-96,0,-157,73,-182,156r294,0","w":889},"\u00e7":{"d":"115,-185v0,74,43,123,114,123v75,0,126,-39,155,-118r84,0v-35,119,-97,185,-231,194r-21,40v51,-7,87,26,88,67v1,73,-68,110,-145,109v-34,0,-73,-11,-118,-34r28,-38v38,19,69,29,94,29v35,1,63,-22,63,-55v0,-32,-28,-46,-58,-34r-23,-6r41,-79v-95,-10,-159,-84,-159,-187v0,-198,115,-365,304,-365v102,0,188,69,171,176r-1,15r-84,0v10,-72,-33,-114,-101,-114v-123,0,-201,146,-201,277","w":500},"\u00e8":{"d":"339,-539v101,-2,191,73,191,171v0,29,-8,82,-16,130r-386,0v-21,98,22,176,120,176v67,0,118,-32,154,-97r84,0v-27,101,-127,174,-252,174v-113,0,-200,-84,-199,-192v0,-88,43,-201,83,-254v44,-59,125,-106,221,-108xm440,-310v13,-90,-33,-152,-114,-152v-89,0,-160,75,-180,152r294,0xm382,-581r-60,0r-117,-148r112,0"},"\u00e9":{"d":"339,-539v101,-2,191,73,191,171v0,29,-8,82,-16,130r-386,0v-21,98,22,176,120,176v67,0,118,-32,154,-97r84,0v-27,101,-127,174,-252,174v-113,0,-200,-84,-199,-192v0,-88,43,-201,83,-254v44,-59,125,-106,221,-108xm440,-310v13,-90,-33,-152,-114,-152v-89,0,-160,75,-180,152r294,0xm561,-729r-180,148r-60,0r128,-148r112,0"},"\u00ea":{"d":"339,-539v101,-2,191,73,191,171v0,29,-8,82,-16,130r-386,0v-21,98,22,176,120,176v67,0,118,-32,154,-97r84,0v-27,101,-127,174,-252,174v-113,0,-200,-84,-199,-192v0,-88,43,-201,83,-254v44,-59,125,-106,221,-108xm440,-310v13,-90,-33,-152,-114,-152v-89,0,-160,75,-180,152r294,0xm494,-580r-63,0r-56,-99r-104,99r-64,0r128,-150r95,0"},"\u00eb":{"d":"339,-539v101,-2,191,73,191,171v0,29,-8,82,-16,130r-386,0v-21,98,22,176,120,176v67,0,118,-32,154,-97r84,0v-27,101,-127,174,-252,174v-113,0,-200,-84,-199,-192v0,-88,43,-201,83,-254v44,-59,125,-106,221,-108xm440,-310v13,-90,-33,-152,-114,-152v-89,0,-160,75,-180,152r294,0xm320,-604r-91,0r22,-102r91,0xm482,-604r-91,0r22,-102r91,0"},"\u00ec":{"d":"131,0r-84,0r111,-524r84,0xm255,-581r-60,0r-117,-148r112,0","w":278},"\u00ed":{"d":"131,0r-84,0r111,-524r84,0xm411,-729r-180,148r-60,0r128,-148r112,0","w":278},"\u00ee":{"d":"131,0r-84,0r111,-524r84,0xm355,-580r-63,0r-56,-99r-104,99r-64,0r128,-150r95,0","w":278},"\u00ef":{"d":"131,0r-84,0r111,-524r84,0xm181,-604r-91,0r22,-102r91,0xm343,-604r-91,0r22,-102r91,0","w":278},"\u00f0":{"d":"225,15v-114,0,-193,-77,-193,-187v0,-135,52,-247,134,-309v62,-46,142,-73,219,-36v-25,-33,-53,-64,-84,-92r-100,45r-32,-39r89,-41v-24,-22,-50,-32,-75,-54r42,-45r22,14v23,13,49,31,80,53r99,-43r39,38r-95,41v104,89,156,187,156,293v0,188,-121,362,-301,362xm235,-62v125,1,203,-136,203,-271v0,-78,-42,-129,-117,-129v-123,-1,-201,138,-201,270v0,76,42,130,115,130"},"\u00f1":{"d":"388,-539v93,0,153,67,132,163r-80,376r-84,0r74,-349v4,-21,6,-34,6,-37v1,-47,-40,-82,-87,-81v-102,2,-164,83,-184,178r-61,289r-84,0r111,-524r76,0r-13,65v52,-53,117,-80,194,-80xm429,-672v29,-2,32,-14,48,-37r53,0v-17,53,-51,107,-108,107v-18,0,-52,-9,-103,-26v-11,-4,-20,-6,-27,-6v-31,1,-32,12,-50,33r-53,0v23,-60,39,-99,104,-103v4,-2,130,36,136,32"},"\u00f2":{"d":"334,-539v113,0,192,78,192,187v0,196,-118,367,-305,367v-111,0,-191,-73,-190,-183v1,-142,55,-258,142,-320v47,-34,100,-51,161,-51xm235,-62v125,1,203,-136,203,-271v0,-78,-42,-129,-117,-129v-123,-1,-202,142,-202,274v0,76,42,126,116,126xm373,-581r-60,0r-117,-148r112,0"},"\u00f3":{"d":"334,-539v113,0,192,78,192,187v0,196,-118,367,-305,367v-111,0,-191,-73,-190,-183v1,-142,55,-258,142,-320v47,-34,100,-51,161,-51xm235,-62v125,1,203,-136,203,-271v0,-78,-42,-129,-117,-129v-123,-1,-202,142,-202,274v0,76,42,126,116,126xm552,-729r-180,148r-60,0r128,-148r112,0"},"\u00f4":{"d":"334,-539v113,0,192,78,192,187v0,196,-118,367,-305,367v-111,0,-191,-73,-190,-183v1,-142,55,-258,142,-320v47,-34,100,-51,161,-51xm235,-62v125,1,203,-136,203,-271v0,-78,-42,-129,-117,-129v-123,-1,-202,142,-202,274v0,76,42,126,116,126xm485,-580r-63,0r-56,-99r-104,99r-64,0r128,-150r95,0"},"\u00f5":{"d":"334,-539v113,0,192,78,192,187v0,196,-118,367,-305,367v-111,0,-191,-73,-190,-183v1,-142,55,-258,142,-320v47,-34,100,-51,161,-51xm235,-62v125,1,203,-136,203,-271v0,-78,-42,-129,-117,-129v-123,-1,-202,142,-202,274v0,76,42,126,116,126xm420,-672v29,-2,32,-14,48,-37r53,0v-17,53,-51,107,-108,107v-18,0,-52,-9,-103,-26v-11,-4,-20,-6,-27,-6v-31,1,-32,12,-50,33r-53,0v23,-60,39,-99,104,-103v4,-2,130,36,136,32"},"\u00f6":{"d":"334,-539v113,0,192,78,192,187v0,196,-118,367,-305,367v-111,0,-191,-73,-190,-183v1,-142,55,-258,142,-320v47,-34,100,-51,161,-51xm235,-62v125,1,203,-136,203,-271v0,-78,-42,-129,-117,-129v-123,-1,-202,142,-202,274v0,76,42,126,116,126xm311,-604r-91,0r22,-102r91,0xm473,-604r-91,0r22,-102r91,0"},"\u00f7":{"d":"516,-216r-448,0r0,-68r448,0r0,68xm292,-484v29,0,52,23,52,52v0,28,-24,52,-52,52v-28,0,-52,-24,-52,-52v0,-29,23,-52,52,-52xm292,-120v28,0,52,24,52,52v0,29,-23,52,-52,52v-29,0,-52,-23,-52,-52v0,-28,24,-52,52,-52","w":584},"\u00f8":{"d":"526,-352v4,196,-118,369,-305,367v-60,0,-108,-19,-144,-57r-56,52r-31,-31r61,-58v-39,-80,-16,-195,16,-273v42,-101,134,-186,267,-187v61,0,110,19,145,58r58,-53r30,31r-62,59v14,27,21,57,21,92xm235,-62v137,-1,225,-162,198,-315r-290,273v21,28,51,42,92,42xm321,-462v-123,-1,-206,142,-202,274v0,17,2,31,5,42r290,-273v-21,-29,-52,-43,-93,-43","w":611},"\u00f9":{"d":"134,-161v-15,63,25,105,86,104v98,-2,160,-86,179,-178r61,-289r84,0r-111,524r-76,0r13,-61v-55,51,-119,76,-192,76v-92,0,-155,-50,-135,-143r84,-396r84,0xm382,-581r-60,0r-117,-148r112,0"},"\u00fa":{"d":"134,-161v-15,63,25,105,86,104v98,-2,160,-86,179,-178r61,-289r84,0r-111,524r-76,0r13,-61v-55,51,-119,76,-192,76v-92,0,-155,-50,-135,-143r84,-396r84,0xm561,-729r-180,148r-60,0r128,-148r112,0"},"\u00fb":{"d":"134,-161v-15,63,25,105,86,104v98,-2,160,-86,179,-178r61,-289r84,0r-111,524r-76,0r13,-61v-55,51,-119,76,-192,76v-92,0,-155,-50,-135,-143r84,-396r84,0xm494,-580r-63,0r-56,-99r-104,99r-64,0r128,-150r95,0"},"\u00fc":{"d":"134,-161v-15,63,25,105,86,104v98,-2,160,-86,179,-178r61,-289r84,0r-111,524r-76,0r13,-61v-55,51,-119,76,-192,76v-92,0,-155,-50,-135,-143r84,-396r84,0xm320,-604r-91,0r22,-102r91,0xm482,-604r-91,0r22,-102r91,0"},"\u00fd":{"d":"540,-524r-368,634v-42,72,-97,108,-165,108v-18,0,-34,-3,-49,-10r16,-75v75,11,94,-1,124,-48r52,-81r-68,-528r90,0r46,407r233,-407r89,0xm533,-729r-180,148r-60,0r128,-148r112,0","w":500},"\u00fe":{"d":"362,-539v110,0,174,81,174,195v0,181,-117,362,-290,359v-80,-1,-114,-32,-143,-91r-62,289r-84,0r200,-942r84,0r-61,289v26,-54,104,-99,182,-99xm254,-62v113,0,194,-142,194,-262v0,-82,-41,-138,-119,-138v-116,-1,-194,144,-194,270v0,77,44,130,119,130"},"\u00ff":{"d":"540,-524r-368,634v-42,72,-97,108,-165,108v-18,0,-34,-3,-49,-10r16,-75v75,11,94,-1,124,-48r52,-81r-68,-528r90,0r46,407r233,-407r89,0xm292,-604r-91,0r22,-102r91,0xm454,-604r-91,0r22,-102r91,0","w":500},"\u0152":{"d":"284,15v-139,1,-233,-93,-233,-234v0,-196,82,-367,197,-453v61,-46,127,-69,198,-69v81,0,136,29,166,88r16,-76r430,0r-17,82r-336,0r-51,238r327,0r-18,82r-326,0r-53,245r340,0r-17,82r-434,0r18,-85v-54,67,-123,100,-207,100xm147,-222v0,99,60,156,157,156v83,0,153,-41,210,-124r74,-349v-19,-81,-71,-121,-158,-121v-89,0,-158,46,-211,137v-36,62,-72,205,-72,301","w":1000},"\u0153":{"d":"725,-539v101,0,191,73,191,171v0,29,-8,88,-17,134r-386,0v-28,101,27,172,122,172v66,0,117,-32,153,-97r84,0v-27,96,-131,175,-253,174v-84,-1,-151,-42,-176,-107v-45,61,-119,105,-216,107v-114,2,-193,-79,-190,-188v5,-193,108,-366,299,-366v85,0,142,34,172,103v36,-53,131,-103,217,-103xm237,-62v125,0,200,-135,200,-272v0,-77,-42,-128,-116,-128v-118,0,-196,142,-196,273v0,75,40,127,112,127xm825,-306v16,-89,-30,-156,-111,-156v-91,0,-162,76,-183,156r294,0","w":944},"\u0178":{"d":"766,-729r-368,443r-61,286r-94,0r61,-286r-186,-443r112,0r136,357r289,-357r111,0xm424,-799r-91,0r22,-102r91,0xm586,-799r-91,0r22,-102r91,0","w":667},"\u02c6":{"d":"383,-580r-63,0r-56,-99r-104,99r-64,0r128,-150r95,0","w":333},"\u02dc":{"d":"318,-672v29,-2,32,-14,48,-37r53,0v-17,53,-51,107,-108,107v-18,0,-52,-9,-103,-26v-11,-4,-20,-6,-27,-6v-31,1,-32,12,-50,33r-53,0v23,-60,39,-99,104,-103v4,-2,130,36,136,32","w":333},"\u2013":{"d":"563,-240r-567,0r15,-72r567,0"},"\u2014":{"d":"1003,-240r-1011,0r15,-72r1011,0","w":1000},"\u2018":{"d":"250,-670v-47,7,-59,39,-69,90r47,0r-22,103r-93,0v16,-70,25,-153,67,-195v22,-22,47,-35,78,-37","w":222},"\u2019":{"d":"259,-708v-20,101,-35,222,-143,231r8,-38v35,-5,57,-35,67,-90r-48,0r22,-103r94,0","w":222},"\u201a":{"d":"130,-103v-20,101,-35,222,-143,231r8,-38v35,-5,57,-35,67,-90r-48,0r22,-103r94,0","w":222},"\u201c":{"d":"211,-580r-22,103r-93,0v16,-69,24,-151,65,-193v22,-22,47,-36,77,-39r-8,39v-35,5,-57,35,-66,90r47,0xm372,-580r-22,103r-93,0v16,-69,24,-151,65,-193v22,-22,47,-36,77,-39r-8,39v-34,5,-56,35,-67,90r48,0","w":333},"\u201d":{"d":"243,-708v-20,101,-35,222,-143,231r8,-38v35,-5,57,-35,67,-90r-48,0r22,-103r94,0xm402,-708v-20,101,-35,222,-143,231r8,-38v35,-5,57,-35,67,-90r-48,0r22,-103r94,0","w":333},"\u201e":{"d":"113,-103v-20,101,-35,222,-143,231r8,-38v35,-5,57,-35,67,-90r-48,0r22,-103r94,0xm272,-103v-20,101,-35,222,-143,231r8,-38v35,-5,57,-35,67,-90r-48,0r22,-103r94,0","w":333},"\u2022":{"d":"224,-470v58,0,102,41,102,98v0,77,-79,152,-156,152v-54,0,-100,-44,-100,-98v0,-76,77,-152,154,-152","w":350},"\u2026":{"d":"191,-103r-22,103r-104,0r22,-103r104,0xm524,-103r-22,103r-104,0r22,-103r104,0xm857,-103r-22,103r-104,0r22,-103r104,0","w":1000},"\u2039":{"d":"233,-188r-18,82r-125,-121r19,-89r177,-122r-18,83r-121,84","w":333},"\u203a":{"d":"257,-317r-19,89r-179,122r18,-83r123,-84r-88,-83r18,-82","w":333},"\u20ac":{"d":"537,-562v-52,-42,-77,-71,-151,-71v-43,0,-81,15,-114,46v-33,31,-65,80,-95,149r285,0r-36,59r-270,0v-7,19,-12,41,-15,66r246,0r-36,59r-215,0v-3,121,38,195,128,191v79,-3,106,-25,179,-61r-20,93v-57,31,-116,46,-178,46v-142,0,-209,-99,-199,-269r-84,0r35,-59r55,0v3,-20,9,-42,16,-66r-79,0r35,-59r63,0v31,-82,76,-147,131,-197v104,-94,261,-100,368,-7"},"\u2122":{"d":"553,-678r-138,0r-73,342r-62,0r72,-342r-140,0r11,-51r341,0xm1036,-729r-83,393r-60,0r65,-303r-178,303r-62,0r-49,-303r-64,303r-60,0r84,-393r81,0r53,324r190,-324r83,0","w":1000}}});
