/*!
 * The following copyright notice may not be removed under any circumstances.
 * 
 * Copyright:
 * Copyright (URW)++, copyright 1999 by (URW)++ Design & Development; Cyrillic
 * glyphs added by Valek Filippov, copyright 2001-2002; Vietnamese characters were
 * added by Han The Thanh; copyright 2006, 2008 for TeX Gyre extensions by B.
 * Jackowski and J.M. Nowacki (on behalf of TeX users groups). This work is
 * released under the GUST Font License --  see
 * http://tug.org/fonts/licenses/GUST-FONT-LICENSE.txt for details.
 * 
 * Trademark:
 * Please refer to the Copyright section for the font trademark attribution
 * notices.
 */
Cufon.registerFont({"w":556,"face":{"font-family":"TeXGyreHeros","font-weight":400,"font-stretch":"normal","units-per-em":"1000","panose-1":"0 0 5 0 0 0 0 0 0 0","ascent":"784","descent":"-216","x-height":"15","bbox":"-58 -961 1000 230.023","underline-thickness":"50","underline-position":"-77","unicode-range":"U+0020-U+2122"},"glyphs":{" ":{"w":278},"!":{"d":"181,-391r-22,223r-39,0r-22,-223r0,-338r83,0r0,338xm181,0r-84,0r0,-104r84,0r0,104","w":278},"\"":{"d":"145,-598r-27,134r-39,0r-27,-134r0,-111r93,0r0,111xm305,-598r-27,134r-39,0r-27,-134r0,-111r93,0r0,111","w":355},"#":{"d":"542,-433r-106,0r-31,174r105,0r0,68r-117,0r-39,211r-76,0r38,-211r-124,0r-39,211r-76,0r38,-211r-101,0r0,-68r114,0r31,-174r-108,0r0,-68r121,0r36,-196r76,0r-36,196r125,0r35,-196r77,0r-36,196r93,0r0,68xm360,-433r-124,0r-32,174r125,0"},"$":{"d":"46,-516v1,-123,79,-186,197,-200r0,-54r59,0r0,54v115,7,194,79,194,197r-79,0v0,-70,-48,-125,-115,-127r0,249v67,21,111,37,131,48v57,32,85,83,85,154v0,134,-84,211,-216,218r0,103r-59,0r0,-103v-134,-7,-219,-88,-210,-231r79,0v8,59,4,73,25,105v21,32,57,50,106,57r0,-272v-62,-19,-104,-36,-126,-52v-47,-34,-71,-83,-71,-146xm243,-645v-68,9,-115,47,-116,119v0,60,39,100,116,121r0,-240xm302,-46v79,-7,133,-57,134,-137v0,-33,-9,-58,-28,-76v-19,-18,-55,-35,-106,-50r0,263"},"%":{"d":"199,-685v94,0,171,79,171,173v0,90,-80,169,-170,169v-91,0,-171,-80,-171,-171v0,-91,79,-171,170,-171xm200,-413v53,0,101,-47,101,-100v0,-56,-46,-102,-102,-102v-53,0,-101,47,-101,101v0,53,48,101,102,101xm675,-709r-395,729r-66,0r395,-729r66,0xm688,-322v94,0,171,78,171,172v0,89,-81,169,-170,169v-92,0,-171,-80,-171,-171v0,-91,79,-170,170,-170xm689,-51v53,0,101,-47,101,-99v0,-56,-46,-102,-102,-102v-53,0,-101,47,-101,100v0,55,48,101,102,101","w":889},"&":{"d":"304,-709v92,0,165,66,163,157v0,36,-10,67,-30,92v-20,25,-56,53,-108,82r133,163v21,-37,31,-77,31,-119r80,0v0,63,-19,124,-58,183r122,151r-109,0r-62,-78v-75,67,-95,98,-209,101v-120,3,-207,-80,-205,-199v0,-45,11,-84,34,-114v23,-30,66,-63,128,-99v-31,-39,-53,-70,-64,-93v-58,-113,39,-227,154,-227xm301,-639v-70,0,-107,75,-73,135v8,14,27,38,57,73v39,-25,66,-46,81,-63v15,-17,22,-37,22,-60v1,-49,-38,-85,-87,-85xm136,-183v-2,69,61,128,131,128v49,0,99,-27,151,-82r-160,-200v-45,29,-77,54,-95,77v-18,23,-27,49,-27,77","w":667},"'":{"d":"142,-598r-27,134r-40,0r-27,-134r0,-111r94,0r0,111","w":191},"(":{"d":"73,-259v0,-179,76,-360,163,-470r55,0v-183,291,-182,649,0,941r-55,0v-87,-111,-163,-291,-163,-471","w":333},")":{"d":"93,-729v87,111,163,291,163,471v0,179,-76,360,-163,470r-55,0v183,-291,182,-649,0,-941r55,0","w":333},"*":{"d":"343,-596r-108,30r70,89r-51,36r-62,-93r-63,93r-50,-36r69,-89r-108,-30r19,-59r101,38r0,-112r58,0r0,112r106,-38","w":389},"+":{"d":"516,-216r-190,0r0,190r-68,0r0,-190r-190,0r0,-68r190,0r0,-190r68,0r0,190r190,0r0,68","w":584},",":{"d":"87,109v60,-1,59,-43,60,-109r-60,0r0,-104r105,0r0,120v0,87,-35,131,-105,131r0,-38","w":278},"-":{"d":"284,-240r-238,0r0,-72r238,0r0,72","w":333},".":{"d":"191,0r-104,0r0,-104r104,0r0,104","w":278},"\/":{"d":"284,-729r-237,749r-55,0r237,-749r55,0","w":278},"0":{"d":"507,-341v0,116,-19,204,-59,265v-40,61,-98,91,-173,91v-76,0,-131,-32,-173,-91v-76,-108,-76,-434,0,-542v41,-59,96,-91,173,-91v155,0,232,123,232,368xm417,-349v0,-188,-47,-282,-142,-282v-95,0,-142,95,-142,285v0,192,47,288,140,288v49,0,86,-23,109,-70v23,-47,35,-121,35,-221"},"1":{"d":"102,-568v137,-22,150,-24,187,-141r58,0r0,709r-88,0r0,-505r-157,0r0,-63"},"2":{"d":"284,-709v127,0,227,86,227,208v0,89,-50,161,-150,214v-62,33,-156,80,-193,124v-19,21,-30,47,-35,76r373,0r0,87r-472,0v4,-78,21,-137,47,-180v37,-63,161,-133,244,-179v64,-36,96,-83,96,-140v0,-76,-63,-135,-140,-133v-101,2,-137,63,-143,169r-88,0v5,-164,83,-246,234,-246"},"3":{"d":"386,-371v77,28,118,68,120,165v1,136,-100,223,-240,221v-154,-2,-224,-79,-234,-229r88,0v7,98,48,150,149,151v90,1,148,-52,147,-142v0,-85,-57,-126,-147,-125r-48,0r0,-74v68,0,114,-8,138,-24v24,-16,36,-44,36,-83v1,-75,-49,-122,-125,-121v-96,1,-134,53,-135,152r-88,0v3,-153,77,-229,222,-229v129,0,216,70,216,195v0,69,-33,117,-99,143"},"4":{"d":"520,-170r-105,0r0,170r-88,0r0,-170r-299,0r0,-93r322,-446r65,0r0,460r105,0r0,79xm327,-249r0,-310r-222,310r222,0"},"5":{"d":"284,-467v135,-2,229,95,229,232v0,145,-100,252,-243,250v-142,-2,-210,-70,-235,-197r88,0v21,79,69,119,145,119v98,1,155,-61,155,-160v0,-100,-57,-167,-155,-166v-68,1,-93,24,-130,66r-81,0r53,-371r366,0r0,87r-295,0r-28,183v39,-29,83,-43,131,-43"},"6":{"d":"296,-441v127,-2,217,92,217,221v0,135,-98,235,-232,235v-159,0,-238,-113,-238,-338v0,-124,21,-219,65,-286v44,-67,107,-100,189,-100v115,0,187,78,201,185r-88,0v-13,-61,-51,-106,-119,-107v-51,0,-90,23,-117,69v-27,46,-40,113,-41,200v39,-53,93,-79,163,-79xm282,-63v82,0,141,-66,141,-150v0,-91,-50,-150,-138,-150v-87,0,-147,58,-147,145v0,86,60,155,144,155"},"7":{"d":"520,-620v-153,181,-249,388,-288,620r-94,0v50,-223,147,-426,291,-607r-383,0r0,-87r474,0r0,74"},"8":{"d":"488,-520v-2,84,-35,107,-97,147v81,39,122,96,122,173v0,130,-105,215,-238,215v-135,0,-240,-85,-238,-216v0,-76,40,-133,121,-172v-61,-41,-94,-63,-96,-147v-3,-113,95,-189,213,-189v118,0,215,76,213,189xm275,-408v70,0,123,-42,123,-110v0,-70,-51,-113,-123,-113v-71,0,-123,43,-123,112v0,68,52,111,123,111xm273,-63v87,0,150,-51,150,-136v0,-84,-62,-135,-148,-135v-86,0,-148,51,-148,135v0,83,62,136,146,136"},"9":{"d":"38,-474v0,-135,98,-235,232,-235v159,0,239,113,239,338v0,123,-21,218,-65,285v-44,67,-107,101,-190,101v-115,0,-187,-78,-201,-185r88,0v13,61,51,106,119,107v51,0,89,-23,116,-69v27,-46,41,-113,42,-200v-44,53,-98,79,-162,79v-127,2,-218,-92,-218,-221xm266,-331v85,0,147,-60,147,-145v0,-86,-60,-156,-144,-156v-82,0,-141,66,-141,151v0,91,50,150,138,150"},":":{"d":"191,0r-104,0r0,-104r104,0r0,104xm191,-420r-104,0r0,-104r104,0r0,104","w":278},";":{"d":"192,-420r-104,0r0,-104r104,0r0,104xm87,109v60,-1,59,-43,60,-109r-60,0r0,-104r105,0r0,120v0,87,-35,131,-105,131r0,-38","w":278},"<":{"d":"448,69r-334,-293r0,-52r334,-293r0,90r-260,229r260,229r0,90","w":584},"=":{"d":"516,-307r-448,0r0,-68r448,0r0,68xm516,-125r-448,0r0,-68r448,0r0,68","w":584},">":{"d":"448,-224r-334,293r0,-90r260,-229r-260,-229r0,-90r334,293r0,52","w":584},"?":{"d":"289,-741v124,-1,216,72,213,192v-2,92,-40,121,-100,179v-33,32,-56,55,-65,70v-17,24,-14,62,-14,101r-90,0v-1,-60,-1,-106,28,-142v29,-36,28,-32,76,-76v49,-45,75,-89,75,-132v1,-70,-55,-116,-128,-114v-96,1,-129,54,-129,156r-85,0v0,-150,72,-233,219,-234xm323,0r-90,0r0,-104r90,0r0,104"},"@":{"d":"525,-741v266,0,521,249,391,519v-39,83,-125,164,-237,165v-64,0,-101,-26,-110,-77v-44,48,-91,72,-142,72v-95,2,-163,-85,-163,-183v0,-137,124,-277,257,-277v56,0,97,29,122,87r22,-66r83,0r-90,280v-9,25,-13,42,-12,50v-1,24,25,44,50,44v91,0,168,-129,168,-230v0,-169,-176,-307,-352,-307v-204,0,-393,188,-393,391v0,193,175,338,375,338v53,0,117,-11,193,-32r28,67v-151,57,-319,57,-455,-12v-122,-62,-226,-180,-226,-346v0,-191,113,-341,246,-417v76,-43,158,-66,245,-66xm354,-244v0,60,42,119,99,118v39,0,74,-24,105,-72v32,-50,49,-104,51,-169v1,-51,-42,-91,-94,-91v-89,0,-161,116,-161,214","w":1015},"A":{"d":"653,0r-104,0r-75,-219r-281,0r-77,219r-99,0r260,-729r120,0xm448,-297r-112,-332r-120,332r232,0","w":667},"B":{"d":"490,-385v83,33,131,74,133,177v2,122,-90,208,-215,208r-329,0r0,-729r296,0v125,-3,216,69,216,185v0,75,-34,128,-101,159xm498,-531v0,-77,-49,-116,-146,-116r-180,0r0,232r180,0v97,0,146,-39,146,-116xm399,-82v80,2,131,-49,131,-125v0,-77,-50,-126,-131,-126r-227,0r0,251r227,0","w":667},"C":{"d":"378,-64v136,0,181,-75,203,-202r96,0v-22,189,-122,284,-300,284v-210,0,-329,-162,-329,-374v0,-215,118,-391,333,-391v158,0,252,81,281,244r-95,0v-22,-106,-76,-162,-197,-162v-153,0,-229,140,-229,308v0,167,82,293,237,293","w":722},"D":{"d":"370,-729v197,0,297,155,297,364v0,209,-101,364,-297,365r-281,0r0,-729r281,0xm354,-82v156,-2,220,-113,220,-282v0,-170,-63,-283,-220,-283r-172,0r0,565r172,0","w":722},"E":{"d":"613,0r-523,0r0,-729r505,0r0,82r-412,0r0,233r397,0r0,82r-397,0r0,250r430,0r0,82","w":667},"F":{"d":"579,-647r-396,0r0,233r348,0r0,82r-348,0r0,332r-93,0r0,-729r489,0r0,82","w":611},"G":{"d":"398,-64v136,0,239,-94,229,-239r-222,0r0,-82r304,0r0,385r-59,0r-23,-96v-68,76,-151,114,-249,114v-203,2,-334,-164,-334,-375v0,-218,132,-390,350,-390v168,0,281,94,305,239r-95,0v-18,-92,-101,-157,-211,-157v-159,0,-256,136,-256,303v0,172,94,298,261,298","w":778},"H":{"d":"644,0r-93,0r0,-332r-375,0r0,332r-93,0r0,-729r93,0r0,315r375,0r0,-315r93,0r0,729","w":722},"I":{"d":"193,0r-93,0r0,-729r93,0r0,729","w":278},"J":{"d":"221,-60v88,-2,112,-60,112,-161r0,-508r93,0r0,542v1,125,-81,205,-206,205v-123,0,-202,-73,-201,-193r0,-59r93,0v-6,99,18,176,109,174","w":500},"K":{"d":"658,0r-110,0r-257,-374r-119,119r0,255r-93,0r0,-729r93,0r0,369r363,-369r120,0r-297,297","w":667},"L":{"d":"533,0r-453,0r0,-729r93,0r0,647r360,0r0,82"},"M":{"d":"761,0r-88,0r0,-611r-205,611r-98,0r-207,-611r0,611r-88,0r0,-729r129,0r216,635r212,-635r129,0r0,729","w":833},"N":{"d":"646,0r-105,0r-377,-591r0,591r-88,0r0,-729r101,0r381,596r0,-596r88,0r0,729","w":722},"O":{"d":"389,-747v218,0,353,170,353,394v0,212,-141,371,-352,371v-213,0,-352,-159,-352,-377v0,-218,139,-388,351,-388xm390,-64v159,0,259,-126,259,-291v0,-173,-96,-310,-260,-310v-159,0,-258,139,-258,306v0,169,98,295,259,295","w":778},"P":{"d":"392,-729v141,-1,225,75,225,214v0,119,-86,206,-204,206r-229,0r0,309r-93,0r0,-729r301,0xm378,-391v85,1,142,-46,142,-128v0,-82,-57,-128,-142,-128r-194,0r0,256r194,0","w":667},"Q":{"d":"390,-747v212,0,352,170,352,386v0,111,-34,205,-103,280r94,77r-47,58r-105,-87v-57,34,-121,51,-191,51v-213,2,-352,-159,-352,-377v0,-219,139,-388,352,-388xm131,-359v0,170,96,296,258,295v40,0,80,-9,120,-28r-74,-62r46,-56r89,73v53,-59,79,-134,79,-223v0,-168,-99,-305,-259,-305v-161,0,-259,137,-259,306","w":778},"R":{"d":"651,-534v0,96,-43,138,-115,174v83,38,94,70,99,190v3,85,1,114,44,147r0,23r-113,0v-23,-50,-22,-115,-20,-184v2,-87,-35,-129,-120,-130r-240,0r0,314r-93,0r0,-729r336,0v136,-1,222,65,222,195xm411,-396v95,0,143,-34,143,-125v0,-90,-47,-126,-143,-126r-225,0r0,251r225,0","w":722},"S":{"d":"326,-669v-88,0,-163,49,-163,129v0,73,48,89,120,108r183,49v88,23,155,83,155,183v0,147,-122,218,-285,218v-172,0,-289,-85,-288,-255r88,0v1,115,82,173,206,173v124,0,186,-42,186,-127v0,-55,-45,-95,-134,-118r-181,-48v-95,-25,-143,-81,-143,-170v0,-140,111,-220,259,-220v158,0,267,76,267,226r-88,0v0,-101,-75,-148,-182,-148","w":667},"T":{"d":"593,-647r-239,0r0,647r-93,0r0,-647r-240,0r0,-82r572,0r0,82","w":611},"U":{"d":"364,-64v110,0,188,-54,188,-158r0,-507r93,0r0,507v1,153,-121,240,-281,240v-163,0,-279,-85,-279,-240r0,-507r93,0r0,507v-1,106,78,158,186,158","w":722},"V":{"d":"645,-729r-253,729r-100,0r-262,-729r100,0r214,617r202,-617r99,0","w":667},"W":{"d":"929,-729r-185,729r-102,0r-168,-599r-163,599r-102,0r-187,-729r104,0r137,592r162,-592r100,0r166,592r134,-592r104,0","w":944},"X":{"d":"649,0r-115,0r-199,-304r-200,304r-113,0r258,-374r-242,-355r113,0r187,286r188,-286r111,0r-246,355","w":667},"Y":{"d":"661,-729r-274,443r0,286r-93,0r0,-286r-281,-443r115,0r214,355r208,-355r111,0","w":667},"Z":{"d":"583,0r-555,0r0,-82r438,-565r-410,0r0,-82r525,0r0,84r-436,563r438,0r0,82","w":611},"[":{"d":"250,212r-186,0r0,-941r186,0r0,72r-103,0r0,797r103,0r0,72","w":278},"\\":{"d":"284,20r-55,0r-237,-749r55,0","w":278},"]":{"d":"209,212r-186,0r0,-72r103,0r0,-797r-103,0r0,-72r186,0r0,941","w":278},"^":{"d":"425,-329r-69,0r-122,-300r-121,300r-69,0r153,-380r73,0","w":469},"_":{"d":"578,177r-600,0r0,-50r600,0r0,50"},"`":{"d":"196,-581r-60,0r-149,-148r113,0","w":333},"a":{"d":"275,-539v116,0,197,39,197,143r0,292v-2,34,29,46,63,39r0,63v-23,6,-42,9,-57,9v-43,0,-78,-32,-86,-69v-48,51,-107,77,-178,77v-101,1,-172,-53,-172,-151v0,-85,63,-135,145,-152v21,-4,156,-15,183,-35v18,-13,20,-33,19,-61v-1,-58,-52,-78,-117,-78v-75,0,-116,27,-123,93r-84,0v5,-113,75,-170,210,-170xm232,-58v77,0,157,-49,157,-123r0,-78v-29,20,-196,29,-231,59v-18,15,-29,35,-29,62v0,53,34,80,103,80"},"b":{"d":"299,-539v147,0,224,114,224,271v0,157,-82,283,-228,283v-71,0,-127,-30,-166,-90r0,75r-75,0r0,-729r83,0r0,276v38,-57,92,-86,162,-86xm283,-63v98,0,153,-93,153,-200v0,-107,-54,-196,-153,-198v-98,-2,-146,92,-146,199v0,106,50,199,146,199"},"c":{"d":"265,-62v80,0,116,-42,128,-118r84,0v-9,118,-88,195,-214,195v-149,0,-232,-115,-232,-272v0,-160,83,-282,233,-282v124,0,200,71,207,191r-84,0v-9,-68,-50,-114,-124,-114v-103,0,-145,90,-145,205v0,112,46,195,147,195","w":500},"d":{"d":"26,-267v0,-154,81,-272,225,-272v72,0,126,27,161,81r0,-271r83,0r0,729r-74,0r0,-77v-41,57,-81,92,-167,92v-151,0,-228,-120,-228,-282xm266,-63v97,0,146,-90,146,-197v0,-108,-49,-201,-147,-201v-100,0,-152,90,-152,199v0,110,53,199,153,199"},"e":{"d":"40,-259v0,-161,87,-280,240,-280v104,0,183,59,212,138v14,37,21,91,21,163r-386,0v-1,107,56,176,154,176v70,0,116,-32,137,-97r84,0v-19,103,-103,175,-224,174v-154,0,-238,-112,-238,-274xm423,-306v8,-83,-63,-156,-144,-156v-88,0,-146,70,-150,156r294,0"},"f":{"d":"88,-613v-3,-92,76,-135,170,-114r0,69v-51,-6,-87,6,-87,52r0,82r87,0r0,68r-87,0r0,456r-83,0r0,-456r-70,0r0,-68r70,0r0,-89","w":278},"g":{"d":"29,-257v0,-154,80,-281,223,-282v65,0,119,30,160,91r0,-76r77,0r0,438v-2,208,-45,300,-234,304v-117,3,-199,-56,-209,-158r85,0v9,59,52,88,127,88v124,0,160,-89,154,-227v-49,55,-82,94,-167,94v-135,0,-216,-125,-216,-272xm262,-62v98,0,142,-87,142,-197v0,-112,-43,-203,-143,-203v-99,0,-145,89,-145,200v0,113,44,200,146,200"},"h":{"d":"321,-539v96,-1,165,52,165,143r0,396r-83,0r0,-363v1,-65,-45,-103,-108,-103v-91,0,-142,79,-142,177r0,289r-83,0r0,-729r83,0r0,277v45,-56,79,-85,168,-87"},"i":{"d":"153,0r-83,0r0,-524r83,0r0,524xm164,-603r-104,0r0,-104r104,0r0,104","w":222},"j":{"d":"153,109v5,81,-72,119,-171,106r0,-71v29,2,60,1,72,-14v10,-12,16,-29,16,-54r0,-600r83,0r0,633xm164,-603r-104,0r0,-104r104,0r0,104","w":222},"k":{"d":"502,0r-103,0r-177,-284r-81,80r0,204r-83,0r0,-729r83,0r0,427r222,-222r107,0r-182,181","w":500},"l":{"d":"151,0r-83,0r0,-729r83,0r0,729","w":222},"m":{"d":"610,-539v96,-1,150,51,150,146r0,393r-83,0r0,-361v1,-64,-33,-105,-96,-105v-69,0,-124,66,-124,137r0,329r-83,0r0,-361v1,-64,-34,-105,-97,-105v-69,0,-123,66,-123,137r0,329r-83,0r0,-524r76,0r0,74v41,-55,78,-89,161,-89v65,0,112,27,141,80v45,-51,77,-79,161,-80","w":833},"n":{"d":"321,-539v95,-2,166,53,166,143r0,396r-83,0r0,-363v1,-63,-43,-103,-108,-103v-91,0,-143,80,-143,177r0,289r-83,0r0,-524r77,0r0,88v42,-64,81,-101,174,-103"},"o":{"d":"272,-539v160,0,238,112,238,281v0,162,-82,273,-237,273v-157,0,-237,-112,-237,-277v0,-164,80,-277,236,-277xm273,-62v100,0,150,-87,150,-197v0,-116,-45,-203,-150,-203v-102,0,-150,88,-150,200v0,114,47,200,150,200"},"p":{"d":"298,-539v150,1,225,121,225,282v0,154,-80,272,-224,272v-65,0,-118,-26,-161,-78r0,281r-83,0r0,-742r76,0r0,79v39,-63,95,-94,167,-94xm284,-63v98,0,152,-89,152,-196v0,-111,-51,-202,-152,-202v-97,0,-146,95,-146,203v0,109,48,195,146,195"},"q":{"d":"26,-256v0,-159,80,-282,228,-283v71,0,127,28,167,85r0,-70r74,0r0,742r-83,0r0,-286v-38,55,-92,83,-162,83v-147,0,-224,-114,-224,-271xm266,-63v97,0,146,-89,146,-196v0,-109,-47,-202,-146,-202v-100,0,-153,90,-153,199v0,110,53,199,153,199"},"r":{"d":"321,-451v-126,2,-168,54,-168,179r0,272r-83,0r0,-524r76,0r0,95v24,-39,48,-68,70,-85v32,-23,59,-30,105,-22r0,85","w":333},"s":{"d":"245,-462v-60,-1,-111,25,-111,79v0,76,110,74,177,94v89,26,148,47,148,142v0,109,-97,163,-216,162v-133,-1,-204,-50,-209,-175r88,0v11,75,45,97,128,98v63,1,122,-23,122,-78v0,-49,-33,-55,-81,-69v-113,-32,-244,-37,-244,-170v0,-104,90,-160,201,-160v115,0,188,53,190,161r-88,0v-2,-56,-37,-84,-105,-84","w":500},"t":{"d":"168,-113v1,38,9,46,46,47v17,0,30,-1,40,-4r0,70v-82,18,-169,7,-169,-76r0,-380r-71,0r0,-68r71,0r0,-144r83,0r0,144r86,0r0,68r-86,0r0,343","w":278},"u":{"d":"256,-58v92,0,143,-79,143,-177r0,-289r83,0r0,524r-75,0r0,-81v-45,61,-82,94,-175,96v-95,2,-167,-53,-167,-143r0,-396r83,0r0,363v-1,63,43,103,108,103"},"v":{"d":"486,-524r-201,524r-91,0r-184,-524r94,0r140,425r148,-425r94,0","w":500},"w":{"d":"708,-524r-154,524r-95,0r-106,-411r-101,411r-94,0r-152,-524r92,0r107,408r100,-408r102,0r103,408r104,-408r94,0","w":722},"x":{"d":"473,0r-97,0r-131,-201r-133,201r-95,0r185,-267r-175,-257r95,0r126,190r126,-190r94,0r-176,253","w":500},"y":{"d":"478,-524r-233,634v-27,72,-72,108,-135,108v-21,0,-39,-4,-56,-13r0,-75v34,8,66,11,86,-6v29,-24,39,-83,57,-122r-177,-526r89,0r134,408r145,-408r90,0","w":500},"z":{"d":"457,0r-426,0r0,-75r313,-376r-292,0r0,-73r391,0r0,74r-311,377r325,0r0,73","w":500},"{":{"d":"198,80v-1,58,20,69,78,67r0,65r-46,0v-73,0,-110,-54,-109,-131r0,-167v-1,-86,-13,-123,-78,-138r0,-69v66,-16,78,-51,78,-138r0,-167v-1,-77,36,-131,109,-131r46,0r0,65v-57,-1,-78,9,-78,67r0,181v-1,91,-18,131,-82,157v55,25,82,78,82,158r0,181","w":334},"|":{"d":"164,212r-68,0r0,-941r68,0r0,941","w":260},"}":{"d":"186,-431v1,85,12,122,76,138r0,69v-64,15,-76,53,-76,138r0,167v1,77,-37,131,-110,131r-47,0r0,-65v57,2,80,-8,80,-67r0,-181v0,-80,27,-132,82,-157v-55,-25,-82,-78,-82,-158r0,-181v1,-58,-22,-69,-80,-67r0,-65r47,0v73,0,111,54,110,131r0,167","w":334},"~":{"d":"404,-336v43,-1,50,-27,51,-75r53,0v5,82,-32,142,-105,143v-27,0,-54,-9,-81,-26r-98,-63v-52,-31,-91,-11,-96,64r-53,0v5,-81,33,-143,108,-145v18,0,36,5,54,16r117,69v19,11,35,17,50,17","w":584},"\u00a0":{"w":278},"\u00a1":{"d":"180,205r-83,0r0,-338r22,-223r39,0r22,223r0,338xm181,-420r-84,0r0,-104r84,0r0,104","w":278},"\u00a2":{"d":"52,-253v0,-156,81,-271,218,-285r0,-90r42,0r0,89v116,7,186,76,192,191r-84,0v-6,-64,-45,-109,-108,-114r0,409v64,-7,102,-50,114,-127r84,0v-5,117,-82,199,-198,203r0,97r-42,0r0,-98v-137,-11,-218,-122,-218,-275xm270,-55r0,-406v-87,16,-131,85,-131,208v-1,106,44,184,131,198"},"\u00a3":{"d":"249,-100v13,-4,151,31,161,31v27,0,54,-10,83,-30r42,66v-38,37,-82,56,-131,56v-31,0,-79,-13,-146,-35v-67,-22,-118,-11,-175,26r-48,-66v46,-39,78,-73,97,-102v35,-54,39,-111,4,-167r-110,0r0,-55r81,0v-34,-64,-51,-69,-53,-139v-4,-123,111,-216,238,-214v143,2,219,84,220,232r-88,0v-3,-103,-48,-154,-136,-154v-101,0,-178,88,-130,181r48,94r160,0r0,55r-136,0v22,63,21,98,-10,151v-17,27,-48,64,-93,109v39,-26,80,-39,122,-39"},"\u00a4":{"d":"528,-555r-55,54v67,72,66,226,0,301r54,56r-45,45r-55,-58v-73,73,-225,73,-298,0r-55,58r-45,-45r54,-56v-66,-75,-67,-229,0,-301r-55,-54r48,-48r57,56v74,-68,216,-68,290,0r57,-56xm278,-172v93,0,172,-85,172,-179v0,-92,-80,-177,-172,-177v-92,0,-172,85,-172,177v0,94,79,179,172,179"},"\u00a5":{"d":"545,-709r-201,355r151,0r0,51r-170,0r0,77r170,0r0,51r-170,0r0,175r-88,0r0,-175r-172,0r0,-51r172,0r0,-77r-172,0r0,-51r151,0r-205,-355r85,0r185,322r179,-322r85,0"},"\u00a6":{"d":"164,-353r-68,0r0,-376r68,0r0,376xm164,212r-68,0r0,-376r68,0r0,376","w":260},"\u00a7":{"d":"283,-652v-64,-2,-114,69,-76,124v9,12,23,25,44,38r146,94v68,46,109,74,109,167v0,77,-36,129,-109,156v33,39,52,60,53,118v2,97,-86,168,-187,168v-121,0,-187,-76,-186,-199r85,0v-1,76,34,120,102,122v54,1,96,-34,96,-86v0,-33,-18,-63,-55,-88r-170,-117v-56,-40,-92,-76,-92,-157v0,-82,43,-116,105,-150v-29,-34,-44,-68,-44,-102v-2,-93,88,-167,185,-165v112,2,185,81,175,205r-84,0v7,-77,-28,-126,-97,-128xm193,-429v-41,30,-71,46,-71,101v0,57,23,67,66,99r166,123v101,-53,93,-151,0,-214"},"\u00a8":{"d":"131,-604r-91,0r0,-102r91,0r0,102xm293,-604r-91,0r0,-102r91,0r0,102","w":333},"\u00a9":{"d":"369,-683v187,0,349,162,349,349v0,187,-162,348,-349,348v-187,0,-348,-161,-348,-348v0,-187,161,-349,348,-349xm369,-29v165,0,306,-140,306,-305v0,-165,-141,-306,-306,-306v-165,0,-305,141,-305,306v0,165,140,305,305,305xm378,-177v77,-1,104,-39,117,-108r64,0v-13,107,-73,160,-181,160v-123,0,-198,-84,-198,-204v0,-122,74,-214,200,-214v97,0,154,46,170,139r-64,0v-11,-58,-49,-87,-113,-87v-85,0,-131,70,-131,161v0,90,49,153,136,153","w":737},"\u00aa":{"d":"320,-303r-277,0r0,-51r277,0r0,51xm176,-690v-48,1,-61,14,-68,56r-59,0v2,-72,45,-108,129,-108v81,0,122,31,122,94r0,179v-1,19,17,28,33,20r0,44v-38,14,-83,3,-87,-37v-33,29,-68,43,-105,43v-61,1,-104,-36,-104,-96v0,-34,12,-59,35,-75v23,-16,63,-25,122,-30v37,-2,49,-9,49,-46v0,-29,-22,-44,-67,-44xm152,-451v43,0,91,-28,91,-66r0,-51v-16,11,-112,17,-131,34v-10,9,-17,20,-17,36v0,31,19,47,57,47","w":370},"\u00ab":{"d":"250,-106r-152,-121r0,-89r152,-122r0,83r-106,83r106,83r0,83xm455,-106r-152,-121r0,-89r152,-122r0,83r-106,83r106,83r0,83"},"\u00ac":{"d":"516,-159r-68,0r0,-148r-380,0r0,-68r448,0r0,216","w":584},"\u00ad":{"d":"284,-240r-238,0r0,-72r238,0r0,72","w":333},"\u00ae":{"d":"369,-683v187,0,349,162,349,349v0,187,-162,348,-349,348v-187,0,-348,-161,-348,-348v0,-187,161,-349,348,-349xm369,-29v165,0,306,-140,306,-305v0,-165,-141,-306,-306,-306v-165,0,-305,141,-305,306v0,165,140,305,305,305xm394,-533v80,-1,133,33,134,108v0,43,-21,74,-62,93v44,20,51,39,53,102v2,47,0,59,26,77r0,18r-73,0v-14,-28,-13,-63,-13,-102v0,-44,-22,-66,-67,-66r-137,0r0,168r-63,0r0,-398r202,0xm383,-355v52,0,80,-15,81,-63v0,-42,-27,-63,-81,-63r-128,0r0,126r128,0","w":737},"\u00af":{"d":"302,-620r-274,0r0,-70r274,0r0,70","w":333},"\u00b0":{"d":"200,-703v81,0,146,65,146,146v0,81,-65,146,-146,146v-81,0,-146,-65,-146,-146v0,-81,65,-146,146,-146xm200,-454v51,0,98,-52,98,-103v0,-51,-47,-103,-98,-103v-51,0,-98,52,-98,103v0,51,47,103,98,103","w":400},"\u00b1":{"d":"516,-284r-190,0r0,155r-68,0r0,-155r-190,0r0,-68r190,0r0,-190r68,0r0,190r190,0r0,68xm516,0r-448,0r0,-68r448,0r0,68","w":584},"\u00b2":{"d":"170,-709v71,0,130,43,129,111v0,47,-29,83,-85,113v-48,26,-105,41,-119,99r201,0r0,51r-267,0v7,-100,35,-121,111,-164r52,-28v34,-18,51,-41,51,-69v1,-38,-34,-67,-74,-66v-54,1,-73,30,-77,87r-54,0v2,-89,46,-134,132,-134","w":333},"\u00b3":{"d":"169,-709v71,-1,122,38,122,106v0,35,-17,59,-50,74v41,15,62,44,62,88v0,75,-58,118,-136,118v-83,0,-133,-44,-133,-125r55,0v1,54,26,79,80,79v48,0,80,-26,79,-72v-1,-60,-41,-61,-109,-63r0,-45v63,-2,95,-1,97,-53v2,-38,-28,-61,-67,-60v-52,1,-72,24,-72,78r-55,0v2,-83,44,-125,127,-125","w":333},"\u00b4":{"d":"346,-729r-149,148r-60,0r96,-148r113,0","w":333},"\u00b5":{"d":"255,-50v92,0,143,-79,143,-177r0,-297r83,0r0,436v-2,34,28,46,63,39r0,63v-73,23,-144,4,-143,-74v-39,55,-94,83,-163,83v-36,0,-66,-9,-90,-26r0,223r-83,0r0,-744r83,0r0,371v-1,63,43,103,107,103"},"\u00b6":{"d":"48,-489v0,-128,99,-240,224,-240r250,0r0,64r-57,0r0,842r-64,0r0,-842r-82,0r0,842r-64,0r0,-436v-125,-3,-207,-104,-207,-230","w":537},"\u00b7":{"d":"139,-302v29,0,52,23,52,52v0,29,-23,52,-52,52v-29,0,-52,-23,-52,-52v0,-29,23,-52,52,-52","w":278},"\u00b8":{"d":"185,54v63,-8,102,30,102,83v0,62,-55,94,-123,93v-31,0,-73,-11,-125,-34r21,-40v35,17,78,33,98,33v28,0,54,-19,54,-45v0,-37,-38,-53,-77,-40r-17,-12r42,-97r48,0","w":333},"\u00b9":{"d":"211,-335r-54,0r0,-260r-87,0r0,-41v68,-5,90,-12,104,-73r37,0r0,374","w":333},"\u00ba":{"d":"314,-303r-263,0r0,-51r263,0r0,51xm182,-742v97,0,142,70,142,174v0,99,-48,169,-142,169v-95,0,-142,-71,-142,-172v0,-101,47,-171,142,-171xm182,-451v58,0,84,-53,84,-118v0,-67,-24,-121,-84,-121v-58,0,-84,54,-84,119v0,66,26,120,84,120","w":365},"\u00bb":{"d":"252,-228r-154,122r0,-83r108,-83r-108,-83r0,-83r154,121r0,89xm451,-228r-154,122r0,-83r108,-83r-108,-83r0,-83r154,121r0,89"},"\u00bc":{"d":"222,-335r-54,0r0,-260r-87,0r0,-41v68,-5,90,-12,104,-73r37,0r0,374xm681,-709r-452,734r-58,0r452,-734r58,0xm767,-88r-59,0r0,88r-54,0r0,-88r-166,0r0,-52r180,-234r40,0r0,239r59,0r0,47xm654,-135r0,-149r-114,149r114,0","w":834},"\u00bd":{"d":"222,-335r-54,0r0,-260r-87,0r0,-41v68,-5,90,-12,104,-73r37,0r0,374xm637,-709r-452,734r-58,0r452,-734r58,0xm634,-374v71,0,130,43,129,111v0,47,-29,83,-85,113v-48,26,-105,41,-119,99r201,0r0,51r-267,0v7,-101,35,-121,111,-165r51,-27v35,-18,52,-41,52,-69v1,-38,-35,-67,-75,-66v-54,1,-72,30,-76,87r-55,0v3,-89,47,-134,133,-134","w":834},"\u00be":{"d":"199,-709v71,-1,122,38,122,106v0,35,-17,59,-50,74v41,15,62,44,62,88v0,75,-58,118,-136,118v-83,0,-133,-44,-133,-125r55,0v1,54,26,79,80,79v48,0,80,-26,79,-72v-1,-60,-41,-61,-109,-63r0,-45v63,-2,95,-1,97,-53v2,-38,-28,-61,-67,-60v-52,1,-72,24,-72,78r-55,0v2,-83,44,-125,127,-125xm701,-709r-452,734r-58,0r452,-734r58,0xm757,-88r-59,0r0,88r-54,0r0,-88r-166,0r0,-52r180,-234r40,0r0,239r59,0r0,47xm644,-135r0,-149r-114,149r114,0","w":834},"\u00bf":{"d":"272,139v96,-1,129,-54,129,-156r85,0v0,150,-72,233,-219,234v-124,1,-216,-72,-213,-192v2,-92,40,-121,100,-179v33,-32,56,-55,65,-70v17,-24,14,-62,14,-101r90,0v1,60,1,106,-28,142v-29,36,-28,32,-76,76v-49,45,-75,89,-75,132v-1,70,55,116,128,114xm323,-420r-90,0r0,-104r90,0r0,104"},"\u00c0":{"d":"653,0r-104,0r-75,-219r-281,0r-77,219r-99,0r260,-729r120,0xm448,-297r-112,-332r-120,332r232,0xm373,-783r-72,0r-179,-133r136,0","w":667},"\u00c1":{"d":"653,0r-104,0r-75,-219r-281,0r-77,219r-99,0r260,-729r120,0xm448,-297r-112,-332r-120,332r232,0xm552,-916r-179,133r-72,0r115,-133r136,0","w":667},"\u00c2":{"d":"653,0r-104,0r-75,-219r-281,0r-77,219r-99,0r260,-729r120,0xm448,-297r-112,-332r-120,332r232,0xm509,-783r-75,0r-97,-86r-95,86r-77,0r115,-135r114,0","w":667},"\u00c3":{"d":"653,0r-104,0r-75,-219r-281,0r-77,219r-99,0r260,-729r120,0xm448,-297r-112,-332r-120,332r232,0xm262,-902v26,-2,106,37,133,37v17,0,29,-12,37,-37r58,0v-10,69,-40,104,-89,104v-13,5,-106,-37,-134,-38v-15,0,-26,12,-33,37r-58,0v9,-55,33,-99,86,-103","w":667},"\u00c4":{"d":"653,0r-104,0r-75,-219r-281,0r-77,219r-99,0r260,-729r120,0xm448,-297r-112,-332r-120,332r232,0xm302,-799r-91,0r0,-102r91,0r0,102xm464,-799r-91,0r0,-102r91,0r0,102","w":667},"\u00c5":{"d":"653,0r-104,0r-75,-219r-281,0r-77,219r-99,0r260,-729r120,0xm448,-297r-112,-332r-120,332r232,0xm338,-961v52,0,96,45,96,97v0,51,-46,95,-96,95v-52,0,-97,-45,-97,-97v0,-50,46,-95,97,-95xm338,-817v24,0,48,-22,48,-47v0,-27,-22,-49,-48,-49v-25,0,-49,22,-49,47v0,26,23,49,49,49","w":667},"\u00c6":{"d":"950,0r-482,0r0,-214r-269,0r-85,214r-103,0r299,-729r622,0r0,82r-371,0r0,233r352,0r0,82r-352,0r0,250r389,0r0,82xm468,-296r0,-351r-100,0r-138,351r238,0","w":1000},"\u00c7":{"d":"378,-64v136,0,181,-75,203,-202r96,0v-21,181,-113,276,-278,283r-14,37v63,-8,102,30,102,83v0,62,-55,94,-123,93v-31,0,-73,-11,-125,-34r21,-40v35,17,78,33,98,33v28,0,54,-19,54,-45v0,-37,-38,-53,-77,-40r-17,-12r32,-75v-193,-9,-302,-168,-302,-373v0,-215,118,-391,333,-391v158,0,252,81,281,244r-95,0v-22,-106,-76,-162,-197,-162v-153,0,-229,140,-229,308v0,167,82,293,237,293","w":722},"\u00c8":{"d":"613,0r-523,0r0,-729r505,0r0,82r-412,0r0,233r397,0r0,82r-397,0r0,250r430,0r0,82xm379,-783r-72,0r-179,-133r136,0","w":667},"\u00c9":{"d":"613,0r-523,0r0,-729r505,0r0,82r-412,0r0,233r397,0r0,82r-397,0r0,250r430,0r0,82xm558,-916r-179,133r-72,0r115,-133r136,0","w":667},"\u00ca":{"d":"613,0r-523,0r0,-729r505,0r0,82r-412,0r0,233r397,0r0,82r-397,0r0,250r430,0r0,82xm515,-783r-75,0r-97,-86r-95,86r-77,0r115,-135r114,0","w":667},"\u00cb":{"d":"613,0r-523,0r0,-729r505,0r0,82r-412,0r0,233r397,0r0,82r-397,0r0,250r430,0r0,82xm308,-799r-91,0r0,-102r91,0r0,102xm470,-799r-91,0r0,-102r91,0r0,102","w":667},"\u00cc":{"d":"193,0r-93,0r0,-729r93,0r0,729xm193,-783r-72,0r-179,-133r136,0","w":278},"\u00cd":{"d":"193,0r-93,0r0,-729r93,0r0,729xm352,-916r-179,133r-72,0r115,-133r136,0","w":278},"\u00ce":{"d":"193,0r-93,0r0,-729r93,0r0,729xm319,-783r-75,0r-97,-86r-95,86r-77,0r115,-135r114,0","w":278},"\u00cf":{"d":"193,0r-93,0r0,-729r93,0r0,729xm112,-799r-91,0r0,-102r91,0r0,102xm274,-799r-91,0r0,-102r91,0r0,102","w":278},"\u00d0":{"d":"371,-729v196,0,296,155,296,364v0,209,-100,364,-296,365r-282,0r0,-339r-69,0r0,-67r69,0r0,-323r282,0xm355,-82v156,-2,219,-114,219,-283v0,-170,-63,-282,-219,-282r-173,0r0,241r171,0r0,67r-171,0r0,257r173,0","w":722},"\u00d1":{"d":"646,0r-105,0r-377,-591r0,591r-88,0r0,-729r101,0r381,596r0,-596r88,0r0,729xm286,-902v26,-2,106,37,133,37v17,0,29,-12,37,-37r58,0v-10,69,-40,104,-89,104v-13,5,-106,-37,-134,-38v-15,0,-26,12,-33,37r-58,0v9,-55,33,-99,86,-103","w":722},"\u00d2":{"d":"389,-747v218,0,353,170,353,394v0,212,-141,371,-352,371v-213,0,-352,-159,-352,-377v0,-218,139,-388,351,-388xm390,-64v159,0,259,-126,259,-291v0,-173,-96,-310,-260,-310v-159,0,-258,139,-258,306v0,169,98,295,259,295xm425,-783r-72,0r-179,-133r136,0","w":778},"\u00d3":{"d":"389,-747v218,0,353,170,353,394v0,212,-141,371,-352,371v-213,0,-352,-159,-352,-377v0,-218,139,-388,351,-388xm390,-64v159,0,259,-126,259,-291v0,-173,-96,-310,-260,-310v-159,0,-258,139,-258,306v0,169,98,295,259,295xm604,-916r-179,133r-72,0r115,-133r136,0","w":778},"\u00d4":{"d":"389,-747v218,0,353,170,353,394v0,212,-141,371,-352,371v-213,0,-352,-159,-352,-377v0,-218,139,-388,351,-388xm390,-64v159,0,259,-126,259,-291v0,-173,-96,-310,-260,-310v-159,0,-258,139,-258,306v0,169,98,295,259,295xm561,-783r-75,0r-97,-86r-95,86r-77,0r115,-135r114,0","w":778},"\u00d5":{"d":"389,-747v218,0,353,170,353,394v0,212,-141,371,-352,371v-213,0,-352,-159,-352,-377v0,-218,139,-388,351,-388xm390,-64v159,0,259,-126,259,-291v0,-173,-96,-310,-260,-310v-159,0,-258,139,-258,306v0,169,98,295,259,295xm314,-902v26,-2,106,37,133,37v17,0,29,-12,37,-37r58,0v-10,69,-40,104,-89,104v-13,5,-106,-37,-134,-38v-15,0,-26,12,-33,37r-58,0v9,-55,33,-99,86,-103","w":778},"\u00d6":{"d":"389,-747v218,0,353,170,353,394v0,212,-141,371,-352,371v-213,0,-352,-159,-352,-377v0,-218,139,-388,351,-388xm390,-64v159,0,259,-126,259,-291v0,-173,-96,-310,-260,-310v-159,0,-258,139,-258,306v0,169,98,295,259,295xm354,-799r-91,0r0,-102r91,0r0,102xm516,-799r-91,0r0,-102r91,0r0,102","w":778},"\u00d7":{"d":"474,-116r-48,48r-134,-134r-134,134r-48,-48r134,-134r-134,-134r48,-48r134,134r134,-134r48,48r-134,134","w":584},"\u00d8":{"d":"38,-359v0,-218,139,-388,351,-388v95,0,173,29,235,87r77,-85r41,37r-81,88v54,71,81,160,81,267v0,212,-141,371,-352,371v-95,0,-174,-28,-236,-84r-75,82r-41,-37r79,-86v-53,-66,-79,-150,-79,-252xm390,-64v159,1,259,-126,259,-291v0,-78,-17,-143,-51,-196r-384,419v45,45,104,68,176,68xm389,-665v-159,-1,-258,139,-258,306v0,73,16,135,48,184r385,-420v-45,-47,-104,-70,-175,-70","w":778},"\u00d9":{"d":"364,-64v110,0,188,-54,188,-158r0,-507r93,0r0,507v1,153,-121,240,-281,240v-163,0,-279,-85,-279,-240r0,-507r93,0r0,507v-1,106,78,158,186,158xm397,-783r-72,0r-179,-133r136,0","w":722},"\u00da":{"d":"364,-64v110,0,188,-54,188,-158r0,-507r93,0r0,507v1,153,-121,240,-281,240v-163,0,-279,-85,-279,-240r0,-507r93,0r0,507v-1,106,78,158,186,158xm576,-916r-179,133r-72,0r115,-133r136,0","w":722},"\u00db":{"d":"364,-64v110,0,188,-54,188,-158r0,-507r93,0r0,507v1,153,-121,240,-281,240v-163,0,-279,-85,-279,-240r0,-507r93,0r0,507v-1,106,78,158,186,158xm533,-783r-75,0r-97,-86r-95,86r-77,0r115,-135r114,0","w":722},"\u00dc":{"d":"364,-64v110,0,188,-54,188,-158r0,-507r93,0r0,507v1,153,-121,240,-281,240v-163,0,-279,-85,-279,-240r0,-507r93,0r0,507v-1,106,78,158,186,158xm326,-799r-91,0r0,-102r91,0r0,102xm488,-799r-91,0r0,-102r91,0r0,102","w":722},"\u00dd":{"d":"661,-729r-274,443r0,286r-93,0r0,-286r-281,-443r115,0r214,355r208,-355r111,0xm556,-916r-179,133r-72,0r115,-133r136,0","w":667},"\u00de":{"d":"392,-609v135,-1,224,79,224,212v0,118,-86,208,-203,208r-229,0r0,189r-93,0r0,-729r93,0r0,120r208,0xm378,-271v84,1,138,-46,138,-128v0,-81,-54,-129,-138,-128r-194,0r0,256r194,0","w":667},"\u00df":{"d":"426,-401v76,17,140,92,140,182v0,142,-85,240,-224,239v-31,0,-59,-1,-84,-4r0,-83v28,3,53,5,76,5v85,1,147,-65,145,-151v-1,-112,-69,-134,-187,-136r0,-82v72,1,146,-42,146,-111v0,-68,-75,-109,-145,-109v-70,0,-140,46,-140,113r0,538r-83,0r0,-538v-3,-110,108,-191,221,-191v116,0,235,72,234,184v-1,69,-45,125,-99,144","w":611},"\u00e0":{"d":"275,-539v116,0,197,39,197,143r0,292v-2,34,29,46,63,39r0,63v-23,6,-42,9,-57,9v-43,0,-78,-32,-86,-69v-48,51,-107,77,-178,77v-101,1,-172,-53,-172,-151v0,-85,63,-135,145,-152v21,-4,156,-15,183,-35v18,-13,20,-33,19,-61v-1,-58,-52,-78,-117,-78v-75,0,-116,27,-123,93r-84,0v5,-113,75,-170,210,-170xm232,-58v77,0,157,-49,157,-123r0,-78v-29,20,-196,29,-231,59v-18,15,-29,35,-29,62v0,53,34,80,103,80xm305,-581r-60,0r-149,-148r113,0"},"\u00e1":{"d":"275,-539v116,0,197,39,197,143r0,292v-2,34,29,46,63,39r0,63v-23,6,-42,9,-57,9v-43,0,-78,-32,-86,-69v-48,51,-107,77,-178,77v-101,1,-172,-53,-172,-151v0,-85,63,-135,145,-152v21,-4,156,-15,183,-35v18,-13,20,-33,19,-61v-1,-58,-52,-78,-117,-78v-75,0,-116,27,-123,93r-84,0v5,-113,75,-170,210,-170xm232,-58v77,0,157,-49,157,-123r0,-78v-29,20,-196,29,-231,59v-18,15,-29,35,-29,62v0,53,34,80,103,80xm454,-729r-149,148r-60,0r96,-148r113,0"},"\u00e2":{"d":"275,-539v116,0,197,39,197,143r0,292v-2,34,29,46,63,39r0,63v-23,6,-42,9,-57,9v-43,0,-78,-32,-86,-69v-48,51,-107,77,-178,77v-101,1,-172,-53,-172,-151v0,-85,63,-135,145,-152v21,-4,156,-15,183,-35v18,-13,20,-33,19,-61v-1,-58,-52,-78,-117,-78v-75,0,-116,27,-123,93r-84,0v5,-113,75,-170,210,-170xm232,-58v77,0,157,-49,157,-123r0,-78v-29,20,-196,29,-231,59v-18,15,-29,35,-29,62v0,53,34,80,103,80xm418,-580r-63,0r-81,-96r-79,96r-64,0r96,-150r95,0"},"\u00e3":{"d":"275,-539v116,0,197,39,197,143r0,292v-2,34,29,46,63,39r0,63v-23,6,-42,9,-57,9v-43,0,-78,-32,-86,-69v-48,51,-107,77,-178,77v-101,1,-172,-53,-172,-151v0,-85,63,-135,145,-152v21,-4,156,-15,183,-35v18,-13,20,-33,19,-61v-1,-58,-52,-78,-117,-78v-75,0,-116,27,-123,93r-84,0v5,-113,75,-170,210,-170xm232,-58v77,0,157,-49,157,-123r0,-78v-29,20,-196,29,-231,59v-18,15,-29,35,-29,62v0,53,34,80,103,80xm199,-707v26,-2,106,37,133,37v17,0,29,-12,37,-37r58,0v-10,69,-40,104,-89,104v-13,5,-106,-37,-134,-38v-15,0,-26,12,-33,37r-58,0v9,-55,33,-99,86,-103"},"\u00e4":{"d":"275,-539v116,0,197,39,197,143r0,292v-2,34,29,46,63,39r0,63v-23,6,-42,9,-57,9v-43,0,-78,-32,-86,-69v-48,51,-107,77,-178,77v-101,1,-172,-53,-172,-151v0,-85,63,-135,145,-152v21,-4,156,-15,183,-35v18,-13,20,-33,19,-61v-1,-58,-52,-78,-117,-78v-75,0,-116,27,-123,93r-84,0v5,-113,75,-170,210,-170xm232,-58v77,0,157,-49,157,-123r0,-78v-29,20,-196,29,-231,59v-18,15,-29,35,-29,62v0,53,34,80,103,80xm239,-604r-91,0r0,-102r91,0r0,102xm401,-604r-91,0r0,-102r91,0r0,102"},"\u00e5":{"d":"275,-539v116,0,197,39,197,143r0,292v-2,34,29,46,63,39r0,63v-23,6,-42,9,-57,9v-43,0,-78,-32,-86,-69v-48,51,-107,77,-178,77v-101,1,-172,-53,-172,-151v0,-85,63,-135,145,-152v21,-4,156,-15,183,-35v18,-13,20,-33,19,-61v-1,-58,-52,-78,-117,-78v-75,0,-116,27,-123,93r-84,0v5,-113,75,-170,210,-170xm232,-58v77,0,157,-49,157,-123r0,-78v-29,20,-196,29,-231,59v-18,15,-29,35,-29,62v0,53,34,80,103,80xm275,-751v52,0,96,45,96,97v0,51,-46,95,-96,95v-52,0,-97,-45,-97,-97v0,-50,46,-95,97,-95xm275,-607v24,0,48,-22,48,-47v0,-27,-22,-49,-48,-49v-25,0,-49,22,-49,47v0,26,23,49,49,49"},"\u00e6":{"d":"440,-457v33,-47,97,-82,173,-82v104,0,181,60,211,138v14,37,21,92,21,167r-386,0v-1,101,59,171,154,172v67,0,113,-32,138,-97r84,0v-19,102,-103,175,-223,174v-80,0,-146,-33,-178,-83r-16,-27v-64,63,-112,107,-216,110v-98,3,-169,-56,-168,-151v0,-55,18,-94,54,-118v36,-24,105,-40,206,-49v65,-5,87,-15,87,-81v0,-52,-39,-78,-118,-78v-75,0,-115,31,-122,93r-84,0v5,-113,74,-170,208,-170v85,0,144,27,175,82xm221,-58v60,0,160,-57,160,-107r0,-93v-29,18,-196,30,-231,59v-18,15,-29,34,-29,61v0,55,42,80,100,80xm755,-302v2,-90,-57,-161,-144,-160v-89,0,-146,71,-150,160r294,0","w":889},"\u00e7":{"d":"265,-62v80,0,116,-42,128,-118r84,0v-9,110,-77,184,-186,194r-16,40v63,-8,102,30,102,83v0,62,-55,94,-123,93v-31,0,-73,-11,-125,-34r21,-40v35,17,78,33,98,33v28,0,54,-19,54,-45v0,-37,-38,-53,-77,-40r-17,-12r34,-78v-135,-10,-211,-120,-211,-271v0,-160,83,-282,233,-282v124,0,200,71,207,191r-84,0v-9,-68,-50,-114,-124,-114v-103,0,-145,90,-145,205v0,112,46,195,147,195","w":500},"\u00e8":{"d":"40,-259v0,-161,87,-280,240,-280v104,0,183,59,212,138v14,37,21,91,21,163r-386,0v-1,107,56,176,154,176v70,0,116,-32,137,-97r84,0v-19,103,-103,175,-224,174v-154,0,-238,-112,-238,-274xm423,-306v8,-83,-63,-156,-144,-156v-88,0,-146,70,-150,156r294,0xm310,-581r-60,0r-149,-148r113,0"},"\u00e9":{"d":"40,-259v0,-161,87,-280,240,-280v104,0,183,59,212,138v14,37,21,91,21,163r-386,0v-1,107,56,176,154,176v70,0,116,-32,137,-97r84,0v-19,103,-103,175,-224,174v-154,0,-238,-112,-238,-274xm423,-306v8,-83,-63,-156,-144,-156v-88,0,-146,70,-150,156r294,0xm459,-729r-149,148r-60,0r96,-148r113,0"},"\u00ea":{"d":"40,-259v0,-161,87,-280,240,-280v104,0,183,59,212,138v14,37,21,91,21,163r-386,0v-1,107,56,176,154,176v70,0,116,-32,137,-97r84,0v-19,103,-103,175,-224,174v-154,0,-238,-112,-238,-274xm423,-306v8,-83,-63,-156,-144,-156v-88,0,-146,70,-150,156r294,0xm423,-580r-63,0r-81,-96r-79,96r-64,0r96,-150r95,0"},"\u00eb":{"d":"40,-259v0,-161,87,-280,240,-280v104,0,183,59,212,138v14,37,21,91,21,163r-386,0v-1,107,56,176,154,176v70,0,116,-32,137,-97r84,0v-19,103,-103,175,-224,174v-154,0,-238,-112,-238,-274xm423,-306v8,-83,-63,-156,-144,-156v-88,0,-146,70,-150,156r294,0xm244,-604r-91,0r0,-102r91,0r0,102xm406,-604r-91,0r0,-102r91,0r0,102"},"\u00ec":{"d":"181,0r-83,0r0,-524r83,0r0,524xm181,-581r-60,0r-149,-148r113,0","w":278},"\u00ed":{"d":"181,0r-83,0r0,-524r83,0r0,524xm308,-729r-149,148r-60,0r96,-148r113,0","w":278},"\u00ee":{"d":"181,0r-83,0r0,-524r83,0r0,524xm283,-580r-63,0r-81,-96r-79,96r-64,0r96,-150r95,0","w":278},"\u00ef":{"d":"181,0r-83,0r0,-524r83,0r0,524xm104,-604r-91,0r0,-102r91,0r0,102xm266,-604r-91,0r0,-102r91,0r0,102","w":278},"\u00f0":{"d":"36,-262v0,-156,74,-274,218,-275v16,0,37,4,63,13v-26,-27,-59,-56,-98,-89r-97,45r-36,-39r85,-40v-20,-15,-47,-33,-82,-52r44,-44v25,11,62,32,111,63r97,-45r40,37r-90,41v78,59,134,120,168,181v34,61,51,129,51,203v1,168,-77,278,-237,278v-160,0,-237,-109,-237,-277xm273,-62v100,0,150,-87,150,-197v0,-116,-45,-203,-150,-203v-102,0,-150,88,-150,200v0,113,47,200,150,200"},"\u00f1":{"d":"321,-539v95,-2,166,53,166,143r0,396r-83,0r0,-363v1,-63,-43,-103,-108,-103v-91,0,-143,80,-143,177r0,289r-83,0r0,-524r77,0r0,88v42,-64,81,-101,174,-103xm202,-707v26,-2,106,37,133,37v17,0,29,-12,37,-37r58,0v-10,69,-40,104,-89,104v-13,5,-106,-37,-134,-38v-15,0,-26,12,-33,37r-58,0v9,-55,33,-99,86,-103"},"\u00f2":{"d":"272,-539v160,0,238,112,238,281v0,162,-82,273,-237,273v-157,0,-237,-112,-237,-277v0,-164,80,-277,236,-277xm273,-62v100,0,150,-87,150,-197v0,-116,-45,-203,-150,-203v-102,0,-150,88,-150,200v0,114,47,200,150,200xm308,-581r-60,0r-149,-148r113,0"},"\u00f3":{"d":"272,-539v160,0,238,112,238,281v0,162,-82,273,-237,273v-157,0,-237,-112,-237,-277v0,-164,80,-277,236,-277xm273,-62v100,0,150,-87,150,-197v0,-116,-45,-203,-150,-203v-102,0,-150,88,-150,200v0,114,47,200,150,200xm457,-729r-149,148r-60,0r96,-148r113,0"},"\u00f4":{"d":"272,-539v160,0,238,112,238,281v0,162,-82,273,-237,273v-157,0,-237,-112,-237,-277v0,-164,80,-277,236,-277xm273,-62v100,0,150,-87,150,-197v0,-116,-45,-203,-150,-203v-102,0,-150,88,-150,200v0,114,47,200,150,200xm421,-580r-63,0r-81,-96r-79,96r-64,0r96,-150r95,0"},"\u00f5":{"d":"272,-539v160,0,238,112,238,281v0,162,-82,273,-237,273v-157,0,-237,-112,-237,-277v0,-164,80,-277,236,-277xm273,-62v100,0,150,-87,150,-197v0,-116,-45,-203,-150,-203v-102,0,-150,88,-150,200v0,114,47,200,150,200xm202,-707v26,-2,106,37,133,37v17,0,29,-12,37,-37r58,0v-10,69,-40,104,-89,104v-13,5,-106,-37,-134,-38v-15,0,-26,12,-33,37r-58,0v9,-55,33,-99,86,-103"},"\u00f6":{"d":"272,-539v160,0,238,112,238,281v0,162,-82,273,-237,273v-157,0,-237,-112,-237,-277v0,-164,80,-277,236,-277xm273,-62v100,0,150,-87,150,-197v0,-116,-45,-203,-150,-203v-102,0,-150,88,-150,200v0,114,47,200,150,200xm242,-604r-91,0r0,-102r91,0r0,102xm404,-604r-91,0r0,-102r91,0r0,102"},"\u00f7":{"d":"516,-216r-448,0r0,-68r448,0r0,68xm292,-484v29,0,52,23,52,52v0,28,-24,52,-52,52v-28,0,-52,-24,-52,-52v0,-29,23,-52,52,-52xm292,-120v28,0,52,24,52,52v0,29,-23,52,-52,52v-29,0,-52,-23,-52,-52v0,-28,24,-52,52,-52","w":584},"\u00f8":{"d":"36,-262v-2,-164,80,-277,236,-277v65,0,118,18,157,54r42,-49r37,31r-46,55v32,49,48,112,48,190v2,162,-82,273,-237,273v-64,0,-116,-18,-156,-54r-42,49r-37,-31r46,-55v-32,-49,-48,-111,-48,-186xm273,-62v100,-1,152,-87,150,-197v0,-47,-7,-86,-21,-118r-230,273v26,28,60,42,101,42xm273,-462v-102,1,-152,88,-150,200v0,45,7,84,21,115r230,-273v-25,-28,-59,-42,-101,-42"},"\u00f9":{"d":"256,-58v92,0,143,-79,143,-177r0,-289r83,0r0,524r-75,0r0,-81v-45,61,-82,94,-175,96v-95,2,-167,-53,-167,-143r0,-396r83,0r0,363v-1,63,43,103,108,103xm308,-581r-60,0r-149,-148r113,0"},"\u00fa":{"d":"256,-58v92,0,143,-79,143,-177r0,-289r83,0r0,524r-75,0r0,-81v-45,61,-82,94,-175,96v-95,2,-167,-53,-167,-143r0,-396r83,0r0,363v-1,63,43,103,108,103xm457,-729r-149,148r-60,0r96,-148r113,0"},"\u00fb":{"d":"256,-58v92,0,143,-79,143,-177r0,-289r83,0r0,524r-75,0r0,-81v-45,61,-82,94,-175,96v-95,2,-167,-53,-167,-143r0,-396r83,0r0,363v-1,63,43,103,108,103xm421,-580r-63,0r-81,-96r-79,96r-64,0r96,-150r95,0"},"\u00fc":{"d":"256,-58v92,0,143,-79,143,-177r0,-289r83,0r0,524r-75,0r0,-81v-45,61,-82,94,-175,96v-95,2,-167,-53,-167,-143r0,-396r83,0r0,363v-1,63,43,103,108,103xm242,-604r-91,0r0,-102r91,0r0,102xm404,-604r-91,0r0,-102r91,0r0,102"},"\u00fd":{"d":"478,-524r-233,634v-27,72,-72,108,-135,108v-21,0,-39,-4,-56,-13r0,-75v34,8,66,11,86,-6v29,-24,39,-83,57,-122r-177,-526r89,0r134,408r145,-408r90,0xm429,-729r-149,148r-60,0r96,-148r113,0","w":500},"\u00fe":{"d":"298,-539v146,1,224,128,224,286v0,149,-83,269,-224,268v-65,0,-118,-26,-161,-78r0,281r-83,0r0,-932r83,0r0,255v37,-53,91,-80,161,-80xm283,-63v96,1,152,-90,152,-192v0,-112,-51,-206,-152,-206v-97,0,-146,95,-146,203v0,104,50,194,146,195"},"\u00ff":{"d":"478,-524r-233,634v-27,72,-72,108,-135,108v-21,0,-39,-4,-56,-13r0,-75v34,8,66,11,86,-6v29,-24,39,-83,57,-122r-177,-526r89,0r134,408r145,-408r90,0xm214,-604r-91,0r0,-102r91,0r0,102xm376,-604r-91,0r0,-102r91,0r0,102","w":500},"\u0152":{"d":"341,15v-198,-1,-298,-158,-298,-371v0,-119,27,-213,81,-282v54,-69,126,-103,218,-103v81,0,142,29,183,88r0,-76r429,0r0,82r-336,0r0,238r328,0r0,82r-328,0r0,245r341,0r0,82r-434,0r0,-79v-45,63,-106,94,-184,94xm525,-187r0,-352v-39,-80,-100,-120,-183,-120v-68,0,-117,27,-154,76v-67,89,-68,352,0,441v37,48,86,75,153,75v83,0,145,-40,184,-120","w":1000},"\u0153":{"d":"473,-433v37,-60,103,-105,193,-106v104,0,183,59,212,138v14,37,21,92,21,167r-386,0v-1,101,59,171,154,172v67,0,112,-32,137,-97r84,0v-19,103,-102,175,-223,174v-88,0,-153,-34,-194,-103v-42,69,-107,103,-194,103v-157,0,-237,-111,-237,-274v0,-168,78,-279,237,-280v90,0,155,35,196,106xm277,-62v99,0,150,-87,150,-194v0,-115,-46,-206,-150,-206v-102,0,-150,91,-150,203v0,109,50,197,150,197xm809,-302v2,-90,-57,-161,-144,-160v-89,0,-146,71,-150,160r294,0","w":944},"\u0178":{"d":"661,-729r-274,443r0,286r-93,0r0,-286r-281,-443r115,0r214,355r208,-355r111,0xm306,-799r-91,0r0,-102r91,0r0,102xm468,-799r-91,0r0,-102r91,0r0,102","w":667},"\u02c6":{"d":"310,-580r-63,0r-81,-96r-79,96r-64,0r96,-150r95,0","w":333},"\u02dc":{"d":"91,-707v26,-2,106,37,133,37v17,0,29,-12,37,-37r58,0v-10,69,-40,104,-89,104v-13,5,-106,-37,-134,-38v-15,0,-26,12,-33,37r-58,0v9,-55,33,-99,86,-103","w":333},"\u2013":{"d":"555,-240r-555,0r0,-72r555,0r0,72"},"\u2014":{"d":"1000,-240r-1000,0r0,-72r1000,0r0,72","w":1000},"\u2018":{"d":"158,-477r-93,0v1,-71,-7,-153,24,-194v17,-22,39,-35,69,-38r0,38v-40,7,-47,39,-48,90r48,0r0,104","w":222},"\u2019":{"d":"157,-628v0,82,-31,126,-93,131r0,-38v41,-7,47,-38,48,-90r-48,0r0,-104r93,0r0,101","w":222},"\u201a":{"d":"158,-3v0,82,-31,126,-94,131r0,-38v35,-4,51,-38,49,-90r-48,0r0,-104r93,0r0,101","w":222},"\u201c":{"d":"141,-477r-93,0v1,-71,-7,-153,24,-194v17,-22,39,-35,69,-38r0,38v-40,7,-47,39,-48,90r48,0r0,104xm299,-477r-93,0v1,-71,-7,-153,24,-194v17,-22,39,-35,69,-38r0,38v-40,7,-47,39,-48,90r48,0r0,104","w":333},"\u201d":{"d":"142,-608v0,82,-31,126,-93,131r0,-38v41,-7,47,-38,48,-90r-48,0r0,-104r93,0r0,101xm302,-608v0,82,-31,126,-93,131r0,-38v41,-7,47,-38,48,-90r-48,0r0,-104r93,0r0,101","w":333},"\u201e":{"d":"140,-3v0,82,-31,126,-93,131r0,-38v41,-7,47,-38,48,-90r-48,0r0,-104r93,0r0,101xm300,-3v0,82,-31,126,-93,131r0,-38v41,-7,47,-38,48,-90r-48,0r0,-104r93,0r0,101","w":333},"\u2022":{"d":"175,-470v68,0,125,59,125,127v0,65,-59,123,-125,123v-68,0,-125,-58,-125,-125v0,-68,58,-125,125,-125","w":350},"\u2026":{"d":"219,0r-104,0r0,-104r104,0r0,104xm552,0r-104,0r0,-104r104,0r0,104xm885,0r-104,0r0,-104r104,0r0,104","w":1000},"\u2039":{"d":"243,-106r-152,-121r0,-89r152,-122r0,83r-106,83r106,83r0,83","w":333},"\u203a":{"d":"239,-228r-154,122r0,-83r108,-83r-108,-83r0,-83r154,121r0,89","w":333},"\u20ac":{"d":"87,-438v22,-146,108,-270,264,-271v65,0,129,22,192,67r-32,80v-60,-42,-89,-71,-167,-71v-43,0,-77,15,-104,47v-27,32,-48,81,-62,148r284,0r-23,59r-270,0v-2,19,-2,45,-1,66r246,0r-24,59r-214,0v24,127,80,191,169,191v75,0,100,-26,166,-62r0,93v-51,31,-107,47,-166,47v-142,0,-229,-90,-260,-269r-83,0r22,-59r55,0r2,-66r-79,0r22,-59r63,0"},"\u2122":{"d":"430,-729r0,51r-148,0r0,347r-65,0r0,-347r-149,0r0,-51r362,0xm932,-331r-62,0r0,-310r-121,310r-66,0r-121,-310r0,310r-63,0r0,-398r87,0r131,333r128,-333r87,0r0,398","w":1000}}});
