/*!
 * The following copyright notice may not be removed under any circumstances.
 * 
 * Copyright:
 * Copyright (URW)++, copyright 1999 by (URW)++ Design & Development; Cyrillic
 * glyphs added by Valek Filippov, copyright 2001-2002; Vietnamese characters were
 * added by Han The Thanh; copyright 2006, 2008 for TeX Gyre extensions by B.
 * Jackowski and J.M. Nowacki (on behalf of TeX users groups). This work is
 * released under the GUST Font License --  see
 * http://tug.org/fonts/licenses/GUST-FONT-LICENSE.txt for details.
 * 
 * Trademark:
 * Please refer to the Copyright section for the font trademark attribution
 * notices.
 */
Cufon.registerFont({"w":456,"face":{"font-family":"TeXGyreHerosCn","font-weight":700,"font-stretch":"condensed","units-per-em":"1000","panose-1":"0 0 8 6 0 0 0 0 0 0","ascent":"793","descent":"-207","x-height":"14","bbox":"-41 -959 820 240.016","underline-thickness":"50","underline-position":"-25","unicode-range":"U+0020-U+2122"},"glyphs":{" ":{"w":228},"!":{"d":"197,0r-120,0r0,-142r120,0r0,142xm200,-535r-33,336r-60,0r-33,-336r0,-183r126,0r0,183","w":273},"\"":{"d":"308,-447r-80,0r0,-271r80,0r0,271xm160,-447r-80,0r0,-271r80,0r0,271","w":389},"#":{"d":"441,-499r-10,90r-79,0r-14,120r79,0r-10,90r-79,0r-23,199r-77,0r23,-199r-80,0r-22,199r-77,0r22,-199r-79,0r10,-90r79,0r14,-120r-79,0r10,-90r79,0r23,-199r77,0r-23,199r80,0r22,-199r77,0r-22,199r79,0xm275,-409r-80,0r-14,120r80,0"},"$":{"d":"37,-503v-2,-120,60,-199,172,-207r0,-65r38,0r0,65v115,13,173,83,173,209r-106,0v0,-63,-13,-100,-67,-103r0,187v74,29,123,59,147,88v24,29,35,72,35,128v0,125,-66,207,-182,218r0,98r-38,0r0,-98v-135,-15,-183,-81,-184,-232r107,0v1,81,15,110,77,126r0,-210v-112,-41,-170,-73,-172,-204xm209,-431r0,-173v-46,5,-69,33,-69,82v0,46,23,76,69,91xm319,-184v0,-47,-24,-79,-72,-98r0,193v48,-6,72,-38,72,-95"},"%":{"d":"276,-521v0,126,-42,189,-126,189v-85,0,-127,-63,-127,-188v0,-127,43,-190,128,-190v83,0,125,63,125,189xm184,-428v10,-28,10,-158,0,-186v-12,-34,-58,-33,-70,0v-10,26,-11,158,0,187v13,33,58,32,70,-1xm556,-710r-326,729r-61,0r326,-729r61,0xm706,-177v0,126,-42,189,-126,189v-85,0,-127,-63,-127,-188v0,-127,43,-190,128,-190v83,0,125,63,125,189xm614,-84v10,-28,10,-158,0,-186v-12,-34,-58,-33,-70,0v-10,27,-11,159,0,187v13,33,58,32,70,-1","w":729},"&":{"d":"536,-373v-9,101,-25,146,-68,216r107,157r-139,0r-40,-61v-44,50,-82,78,-164,80v-113,1,-188,-93,-188,-209v0,-84,48,-161,126,-213v-36,-51,-54,-102,-54,-151v0,-91,65,-164,153,-164v87,0,148,75,148,164v0,67,-32,125,-97,173r83,126v17,-33,28,-73,31,-118r102,0xm264,-464v32,-29,51,-42,53,-89v1,-32,-17,-58,-48,-58v-29,0,-49,25,-48,56v0,22,14,52,43,91xm172,-254v-34,60,1,155,71,155v30,0,61,-17,94,-50r-108,-165v-29,26,-48,46,-57,60","w":592},"'":{"d":"138,-447r-81,0r0,-271r81,0r0,271","w":195},"(":{"d":"147,-262v0,206,38,309,110,469r-84,0v-87,-153,-144,-264,-144,-470v0,-206,56,-316,144,-471r84,0v-73,162,-110,262,-110,472","w":273},")":{"d":"100,-734v89,156,144,262,144,471v0,203,-55,319,-144,470r-84,0v73,-159,110,-264,110,-471v0,-207,-37,-308,-110,-470r84,0","w":273},"*":{"d":"297,-560r-86,32r56,97r-51,44r-56,-91r-57,91r-51,-44r55,-97r-85,-32r19,-73r84,34r0,-119r69,0r0,119r83,-34","w":319},"+":{"d":"422,-207r-139,0r0,139r-86,0r0,-139r-140,0r0,-86r140,0r0,-140r86,0r0,140r139,0r0,86","w":479},",":{"d":"175,-20v0,107,-41,170,-123,188r0,-53v49,-21,63,-49,69,-115r-69,0r0,-147r123,0r0,127","w":228},"-":{"d":"251,-215r-229,0r0,-130r229,0r0,130","w":273},".":{"d":"175,0r-123,0r0,-147r123,0r0,147","w":228},"\/":{"d":"255,-737r-186,756r-96,0r186,-756r96,0","w":228},"0":{"d":"430,-346v0,125,-17,217,-50,276v-33,59,-84,89,-152,89v-135,0,-202,-121,-202,-362v0,-128,16,-221,50,-279v34,-58,86,-88,155,-88v133,0,199,121,199,364xm294,-148v23,-59,23,-335,0,-394v-14,-36,-34,-56,-65,-56v-33,0,-53,20,-67,56v-21,56,-24,334,0,395v14,35,35,54,66,54v31,0,52,-19,66,-55"},"1":{"d":"310,0r-114,0r0,-489r-139,0r0,-98v98,4,153,-36,159,-123r94,0r0,710"},"2":{"d":"219,-710v120,-2,199,98,199,223v0,72,-23,133,-69,184v-4,8,-140,123,-159,145v-10,10,-17,22,-24,35r253,0r0,123r-398,0v3,-71,17,-128,41,-170v24,-42,76,-94,150,-161v54,-49,87,-78,91,-157v3,-57,-29,-104,-82,-104v-69,0,-81,52,-82,133r-111,0v-1,-153,56,-248,191,-251"},"3":{"d":"221,-710v111,0,184,81,184,194v0,63,-24,110,-71,140v59,26,89,81,89,166v0,128,-79,230,-201,229v-128,0,-195,-79,-200,-237r113,0v-1,70,21,125,83,125v57,0,88,-53,87,-115v-2,-83,-42,-101,-130,-103r0,-100v74,4,115,-24,115,-93v0,-52,-24,-94,-73,-94v-51,0,-77,39,-78,116r-107,0v7,-152,70,-228,189,-228"},"4":{"d":"431,-157r-65,0r0,157r-114,0r0,-157r-230,0r0,-120r214,-433r130,0r0,445r65,0r0,108xm255,-265r0,-309r-148,309r148,0"},"5":{"d":"244,-465v112,0,179,107,179,228v0,142,-74,256,-207,256v-120,0,-188,-86,-194,-209r115,0v7,65,33,97,80,97v60,-1,88,-64,88,-132v0,-69,-27,-127,-88,-128v-33,0,-58,17,-75,51r-102,-6r40,-390r320,0r0,118r-237,0r-21,154v33,-26,67,-39,102,-39"},"6":{"d":"247,-459v114,0,179,102,179,225v0,136,-70,252,-195,253v-137,0,-206,-120,-206,-360v0,-124,19,-216,55,-277v36,-61,88,-92,155,-92v119,0,162,65,179,180r-114,0v-5,-45,-27,-68,-66,-68v-31,0,-53,15,-68,46v-15,31,-24,82,-29,155v27,-40,50,-62,110,-62xm230,-93v58,0,81,-64,81,-133v0,-64,-27,-121,-84,-121v-59,0,-87,56,-87,122v0,67,30,132,90,132"},"7":{"d":"433,-591v-128,173,-199,370,-213,591r-118,0v12,-209,81,-400,208,-575r-288,0r0,-123r411,0r0,107"},"8":{"d":"343,-382v59,41,86,76,87,168v3,131,-79,233,-204,233v-126,0,-202,-92,-200,-222v1,-91,30,-136,89,-174v-47,-32,-70,-66,-71,-139v-2,-112,73,-194,183,-194v107,0,183,79,183,187v0,63,-22,110,-67,141xm229,-422v45,0,71,-39,71,-88v0,-47,-25,-88,-69,-88v-48,0,-77,37,-77,86v0,48,30,90,75,90xm228,-93v54,0,84,-54,84,-113v0,-59,-30,-110,-84,-110v-56,0,-84,49,-84,110v0,62,28,113,84,113"},"9":{"d":"25,-462v0,-140,68,-247,198,-248v137,0,205,119,205,356v0,119,-18,211,-54,276v-36,65,-90,97,-159,97v-107,-1,-168,-77,-178,-183r113,0v9,43,22,71,66,71v29,0,52,-15,69,-46v17,-31,26,-83,29,-157v-25,42,-63,63,-112,63v-114,-1,-177,-105,-177,-229xm223,-345v60,0,87,-56,87,-123v0,-67,-26,-127,-85,-127v-61,0,-86,53,-85,121v0,86,28,129,83,129"},":":{"d":"198,0r-123,0r0,-147r123,0r0,147xm198,-365r-123,0r0,-147r123,0r0,147","w":273},";":{"d":"198,-147v-1,97,8,200,-34,257v-24,33,-52,53,-89,58r0,-53v49,-21,63,-49,69,-115r-69,0r0,-147r123,0xm198,-365r-123,0r0,-147r123,0r0,147","w":273},"<":{"d":"365,97r-283,-318r0,-58r283,-318r0,130r-193,217r193,217r0,130","w":479},"=":{"d":"422,-297r-365,0r0,-86r365,0r0,86xm422,-117r-365,0r0,-86r365,0r0,86","w":479},">":{"d":"365,-221r-283,318r0,-130r193,-217r-193,-217r0,-130r283,318r0,58","w":479},"?":{"d":"248,-727v124,-2,211,84,208,208v-2,101,-35,129,-99,189v-40,38,-49,50,-51,122r-108,0v2,-119,18,-141,84,-203v32,-30,49,-49,51,-101v1,-56,-28,-97,-81,-97v-56,1,-93,54,-87,116r-116,0v-2,-140,69,-233,199,-234xm315,0r-120,0r0,-142r120,0r0,142","w":501},"@":{"d":"414,-737v163,0,288,145,288,312v0,77,-22,145,-66,202v-44,57,-92,86,-145,86v-27,0,-42,-19,-45,-56v-30,37,-59,56,-88,56v-78,0,-131,-93,-131,-179v0,-116,71,-242,175,-242v55,0,75,25,99,65r11,-53r72,0r-48,255v-3,16,-5,30,-5,43v0,13,4,19,13,19v25,0,46,-18,64,-53v18,-35,27,-76,27,-124v3,-141,-85,-252,-221,-251v-148,0,-235,140,-235,300v0,161,93,297,244,296v63,0,121,-27,172,-81r73,0v-36,58,-74,99,-114,124v-40,25,-86,37,-136,37v-187,3,-321,-181,-321,-377v0,-194,134,-379,317,-379xm379,-237v56,0,98,-75,98,-138v0,-44,-25,-86,-65,-86v-57,0,-97,74,-97,137v0,46,22,86,64,87","w":800},"A":{"d":"576,0r-134,0r-38,-148r-217,0r-41,148r-130,0r210,-718r142,0xm370,-271r-74,-288r-76,288r150,0","w":592},"B":{"d":"530,-531v-1,75,-23,114,-72,144v61,33,91,90,91,171v0,93,-49,177,-121,202v-26,9,-66,14,-117,14r-249,0r0,-718r286,0v113,-1,183,73,182,187xm426,-225v0,-57,-33,-90,-89,-90r-157,0r0,192r151,0v63,0,95,-34,95,-102xm324,-437v55,0,88,-28,88,-82v0,-51,-30,-76,-91,-76r-141,0r0,158r144,0","w":592},"C":{"d":"308,-111v84,0,111,-54,130,-135r123,0v-33,177,-118,265,-255,265v-83,0,-148,-35,-198,-101v-95,-124,-93,-428,2,-552v51,-67,115,-103,199,-103v147,1,239,111,252,254r-123,0v-18,-74,-46,-124,-126,-124v-47,0,-83,24,-111,67v-51,79,-52,284,-1,364v27,42,62,65,108,65","w":592},"D":{"d":"499,-628v85,117,79,402,-1,524v-45,68,-103,104,-181,104r-255,0r0,-718r260,0v76,0,134,31,177,90xm437,-370v0,-150,-46,-225,-137,-225r-118,0r0,472r120,0v43,0,76,-22,100,-65v24,-43,35,-104,35,-182","w":592},"E":{"d":"509,0r-447,0r0,-718r433,0r0,127r-313,0r0,151r288,0r0,127r-288,0r0,186r327,0r0,127","w":547},"F":{"d":"481,-591r-296,0r0,162r259,0r0,127r-259,0r0,302r-123,0r0,-718r419,0r0,127","w":501},"G":{"d":"459,-495v-9,-63,-63,-119,-132,-119v-51,0,-90,24,-121,70v-56,82,-57,289,-2,372v46,69,154,87,215,28v25,-24,44,-64,57,-121r-138,0r0,-122r247,0r0,387r-82,0r-13,-90v-52,69,-83,109,-184,109v-81,0,-144,-36,-196,-103v-99,-129,-96,-425,4,-550v54,-67,122,-103,210,-103v150,1,242,101,259,242r-124,0","w":638},"H":{"d":"534,0r-123,0r0,-323r-230,0r0,323r-123,0r0,-718r123,0r0,272r230,0r0,-272r123,0r0,718","w":592},"I":{"d":"175,0r-123,0r0,-718r123,0r0,718","w":228},"J":{"d":"205,-104v60,0,69,-36,69,-104r0,-510r123,0r0,510v0,151,-63,226,-190,226v-111,0,-170,-61,-183,-162v-4,-28,-6,-70,-6,-127r115,0v0,68,5,113,14,135v9,22,29,32,58,32"},"K":{"d":"592,0r-158,0r-183,-315r-57,72r0,243r-123,0r0,-718r123,0r0,292r225,-292r159,0r-240,294","w":592},"L":{"d":"478,0r-416,0r0,-718r123,0r0,588r293,0r0,130","w":501},"M":{"d":"627,0r-114,0r0,-609r-112,609r-121,0r-109,-609r0,609r-114,0r0,-718r179,0r108,570r106,-570r177,0r0,718","w":683},"N":{"d":"536,0r-122,0r-243,-515r0,515r-114,0r0,-718r129,0r236,504r0,-504r114,0r0,718","w":592},"O":{"d":"525,-636v101,123,100,432,0,554v-54,65,-120,101,-206,101v-87,0,-154,-35,-207,-101v-100,-123,-99,-434,2,-555v54,-65,121,-100,209,-100v83,0,148,35,202,101xm436,-176v52,-83,54,-281,0,-366v-56,-88,-178,-87,-234,-2v-54,83,-52,287,0,369v55,87,180,87,234,-1","w":638},"P":{"d":"331,-718v117,0,183,99,183,223v0,131,-67,234,-188,235r-141,0r0,260r-123,0r0,-718r269,0xm391,-492v-1,-75,-31,-102,-108,-103r-98,0r0,212r114,0v61,0,92,-36,92,-109","w":547},"Q":{"d":"604,-29r-65,81r-69,-81v-120,81,-273,53,-357,-53v-98,-124,-100,-432,0,-554v54,-65,120,-101,206,-101v86,0,153,35,206,101v95,119,103,394,15,533xm452,-205v58,-148,27,-405,-133,-405v-49,0,-87,23,-117,67v-58,82,-54,284,0,367v41,64,112,88,183,49r-59,-68r63,-81","w":638},"R":{"d":"454,-344v77,46,75,81,75,216v0,41,2,68,5,81v3,13,10,23,21,28r0,19r-136,0v-19,-61,-6,-182,-24,-238v-14,-42,-30,-42,-86,-42r-127,0r0,280r-120,0r0,-718r297,0v115,-1,186,85,186,204v0,85,-30,141,-91,170xm327,-402v66,0,95,-30,95,-96v1,-60,-29,-97,-86,-97r-154,0r0,193r145,0","w":592},"S":{"d":"261,-614v-60,-1,-105,30,-105,87v0,48,21,62,62,75v89,29,214,51,262,113v23,30,36,72,36,125v1,144,-94,234,-239,233v-155,-1,-241,-87,-245,-240r118,0v5,78,47,117,128,117v69,1,120,-28,120,-92v0,-65,-42,-69,-107,-91r-63,-18v-76,-21,-126,-47,-150,-76v-24,-29,-37,-73,-37,-131v-1,-139,85,-226,224,-225v147,1,224,88,232,232r-118,0v-9,-73,-40,-108,-118,-109","w":547},"T":{"d":"490,-591r-178,0r0,591r-123,0r0,-591r-178,0r0,-127r479,0r0,127","w":501},"U":{"d":"295,-108v79,0,115,-53,114,-137r0,-473r125,0r0,467v1,168,-77,270,-239,270v-155,0,-236,-102,-236,-261r0,-476r125,0r0,466v-1,84,34,144,111,144","w":592},"V":{"d":"531,-718r-200,718r-117,0r-198,-718r132,0r127,548r128,-548r128,0","w":547},"W":{"d":"762,-718r-166,718r-118,0r-92,-565r-67,423r-25,142r-114,0r-167,-718r131,0v53,279,85,456,95,531r82,-531r131,0r88,531r97,-531r125,0","w":774},"X":{"d":"535,0r-150,0r-112,-245r-118,245r-144,0r190,-367r-179,-351r146,0r105,232r108,-232r142,0r-180,345","w":547},"Y":{"d":"535,-718r-197,449r0,269r-123,0r0,-271r-203,-447r145,0r122,312r117,-312r139,0","w":547},"Z":{"d":"481,0r-461,0r0,-127r305,-464r-297,0r0,-127r451,0r0,118r-309,473r311,0r0,127","w":501},"[":{"d":"253,196r-201,0r0,-918r201,0r0,97r-101,0r0,724r101,0r0,97","w":273},"\\":{"d":"255,19r-96,0r-186,-756r96,0","w":228},"]":{"d":"221,196r-201,0r0,-97r101,0r0,-724r-101,0r0,-97r201,0r0,918","w":273},"^":{"d":"428,-323r-90,0r-99,-263r-99,263r-89,0r148,-375r81,0","w":479},"_":{"d":"456,125r-456,0r0,-50r456,0r0,50"},"`":{"d":"178,-602r-83,0r-120,-146r126,0","w":273},"a":{"d":"229,-546v107,-1,178,52,178,154r0,288v0,47,8,74,25,83r0,21r-123,0v-5,-18,-8,-39,-11,-63v-40,48,-65,76,-138,77v-87,2,-136,-65,-136,-156v0,-94,48,-155,128,-169r103,-19v27,-5,40,-19,40,-44v0,-40,-24,-60,-71,-60v-54,1,-69,23,-76,74r-110,0v13,-127,59,-184,191,-186xm194,-86v55,1,101,-49,101,-105r0,-68v-17,23,-118,30,-139,56v-11,13,-17,29,-17,52v-1,37,20,65,55,65"},"b":{"d":"164,-460v29,-52,58,-86,127,-86v55,0,98,26,133,75v67,94,64,314,0,407v-35,51,-78,78,-134,78v-58,0,-101,-28,-128,-84r0,70r-112,0r0,-718r114,0r0,258xm260,-101v69,0,96,-81,96,-163v0,-84,-26,-160,-97,-160v-76,0,-99,74,-99,163v0,88,25,160,100,160","w":501},"c":{"d":"28,-259v0,-160,63,-287,207,-287v123,0,184,82,195,204r-116,0v-10,-51,-23,-86,-74,-86v-63,0,-94,54,-94,163v0,109,29,164,87,164v49,-1,76,-44,80,-93r116,0v-15,122,-74,208,-200,208v-143,0,-201,-116,-201,-273"},"d":{"d":"211,-546v69,0,96,34,127,86r0,-258r114,0r0,718r-112,0r0,-70v-27,56,-70,84,-128,84v-56,0,-99,-27,-134,-78v-64,-93,-67,-313,0,-407v35,-49,78,-75,133,-75xm242,-101v75,0,101,-73,100,-159v0,-87,-23,-164,-96,-164v-73,0,-100,74,-100,160v0,84,26,163,96,163","w":501},"e":{"d":"226,-546v158,0,213,140,207,319r-299,0v7,78,26,128,100,128v39,0,65,-19,76,-58r118,0v-33,114,-98,171,-196,171v-149,0,-213,-119,-213,-282v0,-156,65,-278,207,-278xm315,-319v-8,-75,-38,-112,-90,-112v-62,0,-78,47,-88,112r178,0"},"f":{"d":"226,-612v-50,-4,-38,31,-41,80r76,0r0,100r-76,0r0,432r-114,0r0,-432r-63,0r0,-100r63,0r0,-43v0,-101,37,-151,134,-152v19,0,37,1,54,2r0,113r-33,0","w":273},"g":{"d":"215,-546v72,0,102,38,128,96r0,-82r110,0r0,504v0,166,-59,245,-213,245v-117,0,-183,-53,-198,-160r125,0v7,39,29,53,76,53v73,0,95,-42,95,-121r0,-69v-27,54,-48,83,-118,83v-57,0,-101,-25,-136,-73v-66,-90,-66,-309,-1,-401v35,-49,77,-75,132,-75xm243,-115v71,0,96,-70,96,-152v0,-79,-29,-157,-96,-157v-68,0,-92,76,-92,157v0,80,24,152,92,152","w":501},"h":{"d":"298,-546v95,0,150,78,150,178r0,368r-114,0r0,-323v-1,-66,-15,-105,-74,-105v-62,0,-93,55,-93,123r0,305r-114,0r0,-718r114,0r0,259v23,-58,67,-87,131,-87","w":501},"i":{"d":"171,0r-114,0r0,-532r114,0r0,532xm172,-618r-114,0r0,-115r114,0r0,115","w":228},"j":{"d":"171,56v-2,115,-27,156,-139,158r-30,0r0,-112v38,3,55,-6,55,-49r0,-585r114,0r0,588xm172,-618r-114,0r0,-115r114,0r0,115","w":228},"k":{"d":"461,0r-138,0r-104,-228r-48,60r0,168r-114,0r0,-718r114,0r0,388r144,-202r141,0r-154,206"},"l":{"d":"171,0r-114,0r0,-718r114,0r0,718","w":228},"m":{"d":"530,-546v92,-2,147,80,147,178r0,368r-114,0r0,-323v0,-70,-22,-105,-65,-105v-51,0,-77,36,-77,109r0,319r-114,0r0,-320v-1,-70,-8,-108,-68,-108v-49,0,-73,35,-73,104r0,324r-114,0r0,-532r110,0r0,81v24,-59,56,-95,128,-95v70,0,87,30,118,85v30,-52,54,-84,122,-85","w":729},"n":{"d":"297,-546v96,0,151,76,151,178r0,368r-114,0r0,-323v-1,-66,-15,-105,-74,-105v-62,0,-93,55,-93,123r0,305r-114,0r0,-532r110,0r0,81v30,-63,75,-95,134,-95","w":501},"o":{"d":"254,-546v143,0,220,127,220,281v0,155,-79,279,-223,279v-144,0,-223,-124,-223,-279v0,-158,78,-281,226,-281xm251,-104v79,0,105,-71,105,-162v0,-90,-26,-162,-104,-162v-71,0,-106,54,-106,162v0,91,26,162,105,162","w":501},"p":{"d":"161,-452v30,-57,56,-94,129,-94v55,0,99,26,134,75v67,94,64,314,0,407v-35,51,-78,78,-135,78v-70,0,-96,-32,-124,-85r0,278r-114,0r0,-739r110,0r0,80xm260,-101v69,0,96,-81,96,-164v0,-84,-26,-159,-98,-159v-65,0,-97,55,-97,164v0,88,24,159,99,159","w":501},"q":{"d":"218,-546v71,0,99,38,125,96r0,-82r110,0r0,739r-114,0r0,-276v-27,52,-55,83,-125,83v-56,0,-100,-27,-135,-76v-68,-95,-66,-310,1,-405v36,-52,81,-79,138,-79xm243,-104v73,0,98,-73,98,-159v0,-83,-27,-161,-98,-161v-73,0,-98,78,-97,166v0,103,32,154,97,154","w":501},"r":{"d":"162,-437v31,-66,46,-104,121,-109v7,0,14,1,23,2r0,142v-90,-12,-140,29,-140,125r0,277r-114,0r0,-532r110,0r0,95","w":319},"s":{"d":"300,-370v-9,-50,-23,-68,-78,-69v-46,0,-69,17,-69,50v0,27,31,47,94,58v63,12,109,32,137,59v28,27,42,63,42,106v1,114,-78,180,-194,180v-127,0,-196,-61,-207,-184r118,0v2,51,33,77,93,77v41,1,74,-18,75,-55v0,-27,-32,-46,-95,-59v-104,-21,-172,-55,-175,-162v-3,-109,71,-178,181,-177v126,2,176,56,191,176r-113,0"},"t":{"d":"181,-143v1,39,7,42,47,43v8,0,16,-1,25,-2r0,106r-70,2v-85,-1,-115,-30,-116,-115r0,-323r-59,0r0,-100r59,0r0,-144r114,0r0,144r72,0r0,100r-72,0r0,289","w":273},"u":{"d":"242,-104v62,-1,92,-54,91,-121r0,-307r114,0r0,532r-110,0r0,-78v-29,61,-75,92,-136,92v-103,-2,-147,-83,-147,-196r0,-350r114,0r0,330v0,65,25,98,74,98","w":501},"v":{"d":"445,-532r-157,532r-121,0r-156,-532r128,0r91,396r93,-396r122,0"},"w":{"d":"631,-532r-126,532r-118,0r-69,-393r-69,393r-118,0r-123,-532r122,0r69,387r63,-387r115,0r67,387r69,-387r118,0","w":638},"x":{"d":"444,0r-142,0r-76,-160r-75,160r-139,0r149,-271r-143,-261r139,0r74,155r73,-155r135,0r-144,261"},"y":{"d":"442,-532r-150,523v-29,103,-53,164,-68,186v-24,36,-91,40,-153,35r0,-112v69,8,89,-11,98,-78r-161,-554r128,0r94,396r90,-396r122,0"},"z":{"d":"394,0r-378,0r0,-109r225,-311r-209,0r0,-112r354,0r0,115r-221,302r229,0r0,115","w":410},"{":{"d":"118,-263v55,9,97,50,98,109r0,196v0,44,15,66,46,66r37,0r0,88r-68,0v-69,1,-115,-64,-115,-137r0,-200v0,-47,-26,-72,-77,-76r0,-92v46,-3,77,-28,77,-76r0,-200v-2,-73,46,-138,115,-137r68,0r0,88r-37,0v-31,0,-46,22,-46,66r0,196v-1,60,-43,99,-98,109","w":319},"|":{"d":"158,196r-86,0r0,-918r86,0r0,918","w":230},"}":{"d":"203,-385v0,48,31,73,77,76r0,92v-51,4,-77,29,-77,76r0,200v2,72,-47,138,-115,137r-68,0r0,-88r37,0v31,0,46,-22,46,-66r0,-196v1,-59,43,-100,98,-109v-55,-10,-97,-49,-98,-109r0,-196v0,-44,-15,-66,-46,-66r-37,0r0,-88r68,0v68,-1,115,65,115,137r0,200","w":319},"~":{"d":"157,-336v18,-2,142,56,160,51v23,0,42,-12,56,-36r56,54v-30,55,-44,87,-107,94v-17,2,-143,-56,-160,-51v-23,0,-42,12,-56,37r-56,-55v30,-55,44,-87,107,-94","w":479},"\u00a0":{"w":228},"\u00a1":{"d":"196,-390r-120,0r0,-142r120,0r0,142xm199,186r-126,0r0,-183r33,-336r60,0r33,336r0,183","w":273},"\u00a2":{"d":"28,-257v-2,-177,71,-307,246,-286r20,-85r42,0r-22,98v71,31,109,94,116,188r-116,0v-6,-32,-15,-55,-28,-68r-72,305v56,18,97,-35,99,-89r116,0v-15,134,-92,226,-241,204r-25,108r-43,0r28,-120v-84,-46,-120,-124,-120,-255xm247,-428v-82,-2,-100,73,-101,163v0,62,10,107,31,136"},"\u00a3":{"d":"227,-127v12,-3,93,26,101,25v23,0,51,-12,82,-36r34,109v-79,53,-128,58,-224,19v-65,-27,-93,-11,-149,21r-45,-97v42,-27,91,-88,91,-146v0,-25,-6,-55,-18,-89r-76,0r0,-60r48,0v-23,-58,-34,-103,-34,-135v-2,-114,83,-204,196,-202v134,2,193,90,198,231r-107,0v-14,-79,-17,-115,-88,-119v-50,-2,-85,41,-84,93v0,15,13,59,40,132r117,0r0,60r-98,0v15,115,-20,159,-84,223v41,-19,75,-29,100,-29"},"\u00a4":{"d":"388,-364v37,59,37,137,0,196r14,13r-61,61r-13,-14v-59,37,-137,37,-196,0r-13,14r-61,-61r14,-13v-37,-59,-37,-137,0,-196r-14,-13r61,-61r13,14v59,-37,137,-37,196,0r13,-14r61,61xm230,-166v53,0,100,-47,100,-100v0,-53,-47,-100,-100,-100v-53,0,-100,47,-100,100v0,53,47,100,100,100"},"\u00a5":{"d":"463,-698r-123,293r110,0r0,60r-136,0r-31,74r167,0r0,60r-168,0r0,211r-103,0r0,-211r-166,0r0,-60r166,0r-33,-74r-133,0r0,-60r107,0r-127,-293r123,0r117,294r113,-294r117,0"},"\u00a6":{"d":"158,-355r-86,0r0,-367r86,0r0,367xm158,196r-86,0r0,-367r86,0r0,367","w":230},"\u00a7":{"d":"226,-620v-34,-1,-61,24,-60,57v0,21,10,38,31,51r133,81v65,41,98,92,98,153v0,62,-26,110,-78,144v34,37,51,80,51,131v2,106,-74,189,-179,187v-109,-1,-162,-78,-170,-187r108,0v6,53,29,80,70,80v52,0,76,-65,50,-107v-7,-10,-19,-20,-37,-31r-126,-78v-57,-37,-89,-71,-89,-155v0,-74,28,-100,76,-138v-28,-35,-42,-74,-42,-117v-2,-99,70,-178,167,-178v99,0,154,61,164,183r-104,0v-5,-51,-26,-76,-63,-76xm291,-179v50,-37,45,-95,-11,-130r-120,-74v-23,12,-35,32,-35,61v0,23,13,42,38,59"},"\u00a8":{"d":"102,-618r-96,0r0,-115r96,0r0,115xm267,-618r-96,0r0,-115r96,0r0,115","w":273},"\u00a9":{"d":"302,-677v168,0,282,175,282,348v0,174,-114,348,-282,348v-168,0,-282,-175,-282,-348v0,-174,114,-348,282,-348xm302,-37v139,0,226,-148,226,-292v0,-144,-87,-292,-226,-292v-139,0,-226,148,-226,292v0,144,87,292,226,292xm230,-328v0,64,21,120,77,120v35,0,58,-23,68,-70r83,0v-19,100,-70,150,-152,150v-106,-1,-160,-86,-160,-200v0,-114,55,-202,161,-203v86,0,146,60,150,144r-82,0v-10,-43,-32,-64,-66,-64v-58,0,-79,56,-79,123","w":604},"\u00aa":{"d":"152,-737v68,-1,115,30,116,93r0,173v0,28,6,44,17,49r0,13r-80,0v-3,-8,-5,-21,-7,-38v-26,31,-56,46,-90,46v-55,0,-90,-37,-90,-93v0,-56,35,-96,84,-104r68,-11v17,-3,26,-10,26,-23v0,-22,-15,-33,-46,-33v-33,0,-44,11,-50,40r-72,0v11,-77,40,-111,124,-112xm130,-463v36,1,67,-27,66,-62r0,-40v-29,17,-101,16,-101,65v0,25,12,37,35,37xm274,-276r-248,0r0,-80r248,0r0,80","w":303},"\u00ab":{"d":"209,-76r-137,-144r0,-120r137,-144r0,116r-82,88r82,88r0,116xm384,-76r-137,-144r0,-120r137,-144r0,116r-82,88r82,88r0,116"},"\u00ac":{"d":"422,-383r0,223r-86,0r0,-137r-279,0r0,-86r365,0","w":479},"\u00ad":{"d":"251,-215r-229,0r0,-130r229,0r0,130","w":273},"\u00ae":{"d":"302,-677v168,0,282,175,282,348v0,174,-114,348,-282,348v-168,0,-282,-175,-282,-348v0,-174,114,-348,282,-348xm302,-37v139,0,226,-148,226,-292v0,-144,-87,-292,-226,-292v-139,0,-226,148,-226,292v0,144,87,292,226,292xm434,-210v1,34,-5,43,14,51r0,21r-88,0v-7,-27,-10,-54,-10,-81v-2,-52,-1,-63,-48,-63r-65,0r0,144r-81,0r0,-383r175,0v67,-1,113,45,112,112v0,41,-15,70,-44,87v34,23,33,47,35,112xm360,-401v0,-29,-14,-44,-42,-44r-81,0r0,87r76,0v31,0,47,-14,47,-43","w":604},"\u00af":{"d":"278,-639r-283,0r0,-73r283,0r0,73","w":273},"\u00b0":{"d":"165,-712v65,0,116,73,116,143v0,71,-50,143,-117,143v-67,0,-117,-72,-117,-143v0,-72,50,-143,118,-143xm164,-483v40,0,71,-44,71,-86v0,-42,-31,-86,-70,-86v-41,0,-72,42,-72,86v0,43,31,86,71,86","w":328},"\u00b1":{"d":"422,-293r-139,0r0,130r-86,0r0,-130r-140,0r0,-86r140,0r0,-140r86,0r0,140r139,0r0,86xm422,0r-365,0r0,-86r365,0r0,86","w":479},"\u00b2":{"d":"136,-722v78,-1,131,65,129,146v0,35,-6,63,-18,82v-12,19,-39,45,-80,78v-29,23,-47,40,-54,51r153,0r0,82r-259,0v10,-114,42,-132,121,-199v37,-33,56,-48,59,-104v1,-29,-23,-59,-50,-58v-44,2,-51,35,-54,86r-72,0v4,-109,46,-164,125,-164","w":273},"\u00b3":{"d":"137,-722v71,-1,120,47,119,117v0,39,-16,68,-47,85v39,16,58,50,58,102v0,82,-52,149,-131,147v-92,-2,-123,-56,-129,-154r73,0v1,53,19,79,54,79v35,0,53,-24,53,-71v0,-52,-24,-61,-81,-62r0,-64v46,1,73,-8,72,-52v0,-35,-15,-52,-45,-52v-32,0,-49,21,-50,62r-69,0v0,-86,42,-136,123,-137","w":273},"\u00b4":{"d":"298,-748r-120,146r-83,0r77,-146r126,0","w":273},"\u00b5":{"d":"242,-104v62,-1,92,-54,91,-121r0,-307r114,0r0,532r-110,0r0,-78v-29,61,-65,92,-109,92v-25,0,-45,-9,-60,-26r0,219r-114,0r0,-739r114,0r0,330v0,65,25,98,74,98","w":501},"\u00b6":{"d":"-7,-523v1,-125,71,-177,200,-177r249,0r0,891r-92,0r0,-806r-83,0r0,806r-92,0r0,-538v-121,-6,-182,-65,-182,-176"},"\u00b7":{"d":"114,-312v34,0,62,28,62,62v0,34,-28,62,-62,62v-34,0,-62,-28,-62,-62v0,-34,28,-62,62,-62","w":228},"\u00b8":{"d":"109,57v58,-7,92,27,92,78v1,59,-44,106,-104,105v-24,0,-55,-8,-92,-25r18,-48v30,11,51,16,62,16v46,4,53,-80,7,-81v-7,0,-17,3,-32,8r-17,-20r45,-92r48,0","w":273},"\u00b9":{"d":"194,-283r-83,0r0,-291r-90,0r0,-62v63,3,99,-21,103,-74r70,0r0,427","w":273},"\u00ba":{"d":"152,-737v87,0,143,76,143,168v0,92,-57,168,-145,168v-90,0,-145,-74,-145,-168v0,-95,56,-168,147,-168xm150,-473v87,1,87,-192,1,-192v-45,0,-66,46,-66,96v0,50,21,96,65,96xm272,-276r-245,0r0,-80r245,0r0,80","w":299},"\u00bb":{"d":"384,-220r-137,144r0,-116r82,-88r-82,-88r0,-116r137,144r0,120xm209,-220r-137,144r0,-116r82,-88r-82,-88r0,-116r137,144r0,120"},"\u00bc":{"d":"628,-90r-41,0r0,90r-78,0r0,-90r-150,0r0,-73r139,-261r89,0r0,266r41,0r0,68xm526,-710r-350,735r-65,0r351,-735r64,0xm194,-283r-83,0r0,-291r-90,0r0,-62v63,3,99,-21,103,-74r70,0r0,427xm514,-157r0,-186r-96,186r96,0","w":684},"\u00bd":{"d":"526,-710r-350,735r-65,0r351,-735r64,0xm194,-283r-83,0r0,-291r-90,0r0,-62v63,3,99,-21,103,-74r70,0r0,427xm521,-439v78,-2,131,65,129,146v0,35,-8,62,-18,83v-13,27,-112,96,-134,128r153,0r0,82r-258,0v2,-44,11,-79,27,-105v16,-26,47,-56,93,-94v38,-32,56,-48,59,-104v1,-30,-21,-59,-50,-58v-33,0,-51,29,-53,86r-72,0v0,-97,38,-162,124,-164","w":684},"\u00be":{"d":"655,-90r-41,0r0,90r-78,0r0,-90r-150,0r0,-73r139,-261r89,0r0,266r41,0r0,68xm562,-710r-350,735r-65,0r351,-735r64,0xm142,-722v71,0,121,47,120,117v0,39,-16,68,-47,85v39,16,59,50,59,102v2,82,-52,148,-132,147v-81,0,-124,-51,-129,-154r74,0v-6,42,15,79,54,79v35,0,53,-24,53,-71v0,-52,-25,-61,-82,-62r0,-64v46,1,73,-8,72,-52v0,-35,-15,-52,-45,-52v-32,0,-49,21,-50,62r-70,0v5,-91,46,-137,123,-137xm538,-158r0,-181r-94,181r94,0","w":684},"\u00bf":{"d":"249,77v56,-1,93,-54,87,-116r116,0v2,140,-69,233,-199,234v-124,2,-211,-84,-208,-208v2,-101,35,-129,99,-189v40,-38,49,-50,51,-122r108,0v-2,119,-18,141,-84,203v-32,30,-49,49,-51,101v-1,56,28,97,81,97xm306,-390r-120,0r0,-142r120,0r0,142","w":501},"\u00c0":{"d":"576,0r-134,0r-38,-148r-217,0r-41,148r-130,0r210,-718r142,0xm370,-271r-74,-288r-76,288r150,0xm337,-788r-78,0r-125,-126r131,0","w":592},"\u00c1":{"d":"576,0r-134,0r-38,-148r-217,0r-41,148r-130,0r210,-718r142,0xm370,-271r-74,-288r-76,288r150,0xm461,-914r-125,126r-78,0r72,-126r131,0","w":592},"\u00c2":{"d":"576,0r-134,0r-38,-148r-217,0r-41,148r-130,0r210,-718r142,0xm370,-271r-74,-288r-76,288r150,0xm451,-788r-93,0r-62,-62r-61,62r-93,0r103,-126r103,0","w":592},"\u00c3":{"d":"576,0r-134,0r-38,-148r-217,0r-41,148r-130,0r210,-718r142,0xm370,-271r-74,-288r-76,288r150,0xm360,-795v-7,3,-116,-39,-123,-36v-19,0,-32,14,-38,43r-52,0v14,-82,47,-123,99,-123v4,0,23,6,56,18v33,12,51,18,54,18v19,0,32,-13,39,-40r53,0v-13,80,-43,120,-88,120","w":592},"\u00c4":{"d":"576,0r-134,0r-38,-148r-217,0r-41,148r-130,0r210,-718r142,0xm370,-271r-74,-288r-76,288r150,0xm263,-794r-96,0r0,-115r96,0r0,115xm428,-794r-96,0r0,-115r96,0r0,115","w":592},"\u00c5":{"d":"576,0r-134,0r-38,-148r-217,0r-41,148r-130,0r210,-718r142,0xm370,-271r-74,-288r-76,288r150,0xm298,-959v51,0,104,40,104,89v0,48,-53,88,-104,88v-52,0,-104,-40,-104,-90v0,-48,54,-87,104,-87xm298,-828v26,0,52,-18,52,-42v0,-25,-25,-43,-52,-43v-25,0,-52,18,-52,42v0,25,25,43,52,43","w":592},"\u00c6":{"d":"782,0r-430,0r0,-153r-176,0r-43,153r-129,0r215,-718r557,0r0,127r-304,0r0,151r274,0r0,127r-274,0r0,186r310,0r0,127xm352,-271r0,-320r-53,0r-91,320r144,0","w":820},"\u00c7":{"d":"308,-111v84,0,111,-54,130,-135r123,0v-32,168,-110,256,-234,264r-18,39v58,-7,92,27,92,78v1,59,-44,106,-104,105v-24,0,-55,-8,-92,-25r18,-48v30,11,51,16,62,16v46,4,53,-80,7,-81v-7,0,-17,3,-32,8r-17,-20r35,-72v-165,-18,-242,-177,-242,-375v0,-117,25,-209,74,-277v49,-68,115,-103,199,-103v147,1,239,111,252,254r-123,0v-18,-74,-46,-124,-126,-124v-47,0,-83,24,-111,67v-51,79,-52,284,-1,364v27,42,62,65,108,65","w":592},"\u00c8":{"d":"509,0r-447,0r0,-718r433,0r0,127r-313,0r0,151r288,0r0,127r-288,0r0,186r327,0r0,127xm319,-788r-78,0r-125,-126r131,0","w":547},"\u00c9":{"d":"509,0r-447,0r0,-718r433,0r0,127r-313,0r0,151r288,0r0,127r-288,0r0,186r327,0r0,127xm443,-914r-125,126r-78,0r72,-126r131,0","w":547},"\u00ca":{"d":"509,0r-447,0r0,-718r433,0r0,127r-313,0r0,151r288,0r0,127r-288,0r0,186r327,0r0,127xm433,-788r-93,0r-62,-62r-61,62r-93,0r103,-126r103,0","w":547},"\u00cb":{"d":"509,0r-447,0r0,-718r433,0r0,127r-313,0r0,151r288,0r0,127r-288,0r0,186r327,0r0,127xm245,-794r-96,0r0,-115r96,0r0,115xm410,-794r-96,0r0,-115r96,0r0,115","w":547},"\u00cc":{"d":"175,0r-123,0r0,-718r123,0r0,718xm175,-788r-78,0r-125,-126r131,0","w":228},"\u00cd":{"d":"175,0r-123,0r0,-718r123,0r0,718xm256,-914r-125,126r-78,0r72,-126r131,0","w":228},"\u00ce":{"d":"175,0r-123,0r0,-718r123,0r0,718xm268,-788r-93,0r-62,-62r-61,62r-93,0r103,-126r103,0","w":228},"\u00cf":{"d":"175,0r-123,0r0,-718r123,0r0,718xm80,-794r-96,0r0,-115r96,0r0,115xm245,-794r-96,0r0,-115r96,0r0,115","w":228},"\u00d0":{"d":"499,-628v85,116,79,402,0,524v-44,68,-103,104,-182,104r-255,0r0,-317r-66,0r0,-123r66,0r0,-278r260,0v76,0,134,31,177,90xm437,-369v0,-151,-45,-226,-136,-226r-119,0r0,155r137,0r0,123r-137,0r0,194r121,0v42,0,75,-22,99,-65v24,-43,35,-104,35,-181","w":592},"\u00d1":{"d":"536,0r-122,0r-243,-515r0,515r-114,0r0,-718r129,0r236,504r0,-504r114,0r0,718xm360,-795v-7,3,-116,-39,-123,-36v-19,0,-32,14,-38,43r-52,0v14,-82,47,-123,99,-123v4,0,23,6,56,18v33,12,51,18,54,18v19,0,32,-13,39,-40r53,0v-13,80,-43,120,-88,120","w":592},"\u00d2":{"d":"525,-636v101,123,100,432,0,554v-54,65,-120,101,-206,101v-87,0,-154,-35,-207,-101v-100,-123,-99,-434,2,-555v54,-65,121,-100,209,-100v83,0,148,35,202,101xm436,-176v52,-83,54,-281,0,-366v-56,-88,-178,-87,-234,-2v-54,83,-52,287,0,369v55,87,180,87,234,-1xm363,-788r-78,0r-125,-126r131,0","w":638},"\u00d3":{"d":"525,-636v101,123,100,432,0,554v-54,65,-120,101,-206,101v-87,0,-154,-35,-207,-101v-100,-123,-99,-434,2,-555v54,-65,121,-100,209,-100v83,0,148,35,202,101xm436,-176v52,-83,54,-281,0,-366v-56,-88,-178,-87,-234,-2v-54,83,-52,287,0,369v55,87,180,87,234,-1xm487,-914r-125,126r-78,0r72,-126r131,0","w":638},"\u00d4":{"d":"525,-636v101,123,100,432,0,554v-54,65,-120,101,-206,101v-87,0,-154,-35,-207,-101v-100,-123,-99,-434,2,-555v54,-65,121,-100,209,-100v83,0,148,35,202,101xm436,-176v52,-83,54,-281,0,-366v-56,-88,-178,-87,-234,-2v-54,83,-52,287,0,369v55,87,180,87,234,-1xm477,-788r-93,0r-62,-62r-61,62r-93,0r103,-126r103,0","w":638},"\u00d5":{"d":"525,-636v101,123,100,432,0,554v-54,65,-120,101,-206,101v-87,0,-154,-35,-207,-101v-100,-123,-99,-434,2,-555v54,-65,121,-100,209,-100v83,0,148,35,202,101xm436,-176v52,-83,54,-281,0,-366v-56,-88,-178,-87,-234,-2v-54,83,-52,287,0,369v55,87,180,87,234,-1xm386,-795v-7,3,-116,-39,-123,-36v-19,0,-32,14,-38,43r-52,0v14,-82,47,-123,99,-123v4,0,23,6,56,18v33,12,51,18,54,18v19,0,32,-13,39,-40r53,0v-13,80,-43,120,-88,120","w":638},"\u00d6":{"d":"525,-636v101,123,100,432,0,554v-54,65,-120,101,-206,101v-87,0,-154,-35,-207,-101v-100,-123,-99,-434,2,-555v54,-65,121,-100,209,-100v83,0,148,35,202,101xm436,-176v52,-83,54,-281,0,-366v-56,-88,-178,-87,-234,-2v-54,83,-52,287,0,369v55,87,180,87,234,-1xm289,-794r-96,0r0,-115r96,0r0,115xm454,-794r-96,0r0,-115r96,0r0,115","w":638},"\u00d7":{"d":"399,-152r-61,61r-98,-99r-99,99r-61,-61r99,-99r-99,-98r61,-61r99,99r98,-99r61,61r-98,98","w":479},"\u00d8":{"d":"610,-707r-69,92v87,138,76,413,-16,533v-95,123,-286,136,-396,19r-68,90r-34,-38r70,-93v-87,-138,-77,-413,16,-532v97,-124,280,-135,396,-20r67,-89xm430,-551v-61,-82,-173,-75,-228,9v-46,71,-56,231,-21,324xm436,-176v46,-71,56,-235,20,-325r-249,333v60,83,174,77,229,-8","w":638},"\u00d9":{"d":"295,-108v79,0,115,-53,114,-137r0,-473r125,0r0,467v1,168,-77,270,-239,270v-155,0,-236,-102,-236,-261r0,-476r125,0r0,466v-1,84,34,144,111,144xm337,-788r-78,0r-125,-126r131,0","w":592},"\u00da":{"d":"295,-108v79,0,115,-53,114,-137r0,-473r125,0r0,467v1,168,-77,270,-239,270v-155,0,-236,-102,-236,-261r0,-476r125,0r0,466v-1,84,34,144,111,144xm461,-914r-125,126r-78,0r72,-126r131,0","w":592},"\u00db":{"d":"295,-108v79,0,115,-53,114,-137r0,-473r125,0r0,467v1,168,-77,270,-239,270v-155,0,-236,-102,-236,-261r0,-476r125,0r0,466v-1,84,34,144,111,144xm451,-788r-93,0r-62,-62r-61,62r-93,0r103,-126r103,0","w":592},"\u00dc":{"d":"295,-108v79,0,115,-53,114,-137r0,-473r125,0r0,467v1,168,-77,270,-239,270v-155,0,-236,-102,-236,-261r0,-476r125,0r0,466v-1,84,34,144,111,144xm263,-794r-96,0r0,-115r96,0r0,115xm428,-794r-96,0r0,-115r96,0r0,115","w":592},"\u00dd":{"d":"535,-718r-197,449r0,269r-123,0r0,-271r-203,-447r145,0r122,312r117,-312r139,0xm441,-914r-125,126r-78,0r72,-126r131,0","w":547},"\u00de":{"d":"331,-620v117,0,183,100,183,226v0,131,-67,234,-188,235r-141,0r0,159r-123,0r0,-718r123,0r0,98r146,0xm391,-392v-1,-75,-32,-105,-108,-105r-98,0r0,215r114,0v61,0,92,-37,92,-110","w":547},"\u00df":{"d":"382,-411v64,41,92,82,93,180v3,154,-89,272,-246,239r0,-110v86,9,132,-31,131,-122v-1,-91,-36,-114,-125,-123r0,-97v68,-4,91,-19,92,-86v1,-55,-27,-89,-80,-89v-49,0,-77,38,-76,89r0,530r-114,0r0,-539v-1,-116,76,-192,193,-192v119,0,193,72,192,190v0,59,-20,103,-60,130","w":501},"\u00e0":{"d":"229,-546v107,-1,178,52,178,154r0,288v0,47,8,74,25,83r0,21r-123,0v-5,-18,-8,-39,-11,-63v-40,48,-65,76,-138,77v-87,2,-136,-65,-136,-156v0,-94,48,-155,128,-169r103,-19v27,-5,40,-19,40,-44v0,-40,-24,-60,-71,-60v-54,1,-69,23,-76,74r-110,0v13,-127,59,-184,191,-186xm194,-86v55,1,101,-49,101,-105r0,-68v-17,23,-118,30,-139,56v-11,13,-17,29,-17,52v-1,37,20,65,55,65xm271,-602r-83,0r-120,-146r126,0"},"\u00e1":{"d":"229,-546v107,-1,178,52,178,154r0,288v0,47,8,74,25,83r0,21r-123,0v-5,-18,-8,-39,-11,-63v-40,48,-65,76,-138,77v-87,2,-136,-65,-136,-156v0,-94,48,-155,128,-169r103,-19v27,-5,40,-19,40,-44v0,-40,-24,-60,-71,-60v-54,1,-69,23,-76,74r-110,0v13,-127,59,-184,191,-186xm194,-86v55,1,101,-49,101,-105r0,-68v-17,23,-118,30,-139,56v-11,13,-17,29,-17,52v-1,37,20,65,55,65xm390,-748r-120,146r-83,0r77,-146r126,0"},"\u00e2":{"d":"229,-546v107,-1,178,52,178,154r0,288v0,47,8,74,25,83r0,21r-123,0v-5,-18,-8,-39,-11,-63v-40,48,-65,76,-138,77v-87,2,-136,-65,-136,-156v0,-94,48,-155,128,-169r103,-19v27,-5,40,-19,40,-44v0,-40,-24,-60,-71,-60v-54,1,-69,23,-76,74r-110,0v13,-127,59,-184,191,-186xm194,-86v55,1,101,-49,101,-105r0,-68v-17,23,-118,30,-139,56v-11,13,-17,29,-17,52v-1,37,20,65,55,65xm373,-602r-93,0r-52,-82r-51,82r-93,0r93,-146r103,0"},"\u00e3":{"d":"229,-546v107,-1,178,52,178,154r0,288v0,47,8,74,25,83r0,21r-123,0v-5,-18,-8,-39,-11,-63v-40,48,-65,76,-138,77v-87,2,-136,-65,-136,-156v0,-94,48,-155,128,-169r103,-19v27,-5,40,-19,40,-44v0,-40,-24,-60,-71,-60v-54,1,-69,23,-76,74r-110,0v13,-127,59,-184,191,-186xm194,-86v55,1,101,-49,101,-105r0,-68v-17,23,-118,30,-139,56v-11,13,-17,29,-17,52v-1,37,20,65,55,65xm291,-619v-7,3,-116,-39,-123,-36v-19,0,-32,14,-38,43r-52,0v13,-82,46,-123,99,-123v4,0,22,6,55,18v33,12,52,18,55,18v19,0,32,-13,39,-40r53,0v-13,80,-42,120,-88,120"},"\u00e4":{"d":"229,-546v107,-1,178,52,178,154r0,288v0,47,8,74,25,83r0,21r-123,0v-5,-18,-8,-39,-11,-63v-40,48,-65,76,-138,77v-87,2,-136,-65,-136,-156v0,-94,48,-155,128,-169r103,-19v27,-5,40,-19,40,-44v0,-40,-24,-60,-71,-60v-54,1,-69,23,-76,74r-110,0v13,-127,59,-184,191,-186xm194,-86v55,1,101,-49,101,-105r0,-68v-17,23,-118,30,-139,56v-11,13,-17,29,-17,52v-1,37,20,65,55,65xm194,-618r-96,0r0,-115r96,0r0,115xm359,-618r-96,0r0,-115r96,0r0,115"},"\u00e5":{"d":"229,-546v107,-1,178,52,178,154r0,288v0,47,8,74,25,83r0,21r-123,0v-5,-18,-8,-39,-11,-63v-40,48,-65,76,-138,77v-87,2,-136,-65,-136,-156v0,-94,48,-155,128,-169r103,-19v27,-5,40,-19,40,-44v0,-40,-24,-60,-71,-60v-54,1,-69,23,-76,74r-110,0v13,-127,59,-184,191,-186xm194,-86v55,1,101,-49,101,-105r0,-68v-17,23,-118,30,-139,56v-11,13,-17,29,-17,52v-1,37,20,65,55,65xm229,-764v51,0,104,40,104,89v0,48,-53,88,-104,88v-52,0,-104,-40,-104,-90v0,-48,54,-87,104,-87xm229,-633v26,0,52,-18,52,-42v0,-25,-25,-43,-52,-43v-25,0,-52,18,-52,42v0,25,25,43,52,43"},"\u00e6":{"d":"371,-487v40,-37,66,-59,132,-59v63,0,113,26,148,78v39,56,55,139,53,241r-299,0v7,78,26,128,100,128v39,0,65,-19,76,-58r118,0v-33,114,-99,171,-198,171v-87,0,-118,-28,-157,-86v-34,57,-89,86,-165,86v-100,1,-155,-60,-155,-161v0,-82,43,-139,111,-154v47,-10,121,-19,155,-38v7,-6,11,-18,11,-35v-1,-45,-27,-60,-76,-60v-52,0,-70,25,-73,75r-112,0v11,-122,65,-185,191,-187v55,0,101,20,140,59xm200,-86v51,0,99,-51,99,-102r0,-66v-11,11,-39,21,-85,30v-52,10,-74,19,-75,73v-1,40,22,65,61,65xm586,-319v-8,-75,-38,-112,-90,-112v-62,0,-78,47,-88,112r178,0","w":729},"\u00e7":{"d":"28,-259v0,-160,63,-287,207,-287v123,0,184,82,195,204r-116,0v-10,-51,-23,-86,-74,-86v-63,0,-94,54,-94,163v0,109,29,164,87,164v49,-1,76,-44,80,-93r116,0v-14,116,-69,196,-180,207r-20,44v58,-7,92,27,92,78v1,59,-44,106,-104,105v-24,0,-55,-8,-92,-25r18,-48v30,11,51,16,62,16v46,4,53,-80,7,-81v-7,0,-17,3,-32,8r-17,-20r38,-78v-121,-16,-173,-124,-173,-271"},"\u00e8":{"d":"226,-546v158,0,213,140,207,319r-299,0v7,78,26,128,100,128v39,0,65,-19,76,-58r118,0v-33,114,-98,171,-196,171v-149,0,-213,-119,-213,-282v0,-156,65,-278,207,-278xm315,-319v-8,-75,-38,-112,-90,-112v-62,0,-78,47,-88,112r178,0xm270,-602r-83,0r-120,-146r126,0"},"\u00e9":{"d":"226,-546v158,0,213,140,207,319r-299,0v7,78,26,128,100,128v39,0,65,-19,76,-58r118,0v-33,114,-98,171,-196,171v-149,0,-213,-119,-213,-282v0,-156,65,-278,207,-278xm315,-319v-8,-75,-38,-112,-90,-112v-62,0,-78,47,-88,112r178,0xm389,-748r-120,146r-83,0r77,-146r126,0"},"\u00ea":{"d":"226,-546v158,0,213,140,207,319r-299,0v7,78,26,128,100,128v39,0,65,-19,76,-58r118,0v-33,114,-98,171,-196,171v-149,0,-213,-119,-213,-282v0,-156,65,-278,207,-278xm315,-319v-8,-75,-38,-112,-90,-112v-62,0,-78,47,-88,112r178,0xm372,-602r-93,0r-52,-82r-51,82r-93,0r93,-146r103,0"},"\u00eb":{"d":"226,-546v158,0,213,140,207,319r-299,0v7,78,26,128,100,128v39,0,65,-19,76,-58r118,0v-33,114,-98,171,-196,171v-149,0,-213,-119,-213,-282v0,-156,65,-278,207,-278xm315,-319v-8,-75,-38,-112,-90,-112v-62,0,-78,47,-88,112r178,0xm193,-618r-96,0r0,-115r96,0r0,115xm358,-618r-96,0r0,-115r96,0r0,115"},"\u00ec":{"d":"171,0r-114,0r0,-532r114,0r0,532xm171,-602r-83,0r-120,-146r126,0","w":228},"\u00ed":{"d":"171,0r-114,0r0,-532r114,0r0,532xm260,-748r-120,146r-83,0r77,-146r126,0","w":228},"\u00ee":{"d":"171,0r-114,0r0,-532r114,0r0,532xm258,-602r-93,0r-52,-82r-51,82r-93,0r93,-146r103,0","w":228},"\u00ef":{"d":"171,0r-114,0r0,-532r114,0r0,532xm79,-618r-96,0r0,-115r96,0r0,115xm244,-618r-96,0r0,-115r96,0r0,115","w":228},"\u00f0":{"d":"347,-641v78,100,124,193,127,350v3,165,-74,304,-224,305v-141,1,-222,-123,-222,-274v0,-137,74,-263,198,-263v58,0,82,24,111,63v-19,-47,-47,-91,-84,-131r-88,47r-52,-52r89,-47v-23,-20,-43,-35,-60,-45r89,-49v21,11,43,26,64,44r84,-44r51,52xm252,-104v72,0,104,-74,104,-156v0,-75,-35,-145,-103,-145v-73,0,-107,71,-107,153v0,79,35,148,106,148","w":501},"\u00f1":{"d":"297,-546v96,0,151,76,151,178r0,368r-114,0r0,-323v-1,-66,-15,-105,-74,-105v-62,0,-93,55,-93,123r0,305r-114,0r0,-532r110,0r0,81v30,-63,75,-95,134,-95xm313,-619v-7,3,-116,-39,-123,-36v-19,0,-32,14,-38,43r-52,0v13,-82,46,-123,99,-123v4,0,22,6,55,18v33,12,52,18,55,18v19,0,32,-13,39,-40r53,0v-13,80,-42,120,-88,120","w":501},"\u00f2":{"d":"254,-546v143,0,220,127,220,281v0,155,-79,279,-223,279v-144,0,-223,-124,-223,-279v0,-158,78,-281,226,-281xm251,-104v79,0,105,-71,105,-162v0,-90,-26,-162,-104,-162v-71,0,-106,54,-106,162v0,91,26,162,105,162xm292,-602r-83,0r-120,-146r126,0","w":501},"\u00f3":{"d":"254,-546v143,0,220,127,220,281v0,155,-79,279,-223,279v-144,0,-223,-124,-223,-279v0,-158,78,-281,226,-281xm251,-104v79,0,105,-71,105,-162v0,-90,-26,-162,-104,-162v-71,0,-106,54,-106,162v0,91,26,162,105,162xm412,-748r-120,146r-83,0r77,-146r126,0","w":501},"\u00f4":{"d":"254,-546v143,0,220,127,220,281v0,155,-79,279,-223,279v-144,0,-223,-124,-223,-279v0,-158,78,-281,226,-281xm251,-104v79,0,105,-71,105,-162v0,-90,-26,-162,-104,-162v-71,0,-106,54,-106,162v0,91,26,162,105,162xm395,-602r-93,0r-52,-82r-51,82r-93,0r93,-146r103,0","w":501},"\u00f5":{"d":"254,-546v143,0,220,127,220,281v0,155,-79,279,-223,279v-144,0,-223,-124,-223,-279v0,-158,78,-281,226,-281xm251,-104v79,0,105,-71,105,-162v0,-90,-26,-162,-104,-162v-71,0,-106,54,-106,162v0,91,26,162,105,162xm313,-619v-7,3,-116,-39,-123,-36v-19,0,-32,14,-38,43r-52,0v13,-82,46,-123,99,-123v4,0,22,6,55,18v33,12,52,18,55,18v19,0,32,-13,39,-40r53,0v-13,80,-42,120,-88,120","w":501},"\u00f6":{"d":"254,-546v143,0,220,127,220,281v0,155,-79,279,-223,279v-144,0,-223,-124,-223,-279v0,-158,78,-281,226,-281xm251,-104v79,0,105,-71,105,-162v0,-90,-26,-162,-104,-162v-71,0,-106,54,-106,162v0,91,26,162,105,162xm216,-618r-96,0r0,-115r96,0r0,115xm381,-618r-96,0r0,-115r96,0r0,115","w":501},"\u00f7":{"d":"422,-207r-365,0r0,-86r365,0r0,86xm240,-492v34,0,62,28,62,62v0,34,-28,62,-62,62v-34,0,-62,-28,-62,-62v0,-34,28,-62,62,-62xm240,-133v33,0,62,29,62,62v0,34,-28,62,-62,62v-34,0,-62,-28,-62,-62v0,-34,28,-62,62,-62","w":479},"\u00f8":{"d":"28,-266v0,-156,77,-279,223,-280v54,0,103,20,147,59r56,-73r29,32r-58,74v33,54,49,117,49,188v0,155,-79,279,-223,280v-54,0,-102,-19,-145,-58r-57,73r-31,-29r60,-77v-33,-54,-50,-117,-50,-189xm250,-104v80,-3,106,-71,106,-163v0,-33,-4,-61,-12,-84r-165,213v18,23,42,34,71,34xm251,-428v-78,2,-105,71,-105,161v0,33,4,62,12,88r167,-214v-21,-23,-45,-35,-74,-35","w":501},"\u00f9":{"d":"242,-104v62,-1,92,-54,91,-121r0,-307r114,0r0,532r-110,0r0,-78v-29,61,-75,92,-136,92v-103,-2,-147,-83,-147,-196r0,-350r114,0r0,330v0,65,25,98,74,98xm292,-602r-83,0r-120,-146r126,0","w":501},"\u00fa":{"d":"242,-104v62,-1,92,-54,91,-121r0,-307r114,0r0,532r-110,0r0,-78v-29,61,-75,92,-136,92v-103,-2,-147,-83,-147,-196r0,-350r114,0r0,330v0,65,25,98,74,98xm412,-748r-120,146r-83,0r77,-146r126,0","w":501},"\u00fb":{"d":"242,-104v62,-1,92,-54,91,-121r0,-307r114,0r0,532r-110,0r0,-78v-29,61,-75,92,-136,92v-103,-2,-147,-83,-147,-196r0,-350r114,0r0,330v0,65,25,98,74,98xm395,-602r-93,0r-52,-82r-51,82r-93,0r93,-146r103,0","w":501},"\u00fc":{"d":"242,-104v62,-1,92,-54,91,-121r0,-307r114,0r0,532r-110,0r0,-78v-29,61,-75,92,-136,92v-103,-2,-147,-83,-147,-196r0,-350r114,0r0,330v0,65,25,98,74,98xm216,-618r-96,0r0,-115r96,0r0,115xm381,-618r-96,0r0,-115r96,0r0,115","w":501},"\u00fd":{"d":"442,-532r-150,523v-29,103,-53,164,-68,186v-24,36,-91,40,-153,35r0,-112v69,8,89,-11,98,-78r-161,-554r128,0r94,396r90,-396r122,0xm389,-748r-120,146r-83,0r77,-146r126,0"},"\u00fe":{"d":"165,-461v30,-51,57,-85,126,-85v55,0,98,26,133,75v67,94,64,314,0,407v-35,51,-78,78,-135,78v-70,0,-96,-32,-124,-85r0,278r-114,0r0,-925r114,0r0,257xm259,-101v71,0,97,-81,97,-164v0,-84,-26,-159,-98,-159v-65,0,-98,55,-98,166v-1,85,26,157,99,157","w":501},"\u00ff":{"d":"442,-532r-150,523v-29,103,-53,164,-68,186v-24,36,-91,40,-153,35r0,-112v69,8,89,-11,98,-78r-161,-554r128,0r94,396r90,-396r122,0xm193,-618r-96,0r0,-115r96,0r0,115xm358,-618r-96,0r0,-115r96,0r0,115"},"\u0152":{"d":"402,-50v-36,45,-56,69,-126,69v-75,0,-134,-35,-180,-101v-88,-124,-84,-428,0,-552v46,-67,103,-103,179,-103v51,0,94,20,127,61r0,-42r386,0r0,127r-274,0r0,151r255,0r0,127r-255,0r0,186r274,0r0,127r-386,0r0,-50xm289,-104v53,0,106,-42,105,-92r0,-325v1,-55,-45,-94,-102,-93v-45,0,-79,22,-104,68v-67,125,-52,442,101,442","w":820},"\u0153":{"d":"401,-466v44,-52,65,-80,144,-80v65,0,115,26,150,77v39,55,55,139,53,242r-299,0v7,78,26,128,100,128v39,0,65,-19,76,-58r118,0v-33,114,-98,171,-196,171v-79,0,-114,-26,-153,-74v-36,49,-84,74,-143,74v-144,-1,-223,-126,-223,-281v0,-152,79,-278,220,-279v61,0,112,27,153,80xm251,-104v79,0,105,-71,105,-162v0,-90,-26,-162,-104,-162v-71,0,-106,54,-106,163v0,90,26,161,105,161xm630,-319v-9,-75,-39,-112,-90,-112v-62,0,-78,47,-88,112r178,0","w":774},"\u0178":{"d":"535,-718r-197,449r0,269r-123,0r0,-271r-203,-447r145,0r122,312r117,-312r139,0xm243,-794r-96,0r0,-115r96,0r0,115xm408,-794r-96,0r0,-115r96,0r0,115","w":547},"\u02c6":{"d":"281,-602r-93,0r-52,-82r-51,82r-93,0r93,-146r103,0","w":273},"\u02dc":{"d":"199,-619v-7,3,-116,-39,-123,-36v-19,0,-32,14,-38,43r-52,0v13,-82,46,-123,99,-123v4,0,22,6,55,18v33,12,52,18,55,18v19,0,32,-13,39,-40r53,0v-13,80,-42,120,-88,120","w":273},"\u2013":{"d":"456,-226r-456,0r0,-107r456,0r0,107"},"\u2014":{"d":"820,-226r-820,0r0,-107r820,0r0,107","w":820},"\u2018":{"d":"171,-454r-114,0v1,-78,-6,-168,25,-214v18,-27,46,-47,87,-59r0,51v-43,18,-58,38,-60,95r62,0r0,127","w":228},"\u2019":{"d":"171,-718v-1,79,6,167,-26,214v-18,27,-46,48,-86,59r0,-51v43,-19,59,-38,61,-95r-63,0r0,-127r114,0","w":228},"\u201a":{"d":"171,-127v-1,79,6,167,-26,214v-18,27,-46,48,-86,59r0,-51v43,-19,59,-38,61,-95r-63,0r0,-127r114,0","w":228},"\u201c":{"d":"166,-454r-114,0v1,-79,-6,-168,26,-214v18,-27,46,-47,87,-59r0,51v-43,18,-57,39,-61,95r62,0r0,127xm358,-454r-114,0v1,-78,-5,-168,26,-214v18,-27,45,-47,86,-59r0,51v-43,18,-57,39,-61,95r63,0r0,127","w":410},"\u201d":{"d":"166,-718v-1,79,6,167,-26,214v-18,27,-46,48,-86,59r0,-51v43,-18,57,-39,61,-95r-63,0r0,-127r114,0xm358,-718v-1,79,6,168,-26,214v-19,27,-47,47,-87,59r0,-51v43,-19,59,-38,61,-95r-62,0r0,-127r114,0","w":410},"\u201e":{"d":"166,-127v-1,79,6,167,-26,214v-18,27,-46,48,-86,59r0,-51v43,-18,57,-39,61,-95r-63,0r0,-127r114,0xm358,-127v-1,79,6,168,-26,214v-19,27,-47,47,-87,59r0,-51v43,-19,59,-38,61,-95r-62,0r0,-127r114,0","w":410},"\u2022":{"d":"145,-524v76,0,134,82,134,164v0,84,-57,166,-136,166v-78,0,-135,-82,-135,-165v0,-86,56,-165,137,-165","w":287},"\u2026":{"d":"198,0r-123,0r0,-147r123,0r0,147xm471,0r-123,0r0,-147r123,0r0,147xm745,0r-123,0r0,-147r123,0r0,147","w":820},"\u2039":{"d":"205,-76r-137,-144r0,-120r137,-144r0,116r-82,88r82,88r0,116","w":273},"\u203a":{"d":"205,-220r-137,144r0,-116r82,-88r-82,-88r0,-116r137,144r0,120","w":273},"\u20ac":{"d":"80,-495v-1,-114,74,-184,190,-183v79,1,112,20,163,59r-41,110v-37,-37,-74,-56,-113,-56v-60,0,-56,72,-56,139r143,0r-28,83r-115,0r0,29r107,0r-29,83r-78,0r0,24v3,76,-3,108,56,108v38,0,79,-16,122,-47r0,130v-43,19,-87,28,-131,28v-148,0,-193,-85,-190,-243r-80,0r29,-83r51,0r0,-29r-80,0r29,-83r51,0r0,-69","w":440},"\u2122":{"d":"356,-718r0,80r-106,0r0,313r-87,0r0,-313r-106,0r0,-80r299,0xm763,-325r-82,0r0,-262r-55,262r-83,0r-53,-261r0,261r-82,0r0,-393r120,0r59,275r57,-275r119,0r0,393","w":820}}});
