/*!
 * The following copyright notice may not be removed under any circumstances.
 * 
 * Copyright:
 * Copyright (URW)++, copyright 1999 by (URW)++ Design & Development; Cyrillic
 * glyphs added by Valek Filippov, copyright 2001-2002; Vietnamese characters were
 * added by Han The Thanh; copyright 2006, 2008 for TeX Gyre extensions by B.
 * Jackowski and J.M. Nowacki (on behalf of TeX users groups). This work is
 * released under the GUST Font License --  see
 * http://tug.org/fonts/licenses/GUST-FONT-LICENSE.txt for details.
 * 
 * Trademark:
 * Please refer to the Copyright section for the font trademark attribution
 * notices.
 */
Cufon.registerFont({"w":456,"face":{"font-family":"TeXGyreHerosCn","font-weight":400,"font-stretch":"condensed","units-per-em":"1000","panose-1":"0 0 5 6 0 0 0 0 0 0","ascent":"793","descent":"-207","x-height":"14","bbox":"-20 -942 820 230.019","underline-thickness":"50","underline-position":"-25","unicode-range":"U+0020-U+2122"},"glyphs":{" ":{"w":228},"!":{"d":"153,0r-79,0r0,-102r79,0r0,102xm153,-481r-20,310r-39,0r-20,-310r0,-237r79,0r0,237","w":228},"\"":{"d":"117,-463r-60,0r0,-255r60,0r0,255xm234,-463r-60,0r0,-255r60,0r0,255","w":291},"#":{"d":"434,-478r-7,63r-85,0r-16,142r84,0r-7,63r-85,0r-23,210r-55,0r24,-210r-102,0r-24,210r-54,0r23,-210r-84,0r7,-63r85,0r15,-142r-84,0r7,-63r85,0r24,-210r55,0r-24,210r102,0r23,-210r55,0r-23,210r84,0xm287,-415r-102,0r-16,142r103,0"},"$":{"d":"38,-512v-3,-110,65,-193,170,-199r0,-64r38,0r0,64v110,13,159,73,166,190r-69,0v-9,-72,-32,-100,-97,-117r0,239v77,27,126,53,148,78v22,25,33,66,33,124v1,125,-63,210,-181,216r0,96r-38,0r0,-96v-130,-11,-180,-87,-182,-232r72,0v9,107,21,138,110,159r0,-265v-112,-38,-167,-66,-170,-193xm208,-638v-62,4,-99,49,-98,116v0,59,33,96,98,113r0,-229xm246,-54v70,-3,109,-52,109,-125v1,-51,-28,-98,-65,-112r-44,-17r0,254"},"%":{"d":"157,-695v88,0,123,87,123,188v0,102,-35,186,-124,186v-90,0,-124,-84,-124,-187v0,-104,34,-187,125,-187xm223,-508v0,-89,-22,-134,-66,-134v-45,0,-68,45,-68,134v0,89,22,134,67,134v45,0,67,-45,67,-134xm549,-703r-325,722r-44,0r323,-722r46,0xm574,-367v88,0,123,86,123,187v0,102,-34,187,-124,187v-90,0,-124,-84,-124,-187v0,-105,33,-187,125,-187xm640,-180v0,-89,-22,-134,-66,-134v-45,0,-68,45,-68,134v0,89,22,134,67,134v45,0,67,-45,67,-134","w":729},"&":{"d":"378,-569v-3,98,-42,129,-106,187r108,156v9,-31,17,-68,24,-112r68,0v-5,59,-21,120,-48,183r105,155r-93,0r-55,-82v-47,61,-80,95,-170,97v-113,2,-177,-81,-175,-199v0,-47,10,-84,28,-114v18,-30,53,-64,105,-101v-40,-65,-59,-79,-62,-157v-3,-90,54,-162,140,-162v81,0,134,65,131,149xm108,-183v-2,66,47,122,110,121v47,0,89,-26,124,-79r-133,-198v-40,32,-67,58,-81,79v-14,21,-20,46,-20,77xm235,-439v44,-40,70,-60,73,-125v2,-44,-23,-77,-65,-77v-42,0,-67,32,-66,76v0,35,19,77,58,126","w":547},"'":{"d":"108,-463r-60,0r0,-255r60,0r0,255","w":157},"(":{"d":"133,-254v0,212,38,270,112,461r-48,0v-55,-102,-91,-186,-111,-251v-20,-65,-30,-137,-30,-218v0,-209,53,-309,138,-471r50,0v-75,181,-111,258,-111,479","w":273},")":{"d":"140,-272v0,-211,-38,-273,-112,-461r48,0v55,103,93,186,112,251v19,65,29,137,29,218v0,209,-53,309,-138,471r-50,0v76,-182,111,-257,111,-479","w":273},"*":{"d":"286,-591r-89,34r55,92r-40,34r-53,-94r-54,94r-40,-34r55,-92r-88,-34r16,-55r86,38r0,-110r49,0r0,110r86,-38","w":319},"+":{"d":"424,-221r-155,0r0,155r-58,0r0,-155r-156,0r0,-58r156,0r0,-156r58,0r0,156r155,0r0,58","w":479},",":{"d":"157,-8v0,90,-29,142,-86,155r0,-46v29,-4,43,-38,44,-101r-44,0r0,-107r86,0r0,99","w":228},"-":{"d":"237,-232r-201,0r0,-90r201,0r0,90","w":273},".":{"d":"157,0r-86,0r0,-107r86,0r0,107","w":228},"\/":{"d":"242,-737r-201,756r-55,0r202,-756r54,0","w":228},"0":{"d":"374,-608v67,114,67,420,0,533v-37,61,-83,94,-146,94v-63,0,-110,-33,-146,-95v-67,-113,-67,-422,0,-534v37,-61,84,-93,148,-93v62,0,108,33,144,95xm349,-343v0,-91,-10,-161,-31,-209v-21,-48,-50,-73,-89,-73v-81,0,-122,94,-122,282v0,189,40,284,121,284v81,0,121,-95,121,-284"},"1":{"d":"83,-569v114,-11,129,-31,155,-134r56,0r0,703r-77,0r0,-499r-134,0r0,-70"},"2":{"d":"231,-703v114,-2,185,92,185,211v0,50,-12,90,-30,123v-23,42,-122,111,-184,151v-61,40,-94,86,-100,135r314,0r0,83r-395,0v8,-138,48,-217,135,-279v49,-35,145,-96,165,-133v12,-20,18,-47,18,-82v1,-74,-43,-132,-114,-131v-78,0,-117,58,-117,174r-72,0v-1,-152,57,-250,195,-252"},"3":{"d":"330,-372v67,31,97,73,98,165v2,131,-78,229,-204,226v-141,-3,-183,-84,-196,-234r75,0v5,101,29,154,120,156v78,2,128,-58,128,-138v0,-82,-49,-132,-135,-128v-7,1,-17,1,-32,1r0,-76v93,13,146,-27,147,-111v1,-67,-40,-116,-106,-114v-86,2,-105,59,-112,152r-71,0v6,-153,67,-230,184,-230v109,0,180,75,180,186v0,73,-25,121,-76,145"},"4":{"d":"429,-171r-85,0r0,171r-72,0r0,-171r-252,0r0,-87r264,-445r60,0r0,455r85,0r0,77xm272,-248r0,-321r-186,321r186,0"},"5":{"d":"231,-452v113,-1,190,107,190,226v0,136,-73,247,-207,245v-123,-2,-172,-74,-188,-194r75,0v9,78,48,117,118,117v79,0,125,-76,125,-161v0,-85,-47,-155,-127,-155v-41,0,-76,22,-107,67r-63,-4r44,-377r298,0r0,87r-244,0r-25,193v34,-29,71,-44,111,-44"},"6":{"d":"242,-448v114,0,183,103,183,225v0,124,-74,244,-193,242v-65,0,-113,-31,-149,-89v-72,-115,-64,-419,5,-532v40,-66,89,-101,155,-101v107,0,159,80,170,187r-71,0v-12,-65,-32,-109,-98,-109v-40,0,-72,22,-96,67v-24,45,-39,111,-43,200v31,-60,76,-90,137,-90xm236,-60v75,0,114,-75,114,-158v0,-83,-38,-152,-114,-152v-79,0,-120,67,-120,153v0,84,43,157,120,157"},"7":{"d":"429,-610v-122,167,-201,370,-237,610r-80,0v30,-224,125,-438,236,-601r-318,0r0,-87r399,0r0,78"},"8":{"d":"403,-519v-1,76,-24,113,-73,145v63,37,94,95,94,173v0,123,-74,220,-192,220v-122,0,-203,-89,-201,-214v1,-100,30,-139,98,-178v-52,-28,-78,-74,-78,-137v0,-109,69,-193,175,-193v105,0,179,78,177,184xm231,-59v78,0,116,-51,116,-132v0,-81,-42,-139,-119,-139v-74,-1,-120,57,-120,133v0,81,46,138,123,138xm226,-406v60,0,102,-50,102,-112v0,-62,-42,-107,-103,-107v-63,0,-99,44,-99,109v0,61,42,110,100,110"},"9":{"d":"34,-462v0,-131,66,-240,188,-241v65,0,113,28,148,83v74,115,60,417,-4,532v-39,70,-90,107,-157,107v-107,-1,-163,-79,-168,-188r72,0v7,77,39,115,97,115v69,0,82,-32,106,-98v14,-40,25,-98,34,-173v-27,60,-72,90,-136,90v-115,0,-180,-103,-180,-227xm223,-313v79,0,113,-70,113,-158v0,-85,-35,-154,-112,-154v-81,0,-115,73,-115,163v0,89,32,149,114,149"},":":{"d":"157,0r-86,0r0,-107r86,0r0,107xm157,-409r-86,0r0,-107r86,0r0,107","w":228},";":{"d":"157,-8v0,90,-29,142,-86,155r0,-46v29,-4,43,-38,44,-101r-44,0r0,-107r86,0r0,99xm157,-409r-86,0r0,-107r86,0r0,107","w":228},"<":{"d":"369,65r-280,-295r0,-40r280,-295r0,84r-219,231r219,231r0,84","w":479},"=":{"d":"424,-311r-369,0r0,-58r369,0r0,58xm424,-131r-369,0r0,-58r369,0r0,58","w":479},">":{"d":"369,-230r-280,295r0,-84r219,-231r-219,-231r0,-84r280,295r0,40","w":479},"?":{"d":"229,-727v132,0,208,145,159,274v-14,38,-109,133,-121,172v-7,21,-12,53,-12,98r-72,0v2,-124,16,-134,77,-215v28,-37,48,-62,55,-77v7,-15,11,-33,11,-56v1,-69,-34,-119,-100,-119v-72,0,-108,52,-108,157r-72,0v0,-84,8,-119,43,-165v35,-46,82,-69,140,-69xm261,0r-80,0r0,-102r80,0r0,102"},"@":{"d":"431,-737v159,0,281,149,281,313v0,71,-21,138,-62,198v-41,60,-86,90,-136,90v-31,0,-48,-21,-50,-64v-35,43,-70,64,-103,64v-73,0,-118,-84,-118,-165v0,-73,19,-137,57,-191v38,-54,81,-80,132,-80v56,0,74,31,95,78r16,-62r56,0r-39,164v-23,97,-35,152,-35,164v0,18,6,27,17,27v29,0,55,-23,80,-69v25,-46,37,-96,37,-150v0,-138,-95,-255,-228,-255v-151,0,-250,156,-250,319v0,162,103,314,254,313v78,0,145,-38,200,-114r55,0v-63,117,-149,176,-257,176v-180,0,-312,-187,-312,-379v0,-191,131,-377,310,-377xm378,-208v64,0,123,-121,123,-198v0,-46,-27,-94,-68,-94v-71,0,-123,115,-123,198v0,47,26,94,68,94","w":832},"A":{"d":"536,0r-87,0r-58,-209r-236,0r-62,209r-82,0r221,-718r91,0xm362,-296r-88,-318r-95,318r183,0","w":547},"B":{"d":"408,-387v71,37,104,74,106,173v2,124,-78,214,-199,214r-254,0r0,-718r259,0v102,-1,166,76,166,181v0,66,-26,116,-78,150xm284,-414v81,0,122,-35,122,-114v-1,-77,-41,-107,-121,-107r-144,0r0,221r143,0xm311,-83v78,0,124,-51,123,-131v0,-81,-46,-122,-137,-122r-156,0r0,253r170,0","w":547},"C":{"d":"558,-264v-19,102,-34,154,-87,211v-46,48,-103,72,-170,72v-81,0,-143,-35,-193,-102v-94,-126,-95,-427,2,-551v52,-67,117,-103,201,-103v141,1,226,100,241,235r-77,0v-23,-99,-77,-148,-162,-148v-61,0,-107,27,-143,78v-67,93,-68,335,-2,428v35,49,80,76,140,76v45,0,81,-15,110,-46v29,-31,50,-81,63,-150r77,0","w":592},"D":{"d":"486,-622v90,120,86,392,2,518v-45,68,-106,104,-186,104r-236,0r0,-718r239,0v75,0,134,33,181,96xm425,-157v60,-89,60,-320,1,-407v-32,-47,-74,-71,-131,-71r-149,0r0,552r154,0v53,0,93,-26,125,-74","w":592},"E":{"d":"505,0r-434,0r0,-718r428,0r0,87r-348,0r0,219r321,0r0,87r-321,0r0,238r354,0r0,87","w":547},"F":{"d":"478,-631r-327,0r0,219r288,0r0,87r-288,0r0,325r-80,0r0,-718r407,0r0,87","w":501},"G":{"d":"577,0r-52,0r-18,-93v-51,75,-118,112,-199,112v-83,0,-146,-37,-196,-107v-98,-137,-94,-412,4,-542v53,-70,118,-107,201,-107v141,1,234,103,250,237r-77,0v-24,-100,-81,-150,-172,-150v-61,0,-107,28,-144,80v-68,94,-66,338,-2,432v60,88,211,100,280,15v33,-40,50,-99,50,-178r-183,0r0,-83r258,0r0,384","w":638},"H":{"d":"530,0r-80,0r0,-334r-307,0r0,334r-80,0r0,-718r80,0r0,297r307,0r0,-297r80,0r0,718","w":592},"I":{"d":"154,0r-79,0r0,-718r79,0r0,718","w":228},"J":{"d":"89,-231v-3,91,4,167,90,167v61,0,92,-41,92,-124r0,-530r80,0r0,524v1,126,-54,212,-171,213v-103,1,-168,-74,-166,-179r0,-71r75,0","w":410},"K":{"d":"544,0r-103,0r-206,-360r-93,108r0,252r-80,0r0,-718r80,0r0,348r286,-348r110,0r-246,290","w":547},"L":{"d":"440,0r-378,0r0,-718r80,0r0,631r298,0r0,87"},"M":{"d":"624,0r-75,0r0,-609r-168,609r-78,0r-166,-608r0,608r-77,0r0,-718r114,0r169,610r168,-610r113,0r0,718","w":683},"N":{"d":"530,0r-89,0r-302,-583r0,583r-77,0r0,-718r94,0r297,583r0,-583r77,0r0,718","w":592},"O":{"d":"32,-358v-2,-202,98,-380,291,-379v83,0,148,36,203,105v84,106,104,316,48,462v-38,101,-124,188,-255,189v-130,0,-217,-88,-255,-189v-21,-56,-32,-119,-32,-188xm319,-68v136,-2,205,-138,205,-291v0,-87,-19,-157,-56,-211v-37,-54,-86,-80,-146,-80v-141,2,-208,135,-208,292v0,87,18,157,56,210v38,53,88,80,149,80","w":638},"P":{"d":"335,-718v109,-1,175,89,175,203v0,118,-64,212,-175,212r-184,0r0,303r-80,0r0,-718r264,0xm428,-512v0,-82,-39,-123,-117,-123r-160,0r0,249r157,0v80,0,120,-42,120,-126","w":547},"Q":{"d":"574,-548v57,155,37,354,-53,470r80,76r-40,58r-90,-85v-45,32,-96,48,-152,48v-90,0,-159,-38,-211,-109v-100,-137,-100,-402,0,-538v52,-71,121,-109,211,-109v130,0,217,88,255,189xm319,-650v-136,2,-205,138,-205,291v0,87,19,157,56,211v53,77,145,103,236,58r-62,-58r41,-60r74,71v84,-103,86,-326,9,-433v-38,-53,-88,-80,-149,-80","w":638},"R":{"d":"538,-524v-1,92,-25,128,-82,171v55,28,65,55,71,135v4,55,-2,132,11,176v3,9,11,17,23,26r0,16r-98,0v-9,-36,-13,-96,-13,-180v0,-85,-25,-128,-105,-128r-193,0r0,308r-80,0r0,-718r273,0v125,-1,193,69,193,194xm336,-391v83,0,120,-41,120,-125v0,-79,-35,-119,-106,-119r-198,0r0,244r184,0","w":592},"S":{"d":"270,-654v-82,-1,-133,44,-133,124v0,49,23,80,69,93r168,47v89,25,134,90,134,193v1,137,-93,218,-232,216v-151,-1,-239,-90,-236,-251r75,0v-1,109,58,168,165,168v88,1,151,-41,151,-124v0,-86,-44,-101,-125,-124r-121,-34v-83,-23,-125,-81,-125,-172v-1,-128,80,-220,210,-219v145,2,223,79,222,229r-75,0v1,-93,-57,-146,-147,-146","w":547},"T":{"d":"490,-631r-199,0r0,631r-80,0r0,-631r-200,0r0,-87r479,0r0,87","w":501},"U":{"d":"295,-68v106,0,153,-82,153,-196r0,-454r80,0r0,466v2,156,-87,271,-236,271v-143,0,-227,-109,-227,-258r0,-479r80,0r0,452v-1,115,45,198,150,198","w":592},"V":{"d":"531,-718r-215,718r-85,0r-215,-718r89,0r169,615r167,-615r90,0","w":547},"W":{"d":"761,-718r-155,718r-84,0r-135,-599r-137,599r-84,0r-153,-718r86,0r111,588r133,-588r87,0r133,588r110,-588r88,0","w":774},"X":{"d":"531,0r-98,0r-158,-295r-163,295r-96,0r210,-368r-197,-350r100,0r149,275r149,-275r95,0r-197,350","w":547},"Y":{"d":"535,-718r-222,429r0,289r-80,0r0,-289r-222,-429r93,0r169,345r169,-345r93,0","w":547},"Z":{"d":"482,0r-463,0r0,-82r361,-549r-334,0r0,-87r436,0r0,85r-362,546r362,0r0,87","w":501},"[":{"d":"205,196r-153,0r0,-918r153,0r0,72r-88,0r0,774r88,0r0,72","w":228},"\\":{"d":"242,19r-55,0r-201,-756r54,0","w":228},"]":{"d":"176,196r-153,0r0,-72r88,0r0,-774r-88,0r0,-72r153,0r0,918","w":228},"^":{"d":"396,-264r-63,0r-140,-344r-140,344r-64,0r174,-424r59,0","w":385},"_":{"d":"456,125r-456,0r0,-50r456,0r0,50"},"`":{"d":"164,-584r-55,0r-107,-141r89,0","w":273},"a":{"d":"223,-538v98,0,164,52,164,146r0,301v2,33,16,35,48,27r0,64v-19,7,-33,10,-42,10v-54,-1,-68,-27,-74,-80v-41,51,-75,83,-152,85v-85,2,-137,-66,-137,-153v0,-92,50,-150,130,-162r119,-18v25,-4,38,-24,38,-60v0,-58,-33,-87,-99,-87v-67,0,-101,34,-101,101r-66,0v0,-116,57,-174,172,-174xm182,-58v68,1,133,-57,133,-123r0,-86v-32,32,-152,23,-189,61v-14,14,-21,34,-21,60v0,53,26,87,77,88"},"b":{"d":"120,-455v33,-49,60,-83,128,-83v53,0,94,25,128,73v67,95,60,308,-3,401v-35,52,-79,79,-136,79v-68,0,-94,-31,-121,-83r0,68r-68,0r0,-718r72,0r0,263xm117,-249v0,101,32,187,117,187v37,0,65,-18,85,-54v20,-36,30,-87,30,-152v0,-128,-38,-192,-114,-192v-79,0,-118,70,-118,211"},"c":{"d":"321,-347v-11,-68,-32,-113,-100,-113v-37,0,-65,19,-87,53v-40,62,-41,231,-2,294v21,33,47,51,84,51v55,0,90,-41,105,-123r70,0v-17,133,-75,200,-174,200v-130,0,-192,-123,-192,-267v0,-87,18,-156,55,-208v37,-52,86,-78,148,-78v96,0,150,64,163,191r-70,0","w":410},"d":{"d":"206,-538v72,0,102,38,131,94r0,-274r72,0r0,718r-68,0r0,-75v-28,56,-52,90,-124,90v-57,0,-101,-27,-137,-79v-64,-93,-69,-308,-2,-402v34,-47,75,-72,128,-72xm218,-62v85,0,119,-86,118,-186v0,-69,-10,-122,-30,-158v-20,-36,-48,-54,-85,-54v-78,0,-117,64,-117,191v0,65,10,117,30,153v20,36,48,54,84,54"},"e":{"d":"230,15v-134,0,-197,-120,-197,-267v0,-87,18,-156,55,-208v37,-52,86,-78,148,-78v58,0,102,24,134,72v32,48,50,125,53,233r-313,0v4,114,45,171,122,171v60,1,108,-47,113,-102r72,0v-16,102,-78,179,-187,179xm348,-303v-7,-105,-46,-157,-115,-157v-77,1,-121,75,-123,157r238,0"},"f":{"d":"215,-450r-72,0r0,450r-72,0r0,-450r-60,0r0,-73r60,0r0,-90v-2,-90,53,-125,144,-113r0,79v-53,-8,-72,4,-72,59r0,65r72,0r0,73","w":228},"g":{"d":"210,-538v74,0,97,36,131,92r0,-77r68,0r0,480v0,166,-48,263,-198,263v-107,0,-148,-55,-165,-156r72,0v13,54,35,83,96,83v110,0,124,-80,123,-205v-27,49,-66,73,-117,73v-57,0,-101,-27,-136,-79v-63,-93,-69,-308,-2,-402v34,-47,75,-72,128,-72xm222,-62v85,0,119,-87,118,-185v0,-69,-10,-121,-30,-158v-20,-37,-48,-55,-85,-55v-78,0,-117,64,-117,191v0,65,10,117,30,153v20,36,48,54,84,54"},"h":{"d":"258,-538v97,0,145,77,145,182r0,356r-72,0r0,-342v-1,-74,-17,-118,-84,-118v-87,0,-123,78,-122,175r0,285r-72,0r0,-718r72,0r0,267v37,-54,58,-87,133,-87"},"i":{"d":"127,0r-72,0r0,-523r72,0r0,523xm134,-607r-86,0r0,-96r86,0r0,96","w":182},"j":{"d":"-13,131v55,1,68,-5,68,-64r0,-590r72,0r0,600v3,97,-45,146,-140,130r0,-76xm134,-607r-86,0r0,-96r86,0r0,96","w":182},"k":{"d":"411,0r-93,0r-133,-264r-60,66r0,198r-72,0r0,-718r72,0r0,416r185,-221r91,0r-164,195","w":410},"l":{"d":"127,0r-72,0r0,-718r72,0r0,718","w":182},"m":{"d":"496,-538v90,0,135,77,135,176r0,362r-72,0r0,-338v0,-81,-26,-122,-78,-122v-62,0,-103,72,-103,141r0,319r-72,0r0,-362v0,-54,-19,-98,-67,-98v-79,0,-114,85,-114,175r0,285r-72,0r0,-523r68,0r0,77v33,-55,60,-92,133,-92v65,0,89,33,113,85v43,-53,56,-85,129,-85","w":683},"n":{"d":"258,-538v97,1,145,77,145,182r0,356r-72,0r0,-322v-1,-83,-16,-138,-88,-138v-83,0,-118,80,-118,175r0,285r-72,0r0,-523r68,0r0,77v35,-61,80,-92,137,-92"},"o":{"d":"231,-538v126,0,196,135,196,276v0,144,-70,276,-199,276v-129,0,-199,-133,-199,-276v0,-147,69,-276,202,-276xm228,-63v87,0,124,-97,124,-199v0,-60,-12,-108,-34,-144v-22,-36,-51,-55,-88,-55v-90,0,-127,95,-126,199v0,61,11,109,34,145v23,36,53,54,90,54"},"p":{"d":"116,-446v33,-57,56,-92,131,-92v53,0,94,25,128,72v67,94,59,308,-2,402v-61,95,-198,111,-253,6r0,265r-72,0r0,-730r68,0r0,77xm117,-245v0,97,34,183,117,183v37,0,64,-19,85,-55v37,-62,41,-233,1,-295v-20,-32,-48,-48,-85,-48v-79,0,-118,72,-118,215"},"q":{"d":"206,-538v74,0,97,36,131,92r0,-77r68,0r0,730r-72,0r0,-265v-55,105,-192,89,-253,-6v-61,-95,-69,-308,-2,-402v34,-47,75,-72,128,-72xm218,-62v85,0,119,-85,118,-183v0,-70,-10,-123,-30,-160v-20,-37,-48,-55,-85,-55v-78,0,-117,63,-117,190v0,65,10,116,30,153v20,37,48,55,84,55"},"r":{"d":"272,-445v-92,-10,-136,57,-137,140r0,305r-72,0r0,-523r68,0r0,89v19,-37,38,-64,57,-80v23,-19,51,-29,84,-21r0,90","w":273},"s":{"d":"199,-461v-51,-1,-89,26,-89,74v0,51,27,52,77,69v92,30,193,43,193,161v0,105,-71,173,-178,172v-119,-1,-170,-63,-176,-183r70,0v6,73,35,105,111,106v58,1,101,-28,101,-82v0,-54,-31,-59,-85,-75r-84,-25v-66,-20,-99,-63,-99,-129v-1,-98,66,-166,164,-165v102,1,157,64,162,164r-70,0v-3,-58,-35,-87,-97,-87","w":410},"t":{"d":"141,-110v-3,40,29,43,69,41r0,69r-57,7v-56,0,-84,-37,-84,-112r0,-345r-58,0r0,-73r58,0r0,-146r72,0r0,146r70,0r0,73r-70,0r0,340","w":228},"u":{"d":"211,-62v81,0,118,-81,118,-173r0,-288r72,0r0,523r-68,0r0,-81v-35,61,-55,94,-136,96v-91,2,-141,-66,-141,-162r0,-376r72,0r0,347v0,76,28,114,83,114"},"v":{"d":"403,-523r-163,523r-77,0r-156,-523r83,0r112,429r122,-429r79,0","w":410},"w":{"d":"581,-523r-125,523r-74,0r-88,-409r-85,409r-74,0r-124,-523r79,0r83,415r83,-415r81,0r84,415r88,-415r72,0","w":592},"x":{"d":"402,0r-92,0r-107,-197r-103,197r-91,0r151,-269r-144,-254r93,0r99,184r100,-184r88,0r-145,254","w":410},"y":{"d":"136,209v-21,5,-66,9,-88,-3r0,-80v24,11,63,15,78,-4v14,-17,31,-77,42,-108r-159,-537r81,0r115,429r116,-429r80,0r-155,513v-30,90,-35,132,-73,188v-12,18,-25,28,-37,31","w":410},"z":{"d":"385,0r-360,0r0,-69r259,-381r-239,0r0,-73r333,0r0,72r-257,378r264,0r0,73","w":410},"{":{"d":"91,-264v45,20,75,78,74,144r0,169v0,55,13,82,38,82r36,0r0,65r-55,0v-54,-1,-84,-67,-84,-129r0,-171v0,-62,-17,-122,-66,-130r0,-60v44,-7,66,-49,66,-127r0,-172v-2,-63,30,-129,84,-129r55,0r0,65r-36,0v-25,0,-38,27,-38,82r0,170v1,62,-32,123,-74,141","w":274},"|":{"d":"136,196r-58,0r0,-918r58,0r0,918","w":213},"}":{"d":"89,-722v54,1,84,67,84,129r0,172v0,78,22,120,66,127r0,60v-49,9,-66,68,-66,130r0,171v2,63,-30,129,-84,129r-55,0r0,-65r36,0v25,0,38,-27,38,-82r0,-169v-1,-66,29,-124,74,-144v-42,-18,-74,-79,-74,-141r0,-170v0,-55,-13,-82,-38,-82r-36,0r0,-65r55,0","w":274},"~":{"d":"151,-322v59,0,121,68,178,68v19,0,39,-17,59,-51r41,38v-29,48,-46,86,-103,86v-23,0,-50,-12,-83,-33v-65,-41,-117,-58,-154,14r-39,-36v26,-57,60,-86,101,-86","w":479},"\u00a0":{"w":228},"\u00a1":{"d":"154,-421r-79,0r0,-102r79,0r0,102xm154,195r-79,0r0,-237r20,-310r39,0r20,310r0,237","w":228},"\u00a2":{"d":"204,-61v96,14,130,-35,147,-122r70,0v-16,130,-91,227,-235,195r-25,103r-34,0r28,-114v-77,-53,-112,-125,-113,-252v0,-89,18,-160,54,-211v36,-51,84,-76,147,-76v14,0,26,2,36,6r21,-91r32,0r-20,100v62,25,99,94,106,178r-68,0v-10,-54,-28,-88,-55,-102xm263,-459v-111,-12,-150,89,-149,207v0,81,20,139,60,174"},"\u00a3":{"d":"207,-102v9,-4,131,37,138,35v23,0,44,-10,63,-31r34,66v-35,32,-70,48,-103,48v-8,4,-162,-49,-171,-45v-28,0,-61,13,-98,40r-40,-69v67,-59,100,-120,100,-185v0,-18,-5,-43,-15,-74r-88,0r0,-63r57,0v-24,-59,-36,-104,-36,-136v-2,-116,82,-202,197,-202v123,0,187,98,182,228r-72,0v4,-84,-39,-150,-115,-151v-64,-1,-117,59,-115,125v0,29,14,74,42,136r137,0r0,63r-113,0v5,23,7,45,7,64v0,67,-34,131,-103,192v41,-27,79,-41,112,-41"},"\u00a4":{"d":"392,-141r-41,41r-32,-31v-52,36,-126,36,-178,0r-32,31r-41,-41r32,-31v-37,-52,-38,-127,0,-179r-32,-31r41,-41r32,31v53,-37,125,-37,178,0r32,-31r41,41r-32,31v38,52,37,127,0,179xm230,-162v54,0,100,-46,100,-100v0,-53,-47,-100,-100,-100v-53,0,-100,47,-100,100v0,54,46,100,100,100"},"\u00a5":{"d":"453,-688r-159,304r128,0r0,57r-159,0r0,85r159,0r0,57r-159,0r0,185r-72,0r0,-185r-157,0r0,-57r157,0r0,-85r-157,0r0,-57r126,0r-158,-304r82,0r143,295r144,-295r82,0"},"\u00a6":{"d":"136,-355r-58,0r0,-367r58,0r0,367xm136,196r-58,0r0,-367r58,0r0,367","w":213},"\u00a7":{"d":"228,-660v-45,-1,-78,34,-77,79v0,33,20,63,60,91r120,86v54,40,89,79,89,160v0,84,-31,116,-85,160v29,39,43,77,43,114v2,89,-67,161,-155,161v-99,0,-150,-63,-155,-188r72,0v2,74,29,111,81,111v50,1,85,-31,85,-81v0,-29,-15,-55,-45,-80r-173,-140v-35,-29,-53,-71,-53,-126v0,-83,28,-112,82,-154v-24,-37,-36,-50,-38,-100v-2,-94,59,-171,149,-170v95,0,144,61,149,183r-69,0v-5,-65,-20,-104,-80,-106xm295,-124v35,-30,57,-47,57,-100v0,-39,-17,-71,-51,-97r-143,-107v-37,25,-55,58,-55,98v0,36,12,64,37,84"},"\u00a8":{"d":"100,-607r-88,0r0,-96r88,0r0,96xm261,-607r-88,0r0,-96r88,0r0,96","w":273},"\u00a9":{"d":"302,-677v168,0,282,175,282,348v0,174,-114,348,-282,348v-168,0,-282,-175,-282,-348v0,-174,114,-348,282,-348xm302,-21v147,0,242,-156,242,-308v0,-152,-95,-308,-242,-308v-147,0,-242,156,-242,308v0,152,95,308,242,308xm308,-179v63,0,85,-42,98,-104r53,0v-16,97,-60,158,-155,158v-104,0,-158,-91,-158,-204v0,-115,57,-204,164,-205v83,0,138,54,145,132r-52,0v-12,-52,-43,-78,-92,-78v-76,1,-110,69,-110,153v0,85,31,148,107,148","w":604},"\u00aa":{"d":"254,-471v-1,20,14,21,30,17r0,44v-7,3,-22,5,-27,5v-37,-1,-45,-15,-48,-51v-29,34,-62,51,-99,51v-54,1,-91,-38,-90,-93v0,-59,37,-93,92,-100r72,-10v13,-2,20,-14,20,-35v0,-28,-21,-42,-62,-42v-38,0,-59,18,-63,53r-45,0v6,-71,38,-105,113,-105v62,-1,107,30,107,88r0,178xm119,-457v46,1,85,-30,85,-74r0,-39v0,12,-102,19,-119,35v-8,7,-13,17,-13,30v0,32,16,48,47,48xm272,-304r-243,0r0,-48r243,0r0,48","w":303},"\u00ab":{"d":"208,-108r-128,-123r0,-92r128,-123r0,88r-86,81r86,81r0,88xm376,-108r-128,-123r0,-92r128,-123r0,88r-86,81r86,81r0,88"},"\u00ac":{"d":"424,-369r0,209r-58,0r0,-151r-311,0r0,-58r369,0","w":479},"\u00ad":{"d":"237,-232r-201,0r0,-90r201,0r0,90","w":273},"\u00ae":{"d":"302,-677v168,0,282,175,282,348v0,174,-114,348,-282,348v-168,0,-282,-175,-282,-348v0,-174,114,-348,282,-348xm302,-21v147,0,242,-156,242,-308v0,-152,-95,-308,-242,-308v-147,0,-242,156,-242,308v0,152,95,308,242,308xm431,-186v0,24,2,27,17,37r0,14r-63,0v-6,-15,-9,-48,-9,-99v0,-44,-16,-65,-58,-65r-109,0r0,164r-54,0r0,-389r163,0v73,0,117,36,117,107v0,38,-15,68,-44,90v28,15,35,31,37,72xm380,-413v0,-39,-20,-59,-59,-59r-112,0r0,122r104,0v45,0,67,-21,67,-63","w":604},"\u00af":{"d":"265,-627r-257,0r0,-57r257,0r0,57","w":273},"\u00b0":{"d":"166,-703v70,0,118,72,118,146v0,76,-49,146,-120,146v-71,0,-120,-71,-120,-146v0,-78,49,-146,122,-146xm164,-454v44,0,80,-55,80,-103v0,-47,-37,-103,-80,-103v-44,0,-80,55,-80,103v0,48,36,103,80,103","w":328},"\u00b1":{"d":"424,-279r-155,0r0,155r-58,0r0,-155r-156,0r0,-58r156,0r0,-156r58,0r0,156r155,0r0,58xm424,0r-369,0r0,-58r369,0r0,58","w":479},"\u00b2":{"d":"143,-714v74,-1,122,60,122,137v0,138,-157,135,-200,235r200,0r0,62r-262,0v4,-77,32,-133,85,-168v31,-21,95,-59,108,-80v8,-12,11,-30,12,-55v0,-45,-24,-74,-69,-73v-57,1,-70,41,-74,104r-50,0v4,-108,47,-162,128,-162","w":273},"\u00b3":{"d":"202,-515v43,17,63,42,64,99v1,85,-53,148,-135,146v-88,-2,-120,-56,-127,-151r56,0v5,61,15,92,72,93v50,1,77,-31,77,-82v0,-61,-38,-73,-103,-71r0,-52v56,4,90,-13,90,-65v0,-39,-22,-58,-65,-58v-50,0,-64,28,-68,80r-50,0v4,-92,45,-138,123,-138v69,-1,118,44,117,112v0,44,-17,73,-51,87","w":273},"\u00b4":{"d":"271,-725r-107,141r-55,0r73,-141r89,0","w":273},"\u00b5":{"d":"211,-62v81,0,118,-81,118,-173r0,-288r72,0r0,523r-68,0r0,-81v-34,60,-55,96,-134,96v-31,0,-54,-12,-71,-36r0,228r-72,0r0,-730r72,0r0,347v0,76,28,114,83,114"},"\u00b6":{"d":"15,-533v-1,-119,70,-186,190,-185r203,0r0,891r-60,0r0,-831r-97,0r0,831r-60,0r0,-517v-110,-3,-176,-78,-176,-189","w":440},"\u00b7":{"d":"114,-293v23,0,43,20,43,43v0,23,-20,43,-43,43v-23,0,-43,-20,-43,-43v0,-23,20,-43,43,-43","w":228},"\u00b8":{"d":"132,58v51,-5,80,33,80,80v1,55,-40,93,-96,92v-23,0,-50,-7,-79,-22r14,-40v38,23,100,24,99,-27v1,-23,-17,-46,-40,-45v-7,0,-17,3,-31,9r-14,-19r52,-88r47,0","w":273},"\u00b9":{"d":"35,-623v72,-7,85,-16,101,-80r46,0r0,422r-58,0r0,-296r-89,0r0,-46","w":273},"\u00ba":{"d":"152,-737v87,0,128,72,128,166v0,97,-41,166,-130,166v-88,0,-130,-70,-130,-165v0,-98,40,-167,132,-167xm150,-457v55,0,75,-52,75,-114v0,-62,-20,-114,-74,-114v-56,0,-76,50,-76,114v0,63,20,114,75,114xm271,-304r-243,0r0,-48r243,0r0,48","w":299},"\u00bb":{"d":"208,-231r-128,123r0,-88r86,-81r-86,-81r0,-88r128,123r0,92xm376,-231r-128,123r0,-88r86,-81r-86,-81r0,-88r128,123r0,92"},"\u00bc":{"d":"620,-94r-55,0r0,94r-52,0r0,-94r-169,0r0,-60r169,-268r52,0r0,270r55,0r0,58xm536,-703r-363,728r-47,0r363,-728r47,0xm60,-623v72,-7,85,-16,101,-80r44,0r0,422r-56,0r0,-299r-89,0r0,-43xm513,-152r0,-190r-118,190r118,0","w":684},"\u00bd":{"d":"506,-703r-363,728r-46,0r362,-728r47,0xm35,-623v72,-7,85,-16,101,-80r46,0r0,422r-58,0r0,-296r-89,0r0,-46xm512,-433v75,-1,122,60,122,137v0,135,-159,137,-200,234r200,0r0,62r-262,0v5,-84,30,-131,86,-167v31,-21,95,-61,108,-81v8,-11,11,-29,11,-54v0,-45,-24,-74,-69,-73v-56,1,-70,42,-74,104r-49,0v2,-108,44,-162,127,-162","w":684},"\u00be":{"d":"664,-94r-55,0r0,94r-52,0r0,-94r-169,0r0,-60r169,-268r52,0r0,270r55,0r0,58xm584,-703r-363,728r-47,0r363,-728r47,0xm235,-515v44,18,64,42,65,100v1,84,-53,147,-135,145v-90,-2,-119,-54,-128,-151r56,0v5,61,16,92,73,93v50,1,77,-31,77,-82v0,-62,-38,-73,-104,-71r0,-52v56,4,90,-13,90,-65v0,-39,-21,-58,-64,-58v-51,1,-65,28,-69,80r-50,0v4,-92,45,-138,123,-138v69,-1,118,44,117,112v0,44,-17,73,-51,87xm557,-152r0,-190r-118,190r118,0","w":684},"\u00bf":{"d":"130,8v-1,69,34,119,100,119v72,0,108,-52,108,-157r72,0v0,84,-8,119,-43,165v-35,46,-82,69,-140,69v-132,0,-208,-145,-159,-274v14,-38,109,-133,121,-172v7,-21,12,-53,12,-98r72,0v-2,124,-16,134,-77,215v-28,37,-48,62,-55,77v-7,15,-11,33,-11,56xm275,-421r-80,0r0,-102r80,0r0,102"},"\u00c0":{"d":"536,0r-87,0r-58,-209r-236,0r-62,209r-82,0r221,-718r91,0xm362,-296r-88,-318r-95,318r183,0xm309,-779r-60,0r-107,-121r94,0","w":547},"\u00c1":{"d":"536,0r-87,0r-58,-209r-236,0r-62,209r-82,0r221,-718r91,0xm362,-296r-88,-318r-95,318r183,0xm415,-900r-107,121r-60,0r73,-121r94,0","w":547},"\u00c2":{"d":"536,0r-87,0r-58,-209r-236,0r-62,209r-82,0r221,-718r91,0xm362,-296r-88,-318r-95,318r183,0xm412,-780r-66,0r-69,-73r-69,73r-65,0r96,-121r77,0","w":547},"\u00c3":{"d":"536,0r-87,0r-58,-209r-236,0r-62,209r-82,0r221,-718r91,0xm362,-296r-88,-318r-95,318r183,0xm418,-898v-15,94,-53,131,-130,96v-19,-8,-58,-24,-72,-24v-17,0,-30,15,-38,44r-39,0v12,-98,63,-129,141,-92v15,8,45,22,59,22v20,0,33,-15,38,-46r41,0","w":547},"\u00c4":{"d":"536,0r-87,0r-58,-209r-236,0r-62,209r-82,0r221,-718r91,0xm362,-296r-88,-318r-95,318r183,0xm242,-792r-88,0r0,-96r88,0r0,96xm403,-792r-88,0r0,-96r88,0r0,96","w":547},"\u00c5":{"d":"536,0r-87,0r-58,-209r-236,0r-62,209r-82,0r221,-718r91,0xm362,-296r-88,-318r-95,318r183,0xm279,-942v54,0,101,33,101,84v0,49,-49,82,-101,82v-54,0,-102,-33,-102,-84v0,-49,49,-82,102,-82xm279,-812v28,0,57,-20,57,-46v0,-27,-29,-48,-57,-48v-28,0,-59,20,-58,46v0,28,29,48,58,48","w":547},"\u00c6":{"d":"780,0r-405,0r0,-209r-217,0r-65,209r-86,0r239,-718r528,0r0,87r-319,0r0,219r291,0r0,87r-291,0r0,238r325,0r0,87xm375,-296r0,-335r-80,0r-109,335r189,0","w":820},"\u00c7":{"d":"330,141v1,-23,-17,-46,-40,-45v-7,0,-17,3,-31,9r-14,-19r40,-67v-77,-5,-136,-43,-182,-109v-90,-128,-88,-422,7,-544v52,-67,117,-103,201,-103v141,1,226,100,241,235r-77,0v-23,-99,-77,-148,-162,-148v-61,0,-107,27,-143,78v-67,93,-68,335,-2,428v35,49,80,76,140,76v45,0,81,-15,110,-46v29,-31,50,-81,63,-150r77,0v-19,102,-34,154,-87,211v-37,39,-83,63,-137,70r-22,41v51,-5,80,33,80,80v1,55,-40,93,-96,92v-23,0,-50,-7,-79,-22r14,-40v38,23,100,24,99,-27","w":592},"\u00c8":{"d":"505,0r-434,0r0,-718r428,0r0,87r-348,0r0,219r321,0r0,87r-321,0r0,238r354,0r0,87xm316,-779r-60,0r-107,-121r94,0","w":547},"\u00c9":{"d":"505,0r-434,0r0,-718r428,0r0,87r-348,0r0,219r321,0r0,87r-321,0r0,238r354,0r0,87xm422,-900r-107,121r-60,0r73,-121r94,0","w":547},"\u00ca":{"d":"505,0r-434,0r0,-718r428,0r0,87r-348,0r0,219r321,0r0,87r-321,0r0,238r354,0r0,87xm419,-780r-66,0r-69,-73r-69,73r-65,0r96,-121r77,0","w":547},"\u00cb":{"d":"505,0r-434,0r0,-718r428,0r0,87r-348,0r0,219r321,0r0,87r-321,0r0,238r354,0r0,87xm249,-792r-88,0r0,-96r88,0r0,96xm410,-792r-88,0r0,-96r88,0r0,96","w":547},"\u00cc":{"d":"154,0r-79,0r0,-718r79,0r0,718xm154,-779r-60,0r-107,-121r94,0","w":228},"\u00cd":{"d":"154,0r-79,0r0,-718r79,0r0,718xm243,-900r-107,121r-60,0r73,-121r94,0","w":228},"\u00ce":{"d":"154,0r-79,0r0,-718r79,0r0,718xm249,-780r-66,0r-69,-73r-69,73r-65,0r96,-121r77,0","w":228},"\u00cf":{"d":"154,0r-79,0r0,-718r79,0r0,718xm79,-792r-88,0r0,-96r88,0r0,96xm240,-792r-88,0r0,-96r88,0r0,96","w":228},"\u00d0":{"d":"486,-623v91,121,84,400,0,521v-46,67,-106,102,-184,102r-236,0r0,-325r-66,0r0,-87r66,0r0,-306r240,0v75,0,133,33,180,95xm426,-157v59,-89,59,-320,0,-407v-32,-47,-74,-71,-131,-71r-149,0r0,223r158,0r0,87r-158,0r0,242r155,0v53,0,93,-26,125,-74","w":592},"\u00d1":{"d":"530,0r-89,0r-302,-583r0,583r-77,0r0,-718r94,0r297,583r0,-583r77,0r0,718xm436,-898v-15,94,-53,131,-130,96v-19,-8,-58,-24,-72,-24v-17,0,-30,15,-38,44r-39,0v12,-98,63,-129,141,-92v15,8,45,22,59,22v20,0,33,-15,38,-46r41,0","w":592},"\u00d2":{"d":"32,-358v-2,-202,98,-380,291,-379v83,0,148,36,203,105v84,106,104,316,48,462v-38,101,-124,188,-255,189v-130,0,-217,-88,-255,-189v-21,-56,-32,-119,-32,-188xm319,-68v136,-2,205,-138,205,-291v0,-87,-19,-157,-56,-211v-37,-54,-86,-80,-146,-80v-141,2,-208,135,-208,292v0,87,18,157,56,210v38,53,88,80,149,80xm354,-779r-60,0r-107,-121r94,0","w":638},"\u00d3":{"d":"32,-358v-2,-202,98,-380,291,-379v83,0,148,36,203,105v84,106,104,316,48,462v-38,101,-124,188,-255,189v-130,0,-217,-88,-255,-189v-21,-56,-32,-119,-32,-188xm319,-68v136,-2,205,-138,205,-291v0,-87,-19,-157,-56,-211v-37,-54,-86,-80,-146,-80v-141,2,-208,135,-208,292v0,87,18,157,56,210v38,53,88,80,149,80xm460,-900r-107,121r-60,0r73,-121r94,0","w":638},"\u00d4":{"d":"32,-358v-2,-202,98,-380,291,-379v83,0,148,36,203,105v84,106,104,316,48,462v-38,101,-124,188,-255,189v-130,0,-217,-88,-255,-189v-21,-56,-32,-119,-32,-188xm319,-68v136,-2,205,-138,205,-291v0,-87,-19,-157,-56,-211v-37,-54,-86,-80,-146,-80v-141,2,-208,135,-208,292v0,87,18,157,56,210v38,53,88,80,149,80xm457,-780r-66,0r-69,-73r-69,73r-65,0r96,-121r77,0","w":638},"\u00d5":{"d":"32,-358v-2,-202,98,-380,291,-379v83,0,148,36,203,105v84,106,104,316,48,462v-38,101,-124,188,-255,189v-130,0,-217,-88,-255,-189v-21,-56,-32,-119,-32,-188xm319,-68v136,-2,205,-138,205,-291v0,-87,-19,-157,-56,-211v-37,-54,-86,-80,-146,-80v-141,2,-208,135,-208,292v0,87,18,157,56,210v38,53,88,80,149,80xm463,-898v-15,94,-53,131,-130,96v-19,-8,-58,-24,-72,-24v-17,0,-30,15,-38,44r-39,0v12,-98,63,-129,141,-92v15,8,45,22,59,22v20,0,33,-15,38,-46r41,0","w":638},"\u00d6":{"d":"32,-358v-2,-202,98,-380,291,-379v83,0,148,36,203,105v84,106,104,316,48,462v-38,101,-124,188,-255,189v-130,0,-217,-88,-255,-189v-21,-56,-32,-119,-32,-188xm319,-68v136,-2,205,-138,205,-291v0,-87,-19,-157,-56,-211v-37,-54,-86,-80,-146,-80v-141,2,-208,135,-208,292v0,87,18,157,56,210v38,53,88,80,149,80xm287,-792r-88,0r0,-96r88,0r0,96xm448,-792r-88,0r0,-96r88,0r0,96","w":638},"\u00d7":{"d":"391,-141r-41,41r-110,-109r-110,110r-41,-41r110,-111r-110,-110r41,-41r110,110r110,-109r41,41r-110,109","w":479},"\u00d8":{"d":"320,-737v95,0,143,34,195,89r67,-89r25,30r-68,91v92,153,90,389,-9,526v-52,72,-122,109,-212,109v-93,0,-141,-33,-192,-87r-66,87r-26,-28r68,-90v-77,-126,-92,-302,-38,-449v37,-102,124,-189,256,-189xm318,-68v137,-2,206,-138,206,-291v0,-69,-13,-131,-40,-184r-306,405v40,47,87,70,140,70xm320,-650v-137,2,-206,138,-206,291v0,69,14,131,42,188r307,-407v-41,-48,-88,-72,-143,-72","w":638},"\u00d9":{"d":"295,-68v106,0,153,-82,153,-196r0,-454r80,0r0,466v2,156,-87,271,-236,271v-143,0,-227,-109,-227,-258r0,-479r80,0r0,452v-1,115,45,198,150,198xm328,-779r-60,0r-107,-121r94,0","w":592},"\u00da":{"d":"295,-68v106,0,153,-82,153,-196r0,-454r80,0r0,466v2,156,-87,271,-236,271v-143,0,-227,-109,-227,-258r0,-479r80,0r0,452v-1,115,45,198,150,198xm434,-900r-107,121r-60,0r73,-121r94,0","w":592},"\u00db":{"d":"295,-68v106,0,153,-82,153,-196r0,-454r80,0r0,466v2,156,-87,271,-236,271v-143,0,-227,-109,-227,-258r0,-479r80,0r0,452v-1,115,45,198,150,198xm431,-780r-66,0r-69,-73r-69,73r-65,0r96,-121r77,0","w":592},"\u00dc":{"d":"295,-68v106,0,153,-82,153,-196r0,-454r80,0r0,466v2,156,-87,271,-236,271v-143,0,-227,-109,-227,-258r0,-479r80,0r0,452v-1,115,45,198,150,198xm261,-792r-88,0r0,-96r88,0r0,96xm422,-792r-88,0r0,-96r88,0r0,96","w":592},"\u00dd":{"d":"535,-718r-222,429r0,289r-80,0r0,-289r-222,-429r93,0r169,345r169,-345r93,0xm410,-900r-107,121r-60,0r73,-121r94,0","w":547},"\u00de":{"d":"335,-599v109,-1,175,89,175,203v0,118,-64,212,-175,212r-184,0r0,184r-80,0r0,-718r80,0r0,119r184,0xm428,-393v0,-82,-39,-123,-117,-123r-160,0r0,249r157,0v80,0,120,-42,120,-126","w":547},"\u00df":{"d":"247,-728v114,0,194,71,193,182v0,62,-22,111,-67,146v63,27,95,86,95,177v1,131,-74,241,-206,238v-16,0,-31,-2,-44,-7r0,-75v109,19,175,-34,175,-147v0,-93,-47,-140,-140,-140v-12,0,-22,1,-31,4r0,-79v83,11,146,-29,146,-109v0,-72,-50,-114,-124,-113v-89,1,-116,48,-117,141r0,510r-72,0r0,-532v-1,-121,72,-196,192,-196","w":501},"\u00e0":{"d":"223,-538v98,0,164,52,164,146r0,301v2,33,16,35,48,27r0,64v-19,7,-33,10,-42,10v-54,-1,-68,-27,-74,-80v-41,51,-75,83,-152,85v-85,2,-137,-66,-137,-153v0,-92,50,-150,130,-162r119,-18v25,-4,38,-24,38,-60v0,-58,-33,-87,-99,-87v-67,0,-101,34,-101,101r-66,0v0,-116,57,-174,172,-174xm182,-58v68,1,133,-57,133,-123r0,-86v-32,32,-152,23,-189,61v-14,14,-21,34,-21,60v0,53,26,87,77,88xm251,-584r-55,0r-107,-141r89,0"},"\u00e1":{"d":"223,-538v98,0,164,52,164,146r0,301v2,33,16,35,48,27r0,64v-19,7,-33,10,-42,10v-54,-1,-68,-27,-74,-80v-41,51,-75,83,-152,85v-85,2,-137,-66,-137,-153v0,-92,50,-150,130,-162r119,-18v25,-4,38,-24,38,-60v0,-58,-33,-87,-99,-87v-67,0,-101,34,-101,101r-66,0v0,-116,57,-174,172,-174xm182,-58v68,1,133,-57,133,-123r0,-86v-32,32,-152,23,-189,61v-14,14,-21,34,-21,60v0,53,26,87,77,88xm357,-725r-107,141r-55,0r73,-141r89,0"},"\u00e2":{"d":"223,-538v98,0,164,52,164,146r0,301v2,33,16,35,48,27r0,64v-19,7,-33,10,-42,10v-54,-1,-68,-27,-74,-80v-41,51,-75,83,-152,85v-85,2,-137,-66,-137,-153v0,-92,50,-150,130,-162r119,-18v25,-4,38,-24,38,-60v0,-58,-33,-87,-99,-87v-67,0,-101,34,-101,101r-66,0v0,-116,57,-174,172,-174xm182,-58v68,1,133,-57,133,-123r0,-86v-32,32,-152,23,-189,61v-14,14,-21,34,-21,60v0,53,26,87,77,88xm342,-585r-66,0r-54,-93r-54,93r-65,0r81,-141r77,0"},"\u00e3":{"d":"223,-538v98,0,164,52,164,146r0,301v2,33,16,35,48,27r0,64v-19,7,-33,10,-42,10v-54,-1,-68,-27,-74,-80v-41,51,-75,83,-152,85v-85,2,-137,-66,-137,-153v0,-92,50,-150,130,-162r119,-18v25,-4,38,-24,38,-60v0,-58,-33,-87,-99,-87v-67,0,-101,34,-101,101r-66,0v0,-116,57,-174,172,-174xm182,-58v68,1,133,-57,133,-123r0,-86v-32,32,-152,23,-189,61v-14,14,-21,34,-21,60v0,53,26,87,77,88xm362,-713v-15,94,-53,131,-130,96v-19,-8,-58,-24,-72,-24v-17,0,-30,15,-38,44r-39,0v12,-98,63,-129,141,-92v15,8,45,22,59,22v20,0,33,-15,38,-46r41,0"},"\u00e4":{"d":"223,-538v98,0,164,52,164,146r0,301v2,33,16,35,48,27r0,64v-19,7,-33,10,-42,10v-54,-1,-68,-27,-74,-80v-41,51,-75,83,-152,85v-85,2,-137,-66,-137,-153v0,-92,50,-150,130,-162r119,-18v25,-4,38,-24,38,-60v0,-58,-33,-87,-99,-87v-67,0,-101,34,-101,101r-66,0v0,-116,57,-174,172,-174xm182,-58v68,1,133,-57,133,-123r0,-86v-32,32,-152,23,-189,61v-14,14,-21,34,-21,60v0,53,26,87,77,88xm186,-607r-88,0r0,-96r88,0r0,96xm347,-607r-88,0r0,-96r88,0r0,96"},"\u00e5":{"d":"223,-538v98,0,164,52,164,146r0,301v2,33,16,35,48,27r0,64v-19,7,-33,10,-42,10v-54,-1,-68,-27,-74,-80v-41,51,-75,83,-152,85v-85,2,-137,-66,-137,-153v0,-92,50,-150,130,-162r119,-18v25,-4,38,-24,38,-60v0,-58,-33,-87,-99,-87v-67,0,-101,34,-101,101r-66,0v0,-116,57,-174,172,-174xm182,-58v68,1,133,-57,133,-123r0,-86v-32,32,-152,23,-189,61v-14,14,-21,34,-21,60v0,53,26,87,77,88xm223,-738v54,0,101,33,101,84v0,49,-49,82,-101,82v-54,0,-102,-33,-102,-84v0,-49,49,-82,102,-82xm223,-608v28,0,57,-20,57,-46v0,-27,-29,-48,-57,-48v-28,0,-59,20,-58,46v0,28,29,48,58,48"},"\u00e6":{"d":"367,-464v42,-48,65,-74,141,-74v58,0,103,23,134,70v31,47,48,126,53,235r-314,0v4,114,45,171,122,171v59,1,108,-48,114,-102r72,0v-15,101,-78,179,-189,179v-90,0,-127,-41,-161,-109v-40,66,-79,107,-168,109v-88,2,-141,-63,-141,-153v0,-92,50,-150,130,-162r119,-18v25,-4,38,-24,38,-60v0,-58,-33,-87,-99,-87v-71,0,-90,33,-101,101r-66,0v7,-119,57,-174,177,-174v78,0,98,24,139,74xm620,-303v-8,-105,-47,-157,-116,-157v-78,0,-120,74,-123,157r239,0xm182,-58v68,1,133,-57,133,-123r0,-86v-31,32,-152,23,-189,62v-14,14,-21,34,-21,59v0,53,26,87,77,88","w":729},"\u00e7":{"d":"321,-347v-11,-68,-32,-113,-100,-113v-37,0,-65,19,-87,53v-40,62,-41,231,-2,294v21,33,47,51,84,51v55,0,90,-41,105,-123r70,0v-15,119,-63,185,-145,198r-24,45v51,-5,80,33,80,80v1,55,-40,93,-96,92v-23,0,-50,-7,-79,-22r14,-40v38,23,100,24,99,-27v1,-23,-17,-46,-40,-45v-7,0,-17,3,-31,9r-14,-19r43,-72v-116,-13,-173,-128,-173,-266v0,-87,18,-156,55,-208v37,-52,86,-78,148,-78v96,0,150,64,163,191r-70,0","w":410},"\u00e8":{"d":"230,15v-134,0,-197,-120,-197,-267v0,-87,18,-156,55,-208v37,-52,86,-78,148,-78v58,0,102,24,134,72v32,48,50,125,53,233r-313,0v4,114,45,171,122,171v60,1,108,-47,113,-102r72,0v-16,102,-78,179,-187,179xm348,-303v-7,-105,-46,-157,-115,-157v-77,1,-121,75,-123,157r238,0xm256,-584r-55,0r-107,-141r89,0"},"\u00e9":{"d":"230,15v-134,0,-197,-120,-197,-267v0,-87,18,-156,55,-208v37,-52,86,-78,148,-78v58,0,102,24,134,72v32,48,50,125,53,233r-313,0v4,114,45,171,122,171v60,1,108,-47,113,-102r72,0v-16,102,-78,179,-187,179xm348,-303v-7,-105,-46,-157,-115,-157v-77,1,-121,75,-123,157r238,0xm362,-725r-107,141r-55,0r73,-141r89,0"},"\u00ea":{"d":"230,15v-134,0,-197,-120,-197,-267v0,-87,18,-156,55,-208v37,-52,86,-78,148,-78v58,0,102,24,134,72v32,48,50,125,53,233r-313,0v4,114,45,171,122,171v60,1,108,-47,113,-102r72,0v-16,102,-78,179,-187,179xm348,-303v-7,-105,-46,-157,-115,-157v-77,1,-121,75,-123,157r238,0xm347,-585r-66,0r-54,-93r-54,93r-65,0r81,-141r77,0"},"\u00eb":{"d":"230,15v-134,0,-197,-120,-197,-267v0,-87,18,-156,55,-208v37,-52,86,-78,148,-78v58,0,102,24,134,72v32,48,50,125,53,233r-313,0v4,114,45,171,122,171v60,1,108,-47,113,-102r72,0v-16,102,-78,179,-187,179xm348,-303v-7,-105,-46,-157,-115,-157v-77,1,-121,75,-123,157r238,0xm191,-607r-88,0r0,-96r88,0r0,96xm352,-607r-88,0r0,-96r88,0r0,96"},"\u00ec":{"d":"150,0r-72,0r0,-523r72,0r0,523xm150,-584r-55,0r-107,-141r89,0","w":228},"\u00ed":{"d":"150,0r-72,0r0,-523r72,0r0,523xm240,-725r-107,141r-55,0r73,-141r89,0","w":228},"\u00ee":{"d":"150,0r-72,0r0,-523r72,0r0,523xm233,-585r-66,0r-54,-93r-54,93r-65,0r81,-141r77,0","w":228},"\u00ef":{"d":"150,0r-72,0r0,-523r72,0r0,523xm77,-607r-88,0r0,-96r88,0r0,96xm238,-607r-88,0r0,-96r88,0r0,96","w":228},"\u00f0":{"d":"297,-646v83,104,131,193,131,356v0,93,-18,167,-54,222v-36,55,-83,83,-144,83v-127,-1,-201,-128,-201,-268v0,-78,18,-142,54,-193v36,-51,81,-77,136,-77v60,0,78,22,111,60v-20,-55,-51,-105,-94,-149r-101,62r-35,-42r97,-57v-23,-21,-47,-38,-73,-52r61,-36v27,13,51,30,74,51r87,-51r39,40xm228,-62v168,0,167,-384,2,-384v-84,0,-126,96,-126,192v0,96,39,192,124,192"},"\u00f1":{"d":"258,-538v97,1,145,77,145,182r0,356r-72,0r0,-322v-1,-83,-16,-138,-88,-138v-83,0,-118,80,-118,175r0,285r-72,0r0,-523r68,0r0,77v35,-61,80,-92,137,-92xm367,-713v-15,94,-53,131,-130,96v-19,-8,-58,-24,-72,-24v-17,0,-30,15,-38,44r-39,0v12,-98,63,-129,141,-92v15,8,45,22,59,22v20,0,33,-15,38,-46r41,0"},"\u00f2":{"d":"231,-538v126,0,196,135,196,276v0,144,-70,276,-199,276v-129,0,-199,-133,-199,-276v0,-147,69,-276,202,-276xm228,-63v87,0,124,-97,124,-199v0,-60,-12,-108,-34,-144v-22,-36,-51,-55,-88,-55v-90,0,-127,95,-126,199v0,61,11,109,34,145v23,36,53,54,90,54xm256,-584r-55,0r-107,-141r89,0"},"\u00f3":{"d":"231,-538v126,0,196,135,196,276v0,144,-70,276,-199,276v-129,0,-199,-133,-199,-276v0,-147,69,-276,202,-276xm228,-63v87,0,124,-97,124,-199v0,-60,-12,-108,-34,-144v-22,-36,-51,-55,-88,-55v-90,0,-127,95,-126,199v0,61,11,109,34,145v23,36,53,54,90,54xm362,-725r-107,141r-55,0r73,-141r89,0"},"\u00f4":{"d":"231,-538v126,0,196,135,196,276v0,144,-70,276,-199,276v-129,0,-199,-133,-199,-276v0,-147,69,-276,202,-276xm228,-63v87,0,124,-97,124,-199v0,-60,-12,-108,-34,-144v-22,-36,-51,-55,-88,-55v-90,0,-127,95,-126,199v0,61,11,109,34,145v23,36,53,54,90,54xm347,-585r-66,0r-54,-93r-54,93r-65,0r81,-141r77,0"},"\u00f5":{"d":"231,-538v126,0,196,135,196,276v0,144,-70,276,-199,276v-129,0,-199,-133,-199,-276v0,-147,69,-276,202,-276xm228,-63v87,0,124,-97,124,-199v0,-60,-12,-108,-34,-144v-22,-36,-51,-55,-88,-55v-90,0,-127,95,-126,199v0,61,11,109,34,145v23,36,53,54,90,54xm367,-713v-15,94,-53,131,-130,96v-19,-8,-58,-24,-72,-24v-17,0,-30,15,-38,44r-39,0v12,-98,63,-129,141,-92v15,8,45,22,59,22v20,0,33,-15,38,-46r41,0"},"\u00f6":{"d":"231,-538v126,0,196,135,196,276v0,144,-70,276,-199,276v-129,0,-199,-133,-199,-276v0,-147,69,-276,202,-276xm228,-63v87,0,124,-97,124,-199v0,-60,-12,-108,-34,-144v-22,-36,-51,-55,-88,-55v-90,0,-127,95,-126,199v0,61,11,109,34,145v23,36,53,54,90,54xm191,-607r-88,0r0,-96r88,0r0,96xm352,-607r-88,0r0,-96r88,0r0,96"},"\u00f7":{"d":"424,-221r-369,0r0,-58r369,0r0,58xm240,-473v22,0,43,21,43,43v0,23,-21,43,-43,43v-23,0,-43,-20,-43,-43v0,-22,20,-43,43,-43xm240,-114v22,0,43,21,43,43v0,23,-21,43,-43,43v-23,0,-43,-20,-43,-43v0,-22,20,-43,43,-43","w":479},"\u00f8":{"d":"29,-262v0,-145,69,-274,200,-276v51,0,95,22,133,65r53,-72r25,26r-57,78v29,55,44,115,44,180v0,144,-70,273,-200,275v-49,0,-92,-20,-129,-60r-50,68r-25,-26r52,-72v-31,-57,-46,-119,-46,-186xm228,-461v-125,3,-148,199,-104,318r193,-267v-23,-34,-53,-51,-89,-51xm227,-63v123,-2,148,-191,107,-310r-191,265v22,30,50,45,84,45"},"\u00f9":{"d":"211,-62v81,0,118,-81,118,-173r0,-288r72,0r0,523r-68,0r0,-81v-35,61,-55,94,-136,96v-91,2,-141,-66,-141,-162r0,-376r72,0r0,347v0,76,28,114,83,114xm256,-584r-55,0r-107,-141r89,0"},"\u00fa":{"d":"211,-62v81,0,118,-81,118,-173r0,-288r72,0r0,523r-68,0r0,-81v-35,61,-55,94,-136,96v-91,2,-141,-66,-141,-162r0,-376r72,0r0,347v0,76,28,114,83,114xm362,-725r-107,141r-55,0r73,-141r89,0"},"\u00fb":{"d":"211,-62v81,0,118,-81,118,-173r0,-288r72,0r0,523r-68,0r0,-81v-35,61,-55,94,-136,96v-91,2,-141,-66,-141,-162r0,-376r72,0r0,347v0,76,28,114,83,114xm347,-585r-66,0r-54,-93r-54,93r-65,0r81,-141r77,0"},"\u00fc":{"d":"211,-62v81,0,118,-81,118,-173r0,-288r72,0r0,523r-68,0r0,-81v-35,61,-55,94,-136,96v-91,2,-141,-66,-141,-162r0,-376r72,0r0,347v0,76,28,114,83,114xm191,-607r-88,0r0,-96r88,0r0,96xm352,-607r-88,0r0,-96r88,0r0,96"},"\u00fd":{"d":"136,209v-21,5,-66,9,-88,-3r0,-80v24,11,63,15,78,-4v14,-17,31,-77,42,-108r-159,-537r81,0r115,429r116,-429r80,0r-155,513v-30,90,-35,132,-73,188v-12,18,-25,28,-37,31xm339,-725r-107,141r-55,0r73,-141r89,0","w":410},"\u00fe":{"d":"246,-538v120,0,178,127,178,264v0,87,-19,156,-51,210v-59,97,-198,111,-253,6r0,265r-72,0r0,-925r72,0r0,270v31,-55,54,-90,126,-90xm117,-244v0,97,33,182,117,182v37,0,64,-19,85,-55v37,-62,41,-233,1,-295v-20,-32,-48,-48,-85,-48v-79,0,-118,72,-118,216"},"\u00ff":{"d":"136,209v-21,5,-66,9,-88,-3r0,-80v24,11,63,15,78,-4v14,-17,31,-77,42,-108r-159,-537r81,0r115,429r116,-429r80,0r-155,513v-30,90,-35,132,-73,188v-12,18,-25,28,-37,31xm168,-607r-88,0r0,-96r88,0r0,96xm329,-607r-88,0r0,-96r88,0r0,96","w":410},"\u0152":{"d":"279,-737v86,0,114,34,151,96r0,-77r359,0r0,87r-285,0r0,219r272,0r0,87r-272,0r0,238r287,0r0,87r-362,0r0,-78v-45,63,-66,97,-156,97v-74,0,-131,-35,-177,-101v-88,-127,-85,-421,2,-548v47,-70,106,-107,181,-107xm283,-64v89,1,141,-73,141,-166r0,-262v2,-92,-54,-163,-142,-162v-55,0,-95,28,-126,80v-54,90,-60,348,0,438v31,47,72,72,127,72","w":820},"\u0153":{"d":"389,-432v41,-66,72,-106,163,-106v59,0,104,24,136,71v32,47,49,125,52,234r-314,0v4,114,45,171,123,171v59,1,107,-48,113,-102r72,0v-16,103,-78,179,-188,179v-90,0,-122,-38,-164,-101v-31,67,-81,100,-151,100v-133,-1,-202,-129,-202,-276v0,-144,70,-274,199,-276v69,0,122,35,161,106xm665,-303v-7,-105,-46,-157,-115,-157v-78,1,-122,75,-124,157r239,0xm228,-63v88,0,127,-96,125,-199v0,-60,-11,-108,-33,-144v-22,-36,-53,-55,-90,-55v-89,0,-127,96,-126,199v0,61,11,109,34,145v23,36,53,54,90,54","w":774},"\u0178":{"d":"535,-718r-222,429r0,289r-80,0r0,-289r-222,-429r93,0r169,345r169,-345r93,0xm237,-792r-88,0r0,-96r88,0r0,96xm398,-792r-88,0r0,-96r88,0r0,96","w":547},"\u02c6":{"d":"256,-585r-66,0r-54,-93r-54,93r-65,0r81,-141r77,0","w":273},"\u02dc":{"d":"276,-713v-15,94,-53,131,-130,96v-19,-8,-58,-24,-72,-24v-17,0,-30,15,-38,44r-39,0v12,-98,63,-129,141,-92v15,8,45,22,59,22v20,0,33,-15,38,-46r41,0","w":273},"\u2013":{"d":"456,-240r-456,0r0,-73r456,0r0,73"},"\u2014":{"d":"820,-240r-820,0r0,-73r820,0r0,73","w":820},"\u2018":{"d":"139,-469r-86,0v1,-70,-6,-162,19,-203v14,-23,36,-42,67,-53r0,47v-39,10,-43,47,-44,102r44,0r0,107","w":182},"\u2019":{"d":"129,-718v-1,70,6,163,-19,204v-14,23,-36,41,-67,52r0,-47v39,-10,43,-47,44,-102r-44,0r0,-107r86,0","w":182},"\u201a":{"d":"129,-107v-1,70,6,162,-19,203v-14,23,-36,42,-67,53r0,-47v39,-10,43,-47,44,-102r-44,0r0,-107r86,0","w":182},"\u201c":{"d":"252,-469r-85,0v1,-71,-5,-162,19,-204v14,-24,35,-41,66,-52r0,47v-39,11,-42,46,-43,102r43,0r0,107xm116,-469r-85,0v1,-70,-6,-162,19,-203v14,-23,35,-42,66,-53r0,47v-39,11,-42,46,-43,102r43,0r0,107","w":273},"\u201d":{"d":"106,-718v-1,70,5,163,-20,204v-14,23,-34,41,-65,52r0,-47v39,-11,42,-46,43,-102r-43,0r0,-107r85,0xm242,-718v-1,70,5,163,-20,204v-14,23,-34,41,-65,52r0,-47v39,-11,42,-46,43,-102r-43,0r0,-107r85,0","w":273},"\u201e":{"d":"106,-107v-1,70,5,162,-20,203v-14,23,-34,42,-65,53r0,-47v39,-11,42,-46,43,-102r-43,0r0,-107r85,0xm242,-107v-1,71,4,162,-20,204v-14,24,-34,41,-65,52r0,-47v39,-11,42,-46,43,-102r-43,0r0,-107r85,0","w":273},"\u2022":{"d":"145,-517v72,0,128,80,128,158v0,79,-55,157,-130,157v-74,0,-128,-77,-128,-156v0,-82,53,-159,130,-159","w":287},"\u2026":{"d":"179,0r-85,0r0,-107r85,0r0,107xm452,0r-85,0r0,-107r85,0r0,107xm726,0r-85,0r0,-107r85,0r0,107","w":820},"\u2039":{"d":"201,-108r-129,-123r0,-92r129,-123r0,88r-86,81r86,81r0,88","w":273},"\u203a":{"d":"201,-231r-129,123r0,-88r86,-81r-86,-81r0,-88r129,123r0,92","w":273},"\u20ac":{"d":"335,12v-159,-3,-232,-113,-243,-276r-92,0r25,-62r64,0r1,-63r-90,0r25,-62r68,0v14,-186,90,-279,229,-279v87,0,125,26,173,75r-32,82v-37,-53,-62,-87,-135,-87v-43,0,-76,17,-100,51v-24,34,-39,87,-46,158r232,0r-25,62r-211,0r0,63r185,0r-26,62r-156,0v7,72,23,125,48,158v52,69,166,62,227,-1r0,87v-42,21,-82,32,-121,32","w":510},"\u2122":{"d":"356,-718r0,54r-122,0r0,335r-57,0r0,-335r-122,0r0,-54r301,0xm765,-718r0,389r-54,0r0,-302r-96,302r-54,0r-94,-301r0,301r-56,0r0,-389r77,0r101,315r100,-315r76,0","w":820}}});
