/*!
 * The following copyright notice may not be removed under any circumstances.
 * 
 * Copyright:
 * Copyright (URW)++, copyright 1999 by (URW)++ Design & Development; Cyrillic
 * glyphs added by Valek Filippov, copyright 2001-2002; Vietnamese characters were
 * added by Han The Thanh; copyright 2006, 2008 for TeX Gyre extensions by B.
 * Jackowski and J.M. Nowacki (on behalf of TeX users groups). This work is
 * released under the GUST Font License --  see
 * http://tug.org/fonts/licenses/GUST-FONT-LICENSE.txt for details.
 * 
 * Trademark:
 * Please refer to the Copyright section for the font trademark attribution
 * notices.
 */
Cufon.registerFont({"w":556,"face":{"font-family":"TeXGyreHeros","font-weight":700,"font-style":"italic","font-stretch":"normal","units-per-em":"1000","panose-1":"0 0 8 0 0 0 0 0 0 0","ascent":"784","descent":"-216","x-height":"9","bbox":"-114 -962 1069 230.02","underline-thickness":"69","underline-position":"-52","slope":"-12","unicode-range":"U+0020-U+2122"},"glyphs":{" ":{"w":278},"!":{"d":"357,-726r-45,210r-107,309r-67,0r24,-309r45,-210r150,0xm202,0r-150,0r31,-146r150,0","w":333},"\"":{"d":"303,-729r-28,130r-69,129r-56,0r-13,-129r28,-130r138,0xm539,-729r-28,130r-69,129r-56,0r-13,-129r28,-130r138,0","w":474},"#":{"d":"599,-424r-106,0r-62,152r99,0r-21,100r-119,0r-84,204r-105,0r83,-204r-102,0r-84,204r-105,0r83,-204r-77,0r21,-100r97,0r62,-152r-99,0r22,-100r118,0r71,-173r106,0r-72,173r103,0r71,-173r106,0r-72,173r87,0xm387,-424r-102,0r-63,152r103,0"},"$":{"d":"199,21v-125,-8,-206,-93,-172,-228r130,0v-6,66,10,111,64,121r46,-213v-110,-28,-165,-87,-165,-176v1,-135,117,-224,252,-234r11,-54r68,0r-12,54v129,10,184,86,162,211r-128,0v10,-62,-2,-100,-55,-110r-43,201v62,19,107,42,135,69v28,27,41,60,41,101v0,151,-121,245,-267,258r-22,105r-68,0xm332,-608v-56,10,-99,46,-100,107v0,33,21,58,62,74xm289,-86v57,-12,100,-49,101,-112v0,-40,-20,-68,-59,-84"},"%":{"d":"793,-709r-551,729r-76,0r550,-729r77,0xm312,-701v85,0,153,61,153,144v0,111,-113,220,-225,220v-84,0,-151,-63,-151,-145v0,-110,113,-219,223,-219xm262,-435v52,0,103,-49,103,-101v0,-39,-35,-67,-74,-67v-51,0,-102,51,-102,102v0,38,34,66,73,66xm710,-344v85,0,153,61,153,144v0,111,-113,220,-225,220v-84,0,-151,-63,-151,-145v0,-110,113,-219,223,-219xm660,-78v52,0,103,-49,103,-101v0,-39,-35,-67,-74,-67v-51,0,-102,51,-102,102v0,38,34,66,73,66","w":889},"&":{"d":"680,-373v-12,80,-66,167,-118,213r94,160r-160,0r-37,-60v-80,54,-105,81,-212,83v-119,3,-198,-64,-198,-179v0,-54,17,-100,51,-138v34,-38,87,-74,159,-107v-35,-50,-53,-91,-53,-122v-3,-107,114,-200,225,-200v82,0,153,42,153,118v0,43,-12,81,-36,113v-24,32,-64,65,-123,100r82,137v35,-33,49,-61,60,-118r113,0xm186,-187v0,50,40,97,89,94v58,-3,79,-26,131,-59r-99,-167r-52,29v-46,26,-69,60,-69,103xm408,-615v-47,0,-79,44,-59,89v4,9,14,28,30,56v53,-28,80,-63,80,-104v0,-27,-22,-41,-51,-41","w":722},"'":{"d":"303,-729r-28,130r-70,129r-55,0r-13,-129r28,-130r138,0","w":238},"(":{"d":"163,-112v0,128,22,191,58,312r-100,0v-98,-222,-104,-405,-11,-619v43,-98,113,-201,208,-310r100,0v-95,129,-160,239,-198,329v-38,90,-57,187,-57,288","w":333},")":{"d":"197,-416v0,-130,-23,-189,-61,-313r100,0v102,220,108,412,12,623v-44,97,-114,198,-209,306r-100,0v97,-131,165,-241,202,-330v37,-89,56,-185,56,-286","w":333},"*":{"d":"438,-579r-116,35r47,94r-67,43r-47,-94r-87,94r-49,-43r87,-94r-101,-36r37,-69r101,36r24,-116r72,0r-25,116r117,-36","w":389},"+":{"d":"538,-200r-182,0r0,182r-100,0r0,-182r-182,0r0,-100r182,0r0,-182r100,0r0,182r182,0r0,100","w":584},",":{"d":"205,-146v-23,93,-29,209,-89,264v-31,29,-74,48,-129,56r12,-56v61,-11,98,-50,111,-118r-86,0r31,-146r150,0","w":278},"-":{"d":"331,-342r-29,135r-272,0r29,-135r272,0","w":333},".":{"d":"174,0r-150,0r31,-146r150,0","w":278},"\/":{"d":"387,-714r-361,728r-67,0r361,-728r67,0","w":278},"0":{"d":"381,-724v120,-2,193,78,193,198v0,107,-41,276,-77,352v-57,122,-144,183,-263,183v-118,0,-190,-80,-190,-199v0,-108,41,-274,77,-351v48,-101,129,-181,260,-183xm187,-197v0,49,29,84,76,84v29,0,53,-11,72,-32v19,-21,35,-57,49,-106v31,-110,47,-202,47,-277v1,-49,-30,-84,-77,-84v-35,0,-63,20,-88,57v-31,46,-79,277,-79,358"},"1":{"d":"489,-709r-151,709r-140,0r104,-489r-170,0r20,-93v123,0,204,-42,244,-127r93,0"},"2":{"d":"381,-724v121,-1,207,58,207,172v0,65,-22,123,-65,174v-28,33,-79,73,-152,119v-60,38,-101,65,-122,81v-21,16,-38,34,-51,53r300,0r-26,125r-482,0v41,-152,93,-197,223,-277v87,-54,147,-95,178,-127v36,-37,54,-80,54,-128v0,-51,-34,-81,-86,-80v-81,2,-116,67,-127,150r-134,0v22,-155,116,-260,283,-262"},"3":{"d":"373,-724v115,-2,200,46,200,151v0,75,-40,137,-119,186v48,29,72,70,72,123v1,162,-121,273,-291,273v-143,0,-230,-85,-199,-231r136,0v-4,70,19,109,91,109v66,0,126,-64,122,-131v-4,-71,-55,-78,-140,-80r20,-94v93,4,160,-38,160,-124v1,-42,-34,-71,-77,-70v-81,4,-97,49,-117,126r-129,0v30,-152,103,-236,271,-238"},"4":{"d":"540,-273r-25,116r-73,0r-34,157r-140,0r34,-157r-285,0r25,-118r352,-434r165,0r-93,436r74,0xm391,-577r-249,304r184,0"},"5":{"d":"357,-486v108,-1,175,77,175,186v0,172,-138,309,-310,309v-126,0,-224,-78,-195,-208r138,0v-13,61,31,85,86,86v87,1,138,-70,138,-163v0,-58,-31,-99,-89,-98v-45,0,-78,18,-101,53r-126,0r145,-388r383,0r-27,125r-296,0r-53,141v43,-29,87,-43,132,-43"},"6":{"d":"369,-467v104,-1,168,64,168,167v0,161,-129,309,-290,309v-119,0,-201,-69,-201,-187v0,-122,51,-309,99,-386v66,-106,151,-160,258,-160v113,-1,192,60,181,176r-130,0v-9,-44,-29,-63,-80,-64v-40,0,-71,14,-92,43v-21,29,-41,81,-62,158v49,-37,99,-56,149,-56xm264,-113v78,0,130,-72,130,-156v0,-49,-33,-86,-82,-86v-77,0,-136,78,-136,160v0,51,37,83,88,82"},"7":{"d":"616,-599r-105,108v-137,155,-216,278,-278,491r-142,0v89,-264,186,-401,373,-584r-353,0r27,-125r501,0"},"8":{"d":"451,-386v53,36,83,52,85,126v4,150,-140,269,-297,269v-124,0,-218,-55,-218,-171v0,-119,67,-176,160,-224v-38,-31,-63,-53,-65,-109v-4,-128,132,-229,266,-229v106,0,197,56,198,154v0,72,-43,133,-129,184xm323,-425v67,0,128,-51,127,-115v0,-46,-43,-72,-92,-72v-64,0,-120,50,-120,112v0,46,37,75,85,75xm260,-113v81,0,133,-59,133,-141v0,-51,-38,-76,-91,-76v-78,0,-138,63,-138,143v0,48,45,74,96,74"},"9":{"d":"373,-724v120,0,199,84,198,205v-1,134,-47,278,-101,370v-61,105,-147,158,-259,158v-110,0,-199,-73,-176,-188r135,0v-8,45,34,66,78,66v40,0,71,-15,94,-46v23,-31,42,-79,57,-146v-49,40,-73,62,-147,63v-104,2,-169,-70,-169,-175v0,-170,124,-307,290,-307xm300,-358v83,1,142,-80,142,-168v0,-56,-37,-86,-93,-86v-81,0,-131,85,-131,174v0,51,31,80,82,80"},":":{"d":"201,0r-150,0r31,-146r150,0xm281,-374r-150,0r31,-146r150,0","w":333},";":{"d":"232,-146v-23,93,-29,209,-89,264v-31,29,-74,48,-129,56r12,-56v61,-11,98,-50,111,-118r-86,0r31,-146r150,0xm281,-374r-150,0r31,-146r150,0","w":333},"<":{"d":"478,105r-376,-317r0,-76r376,-317r0,130r-266,225r266,225r0,130","w":584},"=":{"d":"538,-291r-464,0r0,-100r464,0r0,100xm538,-109r-464,0r0,-100r464,0r0,100","w":584},">":{"d":"478,-212r-376,317r0,-130r266,-225r-266,-225r0,-130r376,317r0,76","w":584},"?":{"d":"410,-744v125,0,215,63,216,178v0,58,-17,109,-51,153v-22,28,-62,58,-116,93v-64,42,-73,41,-91,119r-122,0v13,-99,63,-142,140,-198v43,-31,76,-56,92,-95v4,-10,5,-23,5,-39v1,-51,-40,-88,-91,-87v-79,2,-120,64,-134,139r-136,0v39,-175,135,-263,288,-263xm341,0r-150,0r31,-146r150,0","w":611},"@":{"d":"630,-745v187,-3,367,127,362,306v-4,169,-101,288,-215,352v-79,44,-194,47,-220,-39v-50,49,-103,73,-159,73v-80,0,-139,-57,-137,-136v3,-115,97,-224,179,-277v52,-34,100,-52,146,-52v58,1,78,24,97,69r27,-59r90,0r-136,280v-13,28,-20,46,-19,54v0,21,17,35,39,35v45,0,93,-32,142,-95v49,-63,73,-126,73,-191v1,-139,-147,-240,-298,-237v-169,4,-292,79,-369,187v-66,91,-99,184,-99,279v-1,154,140,250,303,250v56,0,127,-14,212,-41r12,79v-73,30,-156,45,-247,45v-215,0,-379,-119,-380,-318v0,-95,29,-186,83,-273v96,-154,284,-287,514,-291xm428,-136v81,0,203,-156,203,-240v0,-41,-29,-70,-70,-70v-83,0,-200,143,-200,231v0,44,25,79,67,79","w":975},"A":{"d":"663,0r-153,0r-18,-147r-272,0r-81,147r-153,0r407,-729r173,0xm478,-272r-35,-283r-154,283r189,0","w":722},"B":{"d":"605,-388v43,35,71,66,71,133v0,70,-40,138,-81,177v-54,52,-129,78,-225,78r-328,0r155,-729r325,0v115,-2,199,52,200,158v0,71,-39,132,-117,183xm449,-439v76,2,124,-36,124,-103v0,-49,-35,-62,-89,-62r-164,0r-35,165r164,0xm397,-125v80,2,131,-45,131,-120v0,-46,-30,-69,-91,-69r-178,0r-40,189r178,0","w":722},"C":{"d":"493,-741v158,0,286,93,256,259r-141,0v0,-87,-44,-131,-132,-131v-80,0,-143,36,-189,109v-47,73,-70,151,-70,234v0,103,49,154,148,154v101,0,166,-44,194,-133r143,0v-40,161,-165,260,-358,261v-166,1,-277,-91,-276,-253v0,-143,41,-262,123,-357v82,-95,183,-143,302,-143","w":722},"D":{"d":"477,-729v180,1,258,72,259,250v0,123,-37,236,-112,339v-71,97,-144,140,-302,140r-285,0r155,-729r285,0xm587,-469v0,-90,-46,-135,-137,-135r-135,0r-101,479v85,-2,186,10,240,-23v83,-50,133,-189,133,-321","w":722},"E":{"d":"611,-125r-27,125r-545,0r155,-729r528,0r-27,125r-378,0r-35,165r349,0r-26,125r-349,0r-40,189r395,0","w":667},"F":{"d":"701,-729r-27,125r-362,0r-35,165r320,0r-27,125r-319,0r-67,314r-150,0r155,-729r512,0","w":611},"G":{"d":"217,-290v0,100,73,176,171,174v105,-1,189,-62,214,-151r-166,0r27,-125r292,0r-84,392r-90,0r8,-94v-66,67,-117,104,-232,106v-174,3,-291,-107,-289,-280v2,-181,96,-329,216,-406v69,-44,142,-67,223,-67v158,-1,289,83,270,245r-138,0v-8,-78,-70,-117,-160,-117v-158,0,-262,156,-262,323","w":778},"H":{"d":"772,-729r-155,729r-150,0r70,-331r-289,0r-70,331r-150,0r155,-729r150,0r-58,273r288,0r58,-273r151,0","w":722},"I":{"d":"328,-729r-155,729r-150,0r155,-729r150,0","w":278},"J":{"d":"173,-170v-1,34,30,55,66,54v53,0,86,-28,99,-85r113,-528r150,0r-113,528v-30,142,-123,213,-279,213v-109,0,-188,-53,-188,-156v0,-47,12,-86,20,-126r150,0v-6,33,-17,64,-18,100"},"K":{"d":"677,0r-179,0r-173,-314r-91,80r-50,234r-150,0r155,-729r150,0r-68,320r354,-320r178,0r-361,319","w":722},"L":{"d":"566,-125r-27,125r-499,0r155,-729r150,0r-128,604r349,0","w":611},"M":{"d":"891,-729r-155,729r-142,0r132,-619r-269,619r-157,0r0,-619r-132,619r-142,0r155,-729r237,0r0,560r254,-560r219,0","w":833},"N":{"d":"776,-729r-155,729r-148,0r-192,-523r-111,523r-142,0r155,-729r150,0r192,515r109,-515r142,0","w":722},"O":{"d":"498,-741v180,0,290,107,290,286v0,179,-121,372,-260,434v-49,22,-106,33,-171,33v-175,2,-292,-104,-290,-279v2,-133,56,-247,124,-327v82,-98,184,-147,307,-147xm381,-116v152,0,258,-159,258,-321v0,-106,-57,-176,-160,-176v-152,0,-263,165,-263,325v0,105,63,172,165,172","w":778},"P":{"d":"499,-729v122,-2,206,59,208,169v4,153,-126,300,-279,300r-187,0r-55,260r-150,0r155,-729r308,0xm421,-385v85,1,138,-56,137,-140v0,-48,-40,-79,-90,-79r-154,0r-46,219r153,0","w":667},"Q":{"d":"791,-453v-1,135,-68,268,-143,339r64,76r-93,81r-69,-81v-60,33,-124,50,-191,50v-174,2,-291,-106,-289,-280v1,-131,56,-247,122,-326v81,-98,183,-147,306,-147v180,0,294,110,293,288xm219,-288v0,104,59,172,161,172v33,0,62,-6,89,-19r-62,-73r94,-81r65,78v51,-64,76,-139,76,-225v1,-107,-60,-177,-164,-177v-150,0,-259,166,-259,325","w":778},"R":{"d":"745,-579v-3,124,-69,177,-167,227v52,17,78,45,78,82v0,22,-9,83,-28,183v-6,28,-4,45,15,60r-6,27r-159,0v-5,-17,-8,-30,-8,-41v-7,-17,38,-152,38,-193v0,-37,-28,-55,-85,-55r-172,0r-61,289r-150,0r155,-729r377,0v97,-2,175,58,173,150xm459,-414v78,1,137,-46,137,-120v0,-47,-37,-70,-110,-70r-168,0r-40,190r181,0","w":722},"S":{"d":"407,-613v-80,-2,-145,32,-147,104v0,19,8,33,25,43v37,22,145,39,205,52v105,22,158,70,158,143v0,181,-146,283,-341,283v-165,0,-292,-75,-265,-241r146,0v-14,86,56,112,141,113v90,1,167,-29,170,-106v0,-23,-9,-39,-25,-49v-33,-21,-137,-38,-194,-50v-59,-12,-102,-29,-129,-53v-27,-24,-40,-57,-40,-98v0,-161,147,-269,322,-269v79,0,141,15,185,45v61,42,79,104,59,189r-140,0v12,-77,-32,-104,-130,-106","w":667},"T":{"d":"713,-729r-27,125r-212,0r-129,604r-150,0r129,-604r-222,0r27,-125r584,0","w":611},"U":{"d":"233,-201v-4,100,170,103,230,53v26,-22,44,-53,53,-98r103,-483r150,0r-103,483v-31,158,-157,256,-338,258v-137,1,-246,-64,-247,-190v0,-24,4,-53,11,-88r99,-463r150,0r-103,483v-3,13,-5,28,-5,45","w":722},"V":{"d":"762,-729r-402,729r-127,0r-94,-729r151,0r45,549r276,-549r151,0","w":667},"W":{"d":"1047,-729r-357,729r-139,0r0,-555r-237,555r-135,0r-51,-729r156,0r0,546r224,-546r155,0r0,548r225,-548r159,0","w":944},"X":{"d":"615,0r-179,0r-90,-249r-189,249r-175,0r310,-367r-145,-362r178,0r79,236r183,-236r175,0r-303,357","w":667},"Y":{"d":"765,-729r-328,459r-58,270r-150,0r58,-270r-145,-459r167,0r82,315r207,-315r167,0","w":667},"Z":{"d":"565,-125r-27,125r-548,0r27,-125r474,-479r-373,0r27,-125r548,0r-27,125r-474,479r373,0","w":611},"[":{"d":"226,200r-243,0r197,-929r243,0r-22,100r-113,0r-154,729r113,0","w":333},"\\":{"d":"245,23r-75,0r-72,-732r74,0","w":278},"]":{"d":"178,200r-243,0r22,-100r113,0r154,-729r-113,0r21,-100r243,0","w":333},"^":{"d":"540,-270r-113,0r-58,-300r-178,300r-112,0r255,-425r125,0","w":584},"_":{"d":"501,120r-15,69r-600,0r15,-69r600,0"},"`":{"d":"304,-598r-100,0r-93,-154r156,0","w":333},"a":{"d":"80,-362v29,-131,107,-186,266,-187v62,0,109,11,142,32v45,30,57,72,44,134r-63,300v-7,30,-1,42,18,66r-4,17r-153,0v-10,-22,-8,-35,-3,-61v-50,44,-87,68,-165,70v-86,2,-151,-44,-151,-124v0,-112,92,-178,201,-196r136,-23v25,-11,48,-30,48,-60v0,-29,-24,-43,-73,-43v-68,1,-95,22,-112,75r-131,0xm229,-103v86,-2,127,-70,139,-152v-24,17,-68,16,-113,25v-67,13,-101,39,-101,84v0,29,25,43,75,43"},"b":{"d":"425,-549v110,0,175,91,175,207v0,171,-134,351,-294,351v-65,0,-109,-24,-134,-71r-13,62r-140,0r155,-729r140,0r-55,259v44,-53,99,-79,166,-79xm299,-103v93,-1,158,-111,158,-216v0,-66,-28,-118,-88,-118v-95,0,-160,121,-160,228v0,62,32,106,90,106","w":611},"c":{"d":"272,-103v72,0,88,-25,115,-84r134,0v-41,131,-129,196,-266,196v-128,0,-217,-68,-217,-188v0,-105,48,-213,100,-275v53,-63,125,-95,220,-95v122,0,221,82,195,211r-134,0v-2,-71,-17,-98,-82,-99v-102,-2,-156,128,-156,238v0,66,27,96,91,96"},"d":{"d":"40,-192v0,-169,127,-357,292,-357v66,0,110,26,133,79r55,-259r140,0r-155,729r-140,0r13,-62v-45,47,-100,71,-164,71v-110,0,-174,-85,-174,-201xm272,-103v95,0,156,-113,156,-220v0,-63,-29,-114,-88,-114v-92,0,-157,121,-157,224v0,65,30,110,89,110","w":611},"e":{"d":"339,-549v123,0,212,81,212,198v0,36,-6,75,-17,118r-363,0v-1,6,-1,19,-1,38v-1,55,39,92,95,92v44,0,91,-24,109,-49r138,0v-47,90,-145,160,-274,161v-123,2,-215,-79,-213,-201v1,-139,57,-246,146,-306v49,-34,105,-51,168,-51xm409,-326v3,-72,-21,-111,-87,-111v-68,0,-112,37,-133,111r220,0"},"f":{"d":"385,-529r-20,93r-82,0r-93,436r-140,0r93,-436r-77,0r20,-93r76,0v13,-65,29,-135,70,-167v42,-33,119,-35,192,-30r-22,105v-24,-3,-38,-4,-42,-4v-25,0,-40,14,-46,43r-12,53r83,0","w":333},"g":{"d":"217,9v-103,2,-178,-78,-177,-183v2,-139,62,-259,146,-322v46,-35,97,-53,152,-53v58,0,100,31,127,92r18,-83r133,0r-119,558v-27,131,-141,201,-302,200v-65,0,-116,-10,-153,-32v-46,-28,-64,-63,-53,-121r144,0v-8,46,41,63,85,63v74,1,133,-48,146,-110r17,-80v-55,44,-83,69,-164,71xm269,-103v97,0,162,-105,162,-212v0,-67,-31,-122,-92,-122v-91,0,-156,125,-156,229v0,63,28,104,86,105","w":611},"h":{"d":"444,-549v103,0,162,78,139,187r-77,362r-140,0r67,-313v3,-13,6,-29,6,-48v0,-51,-24,-76,-73,-76v-74,0,-119,64,-134,133r-65,304r-140,0r155,-729r140,0r-58,271v51,-61,111,-91,180,-91","w":611},"i":{"d":"282,-540r-115,540r-140,0r115,-540r140,0xm297,-610r-140,0r27,-131r140,0","w":278},"j":{"d":"285,-540r-135,634v-20,89,-77,124,-188,124v-19,0,-34,-2,-45,-5r24,-111v11,7,51,5,59,-6v8,-7,14,-18,17,-34r128,-602r140,0xm300,-610r-140,0r27,-131r140,0","w":278},"k":{"d":"508,0r-164,0r-79,-239r-68,62r-38,177r-140,0r155,-729r140,0r-85,399r223,-210r159,0r-232,206"},"l":{"d":"322,-729r-155,729r-140,0r155,-729r140,0","w":278},"m":{"d":"729,-549v85,-1,142,44,142,126v0,15,-3,35,-8,61r-77,362r-140,0r72,-340v13,-51,3,-99,-53,-97v-70,2,-109,49,-123,113r-69,324r-140,0r74,-346v12,-50,-10,-92,-60,-91v-66,2,-105,53,-118,113r-69,324r-140,0r115,-540r139,0r-17,81v51,-54,85,-88,171,-90v62,-2,111,33,124,82v53,-55,112,-82,177,-82","w":889},"n":{"d":"442,-549v105,-3,164,77,141,187r-77,362r-140,0r67,-313v2,-10,6,-26,6,-49v0,-50,-25,-75,-74,-75v-77,1,-122,61,-137,133r-65,304r-140,0r115,-540r140,0r-18,82v47,-56,92,-89,182,-91","w":611},"o":{"d":"373,-549v131,0,221,73,221,200v0,204,-133,358,-332,358v-127,0,-219,-70,-219,-193v0,-199,135,-365,330,-365xm287,-103v99,0,164,-109,164,-217v0,-66,-36,-117,-100,-117v-99,1,-165,114,-165,225v0,66,38,109,101,109","w":611},"p":{"d":"424,-549v112,0,173,89,173,207v0,183,-120,352,-290,351v-67,0,-111,-27,-134,-81r-62,290r-140,0r161,-758r140,0r-17,80v46,-59,102,-89,169,-89xm297,-103v96,-1,157,-112,157,-220v0,-63,-30,-113,-88,-114v-95,1,-158,120,-158,228v0,62,31,106,89,106","w":611},"q":{"d":"34,-188v0,-175,125,-361,295,-361v69,0,113,30,133,89r17,-80r140,0r-161,758r-140,0r62,-290v-46,54,-102,81,-169,81v-110,1,-177,-82,-177,-197xm267,-103v97,0,159,-112,159,-221v0,-63,-30,-113,-89,-113v-95,0,-160,120,-160,227v0,63,32,107,90,107","w":611},"r":{"d":"255,-434v41,-63,98,-120,192,-114r-30,142v-105,-17,-173,23,-193,119r-61,287r-140,0r115,-540r140,0","w":389},"s":{"d":"324,-437v-45,-1,-86,15,-88,53v5,32,28,32,65,45v89,31,219,37,219,145v0,139,-123,203,-276,203v-124,0,-240,-56,-217,-180r137,0v2,45,37,68,106,68v68,0,102,-16,102,-48v0,-8,-6,-15,-16,-21v-27,-15,-100,-36,-140,-49v-86,-27,-129,-69,-129,-124v2,-123,120,-204,260,-204v125,0,224,59,197,183r-135,0v15,-53,-33,-71,-85,-71"},"t":{"d":"374,-529r-20,93r-78,0r-59,282v-10,40,-12,56,32,59v8,0,19,-1,33,-3r-20,98v-36,3,-64,4,-84,4v-95,0,-126,-41,-109,-120r67,-320r-69,0r20,-93r69,0r31,-145r140,0r-31,145r78,0","w":333},"u":{"d":"197,9v-104,0,-163,-77,-140,-187r77,-362r140,0r-67,313v-3,11,-6,28,-6,49v0,50,25,75,76,75v75,0,119,-63,134,-133r65,-304r140,0r-115,540r-140,0r16,-75v-51,56,-111,84,-180,84","w":611},"v":{"d":"611,-540r-301,540r-147,0r-74,-540r148,0r30,395r196,-395r148,0"},"w":{"d":"841,-540r-264,540r-150,0r0,-380r-166,380r-144,0r-37,-540r150,0r0,378r159,-378r144,0r0,378r163,-378r145,0","w":778},"x":{"d":"494,0r-168,0r-59,-168r-123,168r-168,0r233,-274r-111,-266r168,0r51,163r123,-163r168,0r-237,266"},"y":{"d":"613,-540r-358,638v-55,92,-83,118,-214,121v-18,0,-33,-1,-44,-4r23,-109v74,11,151,-21,141,-91r-77,-555r154,0r36,393r195,-393r144,0"},"z":{"d":"429,0r-448,0r24,-113r334,-314r-249,0r24,-113r421,0r-24,113r-332,314r274,0","w":500},"{":{"d":"155,-269v49,9,79,18,79,69v0,97,-42,179,-52,276v-3,28,43,26,74,25r-21,99r-77,0v-71,2,-109,-65,-93,-140r45,-210v18,-55,-7,-72,-66,-73r20,-92v54,3,83,-16,94,-63r45,-211v16,-80,65,-139,153,-140r76,0r-21,99v-27,0,-64,-3,-76,11v-7,7,-13,23,-18,46r-41,195v-15,71,-46,100,-121,109","w":389},"|":{"d":"204,200r-100,0r0,-929r100,0r0,929","w":280},"}":{"d":"264,-729v71,-2,109,65,93,140r-45,210v-18,55,8,72,67,73r-20,92v-54,-3,-84,15,-95,63r-45,211v-16,80,-65,139,-153,140r-77,0r21,-99v28,0,65,3,77,-11v7,-7,13,-23,18,-46r41,-195v15,-71,46,-100,121,-109v-49,-8,-79,-19,-79,-69v0,-99,42,-176,52,-276v3,-28,-44,-26,-75,-25r21,-99r78,0","w":389},"~":{"d":"397,-222v47,-2,53,-23,67,-66r77,0v-20,83,-66,142,-158,146v-87,4,-106,-92,-181,-92v-47,0,-54,23,-67,65r-78,0v26,-97,79,-145,159,-145v62,0,91,39,125,67v20,17,38,26,56,25","w":584},"\u00a0":{"w":278},"\u00a1":{"d":"206,-24r-45,210r-150,0r45,-210r107,-309r67,0xm285,-394r-150,0r31,-146r150,0","w":333},"\u00a2":{"d":"297,-89v50,-13,70,-47,91,-98r134,0v-31,111,-122,202,-249,209r-21,102r-66,0r22,-104v-98,-15,-169,-82,-169,-192v1,-94,42,-201,84,-261v49,-70,117,-108,205,-115r19,-86r66,0r-19,87v100,11,185,91,160,209r-134,0v-1,-57,-9,-83,-50,-97xm304,-435v-78,19,-123,143,-122,244v0,54,13,81,50,98"},"\u00a3":{"d":"240,-119v23,-1,104,17,131,17v33,0,71,-10,114,-29r18,109v-58,30,-110,45,-155,45v-13,0,-177,-33,-191,-30v-33,0,-72,9,-115,28r-33,-101v52,-31,89,-60,111,-88v33,-44,39,-82,28,-148r-89,0r12,-55r60,0v-17,-51,-26,-86,-26,-107v-2,-130,139,-237,280,-237v158,0,222,82,200,231r-131,0v8,-72,-20,-121,-92,-119v-67,2,-126,60,-108,137r22,95r139,0r-12,55r-122,0v7,51,-5,87,-33,126v-23,31,-61,65,-116,104v52,-22,56,-31,108,-33"},"\u00a4":{"d":"290,-244v66,0,116,-56,128,-113v14,-63,-21,-111,-81,-111v-65,0,-113,54,-125,111v-14,64,18,113,78,113xm521,-472v34,84,-1,180,-49,232r77,98r-80,66r-77,-98v-69,41,-169,47,-234,0r-119,98r-52,-66r119,-98v-29,-86,3,-178,49,-232r-77,-98r80,-66r77,98v72,-41,172,-47,234,0r119,-98r52,66"},"\u00a5":{"d":"662,-704r-267,352r139,0r-13,60r-144,0r-11,52r144,0r-13,60r-144,0r-38,180r-140,0r38,-180r-146,0r13,-60r146,0r11,-52r-146,0r12,-60r140,0r-128,-352r139,0r85,254r187,-254r136,0"},"\u00a6":{"d":"204,-357r-100,0r0,-372r100,0r0,372xm204,200r-100,0r0,-372r100,0r0,372","w":280},"\u00a7":{"d":"361,-621v-39,0,-75,26,-75,62v0,20,24,45,71,74r112,70v46,29,69,66,69,113v-2,103,-47,144,-130,176v32,26,48,59,48,99v2,127,-129,228,-264,228v-121,0,-205,-79,-167,-201r131,0v-11,59,4,86,62,89v57,3,113,-54,81,-105v-5,-8,-22,-17,-46,-33r-150,-100v-36,-25,-54,-57,-54,-98v0,-39,8,-72,25,-97v17,-25,51,-53,102,-84v-25,-26,-38,-58,-38,-96v0,-114,122,-199,247,-199v115,0,196,62,164,179r-127,0v6,-47,-13,-77,-61,-77xm408,-247v0,-34,-18,-42,-46,-59r-127,-76v-60,30,-80,96,-17,135r125,77v43,-20,65,-46,65,-77"},"\u00a8":{"d":"223,-618r-126,0r25,-115r126,0xm418,-618r-126,0r25,-115r126,0","w":333},"\u00a9":{"d":"383,-689v187,0,349,162,349,349v0,187,-162,348,-349,348v-187,0,-348,-161,-348,-348v0,-187,161,-349,348,-349xm383,-51v156,0,290,-133,290,-289v0,-156,-134,-290,-290,-290v-156,0,-289,134,-289,290v0,156,133,289,289,289xm426,-534v90,0,166,49,147,143r-91,0v2,-44,-23,-63,-67,-64v-81,-3,-131,84,-128,160v1,47,26,70,76,70v53,0,86,-22,97,-66r93,0v-20,91,-93,145,-203,145v-92,0,-157,-45,-160,-131v-5,-141,100,-257,236,-257","w":737},"\u00aa":{"d":"340,-262r-284,0r17,-80r283,0xm297,-729v71,-1,127,27,111,100r-39,180v-3,17,0,26,11,40r-2,10r-92,0v-5,-11,-5,-18,-2,-32v-35,31,-70,46,-107,46v-49,1,-83,-30,-83,-78v1,-84,75,-117,156,-129v51,-7,76,-3,76,-44v0,-17,-15,-25,-44,-25v-40,0,-57,12,-67,44r-79,0v17,-75,70,-112,161,-112xm309,-552v-21,9,-44,10,-68,15v-40,7,-60,25,-60,54v-1,41,75,36,95,10v20,-17,27,-47,33,-79","w":370},"\u00ab":{"d":"318,-481r-25,117r-120,89r82,89r-24,114r-136,-146r24,-114xm531,-481r-25,117r-120,89r82,89r-24,114r-136,-146r24,-114"},"\u00ac":{"d":"538,-159r-100,0r0,-132r-364,0r0,-100r464,0r0,232","w":584},"\u00ad":{"d":"331,-342r-29,135r-272,0r29,-135r272,0","w":333},"\u00ae":{"d":"383,-689v187,0,349,162,349,349v0,187,-162,348,-349,348v-187,0,-348,-161,-348,-348v0,-187,161,-349,348,-349xm383,-51v156,0,290,-133,290,-289v0,-156,-134,-290,-290,-290v-156,0,-289,134,-289,290v0,156,133,289,289,289xm504,-335v55,28,24,64,17,143v0,5,4,10,11,15r-6,25r-98,0v-5,-12,-7,-21,-7,-26v-4,-8,19,-76,19,-96v0,-14,-14,-21,-41,-21r-86,0r-30,143r-97,0r80,-376r213,0v56,-1,101,30,102,80v1,47,-25,85,-77,113xm421,-372v35,1,64,-18,64,-50v0,-41,-92,-26,-139,-29r-16,79r91,0","w":737},"\u00af":{"d":"409,-635r-300,0r17,-80r300,0","w":333},"\u00b0":{"d":"404,-670v75,105,-39,244,-153,244v-75,0,-130,-64,-113,-143v15,-71,91,-144,173,-143v39,0,72,13,93,42xm206,-508v63,77,213,-33,149,-122v-27,-38,-87,-30,-123,0v-33,28,-59,82,-26,122","w":400},"\u00b1":{"d":"538,-300r-182,0r0,110r-100,0r0,-110r-182,0r0,-100r182,0r0,-182r100,0r0,182r182,0r0,100xm538,0r-464,0r0,-100r464,0r0,100","w":584},"\u00b2":{"d":"115,-576v12,-89,71,-141,168,-142v80,-1,123,37,108,118v-19,103,-145,125,-208,193r165,0r-16,71r-273,0v22,-84,52,-106,124,-149v48,-29,80,-49,95,-62v15,-13,24,-30,28,-49v7,-38,-7,-57,-42,-57v-39,0,-63,30,-68,77r-81,0","w":333},"\u00b3":{"d":"263,-654v-43,1,-54,26,-64,66r-78,0v22,-87,75,-130,159,-130v70,0,120,35,105,103v-7,34,-29,60,-63,78v76,38,34,140,-18,179v-52,38,-161,48,-202,1v-19,-22,-24,-53,-16,-93r81,0v-6,39,9,58,44,58v47,0,89,-57,56,-94v-12,-12,-38,-15,-66,-14r12,-55v49,2,80,-14,87,-51v6,-29,-9,-48,-37,-48","w":333},"\u00b4":{"d":"462,-752r-158,154r-100,0r102,-154r156,0","w":333},"\u00b5":{"d":"195,-161v-1,77,116,74,161,34v23,-20,40,-44,47,-75r72,-338r140,0r-83,390v-5,19,-7,36,-7,50v-1,25,21,27,42,19r-18,86v-24,12,-49,18,-74,18v-50,-1,-67,-16,-83,-55v-44,36,-71,54,-141,55v-41,0,-72,-13,-95,-38r-50,235r-135,0r162,-760r140,0r-71,333v-5,22,-7,37,-7,46","w":611},"\u00b6":{"d":"81,-435v0,-137,125,-294,261,-294r302,0r-15,73r-44,0r-180,847r-98,0r180,-847r-62,0r-180,847r-98,0r97,-458v-97,-4,-163,-68,-163,-168"},"\u00b7":{"d":"153,-325v40,0,75,35,75,75v0,40,-35,75,-75,75v-40,0,-75,-35,-75,-75v0,-40,35,-75,75,-75","w":278},"\u00b8":{"d":"166,56v38,-1,64,30,64,67v-1,72,-70,108,-150,107v-39,0,-84,-10,-133,-29r30,-51v34,17,67,25,98,25v32,0,67,-11,68,-39v0,-22,-21,-40,-44,-39r-50,0r60,-99r60,0r-36,58r33,0","w":333},"\u00b9":{"d":"262,-335r-84,0r54,-254r-94,0r12,-54v68,0,113,-22,136,-66r56,0","w":333},"\u00ba":{"d":"353,-262r-301,0r17,-80r301,0xm299,-729v79,0,132,43,132,119v0,123,-83,224,-202,224v-76,0,-129,-46,-129,-120v0,-119,82,-223,199,-223xm245,-449v58,0,99,-76,99,-141v0,-39,-21,-71,-58,-71v-60,0,-99,74,-99,141v0,39,21,71,58,71","w":365},"\u00bb":{"d":"262,-220r-199,148r25,-117r120,-89r-82,-89r24,-114r136,146xm469,-220r-199,148r25,-117r120,-89r-82,-89r24,-114r136,146"},"\u00bc":{"d":"273,-335r-84,0r54,-254r-94,0r12,-54v67,0,113,-22,136,-66r56,0xm782,-715r-580,740r-87,0r580,-740r87,0xm735,-82r-40,0r-17,82r-84,0r17,-82r-158,0r14,-65r194,-227r96,0r-48,226r40,0xm625,-148r31,-144r-124,144r93,0","w":834},"\u00bd":{"d":"273,-335r-84,0r54,-254r-94,0r12,-54v67,0,113,-22,136,-66r56,0xm756,-715r-580,740r-87,0r580,-740r87,0xm516,-240v10,-92,70,-140,167,-142v80,-1,125,37,107,118v-16,72,-50,86,-116,128v-61,39,-49,25,-91,65r165,0r-15,71r-273,0v22,-83,51,-106,123,-149v48,-29,79,-50,95,-62v31,-24,51,-106,-14,-106v-39,0,-64,28,-67,77r-81,0","w":834},"\u00be":{"d":"296,-654v-43,1,-54,26,-64,66r-78,0v22,-87,75,-130,159,-130v70,0,120,35,105,103v-7,34,-29,60,-63,78v76,38,35,140,-17,179v-52,38,-161,48,-202,1v-19,-22,-25,-53,-17,-93r81,0v-6,39,9,58,44,58v47,0,89,-57,56,-94v-12,-12,-38,-15,-66,-14r12,-55v49,2,80,-14,87,-51v6,-29,-9,-48,-37,-48xm814,-715r-580,740r-87,0r580,-740r87,0xm735,-82r-40,0r-17,82r-84,0r17,-82r-158,0r14,-65r194,-227r96,0r-48,226r40,0xm625,-148r31,-144r-124,144r93,0","w":834},"\u00bf":{"d":"254,80v79,-2,120,-64,134,-139r136,0v-39,175,-135,263,-288,263v-125,0,-215,-63,-216,-178v0,-58,17,-109,51,-153v22,-28,62,-58,116,-93v64,-42,73,-41,91,-119r122,0v-13,99,-63,142,-140,198v-43,31,-76,56,-92,95v-4,10,-5,23,-5,39v-1,51,40,88,91,87xm424,-394r-150,0r31,-146r150,0","w":611},"\u00c0":{"d":"663,0r-153,0r-18,-147r-272,0r-81,147r-153,0r407,-729r173,0xm478,-272r-35,-283r-154,283r189,0xm544,-786r-104,0r-132,-135r172,0","w":722},"\u00c1":{"d":"663,0r-153,0r-18,-147r-272,0r-81,147r-153,0r407,-729r173,0xm478,-272r-35,-283r-154,283r189,0xm733,-921r-190,135r-104,0r122,-135r172,0","w":722},"\u00c2":{"d":"663,0r-153,0r-18,-147r-272,0r-81,147r-153,0r407,-729r173,0xm478,-272r-35,-283r-154,283r189,0xm683,-788r-86,0r-82,-53r-123,53r-91,0r167,-132r129,0","w":722},"\u00c3":{"d":"663,0r-153,0r-18,-147r-272,0r-81,147r-153,0r407,-729r173,0xm478,-272r-35,-283r-154,283r189,0xm312,-795v19,-62,54,-114,121,-117v50,-1,109,48,154,48v22,0,40,-17,54,-51r54,0v-18,70,-59,120,-133,122v-61,2,-95,-50,-145,-50v-17,0,-34,16,-51,48r-54,0","w":722},"\u00c4":{"d":"663,0r-153,0r-18,-147r-272,0r-81,147r-153,0r407,-729r173,0xm478,-272r-35,-283r-154,283r189,0xm460,-797r-126,0r25,-115r126,0xm655,-797r-126,0r25,-115r126,0","w":722},"\u00c5":{"d":"663,0r-153,0r-18,-147r-272,0r-81,147r-153,0r407,-729r173,0xm478,-272r-35,-283r-154,283r189,0xm531,-962v44,0,79,34,79,78v0,61,-62,120,-123,120v-44,0,-79,-34,-79,-78v0,-61,62,-120,123,-120xm499,-819v28,0,57,-27,57,-54v0,-20,-15,-34,-36,-34v-29,0,-59,25,-59,53v0,20,18,35,38,35","w":722},"\u00c6":{"d":"955,-125r-27,125r-536,0r32,-152r-219,0r-85,152r-159,0r420,-729r683,0r-26,125r-367,0r-36,165r339,0r-26,125r-339,0r-40,189r386,0xm521,-604r-66,0r-185,327r181,0","w":1000},"\u00c7":{"d":"493,-741v158,0,286,93,256,259r-141,0v0,-87,-44,-131,-132,-131v-80,0,-143,36,-189,109v-47,73,-70,151,-70,234v0,103,49,154,148,154v101,0,166,-44,194,-133r143,0v-37,151,-150,247,-321,260r-28,45r33,0v38,-1,64,30,64,67v-1,72,-70,108,-150,107v-39,0,-84,-10,-133,-29r30,-51v34,17,67,25,98,25v32,0,67,-11,68,-39v0,-22,-21,-40,-44,-39r-50,0r52,-86v-153,-6,-254,-96,-253,-252v0,-143,41,-262,123,-357v82,-95,183,-143,302,-143","w":722},"\u00c8":{"d":"611,-125r-27,125r-545,0r155,-729r528,0r-27,125r-378,0r-35,165r349,0r-26,125r-349,0r-40,189r395,0xm522,-786r-104,0r-132,-135r172,0","w":667},"\u00c9":{"d":"611,-125r-27,125r-545,0r155,-729r528,0r-27,125r-378,0r-35,165r349,0r-26,125r-349,0r-40,189r395,0xm711,-921r-190,135r-104,0r122,-135r172,0","w":667},"\u00ca":{"d":"611,-125r-27,125r-545,0r155,-729r528,0r-27,125r-378,0r-35,165r349,0r-26,125r-349,0r-40,189r395,0xm661,-788r-86,0r-82,-53r-123,53r-91,0r167,-132r129,0","w":667},"\u00cb":{"d":"611,-125r-27,125r-545,0r155,-729r528,0r-27,125r-378,0r-35,165r349,0r-26,125r-349,0r-40,189r395,0xm438,-797r-126,0r25,-115r126,0xm633,-797r-126,0r25,-115r126,0","w":667},"\u00cc":{"d":"328,-729r-155,729r-150,0r155,-729r150,0xm340,-786r-104,0r-132,-135r172,0","w":278},"\u00cd":{"d":"328,-729r-155,729r-150,0r155,-729r150,0xm484,-921r-190,135r-104,0r122,-135r172,0","w":278},"\u00ce":{"d":"328,-729r-155,729r-150,0r155,-729r150,0xm456,-788r-86,0r-82,-53r-123,53r-91,0r167,-132r129,0","w":278},"\u00cf":{"d":"328,-729r-155,729r-150,0r155,-729r150,0xm233,-797r-126,0r25,-115r126,0xm428,-797r-126,0r25,-115r126,0","w":278},"\u00d0":{"d":"477,-729v180,1,258,72,259,250v0,123,-37,236,-112,339v-71,97,-144,140,-302,140r-285,0r73,-341r-77,0r17,-80r76,0r66,-308r285,0xm587,-469v0,-90,-46,-135,-137,-135r-135,0r-39,183r174,0r-17,80r-173,0r-46,216v85,-2,186,10,240,-23v83,-50,133,-189,133,-321","w":722},"\u00d1":{"d":"776,-729r-155,729r-148,0r-192,-523r-111,523r-142,0r155,-729r150,0r192,515r109,-515r142,0xm312,-795v19,-62,54,-114,121,-117v50,-1,109,48,154,48v22,0,40,-17,54,-51r54,0v-18,70,-59,120,-133,122v-61,2,-95,-50,-145,-50v-17,0,-34,16,-51,48r-54,0","w":722},"\u00d2":{"d":"498,-741v180,0,290,107,290,286v0,179,-121,372,-260,434v-49,22,-106,33,-171,33v-175,2,-292,-104,-290,-279v2,-133,56,-247,124,-327v82,-98,184,-147,307,-147xm381,-116v152,0,258,-159,258,-321v0,-106,-57,-176,-160,-176v-152,0,-263,165,-263,325v0,105,63,172,165,172xm559,-786r-104,0r-132,-135r172,0","w":778},"\u00d3":{"d":"498,-741v180,0,290,107,290,286v0,179,-121,372,-260,434v-49,22,-106,33,-171,33v-175,2,-292,-104,-290,-279v2,-133,56,-247,124,-327v82,-98,184,-147,307,-147xm381,-116v152,0,258,-159,258,-321v0,-106,-57,-176,-160,-176v-152,0,-263,165,-263,325v0,105,63,172,165,172xm749,-921r-190,135r-104,0r122,-135r172,0","w":778},"\u00d4":{"d":"498,-741v180,0,290,107,290,286v0,179,-121,372,-260,434v-49,22,-106,33,-171,33v-175,2,-292,-104,-290,-279v2,-133,56,-247,124,-327v82,-98,184,-147,307,-147xm381,-116v152,0,258,-159,258,-321v0,-106,-57,-176,-160,-176v-152,0,-263,165,-263,325v0,105,63,172,165,172xm699,-788r-86,0r-82,-53r-123,53r-91,0r167,-132r129,0","w":778},"\u00d5":{"d":"498,-741v180,0,290,107,290,286v0,179,-121,372,-260,434v-49,22,-106,33,-171,33v-175,2,-292,-104,-290,-279v2,-133,56,-247,124,-327v82,-98,184,-147,307,-147xm381,-116v152,0,258,-159,258,-321v0,-106,-57,-176,-160,-176v-152,0,-263,165,-263,325v0,105,63,172,165,172xm327,-795v19,-62,54,-114,121,-117v50,-1,109,48,154,48v22,0,40,-17,54,-51r54,0v-18,70,-59,120,-133,122v-61,2,-95,-50,-145,-50v-17,0,-34,16,-51,48r-54,0","w":778},"\u00d6":{"d":"498,-741v180,0,290,107,290,286v0,179,-121,372,-260,434v-49,22,-106,33,-171,33v-175,2,-292,-104,-290,-279v2,-133,56,-247,124,-327v82,-98,184,-147,307,-147xm381,-116v152,0,258,-159,258,-321v0,-106,-57,-176,-160,-176v-152,0,-263,165,-263,325v0,105,63,172,165,172xm475,-797r-126,0r25,-115r126,0xm670,-797r-126,0r25,-115r126,0","w":778},"\u00d7":{"d":"505,-121r-70,70r-129,-128r-129,128r-70,-70r128,-129r-128,-129r70,-70r129,128r129,-128r70,70r-128,129","w":584},"\u00d8":{"d":"844,-674r-85,75v19,42,29,90,29,144v0,179,-121,372,-260,434v-49,22,-106,33,-171,33v-88,0,-158,-24,-210,-73r-79,70r-55,-64r84,-74v-45,-93,-35,-209,3,-309v22,-57,52,-109,91,-156v82,-98,184,-147,307,-147v90,0,161,25,212,74r79,-71xm381,-116v167,-1,285,-185,253,-373r-373,328v30,30,70,45,120,45xm479,-613v-166,1,-290,189,-258,375r375,-329v-29,-31,-68,-46,-117,-46","w":778},"\u00d9":{"d":"233,-201v-4,100,170,103,230,53v26,-22,44,-53,53,-98r103,-483r150,0r-103,483v-31,158,-157,256,-338,258v-137,1,-246,-64,-247,-190v0,-24,4,-53,11,-88r99,-463r150,0r-103,483v-3,13,-5,28,-5,45xm544,-786r-104,0r-132,-135r172,0","w":722},"\u00da":{"d":"233,-201v-4,100,170,103,230,53v26,-22,44,-53,53,-98r103,-483r150,0r-103,483v-31,158,-157,256,-338,258v-137,1,-246,-64,-247,-190v0,-24,4,-53,11,-88r99,-463r150,0r-103,483v-3,13,-5,28,-5,45xm733,-921r-190,135r-104,0r122,-135r172,0","w":722},"\u00db":{"d":"233,-201v-4,100,170,103,230,53v26,-22,44,-53,53,-98r103,-483r150,0r-103,483v-31,158,-157,256,-338,258v-137,1,-246,-64,-247,-190v0,-24,4,-53,11,-88r99,-463r150,0r-103,483v-3,13,-5,28,-5,45xm683,-788r-86,0r-82,-53r-123,53r-91,0r167,-132r129,0","w":722},"\u00dc":{"d":"233,-201v-4,100,170,103,230,53v26,-22,44,-53,53,-98r103,-483r150,0r-103,483v-31,158,-157,256,-338,258v-137,1,-246,-64,-247,-190v0,-24,4,-53,11,-88r99,-463r150,0r-103,483v-3,13,-5,28,-5,45xm460,-797r-126,0r25,-115r126,0xm655,-797r-126,0r25,-115r126,0","w":722},"\u00dd":{"d":"765,-729r-328,459r-58,270r-150,0r58,-270r-145,-459r167,0r82,315r207,-315r167,0xm713,-921r-190,135r-104,0r122,-135r172,0","w":667},"\u00de":{"d":"474,-609v120,-2,205,60,207,169v3,153,-126,300,-278,300r-187,0r-30,140r-150,0r155,-729r150,0r-26,120r159,0xm395,-265v85,1,138,-55,137,-140v0,-48,-40,-79,-90,-79r-153,0r-47,219r153,0","w":667},"\u00df":{"d":"492,-411v60,14,98,62,98,134v0,150,-137,304,-281,300v-15,0,-38,-2,-68,-7r24,-112v108,7,180,-61,182,-155v1,-70,-46,-102,-128,-98r20,-95v75,2,132,-41,132,-108v0,-45,-40,-66,-89,-65v-56,0,-90,27,-101,80r-114,537r-140,0r119,-558v22,-106,133,-171,266,-171v108,0,202,50,202,147v0,84,-55,149,-122,171","w":611},"\u00e0":{"d":"80,-362v29,-131,107,-186,266,-187v62,0,109,11,142,32v45,30,57,72,44,134r-63,300v-7,30,-1,42,18,66r-4,17r-153,0v-10,-22,-8,-35,-3,-61v-50,44,-87,68,-165,70v-86,2,-151,-44,-151,-124v0,-112,92,-178,201,-196r136,-23v25,-11,48,-30,48,-60v0,-29,-24,-43,-73,-43v-68,1,-95,22,-112,75r-131,0xm229,-103v86,-2,127,-70,139,-152v-24,17,-68,16,-113,25v-67,13,-101,39,-101,84v0,29,25,43,75,43xm407,-598r-100,0r-93,-154r156,0"},"\u00e1":{"d":"80,-362v29,-131,107,-186,266,-187v62,0,109,11,142,32v45,30,57,72,44,134r-63,300v-7,30,-1,42,18,66r-4,17r-153,0v-10,-22,-8,-35,-3,-61v-50,44,-87,68,-165,70v-86,2,-151,-44,-151,-124v0,-112,92,-178,201,-196r136,-23v25,-11,48,-30,48,-60v0,-29,-24,-43,-73,-43v-68,1,-95,22,-112,75r-131,0xm229,-103v86,-2,127,-70,139,-152v-24,17,-68,16,-113,25v-67,13,-101,39,-101,84v0,29,25,43,75,43xm564,-752r-158,154r-100,0r102,-154r156,0"},"\u00e2":{"d":"80,-362v29,-131,107,-186,266,-187v62,0,109,11,142,32v45,30,57,72,44,134r-63,300v-7,30,-1,42,18,66r-4,17r-153,0v-10,-22,-8,-35,-3,-61v-50,44,-87,68,-165,70v-86,2,-151,-44,-151,-124v0,-112,92,-178,201,-196r136,-23v25,-11,48,-30,48,-60v0,-29,-24,-43,-73,-43v-68,1,-95,22,-112,75r-131,0xm229,-103v86,-2,127,-70,139,-152v-24,17,-68,16,-113,25v-67,13,-101,39,-101,84v0,29,25,43,75,43xm525,-598r-88,0r-66,-77r-98,77r-86,0r140,-154r127,0"},"\u00e3":{"d":"80,-362v29,-131,107,-186,266,-187v62,0,109,11,142,32v45,30,57,72,44,134r-63,300v-7,30,-1,42,18,66r-4,17r-153,0v-10,-22,-8,-35,-3,-61v-50,44,-87,68,-165,70v-86,2,-151,-44,-151,-124v0,-112,92,-178,201,-196r136,-23v25,-11,48,-30,48,-60v0,-29,-24,-43,-73,-43v-68,1,-95,22,-112,75r-131,0xm229,-103v86,-2,127,-70,139,-152v-24,17,-68,16,-113,25v-67,13,-101,39,-101,84v0,29,25,43,75,43xm177,-616v19,-62,54,-114,121,-117v50,-1,109,48,154,48v22,0,40,-17,54,-51r54,0v-18,70,-59,120,-133,122v-61,2,-95,-50,-145,-50v-17,0,-34,16,-51,48r-54,0"},"\u00e4":{"d":"80,-362v29,-131,107,-186,266,-187v62,0,109,11,142,32v45,30,57,72,44,134r-63,300v-7,30,-1,42,18,66r-4,17r-153,0v-10,-22,-8,-35,-3,-61v-50,44,-87,68,-165,70v-86,2,-151,-44,-151,-124v0,-112,92,-178,201,-196r136,-23v25,-11,48,-30,48,-60v0,-29,-24,-43,-73,-43v-68,1,-95,22,-112,75r-131,0xm229,-103v86,-2,127,-70,139,-152v-24,17,-68,16,-113,25v-67,13,-101,39,-101,84v0,29,25,43,75,43xm325,-618r-126,0r25,-115r126,0xm520,-618r-126,0r25,-115r126,0"},"\u00e5":{"d":"80,-362v29,-131,107,-186,266,-187v62,0,109,11,142,32v45,30,57,72,44,134r-63,300v-7,30,-1,42,18,66r-4,17r-153,0v-10,-22,-8,-35,-3,-61v-50,44,-87,68,-165,70v-86,2,-151,-44,-151,-124v0,-112,92,-178,201,-196r136,-23v25,-11,48,-30,48,-60v0,-29,-24,-43,-73,-43v-68,1,-95,22,-112,75r-131,0xm229,-103v86,-2,127,-70,139,-152v-24,17,-68,16,-113,25v-67,13,-101,39,-101,84v0,29,25,43,75,43xm394,-774v44,0,79,34,79,78v0,61,-62,120,-123,120v-44,0,-79,-34,-79,-78v0,-61,62,-120,123,-120xm362,-631v28,0,57,-27,57,-54v0,-20,-15,-34,-36,-34v-29,0,-59,25,-58,53v0,20,17,35,37,35"},"\u00e6":{"d":"678,-549v119,0,210,84,209,198v0,38,-6,80,-18,125r-362,0v-5,20,-7,37,-7,51v3,41,50,72,99,72v45,0,93,-24,111,-49r138,0v-44,87,-154,161,-279,161v-91,0,-152,-33,-181,-100v-63,65,-104,98,-216,100v-91,1,-157,-36,-157,-122v0,-114,91,-180,201,-198r134,-23v26,-10,50,-29,50,-60v0,-29,-24,-43,-73,-43v-68,1,-95,22,-112,75r-131,0v28,-134,108,-186,268,-187v75,0,129,16,161,49v49,-33,104,-49,165,-49xm231,-103v87,-1,129,-68,141,-151v-33,16,-74,17,-113,24v-67,13,-101,39,-101,84v0,29,24,43,73,43xm744,-319v5,-71,-20,-119,-85,-118v-66,0,-110,39,-131,118r216,0","w":889},"\u00e7":{"d":"272,-103v72,0,88,-25,115,-84r134,0v-37,118,-113,183,-228,194r-30,49r33,0v38,-1,64,30,64,67v-1,72,-70,108,-150,107v-39,0,-84,-10,-133,-29r30,-51v34,17,67,25,98,25v32,0,67,-11,68,-39v0,-22,-21,-40,-44,-39r-50,0r54,-89v-115,-5,-195,-73,-195,-187v0,-105,48,-213,100,-275v53,-63,125,-95,220,-95v122,0,221,82,195,211r-134,0v-2,-71,-17,-98,-82,-99v-102,-2,-156,128,-156,238v0,66,27,96,91,96"},"\u00e8":{"d":"339,-549v123,0,212,81,212,198v0,36,-6,75,-17,118r-363,0v-1,6,-1,19,-1,38v-1,55,39,92,95,92v44,0,91,-24,109,-49r138,0v-47,90,-145,160,-274,161v-123,2,-215,-79,-213,-201v1,-139,57,-246,146,-306v49,-34,105,-51,168,-51xm409,-326v3,-72,-21,-111,-87,-111v-68,0,-112,37,-133,111r220,0xm416,-598r-100,0r-93,-154r156,0"},"\u00e9":{"d":"339,-549v123,0,212,81,212,198v0,36,-6,75,-17,118r-363,0v-1,6,-1,19,-1,38v-1,55,39,92,95,92v44,0,91,-24,109,-49r138,0v-47,90,-145,160,-274,161v-123,2,-215,-79,-213,-201v1,-139,57,-246,146,-306v49,-34,105,-51,168,-51xm409,-326v3,-72,-21,-111,-87,-111v-68,0,-112,37,-133,111r220,0xm573,-752r-158,154r-100,0r102,-154r156,0"},"\u00ea":{"d":"339,-549v123,0,212,81,212,198v0,36,-6,75,-17,118r-363,0v-1,6,-1,19,-1,38v-1,55,39,92,95,92v44,0,91,-24,109,-49r138,0v-47,90,-145,160,-274,161v-123,2,-215,-79,-213,-201v1,-139,57,-246,146,-306v49,-34,105,-51,168,-51xm409,-326v3,-72,-21,-111,-87,-111v-68,0,-112,37,-133,111r220,0xm534,-598r-88,0r-66,-77r-98,77r-86,0r140,-154r127,0"},"\u00eb":{"d":"339,-549v123,0,212,81,212,198v0,36,-6,75,-17,118r-363,0v-1,6,-1,19,-1,38v-1,55,39,92,95,92v44,0,91,-24,109,-49r138,0v-47,90,-145,160,-274,161v-123,2,-215,-79,-213,-201v1,-139,57,-246,146,-306v49,-34,105,-51,168,-51xm409,-326v3,-72,-21,-111,-87,-111v-68,0,-112,37,-133,111r220,0xm334,-618r-126,0r25,-115r126,0xm529,-618r-126,0r25,-115r126,0"},"\u00ec":{"d":"282,-540r-115,540r-140,0r115,-540r140,0xm295,-598r-100,0r-93,-154r156,0","w":278},"\u00ed":{"d":"282,-540r-115,540r-140,0r115,-540r140,0xm413,-752r-158,154r-100,0r102,-154r156,0","w":278},"\u00ee":{"d":"282,-540r-115,540r-140,0r115,-540r140,0xm393,-598r-88,0r-66,-77r-98,77r-86,0r140,-154r127,0","w":278},"\u00ef":{"d":"282,-540r-115,540r-140,0r115,-540r140,0xm193,-618r-126,0r25,-115r126,0xm388,-618r-126,0r25,-115r126,0","w":278},"\u00f0":{"d":"268,9v-133,0,-222,-72,-222,-201v0,-125,50,-229,128,-287v70,-52,156,-72,238,-24v-25,-42,-57,-77,-97,-106r-97,45r-41,-43r88,-41r-70,-46r70,-50v34,15,67,30,95,51r104,-45r43,43r-93,41v65,48,111,95,138,142v27,47,41,103,41,167v3,196,-130,354,-325,354xm289,-103v105,0,162,-105,162,-223v0,-66,-43,-105,-104,-105v-99,0,-157,104,-157,211v0,73,34,117,99,117","w":611},"\u00f1":{"d":"442,-549v105,-3,164,77,141,187r-77,362r-140,0r67,-313v2,-10,6,-26,6,-49v0,-50,-25,-75,-74,-75v-77,1,-122,61,-137,133r-65,304r-140,0r115,-540r140,0r-18,82v47,-56,92,-89,182,-91xm214,-616v19,-62,54,-114,121,-117v50,-1,109,48,154,48v22,0,40,-17,54,-51r54,0v-18,70,-59,120,-133,122v-61,2,-95,-50,-145,-50v-17,0,-34,16,-51,48r-54,0","w":611},"\u00f2":{"d":"373,-549v131,0,221,73,221,200v0,204,-133,358,-332,358v-127,0,-219,-70,-219,-193v0,-199,135,-365,330,-365xm287,-103v99,0,164,-109,164,-217v0,-66,-36,-117,-100,-117v-99,1,-165,114,-165,225v0,66,38,109,101,109xm443,-598r-100,0r-93,-154r156,0","w":611},"\u00f3":{"d":"373,-549v131,0,221,73,221,200v0,204,-133,358,-332,358v-127,0,-219,-70,-219,-193v0,-199,135,-365,330,-365xm287,-103v99,0,164,-109,164,-217v0,-66,-36,-117,-100,-117v-99,1,-165,114,-165,225v0,66,38,109,101,109xm601,-752r-158,154r-100,0r102,-154r156,0","w":611},"\u00f4":{"d":"373,-549v131,0,221,73,221,200v0,204,-133,358,-332,358v-127,0,-219,-70,-219,-193v0,-199,135,-365,330,-365xm287,-103v99,0,164,-109,164,-217v0,-66,-36,-117,-100,-117v-99,1,-165,114,-165,225v0,66,38,109,101,109xm562,-598r-88,0r-66,-77r-98,77r-86,0r140,-154r127,0","w":611},"\u00f5":{"d":"373,-549v131,0,221,73,221,200v0,204,-133,358,-332,358v-127,0,-219,-70,-219,-193v0,-199,135,-365,330,-365xm287,-103v99,0,164,-109,164,-217v0,-66,-36,-117,-100,-117v-99,1,-165,114,-165,225v0,66,38,109,101,109xm214,-616v19,-62,54,-114,121,-117v50,-1,109,48,154,48v22,0,40,-17,54,-51r54,0v-18,70,-59,120,-133,122v-61,2,-95,-50,-145,-50v-17,0,-34,16,-51,48r-54,0","w":611},"\u00f6":{"d":"373,-549v131,0,221,73,221,200v0,204,-133,358,-332,358v-127,0,-219,-70,-219,-193v0,-199,135,-365,330,-365xm287,-103v99,0,164,-109,164,-217v0,-66,-36,-117,-100,-117v-99,1,-165,114,-165,225v0,66,38,109,101,109xm362,-618r-126,0r25,-115r126,0xm557,-618r-126,0r25,-115r126,0","w":611},"\u00f7":{"d":"538,-200r-464,0r0,-100r464,0r0,100xm306,-507v40,0,75,35,75,75v0,40,-35,75,-75,75v-40,0,-75,-35,-75,-75v0,-40,35,-75,75,-75xm306,-143v40,0,75,35,75,75v0,40,-35,75,-75,75v-40,0,-75,-35,-75,-75v0,-40,35,-75,75,-75","w":584},"\u00f8":{"d":"43,-184v-4,-199,135,-365,330,-365v66,0,118,16,157,49r50,-43r49,58r-53,45v12,27,18,57,18,91v4,204,-133,361,-332,358v-63,0,-115,-16,-155,-47r-48,41r-49,-58r51,-43v-12,-27,-18,-56,-18,-86xm287,-103v102,-2,171,-113,164,-229r-236,202v17,18,41,27,72,27xm422,-407v-18,-20,-42,-30,-71,-30v-100,1,-173,118,-164,231","w":611},"\u00f9":{"d":"197,9v-104,0,-163,-77,-140,-187r77,-362r140,0r-67,313v-3,11,-6,28,-6,49v0,50,25,75,76,75v75,0,119,-63,134,-133r65,-304r140,0r-115,540r-140,0r16,-75v-51,56,-111,84,-180,84xm443,-598r-100,0r-93,-154r156,0","w":611},"\u00fa":{"d":"197,9v-104,0,-163,-77,-140,-187r77,-362r140,0r-67,313v-3,11,-6,28,-6,49v0,50,25,75,76,75v75,0,119,-63,134,-133r65,-304r140,0r-115,540r-140,0r16,-75v-51,56,-111,84,-180,84xm601,-752r-158,154r-100,0r102,-154r156,0","w":611},"\u00fb":{"d":"197,9v-104,0,-163,-77,-140,-187r77,-362r140,0r-67,313v-3,11,-6,28,-6,49v0,50,25,75,76,75v75,0,119,-63,134,-133r65,-304r140,0r-115,540r-140,0r16,-75v-51,56,-111,84,-180,84xm562,-598r-88,0r-66,-77r-98,77r-86,0r140,-154r127,0","w":611},"\u00fc":{"d":"197,9v-104,0,-163,-77,-140,-187r77,-362r140,0r-67,313v-3,11,-6,28,-6,49v0,50,25,75,76,75v75,0,119,-63,134,-133r65,-304r140,0r-115,540r-140,0r16,-75v-51,56,-111,84,-180,84xm362,-618r-126,0r25,-115r126,0xm557,-618r-126,0r25,-115r126,0","w":611},"\u00fd":{"d":"613,-540r-358,638v-55,92,-83,118,-214,121v-18,0,-33,-1,-44,-4r23,-109v74,11,151,-21,141,-91r-77,-555r154,0r36,393r195,-393r144,0xm573,-752r-158,154r-100,0r102,-154r156,0"},"\u00fe":{"d":"424,-549v110,0,173,90,173,206v0,173,-126,352,-290,352v-68,0,-112,-29,-133,-87r-63,296r-140,0r201,-947r140,0r-57,269v46,-59,102,-89,169,-89xm297,-103v90,1,157,-121,157,-220v0,-63,-30,-114,-88,-114v-95,0,-157,114,-157,221v0,62,31,113,88,113","w":611},"\u00ff":{"d":"613,-540r-358,638v-55,92,-83,118,-214,121v-18,0,-33,-1,-44,-4r23,-109v74,11,151,-21,141,-91r-77,-555r154,0r36,393r195,-393r144,0xm334,-618r-126,0r25,-115r126,0xm529,-618r-126,0r25,-115r126,0"},"\u0152":{"d":"442,-741v73,1,108,21,143,64r11,-52r471,0r-27,125r-326,0r-35,165r298,0r-27,125r-298,0r-40,189r345,0r-26,125r-490,0r15,-73v-50,51,-83,81,-167,82v-147,2,-241,-102,-239,-254v2,-181,88,-342,198,-425v61,-46,125,-71,194,-71xm199,-274v-1,100,51,154,147,155v50,0,93,-24,130,-73r74,-348v-18,-49,-54,-73,-108,-73v-65,0,-122,35,-170,103v-48,68,-73,147,-73,236","w":1000},"\u0153":{"d":"738,-549v119,0,209,84,208,198v0,38,-6,80,-18,125r-362,0v-5,20,-7,37,-7,52v0,40,51,71,99,71v45,0,93,-24,111,-49r138,0v-44,87,-153,161,-278,161v-71,1,-141,-29,-168,-73v-55,49,-125,73,-210,73v-129,0,-217,-74,-217,-199v0,-191,141,-359,329,-359v78,0,146,27,180,72v49,-48,114,-72,195,-72xm276,-103v99,0,164,-109,164,-217v0,-66,-36,-117,-100,-117v-99,1,-163,108,-163,218v0,66,36,116,99,116xm803,-319v6,-71,-20,-118,-85,-118v-66,0,-110,39,-131,118r216,0","w":944},"\u0178":{"d":"765,-729r-328,459r-58,270r-150,0r58,-270r-145,-459r167,0r82,315r207,-315r167,0xm440,-797r-126,0r25,-115r126,0xm635,-797r-126,0r25,-115r126,0","w":667},"\u02c6":{"d":"423,-598r-88,0r-66,-77r-98,77r-86,0r140,-154r127,0","w":333},"\u02dc":{"d":"75,-616v19,-62,54,-114,121,-117v50,-1,109,48,154,48v22,0,40,-17,54,-51r54,0v-18,70,-59,120,-133,122v-61,2,-95,-50,-145,-50v-17,0,-34,16,-51,48r-54,0","w":333},"\u2013":{"d":"562,-207r-567,0r22,-104r567,0"},"\u2014":{"d":"1008,-207r-1011,0r22,-104r1011,0","w":1000},"\u2018":{"d":"289,-594r-27,125r-135,0v20,-80,22,-167,78,-215v31,-26,67,-42,112,-45r-10,46v-57,10,-90,40,-99,89r81,0","w":278},"\u2019":{"d":"316,-729v-20,79,-20,168,-76,215v-30,26,-68,42,-115,45r10,-46v57,-10,90,-40,99,-89r-81,0r27,-125r136,0","w":278},"\u201a":{"d":"188,-125v-20,79,-20,168,-76,215v-30,26,-68,42,-115,45r10,-46v57,-10,90,-40,99,-89r-81,0r27,-125r136,0","w":278},"\u201c":{"d":"293,-594r-27,125r-135,0v20,-80,22,-167,78,-215v31,-26,67,-42,112,-45r-10,46v-57,10,-90,40,-99,89r81,0xm520,-594r-27,125r-135,0v20,-80,22,-167,78,-215v31,-26,67,-42,112,-45r-10,46v-57,10,-90,40,-99,89r81,0","w":500},"\u201d":{"d":"323,-729v-20,80,-22,167,-78,215v-31,26,-67,42,-112,45r10,-46v57,-10,90,-40,99,-89r-81,0r27,-125r135,0xm555,-729v-20,80,-22,167,-78,215v-31,26,-67,42,-112,45r10,-46v57,-10,90,-40,99,-89r-81,0r27,-125r135,0","w":500},"\u201e":{"d":"187,-125v-20,80,-22,167,-78,215v-31,26,-67,42,-112,45r10,-46v57,-10,90,-40,99,-89r-81,0r27,-125r135,0xm422,-125v-20,80,-22,167,-78,215v-31,26,-67,42,-112,45r10,-46v57,-10,90,-40,99,-89r-81,0r27,-125r135,0","w":500},"\u2022":{"d":"218,-425v59,0,109,46,109,104v0,73,-77,146,-150,146v-60,0,-106,-45,-106,-104v0,-75,72,-146,147,-146","w":350},"\u2026":{"d":"202,0r-150,0r31,-146r150,0xm535,0r-150,0r31,-146r150,0xm868,0r-150,0r31,-146r150,0","w":1000},"\u2039":{"d":"311,-481r-25,117r-120,89r82,89r-24,114r-136,-146r24,-114","w":333},"\u203a":{"d":"255,-220r-199,148r25,-117r120,-89r-82,-89r24,-114r136,146","w":333},"\u20ac":{"d":"535,-527v-42,-39,-67,-67,-130,-67v-65,0,-119,47,-162,140r251,0r-39,68r-240,0v-6,21,-11,44,-16,68r217,0r-38,68r-181,0v6,112,73,148,167,118v20,-7,52,-21,96,-42r-31,149v-73,23,-127,34,-161,34v-81,0,-157,-52,-182,-111v-20,-46,-31,-95,-32,-148r-73,0r39,-68r39,0v5,-26,10,-49,15,-68r-64,0r39,-68r48,0v37,-85,85,-152,145,-199v79,-64,183,-91,285,-57v24,8,50,27,81,54"},"\u2122":{"d":"584,-729r-18,82r-123,0r-68,318r-103,0r68,-318r-129,0r18,-82r355,0xm1069,-729r-85,400r-98,0r56,-266r-121,266r-104,0r-6,-264r-56,264r-99,0r85,-400r152,0r6,269r129,-269r141,0","w":1014}}});
