/*!
 * The following copyright notice may not be removed under any circumstances.
 * 
 * Copyright:
 * Copyright (URW)++, copyright 1999 by (URW)++ Design & Development; Cyrillic
 * glyphs added by Valek Filippov, copyright 2001-2002; Vietnamese characters were
 * added by Han The Thanh; copyright 2006, 2008 for TeX Gyre extensions by B.
 * Jackowski and J.M. Nowacki (on behalf of TeX users groups). This work is
 * released under the GUST Font License --  see
 * http://tug.org/fonts/licenses/GUST-FONT-LICENSE.txt for details.
 * 
 * Trademark:
 * Please refer to the Copyright section for the font trademark attribution
 * notices.
 */
Cufon.registerFont({"w":456,"face":{"font-family":"TeXGyreHerosCn","font-weight":400,"font-style":"italic","font-stretch":"condensed","units-per-em":"1000","panose-1":"0 0 5 6 0 0 0 0 0 0","ascent":"793","descent":"-207","x-height":"14","bbox":"-89 -940.913 875 230.058","underline-thickness":"50","underline-position":"-25","slope":"-9.89999","unicode-range":"U+0020-U+2122"},"glyphs":{" ":{"w":228},"!":{"d":"131,-102r-18,102r-79,0r18,-102r79,0xm197,-481r-74,310r-40,0r35,-310r41,-237r79,0","w":228},"\"":{"d":"158,-463r-60,0r44,-255r60,0xm275,-463r-60,0r44,-255r60,0","w":291},"#":{"d":"477,-478r-18,63r-85,0r-41,142r85,0r-19,63r-84,0r-60,210r-55,0r61,-210r-103,0r-60,210r-54,0r60,-210r-84,0r18,-63r85,0r40,-142r-84,0r18,-63r84,0r61,-210r55,0r-61,210r102,0r60,-210r55,0r-60,210r84,0xm319,-415r-101,0r-41,142r102,0"},"$":{"d":"331,-711v103,14,147,70,133,190r-70,0v3,-31,-1,-68,-16,-84v-12,-13,-32,-25,-60,-33r-42,239v62,23,103,44,122,63v19,19,28,48,28,88v2,143,-90,259,-223,267r-16,96r-39,0r17,-96v-99,-11,-146,-52,-148,-152v0,-16,2,-43,7,-80r72,0v-5,63,-10,95,15,127v12,15,35,25,67,32r46,-265v-90,-30,-137,-51,-140,-152v-4,-123,91,-236,208,-240r11,-64r39,0xm279,-638v-69,2,-121,68,-120,140v0,46,27,76,81,89xm216,-54v93,-1,161,-112,120,-204v-14,-31,-46,-37,-76,-50"},"%":{"d":"340,-572v0,68,-15,126,-45,176v-30,50,-69,75,-118,75v-65,0,-97,-41,-97,-123v0,-67,14,-126,44,-176v30,-50,69,-75,118,-75v65,0,98,41,98,123xm283,-571v0,-47,-16,-71,-49,-71v-29,0,-52,20,-70,60v-18,40,-27,85,-27,137v0,47,16,71,49,71v29,0,52,-20,70,-60v18,-40,27,-86,27,-137xm631,-703r-450,722r-45,0r450,-722r45,0xm689,-244v0,67,-15,126,-45,176v-30,50,-69,75,-117,75v-65,0,-98,-41,-98,-123v0,-67,15,-126,45,-176v30,-50,68,-75,117,-75v65,0,98,41,98,123xm632,-243v0,-47,-16,-71,-49,-71v-29,0,-53,20,-71,60v-18,40,-26,85,-26,137v0,47,17,71,50,71v29,0,52,-20,70,-60v18,-40,26,-86,26,-137","w":729},"&":{"d":"332,-718v67,0,109,47,108,115v0,42,-10,80,-31,113v-21,33,-58,69,-111,108r81,156v16,-33,30,-71,43,-112r68,0v-15,60,-41,121,-79,183r77,155r-93,0r-41,-82v-57,60,-92,95,-187,97v-92,2,-144,-55,-144,-148v0,-89,39,-164,93,-208v18,-15,45,-34,82,-58v-25,-51,-38,-92,-38,-122v0,-99,77,-197,172,-197xm97,-155v-1,53,38,95,90,94v48,0,94,-27,139,-80r-98,-198v-57,39,-93,71,-108,95v-15,24,-23,54,-23,89xm271,-439v54,-43,93,-71,97,-146v2,-35,-19,-57,-53,-57v-48,-1,-83,46,-82,96v0,31,13,66,38,107","w":547},"'":{"d":"149,-463r-60,0r44,-255r60,0","w":157},"(":{"d":"121,207v-46,-130,-72,-187,-72,-330v0,-101,17,-198,51,-291v34,-93,95,-200,182,-319r50,0v-79,132,-115,181,-155,315v-73,244,-73,356,-8,625r-48,0","w":273},")":{"d":"164,-733v46,130,72,187,72,330v0,101,-18,198,-52,291v-34,93,-94,200,-181,319r-50,0v79,-132,115,-181,155,-315v74,-247,73,-353,8,-625r48,0","w":273},"*":{"d":"349,-591r-94,34r38,92r-46,34r-36,-94r-70,94r-34,-34r71,-92r-83,-34r26,-55r79,38r20,-110r49,0r-19,110r92,-38","w":319},"+":{"d":"430,-221r-155,0r0,155r-58,0r0,-155r-156,0r0,-58r156,0r0,-156r58,0r0,156r155,0r0,58","w":479},",":{"d":"118,-8v-17,92,-54,144,-112,155r8,-46v29,-4,49,-38,61,-101r-43,0r18,-106r85,0","w":228},"-":{"d":"253,-322r-16,90r-200,0r16,-90r200,0","w":273},".":{"d":"135,-106r-19,106r-85,0r19,-106r85,0","w":228},"\/":{"d":"330,-737r-332,756r-55,0r333,-756r54,0","w":228},"0":{"d":"185,19v-109,0,-149,-93,-148,-217v0,-170,47,-332,128,-428v43,-51,91,-77,146,-77v99,0,148,73,148,220v0,124,-38,273,-82,359v-49,95,-113,143,-192,143xm114,-199v-1,76,20,139,85,139v36,0,68,-23,97,-68v56,-84,86,-222,86,-356v0,-76,-20,-140,-85,-140v-27,0,-51,13,-75,39v-73,83,-106,233,-108,386"},"1":{"d":"255,0r-78,0r87,-499r-134,0r12,-70v122,-11,136,-34,178,-134r57,0"},"2":{"d":"314,-703v94,0,152,65,152,160v0,93,-45,176,-104,221v-33,25,-113,75,-162,104v-69,41,-110,86,-123,135r313,0r-14,83r-395,0v28,-135,83,-215,184,-279r86,-54v56,-37,79,-46,108,-91v19,-30,28,-64,28,-101v1,-61,-35,-99,-94,-99v-37,0,-68,14,-91,41v-23,27,-42,71,-55,132r-73,0v35,-168,115,-252,240,-252"},"3":{"d":"355,-372v49,25,73,52,74,119v4,140,-109,272,-249,272v-101,0,-160,-62,-159,-164v0,-22,1,-45,4,-70r75,0v-3,19,-4,38,-4,55v0,63,36,100,99,100v87,0,154,-79,154,-169v0,-68,-47,-99,-117,-96v-9,1,-20,1,-32,1r13,-76v103,16,170,-44,170,-137v0,-55,-34,-88,-90,-87v-36,0,-65,12,-86,36v-21,24,-39,62,-52,115r-71,0v31,-153,106,-230,224,-230v92,-1,152,54,152,145v0,88,-42,160,-105,186"},"4":{"d":"419,-171r-85,0r-30,171r-72,0r30,-171r-252,0r15,-86r342,-446r60,0r-80,456r85,0xm275,-247r56,-322r-241,322r185,0"},"5":{"d":"270,-453v92,-1,155,77,155,173v0,149,-108,299,-254,299v-111,0,-168,-75,-155,-194r75,0v-9,70,31,118,97,118v90,0,157,-102,157,-201v0,-67,-38,-116,-103,-116v-41,0,-80,22,-119,67r-62,-4r109,-377r299,0r-15,86r-245,0r-58,193v39,-29,78,-44,119,-44"},"6":{"d":"279,-448v91,-1,149,72,149,166v0,143,-107,303,-240,301v-109,-2,-157,-89,-154,-209v4,-184,63,-377,164,-463v39,-33,81,-50,127,-50v82,-1,140,61,139,144v0,6,-1,20,-2,43r-71,0v-1,-68,-17,-108,-78,-108v-42,0,-79,23,-111,68v-32,45,-56,111,-74,198v41,-60,91,-90,151,-90xm205,-60v85,0,146,-105,146,-199v0,-67,-31,-110,-94,-110v-88,-1,-148,98,-148,193v0,66,34,116,96,116"},"7":{"d":"496,-611v-150,164,-265,368,-344,611r-80,0v68,-222,198,-435,341,-602r-318,0r15,-86r399,0"},"8":{"d":"307,-703v91,0,151,55,150,145v0,84,-34,145,-103,184v46,30,69,73,69,128v0,133,-104,265,-235,265v-98,0,-168,-64,-168,-160v0,-109,44,-186,133,-232v-38,-23,-57,-57,-57,-102v0,-114,96,-228,211,-228xm202,-60v89,0,142,-75,142,-169v0,-62,-37,-101,-98,-101v-84,0,-146,78,-146,165v0,67,35,105,102,105xm256,-406v68,0,125,-66,125,-135v0,-52,-36,-83,-89,-83v-70,0,-120,61,-120,133v0,48,36,85,84,85"},"9":{"d":"304,-703v109,1,156,81,155,199v0,124,-43,278,-88,366v-54,104,-121,157,-204,157v-100,1,-156,-79,-137,-188r72,0v-8,65,17,117,78,115v38,0,71,-19,99,-56v28,-37,57,-109,87,-215v-37,60,-87,90,-151,90v-93,0,-145,-70,-145,-167v0,-145,98,-303,234,-301xm237,-314v92,0,146,-104,146,-204v0,-63,-31,-106,-92,-106v-90,1,-145,108,-145,209v0,67,30,101,91,101"},":":{"d":"117,0r-86,0r19,-106r85,0xm207,-516r-19,106r-85,0r18,-106r86,0","w":228},";":{"d":"136,-106r-18,98v-17,92,-54,144,-112,155r8,-46v29,-4,49,-38,61,-101r-43,0r18,-106r86,0xm189,-410r-86,0r19,-106r85,0","w":228},"<":{"d":"375,65r-280,-295r0,-40r280,-295r0,84r-219,231r219,231r0,84","w":479},"=":{"d":"430,-311r-369,0r0,-58r369,0r0,58xm430,-131r-369,0r0,-58r369,0r0,58","w":479},">":{"d":"375,-230r-280,295r0,-84r219,-231r-219,-231r0,-84r280,295r0,40","w":479},"?":{"d":"316,-727v88,-1,145,62,144,151v0,42,-7,77,-21,104v-14,27,-44,61,-89,106v-70,71,-83,77,-103,183r-72,0v24,-121,38,-134,115,-215v38,-39,62,-66,71,-82v14,-24,21,-52,21,-83v0,-54,-29,-90,-82,-88v-89,3,-117,69,-136,158r-72,0v18,-83,28,-117,72,-165v43,-47,95,-69,152,-69xm239,-102r-18,102r-80,0r18,-102r80,0"},"@":{"d":"520,-737v134,-2,233,112,231,250v-2,119,-68,240,-137,299v-40,35,-79,52,-116,52v-31,0,-46,-30,-40,-64v-42,43,-80,64,-114,64v-58,0,-95,-58,-93,-121v2,-106,62,-211,126,-265v39,-33,76,-50,115,-50v51,0,68,30,80,78r27,-62r56,0r-67,164v-43,111,-65,149,-65,175v0,11,4,16,13,16v35,0,70,-30,106,-91v36,-61,54,-121,54,-182v0,-114,-76,-203,-187,-201v-128,3,-222,99,-269,199v-29,60,-44,123,-44,190v0,133,80,244,206,243v75,0,149,-38,220,-114r55,0v-85,117,-181,176,-288,176v-154,0,-255,-137,-253,-299v2,-169,92,-317,198,-392v60,-42,121,-65,186,-65xm320,-278v0,38,18,70,53,70v31,0,65,-24,103,-74v38,-50,57,-99,57,-147v1,-39,-19,-69,-53,-71v-71,-3,-160,140,-160,222","w":832},"A":{"d":"496,0r-87,0r-22,-209r-236,0r-98,209r-82,0r347,-718r90,0xm374,-295r-33,-319r-150,319r183,0","w":547},"B":{"d":"435,-387v52,30,78,56,80,129v4,137,-107,258,-241,258r-253,0r125,-718r259,0v86,-1,139,54,138,141v0,84,-36,147,-108,190xm316,-414v93,1,145,-54,145,-144v0,-51,-35,-77,-106,-77r-144,0r-39,221r144,0xm284,-83v90,1,150,-70,150,-161v0,-61,-40,-91,-119,-91r-156,0r-44,252r169,0","w":547},"C":{"d":"131,-255v-1,112,44,187,148,188v45,0,85,-15,119,-46v34,-31,63,-81,89,-151r77,0v-38,102,-58,152,-124,211v-55,49,-116,72,-183,72v-140,-1,-209,-111,-209,-261v0,-137,34,-253,101,-350v67,-97,151,-145,250,-145v131,-1,212,94,200,235r-77,0v-4,-99,-50,-149,-137,-149v-72,0,-132,39,-181,115v-49,76,-73,170,-73,281","w":592},"D":{"d":"390,-718v132,1,197,104,196,246v-1,169,-62,321,-156,404v-51,45,-107,68,-168,68r-236,0r125,-718r239,0xm503,-461v1,-103,-42,-174,-138,-174r-149,0r-96,552r154,0v65,0,120,-37,164,-112v44,-75,65,-163,65,-266","w":592},"E":{"d":"466,0r-435,0r125,-718r429,0r-15,86r-349,0r-39,220r323,0r-15,86r-323,0r-41,240r355,0","w":547},"F":{"d":"548,-632r-328,0r-38,220r288,0r-15,86r-288,0r-57,326r-79,0r125,-718r407,0","w":501},"G":{"d":"405,-737v132,0,220,95,210,237r-77,0v-7,-101,-56,-151,-146,-151v-72,0,-132,38,-182,115v-50,77,-75,172,-75,284v0,125,52,188,156,188v55,0,102,-19,142,-58v40,-39,67,-99,82,-179r-183,0r14,-83r258,0r-66,384r-52,0r-3,-93v-63,75,-136,112,-218,112v-140,0,-214,-125,-214,-265v0,-178,76,-339,178,-422v55,-45,113,-69,176,-69","w":638},"H":{"d":"490,0r-80,0r59,-335r-308,0r-58,335r-80,0r125,-718r80,0r-52,297r308,0r51,-297r80,0","w":592},"I":{"d":"114,0r-79,0r125,-718r79,0","w":228},"J":{"d":"138,19v-103,3,-153,-72,-136,-179r13,-71r74,0r-8,50v-14,69,4,117,68,117v62,0,100,-41,115,-124r93,-530r79,0r-91,524v-20,119,-83,210,-207,213","w":410},"K":{"d":"503,0r-103,0r-143,-360r-112,108r-43,252r-80,0r125,-718r80,0r-61,348r346,-348r110,0r-296,290","w":547},"L":{"d":"400,0r-378,0r125,-718r80,0r-110,632r298,0"},"M":{"d":"584,0r-77,0r74,-424r34,-185r-274,609r-78,0r-62,-608r-30,184r-74,424r-77,0r125,-718r114,0r63,610r274,-610r113,0","w":683},"N":{"d":"490,0r-90,0r-199,-583r-102,583r-77,0r125,-718r95,0r194,583r102,-583r77,0","w":592},"O":{"d":"407,-737v155,1,231,116,230,281v-1,173,-74,324,-176,406v-57,45,-118,69,-185,69v-156,0,-231,-115,-230,-280v1,-174,74,-327,177,-408v57,-45,117,-68,184,-68xm129,-274v0,118,53,206,161,207v73,0,134,-37,186,-112v52,-75,78,-163,78,-266v0,-117,-53,-205,-162,-206v-73,0,-135,37,-186,111v-51,74,-77,162,-77,266","w":638},"P":{"d":"421,-718v89,-1,143,62,143,153v0,130,-91,262,-216,262r-185,0r-53,303r-79,0r125,-718r265,0xm336,-386v94,1,146,-69,145,-163v0,-57,-33,-86,-99,-86r-161,0r-43,249r158,0","w":547},"Q":{"d":"407,-737v157,0,230,116,230,281v0,144,-48,270,-143,378r67,76r-50,58r-75,-85v-51,32,-104,48,-160,48v-156,0,-231,-116,-230,-280v1,-174,74,-326,176,-407v57,-45,118,-69,185,-69xm129,-274v0,118,53,206,162,207v30,0,60,-8,91,-23r-52,-58r51,-60r62,71v74,-82,111,-184,111,-306v0,-118,-53,-207,-161,-208v-73,0,-135,37,-187,111v-52,74,-77,162,-77,266","w":638},"R":{"d":"478,-353v36,23,50,35,50,90v0,74,-20,137,-24,209v0,14,7,27,20,38r-3,16r-98,0v-4,-59,23,-153,23,-230v0,-52,-29,-78,-88,-78r-193,0r-53,308r-80,0r125,-718r273,0v102,-1,164,45,164,143v0,95,-39,169,-116,222xm364,-391v96,1,145,-65,145,-161v0,-55,-29,-83,-88,-83r-199,0r-42,244r184,0","w":592},"S":{"d":"344,-654v-89,-2,-158,61,-157,148v0,35,19,58,56,69r159,47v70,20,105,68,105,144v0,157,-117,265,-275,265v-116,0,-198,-67,-198,-176v0,-22,2,-47,7,-75r75,0v-21,103,36,168,135,168v102,0,179,-56,176,-153v-2,-66,-42,-76,-107,-95r-114,-34v-67,-20,-100,-63,-100,-129v0,-139,111,-262,252,-262v112,0,186,60,186,168v0,19,-1,40,-4,61r-75,0v14,-94,-36,-144,-121,-146","w":547},"T":{"d":"560,-632r-199,0r-110,632r-80,0r110,-632r-199,0r15,-86r478,0","w":501},"U":{"d":"145,-202v-1,83,41,136,122,135v112,-2,168,-89,187,-197r80,-454r79,0r-81,466v-24,148,-124,269,-283,271v-121,1,-189,-73,-188,-195v0,-25,2,-46,5,-63r84,-479r79,0r-78,452v-4,21,-6,43,-6,64","w":592},"V":{"d":"616,-718r-340,718r-84,0r-90,-718r89,0r61,615r275,-615r89,0","w":547},"W":{"d":"846,-718r-280,718r-115,0r0,-599r-241,599r-112,0r0,-718r94,0r0,588r236,-588r117,0r0,588r213,-588r88,0","w":774},"X":{"d":"491,0r-98,0r-107,-295r-214,295r-96,0r274,-368r-136,-350r100,0r101,275r197,-275r95,0r-258,350","w":547},"Y":{"d":"621,-718r-297,429r-50,289r-80,0r50,-289r-147,-429r93,0r108,345r230,-345r93,0","w":547},"Z":{"d":"442,0r-463,0r14,-81r457,-551r-334,0r15,-86r436,0r-15,84r-457,548r362,0","w":501},"[":{"d":"279,-651r-89,0r-136,776r89,0r-12,71r-154,0r160,-918r154,0","w":228},"\\":{"d":"199,19r-55,0r-69,-756r54,0","w":228},"]":{"d":"102,196r-153,0r12,-71r89,0r135,-776r-89,0r13,-71r153,0","w":228},"^":{"d":"402,-264r-63,0r-80,-344r-200,344r-64,0r248,-424r59,0","w":385},"_":{"d":"403,75r-9,50r-456,0r9,-50r456,0"},"`":{"d":"226,-584r-55,0r-83,-141r99,0","w":273},"a":{"d":"276,-538v93,0,156,51,139,146r-54,312v1,25,22,22,45,16r-12,64v-44,20,-111,10,-105,-46v0,-4,1,-12,2,-24v-54,57,-110,85,-167,85v-70,1,-114,-45,-114,-116v0,-105,68,-185,162,-199r122,-18v33,-5,50,-33,50,-82v0,-43,-29,-65,-86,-65v-74,0,-97,37,-118,101r-66,0v26,-116,93,-174,202,-174xm150,-58v73,2,145,-60,156,-123r15,-86v-13,11,-54,21,-125,33v-69,12,-107,39,-109,113v0,42,21,63,63,63"},"b":{"d":"301,-538v93,0,139,81,138,183v-1,129,-49,249,-119,315v-39,36,-80,55,-126,55v-64,0,-86,-30,-106,-83r-12,68r-68,0r125,-718r72,0r-46,263v41,-48,71,-83,142,-83xm113,-179v-1,66,32,117,92,118v46,0,84,-29,114,-87v30,-58,45,-125,45,-200v0,-66,-29,-111,-91,-111v-77,0,-122,85,-142,153v-12,42,-18,84,-18,127"},"c":{"d":"342,-347v-4,-72,-15,-112,-82,-112v-47,0,-86,27,-116,83v-30,56,-45,121,-45,196v0,79,29,119,88,119v55,0,97,-41,127,-124r70,0v-41,133,-111,200,-210,200v-101,0,-153,-79,-153,-187v0,-98,25,-183,75,-256v50,-73,112,-110,187,-110v99,1,144,80,129,191r-70,0","w":410},"d":{"d":"260,-538v69,0,95,35,114,94r48,-274r72,0r-125,718r-68,0r13,-75v-38,54,-64,90,-140,90v-104,0,-146,-86,-145,-200v0,-98,22,-181,67,-250v45,-69,99,-103,164,-103xm120,-316v-24,89,-38,253,68,255v45,0,84,-25,114,-75v30,-50,45,-117,45,-198v0,-83,-29,-125,-88,-125v-76,0,-121,76,-139,143"},"e":{"d":"289,-538v101,0,145,82,145,184v0,29,-4,70,-11,121r-313,0v-20,90,5,172,92,172v63,0,117,-49,131,-103r72,0v-31,99,-104,179,-219,179v-105,0,-157,-76,-157,-187v0,-98,25,-183,75,-256v50,-73,111,-110,185,-110xm361,-303v11,-90,-13,-156,-89,-156v-82,0,-134,78,-150,156r239,0"},"f":{"d":"266,-523r-13,73r-72,0r-78,450r-72,0r78,-450r-59,0r13,-73r59,0v12,-65,16,-141,58,-175v31,-25,68,-34,121,-28r-14,79v-17,-1,-27,-2,-29,-2v-29,0,-46,20,-53,61r-11,65r72,0","w":228},"g":{"d":"263,-538v70,0,91,34,115,92r14,-77r68,0r-84,480v-15,91,-43,157,-83,199v-40,42,-93,64,-160,64v-100,0,-142,-51,-139,-156r72,0v3,57,25,82,82,83v43,0,77,-15,102,-41v27,-28,46,-95,57,-164v-36,49,-80,73,-131,73v-101,-2,-144,-88,-144,-199v0,-99,23,-182,68,-251v45,-69,99,-103,163,-103xm106,-185v-1,68,25,124,86,124v45,0,84,-25,114,-75v30,-50,45,-117,45,-198v0,-83,-30,-125,-89,-125v-49,0,-88,27,-115,81v-27,54,-41,119,-41,193"},"h":{"d":"311,-538v96,-3,132,81,114,182r-62,356r-72,0r59,-342v14,-61,2,-120,-63,-117v-92,4,-136,81,-152,174r-50,285r-72,0r125,-718r73,0r-47,267v46,-53,69,-84,147,-87"},"i":{"d":"87,0r-72,0r91,-523r72,0xm200,-607r-86,0r17,-96r86,0","w":182},"j":{"d":"74,77v-14,90,-61,145,-163,130r13,-76v24,1,52,-2,60,-11v7,-8,14,-25,19,-53r103,-590r72,0xm200,-607r-86,0r17,-96r86,0","w":182},"k":{"d":"371,0r-93,0r-87,-264r-72,66r-34,198r-70,0r125,-718r70,0r-73,416r223,-221r92,0r-198,195","w":410},"l":{"d":"87,0r-72,0r125,-718r72,0","w":182},"m":{"d":"550,-538v89,-2,120,83,104,176r-63,362r-72,0r59,-338v3,-14,4,-30,4,-49v0,-48,-20,-72,-61,-72v-66,0,-116,75,-127,140r-56,319r-72,0r63,-362v10,-48,-4,-100,-49,-97v-85,6,-130,87,-145,174r-50,285r-72,0r91,-523r69,0r-14,77v42,-53,72,-92,149,-92v61,0,83,31,98,85v31,-33,57,-55,76,-67v19,-12,42,-18,68,-18","w":683},"n":{"d":"312,-538v94,-3,131,81,113,182r-62,356r-72,0r56,-322v3,-22,5,-42,5,-60v0,-51,-23,-77,-69,-77v-88,0,-132,85,-148,174r-50,285r-72,0r91,-523r68,0r-13,77v44,-53,75,-90,153,-92"},"o":{"d":"282,-538v106,1,157,87,157,202v0,91,-25,172,-75,243v-50,71,-109,107,-179,107v-107,-1,-157,-88,-157,-203v0,-91,24,-172,74,-243v50,-71,110,-106,180,-106xm103,-198v0,78,26,136,96,136v46,0,85,-27,117,-81v32,-54,48,-115,48,-182v1,-78,-27,-137,-96,-137v-46,0,-85,26,-117,80v-32,54,-48,115,-48,184"},"p":{"d":"301,-538v93,0,139,81,138,183v-1,129,-51,247,-119,315v-69,69,-195,82,-230,-18r-47,265r-72,0r127,-730r69,0r-14,77v45,-56,68,-92,148,-92xm113,-178v-1,65,32,117,92,117v45,0,82,-29,113,-86v31,-57,46,-124,46,-201v0,-66,-29,-111,-91,-111v-77,0,-125,89,-143,157v-11,42,-17,83,-17,124"},"q":{"d":"260,-538v71,0,89,34,115,92r13,-77r68,0r-127,730r-72,0r46,-265v-36,49,-79,73,-130,73v-102,-2,-145,-87,-144,-200v0,-98,22,-181,67,-250v45,-69,99,-103,164,-103xm103,-186v-1,69,24,125,85,125v47,0,84,-26,114,-77v30,-51,45,-116,45,-197v0,-83,-29,-124,-88,-124v-49,0,-87,26,-115,79v-28,53,-41,118,-41,194"},"r":{"d":"325,-535r-16,91v-94,-10,-147,61,-161,140r-53,304r-72,0r91,-523r68,0r-16,90v26,-38,50,-65,71,-81v26,-19,55,-29,88,-21","w":273},"s":{"d":"241,-462v-58,-1,-107,35,-104,90v2,39,26,39,66,54v73,26,167,37,168,129v2,111,-96,204,-207,204v-111,0,-170,-68,-148,-183r70,0v-12,72,25,106,92,107v63,1,120,-37,117,-97v-2,-40,-32,-48,-74,-61r-79,-25v-53,-17,-79,-49,-79,-98v0,-107,88,-196,195,-196v94,0,149,63,134,164r-70,0v12,-60,-25,-87,-81,-88","w":410},"t":{"d":"171,0v-37,5,-57,7,-60,7v-45,0,-67,-23,-67,-70v0,-15,1,-29,4,-42r60,-345r-58,0r13,-73r58,0r25,-146r73,0r-26,146r69,0r-13,73r-69,0r-59,340v-5,25,6,42,36,41r26,0","w":228},"u":{"d":"155,15v-90,4,-130,-69,-114,-162r65,-376r73,0r-61,347v-2,13,-3,27,-3,40v0,50,22,75,67,75v87,0,133,-86,148,-174r50,-288r72,0r-91,523r-68,0r14,-81v-45,59,-69,93,-152,96"},"v":{"d":"455,-523r-254,523r-78,0r-65,-523r84,0r37,429r197,-429r79,0","w":410},"w":{"d":"633,-523r-216,523r-91,0r0,-409r-156,409r-74,0r-33,-523r89,0r0,415r156,-415r93,0r0,415r160,-415r72,0","w":592},"x":{"d":"362,0r-92,0r-72,-197r-138,197r-91,0r198,-269r-100,-254r93,0r67,184r132,-184r88,0r-189,254","w":410},"y":{"d":"452,-523r-244,513v-46,90,-57,131,-106,188v-29,33,-41,35,-95,36v-10,0,-24,-4,-35,-8r14,-80v26,11,60,14,78,-4v18,-17,45,-77,61,-108r-65,-537r82,0r40,429r190,-429r80,0","w":410},"z":{"d":"357,-73r-13,73r-359,0r12,-69r325,-381r-239,0r13,-73r332,0r-13,72r-321,378r263,0","w":410},"{":{"d":"110,196v-53,-1,-71,-69,-61,-129v12,-72,33,-136,33,-216v0,-52,-16,-80,-47,-85r10,-60v50,-6,80,-70,89,-127r30,-172v10,-61,48,-126,106,-129r55,0r-11,65v-63,-5,-75,9,-88,82r-30,170v-7,54,-55,127,-99,141v43,20,59,81,49,144r-29,169v-7,31,-8,82,23,82r36,0r-11,65r-55,0","w":274},"|":{"d":"142,196r-58,0r0,-918r58,0r0,918","w":213},"}":{"d":"175,-722v54,1,73,69,62,129r-30,172v-12,55,0,126,44,127r-10,60v-19,1,-37,13,-54,37v-63,88,-38,271,-106,356v-32,40,-62,38,-121,37r11,-65r37,0v25,0,43,-27,52,-82r29,-169v8,-59,52,-128,100,-144v-43,-16,-60,-77,-50,-141r32,-185v5,-29,2,-67,-26,-67r-36,0r11,-65r55,0","w":274},"~":{"d":"168,-322v56,0,110,68,165,68v19,0,41,-17,68,-51r35,38v-37,48,-57,86,-119,86v-21,0,-47,-11,-77,-33v-65,-45,-110,-53,-156,14r-33,-36v36,-57,75,-86,117,-86","w":479},"\u00a0":{"w":228},"\u00a1":{"d":"205,-523r-18,102r-79,0r18,-102r79,0xm80,195r-79,0r41,-237r74,-310r40,0r-35,310","w":228},"\u00a2":{"d":"202,-57v87,-5,108,-50,141,-126r70,0v-21,65,-48,116,-87,150v-52,46,-103,63,-182,45r-43,103r-34,0r48,-114v-51,-39,-77,-96,-77,-170v0,-135,49,-254,125,-317v40,-34,85,-52,134,-52v14,0,26,2,35,6r37,-91r32,0r-38,100v59,26,82,92,75,178r-67,0v-3,-53,-8,-83,-38,-102r-158,386v8,3,17,4,27,4xm303,-459v-63,-12,-103,20,-141,80v-34,55,-50,118,-50,189v0,51,12,88,35,112"},"\u00a3":{"d":"185,-102v10,-4,125,37,132,35v22,0,45,-10,69,-31r22,66v-41,32,-78,48,-111,48v-10,4,-154,-49,-165,-45v-27,0,-62,13,-104,40r-28,-69v44,-33,78,-68,100,-106v33,-55,42,-87,30,-153r-88,0r11,-63r57,0v-10,-43,-15,-75,-15,-97v-4,-129,108,-241,236,-241v122,0,169,106,142,228r-72,0v16,-78,-12,-152,-88,-152v-75,0,-142,75,-139,152v0,23,6,59,19,110r138,0r-11,63r-114,0v4,55,-8,101,-32,142v-22,37,-58,75,-109,114v46,-27,86,-41,120,-41"},"\u00a4":{"d":"398,-141r-41,41r-32,-31v-52,36,-126,36,-179,0r-31,31r-41,-41r31,-31v-36,-53,-36,-126,0,-179r-31,-31r41,-41r31,31v56,-37,125,-38,179,0r32,-31r41,41r-32,31v38,57,37,122,0,179xm236,-162v54,0,100,-46,100,-100v0,-53,-47,-100,-100,-100v-54,0,-100,46,-100,100v0,55,45,100,100,100"},"\u00a5":{"d":"533,-688r-211,304r127,0r-10,57r-158,0r-15,85r158,0r-10,57r-158,0r-32,185r-72,0r32,-185r-157,0r10,-57r157,0r15,-85r-157,0r10,-57r126,0r-105,-304r81,0r92,295r195,-295r82,0"},"\u00a6":{"d":"142,-355r-58,0r0,-367r58,0r0,367xm142,196r-58,0r0,-367r58,0r0,367","w":213},"\u00a7":{"d":"304,-661v-50,0,-95,45,-93,95v0,27,15,52,45,76r105,86v43,36,65,77,65,123v0,78,-39,144,-116,197v79,122,-34,275,-159,275v-77,0,-129,-53,-128,-130v0,-13,2,-33,5,-58r72,0v-13,57,3,112,61,112v56,0,102,-43,101,-98v0,-21,-11,-43,-33,-64r-147,-140v-23,-22,-35,-53,-35,-92v0,-75,37,-137,112,-188v-16,-29,-24,-53,-24,-73v-3,-94,85,-197,180,-197v76,0,125,49,124,125v0,13,-2,33,-5,58r-70,0v11,-58,-6,-107,-60,-107xm277,-124v45,-33,76,-58,76,-121v0,-30,-12,-55,-36,-76r-124,-107v-49,30,-74,70,-74,121v0,26,8,46,25,61"},"\u00a8":{"d":"166,-607r-88,0r17,-96r88,0xm327,-607r-88,0r17,-96r88,0","w":273},"\u00a9":{"d":"308,-677v168,0,282,175,282,348v0,174,-114,348,-282,348v-168,0,-282,-175,-282,-348v0,-174,114,-348,282,-348xm308,-21v147,0,242,-156,242,-308v0,-152,-95,-308,-242,-308v-147,0,-242,156,-242,308v0,152,95,308,242,308xm349,-534v78,0,130,50,122,132r-52,0v-2,-53,-28,-79,-78,-79v-90,1,-145,105,-141,206v2,59,28,97,85,97v51,0,90,-35,117,-105r53,0v-20,56,-45,95,-74,119v-58,48,-153,56,-202,2v-23,-25,-33,-60,-35,-105v-5,-134,81,-267,205,-267","w":604},"\u00aa":{"d":"234,-737v59,0,103,28,92,88r-31,178v-1,11,1,20,12,19r16,-2r-8,44v-30,11,-71,5,-68,-29v0,-7,0,-13,1,-17v-35,34,-71,51,-108,51v-44,1,-76,-28,-75,-72v0,-68,48,-113,111,-121r74,-10v16,-2,27,-25,26,-44v0,-22,-18,-33,-54,-33v-39,0,-64,18,-74,53r-44,0v17,-70,60,-105,130,-105xm263,-570v-6,13,-111,19,-129,38v-21,23,-22,75,25,75v48,0,90,-33,97,-74xm293,-352r-9,48r-242,0r8,-48r243,0","w":303},"\u00ab":{"d":"203,-196r-16,88r-107,-123r16,-92r150,-123r-15,88r-100,81xm399,-358r-100,81r71,81r-15,88r-107,-123r16,-92r150,-123"},"\u00ac":{"d":"430,-369r0,209r-58,0r0,-151r-311,0r0,-58r369,0","w":479},"\u00ad":{"d":"253,-322r-16,90r-200,0r16,-90r200,0","w":273},"\u00ae":{"d":"308,-677v168,0,282,175,282,348v0,174,-114,348,-282,348v-168,0,-282,-175,-282,-348v0,-174,114,-348,282,-348xm308,-21v147,0,242,-156,242,-308v0,-152,-95,-308,-242,-308v-147,0,-242,156,-242,308v0,152,95,308,242,308xm371,-135v-2,-37,12,-83,12,-125v0,-26,-18,-39,-49,-39r-109,0r-29,164r-54,0r68,-389r163,0v65,0,99,26,100,79v1,51,-20,90,-62,118v49,25,15,101,15,159v0,7,4,13,12,19v-2,5,0,14,-6,14r-61,0xm338,-350v51,1,79,-31,78,-81v0,-27,-16,-41,-49,-41r-112,0r-21,122r104,0","w":604},"\u00af":{"d":"344,-684r-10,57r-257,0r10,-57r257,0","w":273},"\u00b0":{"d":"247,-703v60,0,97,51,97,114v0,85,-67,178,-148,178v-61,0,-98,-50,-98,-114v0,-86,68,-178,149,-178xm203,-454v50,0,100,-70,100,-123v0,-42,-26,-83,-64,-83v-50,0,-100,70,-100,123v0,42,26,83,64,83","w":328},"\u00b1":{"d":"430,-279r-155,0r0,155r-58,0r0,-155r-156,0r0,-58r156,0r0,-156r58,0r0,156r155,0r0,58xm430,0r-369,0r0,-58r369,0r0,58","w":479},"\u00b2":{"d":"228,-714v62,-1,102,45,100,109v-4,98,-46,125,-125,170v-45,25,-94,53,-119,93r201,0r-11,61r-262,0v18,-80,53,-130,115,-167r55,-33v56,-33,85,-46,89,-119v2,-35,-24,-57,-59,-56v-59,2,-77,45,-91,104r-49,0v20,-108,72,-162,156,-162","w":273},"\u00b3":{"d":"250,-515v34,14,49,29,50,73v3,92,-72,173,-162,172v-80,-1,-115,-62,-102,-151r56,0v-8,56,7,93,57,93v57,1,92,-42,92,-101v0,-49,-40,-54,-93,-53r9,-51v62,6,102,-23,102,-79v0,-29,-19,-44,-56,-44v-52,0,-69,31,-81,80r-50,0v20,-92,69,-138,146,-138v58,-1,100,33,100,89v0,54,-28,94,-68,110","w":273},"\u00b4":{"d":"358,-725r-132,141r-55,0r88,-141r99,0","w":273},"\u00b5":{"d":"307,-81v-44,58,-69,96,-151,96v-30,0,-51,-12,-64,-36r-40,228r-72,0r127,-730r72,0r-60,347v-14,66,3,117,63,115v85,-2,133,-88,148,-174r50,-288r72,0r-91,523r-68,0"},"\u00b6":{"d":"63,-490v-2,-132,92,-228,226,-228r204,0r-156,891r-60,0r145,-831r-97,0r-146,831r-59,0r90,-517v-92,-4,-146,-55,-147,-146","w":440},"\u00b7":{"d":"120,-293v23,0,43,20,43,43v0,23,-20,43,-43,43v-23,0,-43,-20,-43,-43v0,-23,20,-43,43,-43","w":228},"\u00b8":{"d":"87,58v42,-3,64,24,64,63v1,61,-53,111,-114,109v-23,0,-48,-7,-75,-22r21,-40v43,27,102,17,104,-35v0,-18,-15,-33,-33,-33v-13,0,-24,2,-33,5r-11,-19r68,-88r48,0","w":273},"\u00b9":{"d":"265,-703r-74,422r-58,0r52,-296r-89,0r8,-46v77,-7,88,-20,115,-80r46,0","w":273},"\u00ba":{"d":"239,-737v69,0,105,45,105,116v0,112,-60,216,-163,216v-68,0,-105,-44,-105,-115v0,-113,60,-216,163,-217xm190,-457v63,1,98,-84,98,-152v0,-51,-19,-76,-58,-76v-63,0,-98,83,-98,152v0,51,19,76,58,76xm285,-304r-243,0r8,-48r243,0","w":299},"\u00bb":{"d":"225,-323r-17,92r-150,123r15,-88r101,-81r-72,-81r15,-88xm377,-231r-151,123r16,-88r100,-81r-72,-81r15,-88r108,123"},"\u00bc":{"d":"596,-94r-55,0r-16,94r-52,0r16,-94r-169,0r10,-60r216,-268r53,0r-48,270r55,0xm618,-703r-489,728r-47,0r489,-728r47,0xm287,-703r-74,422r-56,0r53,-299r-89,0r7,-43v77,-7,88,-20,115,-80r44,0xm499,-152r33,-190r-151,190r118,0","w":684},"\u00bd":{"d":"589,-703r-490,728r-47,0r490,-728r47,0xm191,-281r-59,0r52,-296r-89,0r8,-46v78,-7,88,-18,115,-80r46,0xm548,-433v62,-1,102,45,100,109v-4,98,-46,125,-125,170v-45,26,-93,51,-119,93r201,0r-11,61r-262,0v18,-80,53,-130,115,-167r55,-33v55,-32,86,-47,89,-119v2,-35,-24,-57,-59,-56v-59,2,-77,45,-91,104r-49,0v21,-108,73,-162,156,-162","w":684},"\u00be":{"d":"640,-94r-55,0r-16,94r-53,0r17,-94r-169,0r10,-60r216,-268r52,0r-47,270r55,0xm666,-703r-489,728r-47,0r489,-728r47,0xm282,-515v34,14,49,29,50,72v3,93,-71,174,-162,173v-80,-1,-115,-62,-102,-151r56,0v-8,56,7,93,57,93v57,1,92,-42,92,-101v0,-49,-40,-54,-93,-53r9,-51v62,6,102,-23,102,-79v0,-29,-19,-44,-56,-44v-52,0,-69,31,-81,80r-50,0v20,-92,69,-138,146,-138v60,-1,100,31,100,89v0,55,-23,92,-68,110xm543,-152r33,-190r-151,190r118,0","w":684},"\u00bf":{"d":"167,128v89,-3,117,-69,136,-158r72,0v-18,83,-28,117,-72,165v-43,47,-95,69,-152,69v-88,1,-145,-62,-144,-151v0,-42,7,-76,21,-103v14,-27,44,-62,89,-107v70,-71,83,-77,103,-183r72,0v-24,121,-38,134,-115,215v-38,39,-62,66,-71,82v-14,24,-21,52,-21,83v0,54,29,90,82,88xm326,-523r-18,102r-80,0r18,-102r80,0"},"\u00c0":{"d":"496,0r-87,0r-22,-209r-236,0r-98,209r-82,0r347,-718r90,0xm374,-295r-33,-319r-150,319r183,0xm402,-779r-55,0r-86,-121r99,0","w":547},"\u00c1":{"d":"496,0r-87,0r-22,-209r-236,0r-98,209r-82,0r347,-718r90,0xm374,-295r-33,-319r-150,319r183,0xm529,-900r-128,121r-55,0r84,-121r99,0","w":547},"\u00c2":{"d":"496,0r-87,0r-22,-209r-236,0r-98,209r-82,0r347,-718r90,0xm374,-295r-33,-319r-150,319r183,0xm508,-780r-66,0r-56,-73r-82,73r-65,0r117,-121r77,0","w":547},"\u00c3":{"d":"496,0r-87,0r-22,-209r-236,0r-98,209r-82,0r347,-718r90,0xm374,-295r-33,-319r-150,319r183,0xm235,-782v20,-61,40,-103,104,-107v35,-3,76,37,108,37v20,0,36,-15,47,-46r41,0v-23,73,-57,109,-102,109v-27,1,-87,-37,-112,-37v-19,0,-34,15,-47,44r-39,0","w":547},"\u00c4":{"d":"496,0r-87,0r-22,-209r-236,0r-98,209r-82,0r347,-718r90,0xm374,-295r-33,-319r-150,319r183,0xm340,-792r-88,0r17,-96r88,0xm501,-792r-88,0r17,-96r88,0","w":547},"\u00c5":{"d":"496,0r-87,0r-22,-209r-236,0r-98,209r-82,0r347,-718r90,0xm374,-295r-33,-319r-150,319r183,0xm472,-918v36,36,15,92,-22,118v-40,28,-111,33,-144,0v-36,-36,-16,-92,21,-118v40,-28,112,-33,145,0xm342,-826v41,41,137,-15,92,-66v-43,-41,-137,16,-92,66","w":547},"\u00c6":{"d":"740,0r-405,0r36,-209r-217,0r-101,209r-86,0r364,-718r528,0r-15,86r-320,0r-38,220r292,0r-15,86r-292,0r-42,240r326,0xm445,-632r-79,0r-168,337r188,0","w":820},"\u00c7":{"d":"131,-255v-1,112,44,187,148,188v45,0,85,-15,119,-46v34,-31,63,-81,89,-151r77,0v-38,102,-58,152,-124,211v-45,40,-94,62,-146,69r-27,42v42,-3,64,24,64,63v1,61,-53,111,-114,109v-23,0,-48,-7,-75,-22r21,-40v43,27,102,17,104,-35v0,-18,-15,-33,-33,-33v-13,0,-24,2,-33,5r-11,-19r52,-67v-130,-9,-194,-115,-194,-261v0,-137,34,-253,101,-350v67,-97,151,-145,250,-145v131,-1,212,94,200,235r-77,0v-4,-99,-50,-149,-137,-149v-72,0,-132,39,-181,115v-49,76,-73,170,-73,281","w":592},"\u00c8":{"d":"466,0r-435,0r125,-718r429,0r-15,86r-349,0r-39,220r323,0r-15,86r-323,0r-41,240r355,0xm409,-779r-55,0r-86,-121r99,0","w":547},"\u00c9":{"d":"466,0r-435,0r125,-718r429,0r-15,86r-349,0r-39,220r323,0r-15,86r-323,0r-41,240r355,0xm536,-900r-128,121r-55,0r84,-121r99,0","w":547},"\u00ca":{"d":"466,0r-435,0r125,-718r429,0r-15,86r-349,0r-39,220r323,0r-15,86r-323,0r-41,240r355,0xm515,-780r-66,0r-56,-73r-82,73r-65,0r117,-121r77,0","w":547},"\u00cb":{"d":"466,0r-435,0r125,-718r429,0r-15,86r-349,0r-39,220r323,0r-15,86r-323,0r-41,240r355,0xm347,-792r-88,0r17,-96r88,0xm508,-792r-88,0r17,-96r88,0","w":547},"\u00cc":{"d":"114,0r-79,0r125,-718r79,0xm250,-779r-55,0r-86,-121r99,0","w":228},"\u00cd":{"d":"114,0r-79,0r125,-718r79,0xm354,-900r-128,121r-55,0r84,-121r99,0","w":228},"\u00ce":{"d":"114,0r-79,0r125,-718r79,0xm344,-780r-66,0r-56,-73r-82,73r-65,0r117,-121r77,0","w":228},"\u00cf":{"d":"114,0r-79,0r125,-718r79,0xm176,-792r-88,0r17,-96r88,0xm337,-792r-88,0r17,-96r88,0","w":228},"\u00d0":{"d":"390,-718v132,1,196,106,196,248v0,99,-24,196,-73,292v-61,119,-144,178,-251,178r-235,0r56,-326r-66,0r15,-86r66,0r54,-306r238,0xm502,-461v1,-103,-41,-174,-137,-174r-148,0r-39,223r157,0r-15,86r-157,0r-42,243r154,0v64,0,117,-37,161,-112v44,-75,66,-163,66,-266","w":592},"\u00d1":{"d":"490,0r-90,0r-199,-583r-102,583r-77,0r125,-718r95,0r194,583r102,-583r77,0xm253,-782v20,-61,40,-103,104,-107v35,-3,76,37,108,37v20,0,36,-15,47,-46r41,0v-23,73,-57,109,-102,109v-27,1,-87,-37,-112,-37v-19,0,-34,15,-47,44r-39,0","w":592},"\u00d2":{"d":"407,-737v155,1,231,116,230,281v-1,173,-74,324,-176,406v-57,45,-118,69,-185,69v-156,0,-231,-115,-230,-280v1,-174,74,-327,177,-408v57,-45,117,-68,184,-68xm129,-274v0,118,53,206,161,207v73,0,134,-37,186,-112v52,-75,78,-163,78,-266v0,-117,-53,-205,-162,-206v-73,0,-135,37,-186,111v-51,74,-77,162,-77,266xm442,-779r-55,0r-86,-121r99,0","w":638},"\u00d3":{"d":"407,-737v155,1,231,116,230,281v-1,173,-74,324,-176,406v-57,45,-118,69,-185,69v-156,0,-231,-115,-230,-280v1,-174,74,-327,177,-408v57,-45,117,-68,184,-68xm129,-274v0,118,53,206,161,207v73,0,134,-37,186,-112v52,-75,78,-163,78,-266v0,-117,-53,-205,-162,-206v-73,0,-135,37,-186,111v-51,74,-77,162,-77,266xm569,-900r-128,121r-55,0r84,-121r99,0","w":638},"\u00d4":{"d":"407,-737v155,1,231,116,230,281v-1,173,-74,324,-176,406v-57,45,-118,69,-185,69v-156,0,-231,-115,-230,-280v1,-174,74,-327,177,-408v57,-45,117,-68,184,-68xm129,-274v0,118,53,206,161,207v73,0,134,-37,186,-112v52,-75,78,-163,78,-266v0,-117,-53,-205,-162,-206v-73,0,-135,37,-186,111v-51,74,-77,162,-77,266xm548,-780r-66,0r-56,-73r-82,73r-65,0r117,-121r77,0","w":638},"\u00d5":{"d":"407,-737v155,1,231,116,230,281v-1,173,-74,324,-176,406v-57,45,-118,69,-185,69v-156,0,-231,-115,-230,-280v1,-174,74,-327,177,-408v57,-45,117,-68,184,-68xm129,-274v0,118,53,206,161,207v73,0,134,-37,186,-112v52,-75,78,-163,78,-266v0,-117,-53,-205,-162,-206v-73,0,-135,37,-186,111v-51,74,-77,162,-77,266xm275,-782v20,-61,40,-103,104,-107v35,-3,76,37,108,37v20,0,36,-15,47,-46r41,0v-23,73,-57,109,-102,109v-27,1,-87,-37,-112,-37v-19,0,-34,15,-47,44r-39,0","w":638},"\u00d6":{"d":"407,-737v155,1,231,116,230,281v-1,173,-74,324,-176,406v-57,45,-118,69,-185,69v-156,0,-231,-115,-230,-280v1,-174,74,-327,177,-408v57,-45,117,-68,184,-68xm129,-274v0,118,53,206,161,207v73,0,134,-37,186,-112v52,-75,78,-163,78,-266v0,-117,-53,-205,-162,-206v-73,0,-135,37,-186,111v-51,74,-77,162,-77,266xm380,-792r-88,0r17,-96r88,0xm541,-792r-88,0r17,-96r88,0","w":638},"\u00d7":{"d":"397,-141r-41,41r-110,-109r-110,110r-41,-41r110,-111r-110,-110r41,-41r110,110r110,-109r41,41r-110,109","w":479},"\u00d8":{"d":"409,-737v90,1,137,32,179,89r82,-89r20,30r-84,91v50,126,36,267,-15,388v-31,72,-75,132,-131,178v-56,46,-118,69,-185,69v-90,-1,-136,-31,-178,-87r-81,87r-21,-28r84,-90v-53,-125,-38,-269,13,-391v31,-72,74,-132,130,-178v56,-46,119,-69,187,-69xm476,-180v66,-99,100,-230,62,-363r-376,405v31,47,74,71,128,71v73,0,134,-38,186,-113xm523,-578v-31,-49,-75,-73,-130,-73v-73,0,-135,38,-187,113v-68,100,-98,232,-61,367","w":638},"\u00d9":{"d":"145,-202v-1,83,41,136,122,135v112,-2,168,-89,187,-197r80,-454r79,0r-81,466v-24,148,-124,269,-283,271v-121,1,-189,-73,-188,-195v0,-25,2,-46,5,-63r84,-479r79,0r-78,452v-4,21,-6,43,-6,64xm420,-779r-55,0r-86,-121r99,0","w":592},"\u00da":{"d":"145,-202v-1,83,41,136,122,135v112,-2,168,-89,187,-197r80,-454r79,0r-81,466v-24,148,-124,269,-283,271v-121,1,-189,-73,-188,-195v0,-25,2,-46,5,-63r84,-479r79,0r-78,452v-4,21,-6,43,-6,64xm547,-900r-128,121r-55,0r84,-121r99,0","w":592},"\u00db":{"d":"145,-202v-1,83,41,136,122,135v112,-2,168,-89,187,-197r80,-454r79,0r-81,466v-24,148,-124,269,-283,271v-121,1,-189,-73,-188,-195v0,-25,2,-46,5,-63r84,-479r79,0r-78,452v-4,21,-6,43,-6,64xm526,-780r-66,0r-56,-73r-82,73r-65,0r117,-121r77,0","w":592},"\u00dc":{"d":"145,-202v-1,83,41,136,122,135v112,-2,168,-89,187,-197r80,-454r79,0r-81,466v-24,148,-124,269,-283,271v-121,1,-189,-73,-188,-195v0,-25,2,-46,5,-63r84,-479r79,0r-78,452v-4,21,-6,43,-6,64xm358,-792r-88,0r17,-96r88,0xm519,-792r-88,0r17,-96r88,0","w":592},"\u00dd":{"d":"621,-718r-297,429r-50,289r-80,0r50,-289r-147,-429r93,0r108,345r230,-345r93,0xm525,-900r-128,121r-55,0r84,-121r99,0","w":547},"\u00de":{"d":"400,-599v90,-1,144,62,144,154v0,129,-91,261,-216,261r-185,0r-32,184r-80,0r125,-718r80,0r-21,119r185,0xm315,-267v95,1,147,-68,146,-163v0,-57,-33,-86,-99,-86r-161,0r-44,249r158,0","w":547},"\u00df":{"d":"331,-728v99,-1,168,49,168,144v0,78,-32,139,-96,184v46,21,69,64,69,130v1,153,-127,320,-296,278r14,-75v127,21,207,-67,205,-187v0,-67,-40,-100,-120,-100v-13,0,-23,1,-32,4r14,-79v95,13,168,-46,167,-134v0,-61,-43,-90,-108,-89v-92,2,-124,55,-140,142r-89,510r-72,0r93,-532v18,-112,99,-196,223,-196","w":501},"\u00e0":{"d":"276,-538v93,0,156,51,139,146r-54,312v1,25,22,22,45,16r-12,64v-44,20,-111,10,-105,-46v0,-4,1,-12,2,-24v-54,57,-110,85,-167,85v-70,1,-114,-45,-114,-116v0,-105,68,-185,162,-199r122,-18v33,-5,50,-33,50,-82v0,-43,-29,-65,-86,-65v-74,0,-97,37,-118,101r-66,0v26,-116,93,-174,202,-174xm150,-58v73,2,145,-60,156,-123r15,-86v-13,11,-54,21,-125,33v-69,12,-107,39,-109,113v0,42,21,63,63,63xm312,-584r-55,0r-83,-141r99,0"},"\u00e1":{"d":"276,-538v93,0,156,51,139,146r-54,312v1,25,22,22,45,16r-12,64v-44,20,-111,10,-105,-46v0,-4,1,-12,2,-24v-54,57,-110,85,-167,85v-70,1,-114,-45,-114,-116v0,-105,68,-185,162,-199r122,-18v33,-5,50,-33,50,-82v0,-43,-29,-65,-86,-65v-74,0,-97,37,-118,101r-66,0v26,-116,93,-174,202,-174xm150,-58v73,2,145,-60,156,-123r15,-86v-13,11,-54,21,-125,33v-69,12,-107,39,-109,113v0,42,21,63,63,63xm443,-725r-132,141r-55,0r88,-141r99,0"},"\u00e2":{"d":"276,-538v93,0,156,51,139,146r-54,312v1,25,22,22,45,16r-12,64v-44,20,-111,10,-105,-46v0,-4,1,-12,2,-24v-54,57,-110,85,-167,85v-70,1,-114,-45,-114,-116v0,-105,68,-185,162,-199r122,-18v33,-5,50,-33,50,-82v0,-43,-29,-65,-86,-65v-74,0,-97,37,-118,101r-66,0v26,-116,93,-174,202,-174xm150,-58v73,2,145,-60,156,-123r15,-86v-13,11,-54,21,-125,33v-69,12,-107,39,-109,113v0,42,21,63,63,63xm403,-585r-65,0r-38,-93r-70,93r-65,0r106,-141r76,0"},"\u00e3":{"d":"276,-538v93,0,156,51,139,146r-54,312v1,25,22,22,45,16r-12,64v-44,20,-111,10,-105,-46v0,-4,1,-12,2,-24v-54,57,-110,85,-167,85v-70,1,-114,-45,-114,-116v0,-105,68,-185,162,-199r122,-18v33,-5,50,-33,50,-82v0,-43,-29,-65,-86,-65v-74,0,-97,37,-118,101r-66,0v26,-116,93,-174,202,-174xm150,-58v73,2,145,-60,156,-123r15,-86v-13,11,-54,21,-125,33v-69,12,-107,39,-109,113v0,42,21,63,63,63xm145,-597v20,-61,40,-103,104,-107v35,-3,76,37,108,37v20,0,36,-15,47,-46r41,0v-23,73,-57,109,-102,109v-27,1,-87,-37,-112,-37v-19,0,-34,15,-47,44r-39,0"},"\u00e4":{"d":"276,-538v93,0,156,51,139,146r-54,312v1,25,22,22,45,16r-12,64v-44,20,-111,10,-105,-46v0,-4,1,-12,2,-24v-54,57,-110,85,-167,85v-70,1,-114,-45,-114,-116v0,-105,68,-185,162,-199r122,-18v33,-5,50,-33,50,-82v0,-43,-29,-65,-86,-65v-74,0,-97,37,-118,101r-66,0v26,-116,93,-174,202,-174xm150,-58v73,2,145,-60,156,-123r15,-86v-13,11,-54,21,-125,33v-69,12,-107,39,-109,113v0,42,21,63,63,63xm251,-607r-88,0r17,-96r88,0xm412,-607r-88,0r17,-96r88,0"},"\u00e5":{"d":"276,-538v93,0,156,51,139,146r-54,312v1,25,22,22,45,16r-12,64v-44,20,-111,10,-105,-46v0,-4,1,-12,2,-24v-54,57,-110,85,-167,85v-70,1,-114,-45,-114,-116v0,-105,68,-185,162,-199r122,-18v33,-5,50,-33,50,-82v0,-43,-29,-65,-86,-65v-74,0,-97,37,-118,101r-66,0v26,-116,93,-174,202,-174xm150,-58v73,2,145,-60,156,-123r15,-86v-13,11,-54,21,-125,33v-69,12,-107,39,-109,113v0,42,21,63,63,63xm378,-714v36,36,18,92,-20,118v-39,27,-113,33,-146,0v-36,-36,-15,-92,22,-118v40,-28,111,-33,144,0xm250,-622v41,41,137,-15,92,-66v-43,-41,-137,16,-92,66"},"\u00e6":{"d":"561,-538v100,-2,145,83,145,184v0,29,-4,70,-11,121r-313,0v-20,90,6,172,91,172v64,0,117,-50,132,-103r72,0v-33,99,-103,179,-220,179v-87,0,-120,-37,-142,-109v-52,64,-92,106,-188,109v-73,2,-117,-43,-117,-116v0,-105,68,-185,162,-199r122,-18v33,-5,50,-33,50,-82v0,-43,-29,-65,-86,-65v-74,0,-97,37,-118,101r-66,0v26,-112,81,-174,208,-174v74,0,94,23,126,74v49,-47,74,-72,153,-74xm633,-303v11,-90,-13,-156,-89,-156v-81,0,-135,78,-150,156r239,0xm150,-58v73,2,145,-60,156,-123r15,-86v-34,24,-55,21,-125,33v-72,13,-109,49,-109,112v0,43,21,64,63,64","w":729},"\u00e7":{"d":"342,-347v-4,-72,-15,-112,-82,-112v-47,0,-86,27,-116,83v-30,56,-45,121,-45,196v0,79,29,119,88,119v55,0,97,-41,127,-124r70,0v-36,119,-95,184,-177,197r-30,46v42,-3,64,24,64,63v1,61,-53,111,-114,109v-23,0,-48,-7,-75,-22r21,-40v43,27,102,17,104,-35v0,-18,-15,-33,-33,-33v-13,0,-24,2,-33,5r-11,-19r56,-72v-87,-10,-135,-84,-135,-186v0,-98,25,-183,75,-256v50,-73,112,-110,187,-110v99,1,144,80,129,191r-70,0","w":410},"\u00e8":{"d":"289,-538v101,0,145,82,145,184v0,29,-4,70,-11,121r-313,0v-20,90,5,172,92,172v63,0,117,-49,131,-103r72,0v-31,99,-104,179,-219,179v-105,0,-157,-76,-157,-187v0,-98,25,-183,75,-256v50,-73,111,-110,185,-110xm361,-303v11,-90,-13,-156,-89,-156v-82,0,-134,78,-150,156r239,0xm318,-584r-55,0r-83,-141r99,0"},"\u00e9":{"d":"289,-538v101,0,145,82,145,184v0,29,-4,70,-11,121r-313,0v-20,90,5,172,92,172v63,0,117,-49,131,-103r72,0v-31,99,-104,179,-219,179v-105,0,-157,-76,-157,-187v0,-98,25,-183,75,-256v50,-73,111,-110,185,-110xm361,-303v11,-90,-13,-156,-89,-156v-82,0,-134,78,-150,156r239,0xm449,-725r-132,141r-55,0r88,-141r99,0"},"\u00ea":{"d":"289,-538v101,0,145,82,145,184v0,29,-4,70,-11,121r-313,0v-20,90,5,172,92,172v63,0,117,-49,131,-103r72,0v-31,99,-104,179,-219,179v-105,0,-157,-76,-157,-187v0,-98,25,-183,75,-256v50,-73,111,-110,185,-110xm361,-303v11,-90,-13,-156,-89,-156v-82,0,-134,78,-150,156r239,0xm409,-585r-65,0r-38,-93r-70,93r-65,0r106,-141r76,0"},"\u00eb":{"d":"289,-538v101,0,145,82,145,184v0,29,-4,70,-11,121r-313,0v-20,90,5,172,92,172v63,0,117,-49,131,-103r72,0v-31,99,-104,179,-219,179v-105,0,-157,-76,-157,-187v0,-98,25,-183,75,-256v50,-73,111,-110,185,-110xm361,-303v11,-90,-13,-156,-89,-156v-82,0,-134,78,-150,156r239,0xm257,-607r-88,0r17,-96r88,0xm418,-607r-88,0r17,-96r88,0"},"\u00ec":{"d":"110,0r-72,0r91,-523r72,0xm212,-584r-55,0r-83,-141r99,0","w":228},"\u00ed":{"d":"110,0r-72,0r91,-523r72,0xm327,-725r-132,141r-55,0r88,-141r99,0","w":228},"\u00ee":{"d":"110,0r-72,0r91,-523r72,0xm295,-585r-65,0r-38,-93r-70,93r-65,0r106,-141r76,0","w":228},"\u00ef":{"d":"110,0r-72,0r91,-523r72,0xm143,-607r-88,0r17,-96r88,0xm304,-607r-88,0r17,-96r88,0","w":228},"\u00f0":{"d":"369,-646v51,81,78,139,79,257v1,144,-52,278,-129,348v-40,37,-84,56,-131,56v-105,0,-161,-86,-161,-199v0,-86,25,-164,73,-234v48,-70,105,-105,170,-105v55,0,75,22,100,60v-9,-55,-31,-104,-67,-149r-113,62r-27,-42r107,-57v-20,-22,-41,-39,-64,-52r67,-36v26,15,48,32,66,51r95,-51r32,40xm199,-61v95,2,163,-143,163,-247v0,-79,-25,-137,-96,-139v-96,-1,-163,142,-163,247v0,79,25,138,96,139"},"\u00f1":{"d":"312,-538v94,-3,131,81,113,182r-62,356r-72,0r56,-322v3,-22,5,-42,5,-60v0,-51,-23,-77,-69,-77v-88,0,-132,85,-148,174r-50,285r-72,0r91,-523r68,0r-13,77v44,-53,75,-90,153,-92xm151,-597v20,-61,40,-103,104,-107v35,-3,76,37,108,37v20,0,36,-15,47,-46r41,0v-23,73,-57,109,-102,109v-27,1,-87,-37,-112,-37v-19,0,-34,15,-47,44r-39,0"},"\u00f2":{"d":"282,-538v106,1,157,87,157,202v0,91,-25,172,-75,243v-50,71,-109,107,-179,107v-107,-1,-157,-88,-157,-203v0,-91,24,-172,74,-243v50,-71,110,-106,180,-106xm103,-198v0,78,26,136,96,136v46,0,85,-27,117,-81v32,-54,48,-115,48,-182v1,-78,-27,-137,-96,-137v-46,0,-85,26,-117,80v-32,54,-48,115,-48,184xm318,-584r-55,0r-83,-141r99,0"},"\u00f3":{"d":"282,-538v106,1,157,87,157,202v0,91,-25,172,-75,243v-50,71,-109,107,-179,107v-107,-1,-157,-88,-157,-203v0,-91,24,-172,74,-243v50,-71,110,-106,180,-106xm103,-198v0,78,26,136,96,136v46,0,85,-27,117,-81v32,-54,48,-115,48,-182v1,-78,-27,-137,-96,-137v-46,0,-85,26,-117,80v-32,54,-48,115,-48,184xm449,-725r-132,141r-55,0r88,-141r99,0"},"\u00f4":{"d":"282,-538v106,1,157,87,157,202v0,91,-25,172,-75,243v-50,71,-109,107,-179,107v-107,-1,-157,-88,-157,-203v0,-91,24,-172,74,-243v50,-71,110,-106,180,-106xm103,-198v0,78,26,136,96,136v46,0,85,-27,117,-81v32,-54,48,-115,48,-182v1,-78,-27,-137,-96,-137v-46,0,-85,26,-117,80v-32,54,-48,115,-48,184xm409,-585r-65,0r-38,-93r-70,93r-65,0r106,-141r76,0"},"\u00f5":{"d":"282,-538v106,1,157,87,157,202v0,91,-25,172,-75,243v-50,71,-109,107,-179,107v-107,-1,-157,-88,-157,-203v0,-91,24,-172,74,-243v50,-71,110,-106,180,-106xm103,-198v0,78,26,136,96,136v46,0,85,-27,117,-81v32,-54,48,-115,48,-182v1,-78,-27,-137,-96,-137v-46,0,-85,26,-117,80v-32,54,-48,115,-48,184xm151,-597v20,-61,40,-103,104,-107v35,-3,76,37,108,37v20,0,36,-15,47,-46r41,0v-23,73,-57,109,-102,109v-27,1,-87,-37,-112,-37v-19,0,-34,15,-47,44r-39,0"},"\u00f6":{"d":"282,-538v106,1,157,87,157,202v0,91,-25,172,-75,243v-50,71,-109,107,-179,107v-107,-1,-157,-88,-157,-203v0,-91,24,-172,74,-243v50,-71,110,-106,180,-106xm103,-198v0,78,26,136,96,136v46,0,85,-27,117,-81v32,-54,48,-115,48,-182v1,-78,-27,-137,-96,-137v-46,0,-85,26,-117,80v-32,54,-48,115,-48,184xm257,-607r-88,0r17,-96r88,0xm418,-607r-88,0r17,-96r88,0"},"\u00f7":{"d":"430,-221r-369,0r0,-58r369,0r0,58xm246,-473v22,0,43,21,43,43v0,23,-21,43,-43,43v-23,0,-43,-20,-43,-43v0,-22,20,-43,43,-43xm246,-114v22,0,43,21,43,43v0,23,-21,43,-43,43v-23,0,-43,-20,-43,-43v0,-22,20,-43,43,-43","w":479},"\u00f8":{"d":"491,-519r-70,78v54,156,-18,330,-107,405v-76,64,-191,71,-248,-10r-61,68r-21,-26r65,-72v-45,-126,-14,-258,54,-356v50,-71,110,-106,180,-106v51,0,92,22,122,65r65,-72xm349,-410v-18,-35,-45,-52,-80,-52v-45,0,-83,26,-116,78v-40,65,-58,148,-44,241xm315,-140v39,-63,60,-143,45,-233r-238,265v16,31,42,46,77,46v44,0,83,-26,116,-78","w":501},"\u00f9":{"d":"155,15v-90,4,-130,-69,-114,-162r65,-376r73,0r-61,347v-2,13,-3,27,-3,40v0,50,22,75,67,75v87,0,133,-86,148,-174r50,-288r72,0r-91,523r-68,0r14,-81v-45,59,-69,93,-152,96xm318,-584r-55,0r-83,-141r99,0"},"\u00fa":{"d":"155,15v-90,4,-130,-69,-114,-162r65,-376r73,0r-61,347v-2,13,-3,27,-3,40v0,50,22,75,67,75v87,0,133,-86,148,-174r50,-288r72,0r-91,523r-68,0r14,-81v-45,59,-69,93,-152,96xm449,-725r-132,141r-55,0r88,-141r99,0"},"\u00fb":{"d":"155,15v-90,4,-130,-69,-114,-162r65,-376r73,0r-61,347v-2,13,-3,27,-3,40v0,50,22,75,67,75v87,0,133,-86,148,-174r50,-288r72,0r-91,523r-68,0r14,-81v-45,59,-69,93,-152,96xm409,-585r-65,0r-38,-93r-70,93r-65,0r106,-141r76,0"},"\u00fc":{"d":"155,15v-90,4,-130,-69,-114,-162r65,-376r73,0r-61,347v-2,13,-3,27,-3,40v0,50,22,75,67,75v87,0,133,-86,148,-174r50,-288r72,0r-91,523r-68,0r14,-81v-45,59,-69,93,-152,96xm257,-607r-88,0r17,-96r88,0xm418,-607r-88,0r17,-96r88,0"},"\u00fd":{"d":"452,-523r-244,513v-46,90,-57,131,-106,188v-29,33,-41,35,-95,36v-10,0,-24,-4,-35,-8r14,-80v26,11,60,14,78,-4v18,-17,45,-77,61,-108r-65,-537r82,0r40,429r190,-429r80,0xm426,-725r-132,141r-55,0r88,-141r99,0","w":410},"\u00fe":{"d":"300,-538v94,0,140,81,139,183v-1,129,-51,247,-119,315v-69,69,-195,82,-230,-18r-47,265r-72,0r161,-925r73,0r-47,270v41,-54,66,-90,142,-90xm113,-178v-1,65,32,117,92,117v45,0,82,-29,113,-86v31,-57,46,-124,46,-201v0,-66,-29,-111,-91,-111v-77,0,-125,89,-143,157v-11,42,-17,83,-17,124"},"\u00ff":{"d":"452,-523r-244,513v-46,90,-57,131,-106,188v-29,33,-41,35,-95,36v-10,0,-24,-4,-35,-8r14,-80v26,11,60,14,78,-4v18,-17,45,-77,61,-108r-65,-537r82,0r40,429r190,-429r80,0xm234,-607r-88,0r17,-96r88,0xm395,-607r-88,0r17,-96r88,0","w":410},"\u0152":{"d":"368,-737v77,1,110,34,133,95r13,-76r361,0r-15,86r-286,0r-39,220r274,0r-15,86r-274,0r-42,240r288,0r-15,86r-363,0r13,-78v-51,61,-80,97,-172,97v-132,0,-190,-109,-189,-254v1,-177,65,-340,160,-429v52,-48,107,-73,168,-73xm469,-492v19,-93,-27,-162,-113,-162v-70,0,-125,40,-166,121v-34,66,-69,196,-69,291v0,119,44,178,133,178v93,0,155,-78,170,-166","w":820},"\u0153":{"d":"605,-538v102,-3,146,82,146,184v0,29,-4,70,-11,121r-314,0v-20,90,7,172,92,172v64,0,117,-50,132,-103r72,0v-31,99,-104,179,-220,179v-84,0,-114,-36,-145,-101v-43,67,-100,100,-169,100v-109,-1,-160,-86,-160,-202v0,-91,24,-172,74,-243v50,-71,110,-107,179,-107v69,0,116,35,143,106v50,-65,86,-103,181,-106xm678,-303v11,-90,-13,-156,-89,-156v-82,0,-135,77,-151,156r240,0xm103,-198v0,78,26,136,96,136v46,0,85,-27,117,-81v32,-54,48,-115,48,-182v1,-78,-27,-137,-96,-137v-46,0,-85,28,-117,82v-32,54,-48,115,-48,182","w":774},"\u0178":{"d":"621,-718r-297,429r-50,289r-80,0r50,-289r-147,-429r93,0r108,345r230,-345r93,0xm336,-792r-88,0r17,-96r88,0xm497,-792r-88,0r17,-96r88,0","w":547},"\u02c6":{"d":"318,-585r-65,0r-38,-93r-70,93r-65,0r106,-141r76,0","w":273},"\u02dc":{"d":"60,-597v20,-61,40,-103,104,-107v34,-3,77,37,108,37v20,0,36,-15,47,-46r41,0v-23,73,-57,109,-102,109v-27,1,-88,-37,-112,-37v-19,0,-34,15,-47,44r-39,0","w":273},"\u2013":{"d":"470,-313r-13,73r-455,0r13,-73r455,0"},"\u2014":{"d":"835,-313r-13,73r-820,0r13,-73r820,0","w":820},"\u2018":{"d":"217,-678v-42,12,-52,48,-62,102r44,0r-19,106r-85,0r17,-98v15,-87,53,-140,113,-157","w":182},"\u2019":{"d":"197,-620v-15,88,-53,140,-113,157r8,-47v42,-12,52,-48,62,-102r-44,0r19,-106r85,0","w":182},"\u201a":{"d":"90,-8v-15,87,-53,140,-113,157r8,-47v42,-12,52,-48,62,-102r-44,0r19,-106r85,0","w":182},"\u201c":{"d":"294,-470r-86,0r17,-98v15,-88,53,-140,113,-157r-8,47v-42,12,-51,48,-61,102r43,0xm208,-725r-13,47v-42,12,-52,48,-62,102r44,0r-19,106r-85,0v13,-71,23,-161,57,-204v19,-24,45,-42,78,-51","w":273},"\u201d":{"d":"175,-620v-15,87,-53,140,-113,157r8,-47v31,-7,52,-41,61,-102r-43,0r18,-106r86,0xm310,-620v-15,88,-53,140,-113,157r8,-47v42,-12,52,-48,62,-102r-44,0r19,-106r85,0","w":273},"\u201e":{"d":"85,-106v-19,110,-30,231,-130,255r8,-47v42,-12,51,-48,61,-102r-43,0r18,-106r86,0xm203,-8v-15,87,-53,140,-113,157r8,-47v42,-12,52,-48,62,-102r-44,0r19,-106r85,0","w":273},"\u2022":{"d":"194,-517v64,0,105,58,105,125v0,90,-77,190,-162,190v-61,0,-103,-58,-103,-124v0,-90,76,-191,160,-191","w":287},"\u2026":{"d":"158,-106r-19,106r-85,0r18,-106r86,0xm431,-106r-19,106r-85,0r19,-106r85,0xm686,0r-86,0r19,-106r85,0","w":820},"\u2039":{"d":"224,-358r-101,81r72,81r-15,88r-108,-123r16,-92r151,-123","w":273},"\u203a":{"d":"201,-231r-150,123r15,-88r100,-81r-71,-81r15,-88r107,123","w":273},"\u20ac":{"d":"221,13v-137,2,-190,-111,-172,-258r-89,0r35,-58r61,0v3,-21,6,-41,10,-58r-81,0r35,-58r60,0v23,-83,54,-146,92,-188v38,-42,90,-63,153,-63v88,1,119,20,170,66r-42,67v-49,-79,-162,-98,-225,-27v-26,29,-48,78,-68,145r219,0r-35,58r-199,0r-12,58r174,0r-35,58r-147,0v-16,116,11,197,108,196v46,0,85,-15,118,-46r-18,85v-38,15,-75,23,-112,23","w":481},"\u2122":{"d":"461,-666r-115,0r-57,329r-54,0r57,-329r-115,0r9,-52r284,0xm789,-337r-52,0r53,-295r-142,295r-51,0r-39,-295r-11,71r-40,224r-51,0r66,-381r72,0r42,309r148,-309r72,0","w":826}}});
