/*!
 * The following copyright notice may not be removed under any circumstances.
 * 
 * Copyright:
 * Copyright (URW)++, copyright 1999 by (URW)++ Design & Development; Cyrillic
 * glyphs added by Valek Filippov, copyright 2001-2002; Vietnamese characters were
 * added by Han The Thanh; copyright 2006, 2008 for TeX Gyre extensions by B.
 * Jackowski and J.M. Nowacki (on behalf of TeX users groups). This work is
 * released under the GUST Font License --  see
 * http://tug.org/fonts/licenses/GUST-FONT-LICENSE.txt for details.
 * 
 * Trademark:
 * Please refer to the Copyright section for the font trademark attribution
 * notices.
 */
Cufon.registerFont({"w":456,"face":{"font-family":"TeXGyreHerosCn","font-weight":700,"font-style":"italic","font-stretch":"condensed","units-per-em":"1000","panose-1":"0 0 8 6 0 0 0 0 0 0","ascent":"793","descent":"-207","x-height":"14","bbox":"-65 -958.022 883 228.053","underline-thickness":"50","underline-position":"-25","slope":"-9.89999","unicode-range":"U+0020-U+2122"},"glyphs":{" ":{"w":228},"!":{"d":"167,0r-120,0r25,-141r119,0xm295,-718r-32,183r-91,336r-61,0r26,-336r32,-183r126,0","w":273},"\"":{"d":"356,-447r-81,0r48,-271r80,0xm256,-718r-48,271r-80,0r47,-271r81,0","w":389},"#":{"d":"498,-499r-26,90r-79,0r-35,120r80,0r-26,90r-80,0r-57,199r-77,0r57,-199r-79,0r-58,199r-77,0r58,-199r-80,0r26,-90r79,0r35,-120r-80,0r26,-90r80,0r57,-199r77,0r-57,199r79,0r58,-199r77,0r-58,199r80,0xm316,-409r-80,0r-35,120r80,0"},"$":{"d":"341,-710v111,13,151,84,136,209r-105,0v5,-61,5,-99,-49,-103r-33,187v60,27,100,51,120,73v20,22,29,55,29,97v1,139,-95,253,-225,264r-17,98r-37,0r17,-98v-101,-15,-149,-46,-152,-149v0,-20,3,-48,8,-83r107,0v-4,39,-7,78,10,100v9,11,24,20,45,26r37,-210v-90,-35,-141,-56,-141,-159v0,-107,59,-200,135,-235v20,-9,46,-14,77,-17r12,-65r37,0xm285,-604v-66,0,-109,88,-73,146v7,11,23,20,43,27xm233,-89v53,-6,92,-56,91,-117v0,-35,-19,-60,-58,-76"},"%":{"d":"349,-595v0,78,-15,141,-45,190v-30,49,-69,73,-120,73v-68,0,-102,-38,-102,-113v0,-78,15,-142,45,-191v30,-49,70,-74,121,-74v67,0,101,38,101,115xm269,-601v0,-51,-55,-49,-71,-17v-16,32,-36,127,-36,176v0,52,54,50,71,17v15,-29,36,-129,36,-176xm650,-710r-453,729r-61,0r454,-729r60,0xm709,-251v0,78,-15,141,-45,190v-30,49,-69,73,-120,73v-68,0,-102,-38,-102,-113v0,-79,15,-142,45,-191v30,-49,70,-74,121,-74v67,0,101,38,101,115xm629,-257v0,-27,-11,-40,-33,-40v-23,0,-41,21,-54,63v-13,42,-20,87,-20,136v0,52,54,50,71,17v15,-29,37,-128,36,-176","w":729},"&":{"d":"570,-373v-26,100,-49,143,-105,216r79,157r-138,0r-30,-61v-53,48,-91,78,-177,80v-95,2,-156,-67,-156,-163v0,-105,64,-197,167,-259v-21,-39,-31,-77,-31,-114v0,-105,85,-201,186,-201v74,0,122,54,122,129v0,82,-44,151,-131,208r62,126v22,-33,39,-73,50,-118r102,0xm315,-464v41,-31,71,-50,71,-105v0,-29,-13,-43,-40,-43v-34,-1,-61,34,-60,70v0,18,10,44,29,78xm162,-177v-1,44,25,78,68,78v31,0,65,-17,103,-50r-80,-165v-40,32,-65,56,-75,72v-10,16,-16,38,-16,65","w":592},"'":{"d":"186,-447r-81,0r47,-271r81,0","w":195},"(":{"d":"106,207v-47,-117,-74,-191,-74,-333v0,-103,18,-202,55,-297v37,-95,98,-199,184,-311r84,0v-75,117,-130,228,-161,334v-61,208,-69,389,-3,607r-85,0","w":273},")":{"d":"198,-734v47,119,74,192,74,335v0,102,-18,201,-56,298v-38,97,-99,199,-183,308r-84,0v75,-115,130,-225,161,-331v62,-210,69,-389,3,-610r85,0","w":273},"*":{"d":"364,-560r-91,32r39,97r-59,44r-40,-91r-72,91r-44,-44r73,-97r-80,-32r32,-73r77,34r21,-119r69,0r-20,119r88,-34","w":319},"+":{"d":"442,-207r-139,0r0,139r-86,0r0,-139r-140,0r0,-86r140,0r0,-140r86,0r0,140r139,0r0,86","w":479},",":{"d":"171,-146r-22,126v-19,105,-71,168,-156,188r9,-53v55,-21,73,-51,89,-115r-69,0r26,-146r123,0","w":228},"-":{"d":"281,-345r-23,130r-228,0r23,-130r228,0","w":273},".":{"d":"171,-146r-26,146r-123,0r26,-146r123,0","w":228},"\/":{"d":"353,-737r-317,756r-96,0r317,-756r96,0","w":228},"0":{"d":"196,19v-111,1,-154,-84,-155,-197v-1,-144,54,-368,115,-445v45,-57,99,-87,166,-87v103,0,154,65,154,195v0,151,-51,365,-114,446v-45,58,-99,88,-166,88xm362,-515v0,-55,-20,-83,-59,-83v-31,0,-54,17,-73,48v-30,51,-74,299,-74,372v0,57,20,85,59,85v31,0,56,-18,75,-54v30,-55,72,-280,72,-368"},"1":{"d":"404,-710r-124,710r-115,0r86,-489r-139,0r17,-98v100,4,157,-36,181,-123r94,0"},"2":{"d":"313,-710v102,-1,165,68,165,171v0,95,-52,191,-115,244v-11,9,-151,114,-173,135v-12,11,-23,23,-32,36r253,0r-22,124r-398,0v15,-71,37,-128,69,-170v32,-42,92,-95,180,-162v43,-33,73,-65,93,-92v40,-55,44,-168,-39,-168v-29,0,-51,10,-67,30v-16,20,-29,55,-38,103r-111,0v35,-167,113,-251,235,-251"},"3":{"d":"315,-710v93,-2,155,58,154,151v0,85,-33,146,-100,183v43,22,65,62,65,119v0,138,-111,276,-245,276v-100,0,-166,-63,-165,-162v0,-22,2,-47,7,-75r112,0v-15,62,1,125,62,125v62,0,112,-75,109,-143v-3,-64,-42,-73,-115,-75r18,-100v87,6,134,-39,134,-119v0,-45,-20,-68,-60,-68v-51,0,-84,39,-98,116r-106,0v25,-130,92,-225,228,-228"},"4":{"d":"428,-157r-64,0r-28,157r-114,0r27,-157r-229,0r21,-121r289,-432r130,0r-77,444r64,0xm324,-575r-201,309r145,0"},"5":{"d":"295,-465v91,-1,145,74,145,170v0,152,-108,314,-257,314v-110,0,-178,-87,-157,-209r115,0v-7,53,13,98,63,97v70,-1,114,-92,114,-172v0,-59,-23,-88,-69,-88v-33,0,-60,17,-83,51r-102,-6r108,-390r320,0r-21,118r-236,0r-48,154v36,-26,72,-39,108,-39"},"6":{"d":"298,-459v93,-1,144,70,144,168v0,144,-105,313,-243,310v-111,-2,-159,-82,-159,-201v0,-124,40,-300,83,-382v41,-78,104,-144,206,-146v107,-2,154,63,148,180r-114,0v6,-40,-16,-69,-54,-68v-31,0,-56,15,-76,46v-20,31,-39,83,-56,155v32,-39,59,-61,121,-62xm217,-93v66,0,108,-94,108,-172v0,-47,-23,-82,-67,-82v-69,1,-111,82,-111,160v0,51,23,94,70,94"},"7":{"d":"525,-698r-19,108v-159,174,-264,371,-316,590r-118,0v49,-209,151,-400,308,-574r-290,0r24,-124r411,0"},"8":{"d":"380,-382v41,32,61,55,62,119v4,140,-109,282,-247,282v-104,0,-169,-64,-168,-168v0,-105,41,-181,124,-228v-34,-26,-49,-47,-50,-100v-4,-123,99,-233,220,-233v91,0,155,58,154,148v0,80,-32,140,-95,180xm272,-422v52,1,89,-55,89,-110v0,-39,-20,-66,-57,-66v-52,-1,-92,52,-92,107v0,39,23,69,60,69xm215,-93v62,0,105,-74,105,-142v0,-47,-22,-81,-67,-81v-64,0,-105,72,-105,143v0,47,23,80,67,80"},"9":{"d":"316,-710v112,1,158,83,158,204v0,142,-54,347,-115,425v-51,66,-110,100,-178,100v-98,0,-158,-76,-146,-183r114,0v0,45,12,70,53,71v29,0,55,-15,77,-46v22,-31,41,-83,56,-157v-33,42,-74,63,-123,63v-91,0,-142,-71,-142,-167v0,-154,99,-313,246,-310xm253,-345v71,-1,112,-84,112,-164v0,-57,-23,-86,-68,-86v-74,0,-109,85,-109,171v0,53,22,79,65,79"},":":{"d":"194,-146r-26,146r-123,0r25,-146r124,0xm233,-366r-124,0r26,-146r123,0","w":273},";":{"d":"194,-146v-17,95,-28,203,-82,259v-31,32,-62,51,-96,55r9,-53v55,-21,73,-51,89,-115r-69,0r26,-146r123,0xm233,-366r-124,0r26,-146r123,0","w":273},"<":{"d":"385,97r-283,-318r0,-58r283,-318r0,130r-193,217r193,217r0,130","w":479},"=":{"d":"442,-297r-365,0r0,-86r365,0r0,86xm442,-117r-365,0r0,-86r365,0r0,86","w":479},">":{"d":"385,-221r-283,318r0,-130r193,-217r-193,-217r0,-130r283,318r0,58","w":479},"?":{"d":"344,-727v102,-1,179,60,176,162v-4,127,-51,165,-136,235v-47,38,-57,52,-71,122r-108,0v21,-117,39,-139,118,-203v46,-37,71,-78,71,-127v0,-44,-24,-72,-67,-71v-61,1,-97,57,-106,116r-116,0v17,-77,45,-136,87,-175v42,-39,93,-59,152,-59xm285,0r-120,0r25,-141r119,0","w":501},"@":{"d":"513,-737v136,-3,239,110,239,248v0,87,-29,167,-86,241v-57,74,-118,111,-182,111v-26,0,-42,-26,-34,-56v-37,37,-70,56,-99,56v-63,0,-104,-67,-104,-135v0,-118,111,-286,223,-286v42,0,71,22,87,65r20,-53r72,0r-92,255v-9,26,-14,43,-14,51v0,8,3,12,10,12v31,0,61,-24,88,-74v27,-50,41,-104,41,-163v2,-114,-71,-193,-183,-192v-79,0,-148,37,-207,111v-59,74,-88,161,-88,261v0,129,74,225,199,224v64,0,126,-27,187,-81r73,0v-47,58,-93,99,-137,124v-44,25,-91,37,-142,37v-159,2,-267,-134,-262,-299v6,-199,107,-345,244,-418v48,-26,97,-39,147,-39xm390,-237v61,1,124,-94,124,-161v0,-34,-20,-63,-52,-63v-61,0,-123,94,-123,161v0,36,17,62,51,63","w":800},"A":{"d":"546,0r-134,0r-12,-148r-217,0r-67,148r-130,0r336,-718r142,0xm387,-272r-23,-287r-127,287r150,0","w":592},"B":{"d":"495,-387v45,27,64,54,66,121v3,110,-71,217,-155,250v-29,11,-71,16,-125,16r-249,0r125,-718r287,0v95,-1,152,51,152,144v0,87,-34,149,-101,187xm323,-124v69,2,115,-57,114,-125v0,-43,-31,-68,-75,-67r-157,0r-33,192r151,0xm371,-437v61,1,104,-40,103,-101v0,-37,-26,-56,-79,-56r-141,0r-28,157r145,0","w":592},"C":{"d":"408,-737v137,0,223,104,208,254r-124,0v-4,-78,-29,-124,-104,-124v-58,0,-106,33,-144,100v-38,67,-58,147,-58,241v-1,88,32,155,111,155v88,0,122,-58,154,-135r123,0v-65,177,-165,265,-301,265v-145,-1,-215,-105,-215,-260v0,-184,69,-345,172,-429v54,-45,113,-67,178,-67","w":592},"D":{"d":"418,-718v131,1,190,92,189,232v0,172,-62,330,-155,416v-50,46,-104,70,-165,70r-255,0r125,-718r261,0xm479,-462v0,-88,-35,-132,-104,-132r-119,0r-82,470r120,0v35,0,67,-17,96,-50v56,-62,89,-173,89,-288","w":592},"E":{"d":"479,0r-447,0r125,-718r433,0r-22,127r-313,0r-26,151r287,0r-22,127r-287,0r-32,186r326,0","w":547},"F":{"d":"554,-591r-296,0r-28,162r259,0r-22,127r-259,0r-53,302r-123,0r125,-718r419,0","w":501},"G":{"d":"186,-268v0,94,43,159,131,160v75,0,134,-53,175,-158r-137,0r21,-121r247,0r-68,387r-82,0r3,-90v-62,67,-98,109,-202,109v-141,0,-216,-116,-215,-268v1,-180,72,-336,177,-419v57,-45,118,-69,187,-69v138,-1,230,95,216,242r-123,0v4,-66,-48,-118,-110,-118v-62,0,-114,34,-156,102v-42,68,-64,149,-64,243","w":638},"H":{"d":"504,0r-123,0r56,-322r-230,0r-56,322r-123,0r125,-718r123,0r-47,272r230,0r47,-272r123,0","w":592},"I":{"d":"271,-718r-126,718r-123,0r126,-718r123,0","w":228},"J":{"d":"138,-166v0,42,15,63,56,63v63,0,75,-40,86,-105r89,-510r123,0r-89,510v-26,151,-101,226,-225,226v-106,0,-159,-47,-159,-152v0,-28,5,-74,16,-137r115,0v-8,51,-12,86,-12,105"},"K":{"d":"562,0r-159,0r-127,-315r-70,72r-42,243r-123,0r125,-718r123,0r-51,292r276,-292r159,0r-292,294","w":592},"L":{"d":"471,-130r-23,130r-416,0r125,-718r123,0r-102,588r293,0","w":501},"M":{"d":"597,0r-115,0r106,-609r-217,609r-123,0r0,-609r-106,609r-115,0r125,-718r187,0r0,570r205,-570r178,0","w":683},"N":{"d":"506,0r-123,0r-152,-515r-89,515r-115,0r125,-718r129,0r148,504r87,-504r115,0","w":592},"O":{"d":"419,-737v142,1,226,108,226,263v0,140,-34,258,-103,352v-69,94,-154,141,-257,141v-146,0,-227,-111,-227,-264v0,-185,71,-346,177,-427v55,-43,117,-65,184,-65xm184,-271v-1,92,40,162,125,163v59,0,109,-32,150,-98v41,-66,61,-146,61,-241v0,-92,-40,-162,-124,-163v-61,0,-112,34,-152,101v-40,67,-60,147,-60,238","w":638},"P":{"d":"426,-718v96,0,149,67,149,167v0,142,-98,292,-234,292r-141,0r-45,259r-123,0r125,-718r269,0xm336,-383v76,0,114,-63,114,-142v0,-88,-107,-66,-191,-69r-37,211r114,0","w":547},"Q":{"d":"419,-737v143,1,226,109,226,264v0,145,-39,269,-116,370r51,74r-79,81r-56,-81v-55,32,-108,48,-161,48v-144,-1,-226,-107,-226,-263v0,-140,34,-258,103,-352v69,-94,155,-141,258,-141xm184,-271v0,93,39,162,124,163v21,0,45,-6,70,-19r-48,-68r78,-81r50,71v41,-72,61,-152,61,-240v1,-94,-38,-164,-124,-165v-60,0,-111,34,-151,100v-40,66,-60,146,-60,239","w":638},"R":{"d":"536,-254v2,26,-23,145,-25,203v0,15,6,25,17,32r-3,19r-137,0v-9,-34,22,-192,22,-220v-1,-51,-27,-60,-82,-61r-127,0r-49,281r-120,0r125,-718r298,0v98,0,154,60,153,159v0,98,-52,185,-124,215v35,23,49,39,52,90xm367,-402v77,1,114,-48,114,-123v0,-46,-24,-69,-72,-69r-153,0r-33,192r144,0","w":592},"S":{"d":"337,-613v-67,0,-122,40,-121,104v1,37,19,45,51,57v108,41,260,44,260,190v0,160,-122,281,-284,281v-143,0,-231,-89,-202,-240r118,0v-13,80,32,115,107,116v75,1,137,-38,137,-108v0,-17,-7,-31,-20,-42v-22,-19,-91,-38,-132,-50v-63,-19,-105,-39,-125,-61v-20,-22,-30,-54,-30,-97v-3,-152,113,-274,266,-274v136,0,216,91,192,232r-117,0v6,-73,-31,-108,-100,-108","w":547},"T":{"d":"563,-591r-178,0r-103,591r-123,0r103,-591r-178,0r22,-127r479,0","w":501},"U":{"d":"264,19v-124,2,-198,-66,-198,-188v0,-25,2,-49,6,-73r83,-476r125,0r-81,466v-3,13,-4,28,-4,44v0,67,30,100,89,100v75,0,121,-46,137,-137r83,-473r125,0r-81,467v-27,158,-114,268,-284,270","w":592},"V":{"d":"626,-718r-325,718r-117,0r-73,-718r163,0r0,548r224,-548r128,0","w":547},"W":{"d":"857,-718r-291,718r-111,0r0,-565r-191,565r-156,0r0,-718r133,0r0,531r175,-531r127,0r0,531r189,-531r125,0","w":774},"X":{"d":"505,0r-150,0r-69,-245r-161,245r-144,0r254,-367r-118,-351r147,0r64,232r148,-232r142,0r-240,345","w":547},"Y":{"d":"631,-718r-276,449r-46,269r-124,0r48,-271r-126,-447r145,0r68,312r171,-312r140,0","w":547},"Z":{"d":"473,-127r-23,127r-460,0r22,-127r386,-464r-297,0r22,-127r451,0r-21,118r-391,473r311,0","w":501},"[":{"d":"206,100r-17,96r-202,0r160,-918r202,0r-17,96r-101,0r-127,726r102,0","w":273},"\\":{"d":"222,19r-96,0r-55,-756r96,0","w":228},"]":{"d":"157,196r-201,0r17,-96r101,0r126,-726r-101,0r17,-96r201,0","w":273},"^":{"d":"454,-323r-90,0r-53,-263r-145,263r-89,0r213,-375r82,0","w":479},"_":{"d":"413,75r-9,50r-456,0r9,-50r456,0"},"`":{"d":"253,-602r-83,0r-95,-146r126,0","w":273},"a":{"d":"293,-546v102,-2,170,50,152,154r-50,288v-5,38,-12,67,11,83r-4,21r-124,0v-1,-24,-1,-39,1,-63v-47,46,-77,75,-152,77v-71,2,-112,-44,-112,-115v0,-109,67,-193,160,-210r107,-19v33,-6,49,-25,49,-57v0,-31,-21,-47,-62,-47v-56,1,-73,27,-88,74r-110,0v37,-122,81,-182,222,-186xm156,-197v-30,26,-37,111,22,111v57,0,111,-53,120,-105r12,-68v-24,24,-131,29,-154,62"},"b":{"d":"357,-546v96,0,143,84,142,188v-1,132,-48,251,-117,318v-74,72,-205,78,-237,-30r-13,70r-112,0r125,-718r115,0r-45,258v39,-51,69,-86,142,-86xm170,-203v-1,58,24,101,78,102v36,0,67,-22,92,-67v25,-45,37,-96,37,-155v0,-68,-25,-102,-75,-102v-39,0,-72,23,-96,68v-24,45,-36,97,-36,154","w":501},"c":{"d":"299,-546v97,0,163,65,162,161v0,7,-1,22,-2,43r-116,0v-2,-53,-11,-86,-59,-86v-38,0,-69,23,-93,70v-24,47,-36,103,-36,169v-1,50,20,88,66,88v50,0,85,-46,95,-93r117,0v-35,116,-104,208,-236,208v-109,0,-163,-71,-162,-184v0,-104,25,-193,74,-266v49,-73,113,-110,190,-110"},"d":{"d":"275,-546v66,0,90,32,112,86r45,-258r115,0r-125,718r-113,0r13,-70v-39,56,-87,84,-144,84v-99,-2,-141,-85,-141,-194v0,-101,23,-188,69,-259v46,-71,103,-107,169,-107xm288,-425v-84,0,-131,122,-131,216v0,72,24,108,72,108v38,0,69,-21,95,-63v26,-42,39,-94,39,-157v0,-69,-25,-104,-75,-104","w":501},"e":{"d":"291,-546v113,1,166,76,165,195v1,30,-6,85,-13,123r-299,0v-12,71,10,131,77,130v39,0,68,-19,86,-58r118,0v-51,113,-126,170,-225,170v-116,0,-173,-73,-172,-193v0,-105,25,-192,75,-262v50,-70,113,-105,188,-105xm341,-319v9,-61,-16,-112,-71,-112v-66,0,-88,49,-107,112r178,0"},"f":{"d":"324,-532r-18,100r-75,0r-75,432r-115,0r75,-432r-63,0r18,-100r63,0v8,-64,26,-127,60,-158v37,-33,92,-41,161,-35r-20,113v-23,0,-60,-2,-67,10v-7,5,-15,47,-19,70r75,0","w":273},"g":{"d":"280,-546v69,0,95,36,111,96r15,-82r110,0r-88,504v-27,157,-93,242,-255,245v-108,2,-183,-49,-171,-160r125,0v1,43,22,53,67,54v103,2,113,-98,128,-191v-37,52,-59,83,-133,83v-100,0,-148,-79,-148,-187v0,-100,23,-185,70,-256v47,-71,103,-106,169,-106xm232,-115v83,0,128,-111,128,-204v0,-58,-23,-105,-75,-106v-33,0,-62,21,-87,63v-25,42,-37,92,-37,150v0,55,21,97,71,97","w":501},"h":{"d":"363,-546v93,0,136,80,119,178r-64,368r-115,0r56,-323v14,-59,1,-105,-55,-105v-65,0,-103,59,-113,123r-53,305r-115,0r125,-718r115,0r-45,259v33,-58,82,-87,145,-87","w":501},"i":{"d":"234,-532r-93,532r-114,0r93,-532r114,0xm249,-618r-114,0r20,-115r114,0","w":228},"j":{"d":"132,56v-21,119,-61,162,-197,158r20,-112v40,3,54,-8,62,-49r102,-585r115,0xm249,-618r-114,0r20,-115r114,0","w":228},"k":{"d":"431,0r-138,0r-64,-228r-58,60r-29,168r-115,0r125,-718r115,0r-68,388r179,-202r141,0r-190,206"},"l":{"d":"142,0r-115,0r125,-718r115,0","w":228},"m":{"d":"595,-546v90,-3,134,81,117,178r-64,368r-115,0r56,-323v11,-54,2,-107,-46,-105v-59,2,-85,51,-95,109r-56,319r-115,0r56,-320v12,-56,10,-108,-50,-108v-48,0,-78,35,-90,104r-56,324r-115,0r93,-532r110,0r-14,81v38,-57,66,-95,144,-95v68,0,81,29,105,85v40,-51,63,-83,135,-85","w":729},"n":{"d":"361,-546v95,-3,138,79,121,178r-64,368r-115,0r56,-323v14,-59,1,-105,-55,-105v-65,0,-103,59,-113,123r-53,305r-115,0r93,-532r110,0r-14,81v41,-56,69,-92,149,-95","w":501},"o":{"d":"316,-546v116,0,181,84,181,204v0,179,-114,357,-279,356v-116,0,-181,-84,-181,-204v0,-182,112,-356,279,-356xm239,-104v92,-1,138,-118,138,-220v0,-69,-28,-104,-83,-104v-91,0,-138,120,-138,219v0,70,28,105,83,105","w":501},"p":{"d":"357,-546v96,0,142,82,142,188v0,99,-23,185,-70,260v-47,75,-104,112,-172,112v-67,0,-90,-30,-109,-85r-48,278r-115,0r129,-739r110,0r-14,80v42,-57,67,-94,147,-94xm171,-202v0,58,23,100,77,101v36,0,67,-23,92,-68v25,-45,37,-96,37,-153v0,-69,-25,-103,-75,-103v-40,0,-72,23,-96,69v-24,46,-35,98,-35,154","w":501},"q":{"d":"282,-546v70,0,88,35,109,96r14,-82r110,0r-129,739r-115,0r49,-276v-36,50,-66,83,-140,83v-99,0,-144,-84,-144,-193v0,-95,24,-180,72,-255v48,-75,106,-112,174,-112xm361,-321v1,-57,-24,-103,-76,-104v-38,0,-69,23,-93,70v-24,47,-37,99,-37,158v0,62,25,93,76,93v37,0,68,-20,93,-62v25,-42,37,-94,37,-155","w":501},"r":{"d":"371,-544r-25,142v-92,-12,-144,30,-161,125r-48,277r-115,0r93,-532r110,0r-17,95v27,-42,50,-71,70,-86v25,-19,55,-26,93,-21","w":319},"s":{"d":"268,-440v-42,-1,-78,20,-78,58v0,23,28,40,85,51v103,21,154,64,154,131v2,123,-101,214,-229,214v-102,0,-178,-48,-178,-143v0,-7,1,-21,2,-41r118,0v-7,52,17,78,79,78v45,0,86,-22,87,-62v0,-23,-29,-41,-86,-52v-101,-19,-151,-62,-151,-129v0,-122,95,-211,216,-211v121,0,172,60,161,176r-113,0v4,-48,-14,-70,-67,-70"},"t":{"d":"153,6v-63,0,-100,-17,-101,-74v0,-15,1,-28,4,-41r56,-323r-59,0r17,-100r60,0r25,-144r115,0r-25,144r71,0r-17,100r-72,0r-50,289v-8,31,-2,43,39,43v1,0,9,-1,25,-2r-19,106","w":273},"u":{"d":"169,14v-79,1,-120,-53,-119,-134v0,-24,2,-45,5,-62r62,-350r115,0r-58,330v-10,50,4,101,56,98v65,-4,100,-58,111,-121r54,-307r115,0r-93,532r-110,0r14,-78v-40,55,-73,91,-152,92","w":501},"v":{"d":"508,-532r-250,532r-121,0r-64,-532r150,0r0,396r163,-396r122,0"},"w":{"d":"693,-532r-218,532r-118,0r0,-393r-138,393r-148,0r0,-532r124,0r0,387r129,-387r116,0r0,387r135,-387r118,0","w":638},"x":{"d":"413,0r-142,0r-47,-160r-103,160r-139,0r196,-271r-98,-261r140,0r47,155r99,-155r135,0r-189,261"},"y":{"d":"505,-532r-242,523r-49,103v-34,64,-57,126,-156,120r-54,-2r20,-112v72,8,92,-15,111,-78r-64,-554r128,0r25,396r159,-396r122,0"},"z":{"d":"384,-115r-21,115r-377,0r19,-109r278,-311r-208,0r19,-112r354,0r-20,115r-273,302r229,0","w":410},"{":{"d":"167,196v-66,0,-104,-63,-91,-137r37,-216v0,-37,-22,-57,-66,-60r16,-92v48,-1,83,-34,90,-76r35,-200v11,-69,66,-136,139,-137r68,0r-15,88v-31,0,-62,-2,-76,16v-8,11,-15,27,-19,50r-34,196v-11,55,-59,102,-117,109v59,11,89,49,79,109r-34,196v-8,34,-2,66,34,66r37,0r-15,88r-68,0","w":319},"|":{"d":"178,196r-86,0r0,-918r86,0r0,918","w":230},"}":{"d":"183,-722v66,0,104,63,91,137r-35,200v-6,46,15,73,64,76r-16,92v-48,1,-83,34,-90,76r-35,200v-11,69,-65,136,-138,137r-68,0r15,-88v59,4,84,-6,94,-66r34,-196v13,-54,58,-104,117,-109v-58,-12,-90,-48,-79,-109r34,-196v8,-33,2,-66,-34,-66r-37,0r16,-88r67,0","w":319},"~":{"d":"188,-336v18,-4,132,56,151,51v22,0,43,-12,62,-36r42,54v-23,34,-43,59,-61,73v-18,14,-39,21,-62,21v-18,4,-133,-56,-152,-51v-35,1,-43,13,-62,37r-42,-55v23,-34,43,-58,62,-72v19,-14,39,-22,62,-22","w":479},"\u00a0":{"w":228},"\u00a1":{"d":"259,-532r-25,141r-119,0r24,-141r120,0xm169,3r-32,183r-126,0r32,-183r91,-336r61,0","w":273},"\u00a2":{"d":"433,-194v-35,116,-104,204,-236,208v-17,0,-30,-1,-41,-4r-44,108r-42,0r48,-120v-55,-33,-83,-88,-83,-166v0,-105,24,-195,75,-268v58,-83,124,-120,229,-107r34,-85r43,0r-40,98v68,38,93,94,83,188r-116,0v0,-32,-5,-55,-16,-68r-124,305v5,3,11,4,18,4v50,-1,85,-46,95,-93r117,0xm292,-428v-49,-2,-75,19,-102,70v-25,46,-35,103,-35,166v0,24,5,45,15,63"},"\u00a3":{"d":"218,-127v13,-3,88,25,97,25v23,0,53,-12,89,-36r14,109v-85,50,-133,60,-227,19v-65,-29,-91,-9,-153,21r-27,-97v71,-43,141,-121,113,-235r-75,0r10,-60r48,0v-9,-46,-14,-78,-14,-95v-4,-126,108,-242,233,-242v100,0,165,64,164,164v0,15,-2,37,-5,67r-108,0v1,-10,1,-22,1,-37v0,-55,-23,-82,-68,-82v-55,-1,-103,54,-101,111v0,13,6,51,18,114r117,0r-10,60r-98,0v-6,121,-44,155,-123,223v46,-19,81,-29,105,-29"},"\u00a4":{"d":"418,-155r-61,61r-13,-14v-57,37,-138,38,-195,0r-14,14r-60,-61r13,-13v-37,-64,-37,-132,0,-196r-13,-13r60,-61r14,14v57,-38,138,-37,195,0r13,-14r61,61r-13,13v36,60,36,136,0,196xm246,-166v54,0,100,-46,100,-100v0,-54,-46,-100,-100,-100v-53,0,-100,47,-100,100v0,53,47,100,100,100"},"\u00a5":{"d":"555,-698r-174,293r110,0r-11,60r-135,0r-44,75r166,0r-10,60r-167,0r-37,210r-104,0r36,-210r-166,0r10,-60r167,0r-20,-75r-133,0r10,-60r107,0r-76,-293r123,0r67,294r165,-294r116,0"},"\u00a6":{"d":"178,-355r-86,0r0,-367r86,0r0,367xm178,196r-86,0r0,-367r86,0r0,367","w":230},"\u00a7":{"d":"304,-621v-54,0,-100,74,-48,109r119,81v49,34,74,75,74,124v-1,78,-50,142,-105,173v93,135,-36,318,-184,318v-100,0,-155,-80,-137,-187r108,0v-6,45,13,81,57,81v40,0,76,-42,74,-84v0,-19,-13,-37,-38,-55r-112,-78v-42,-30,-66,-54,-66,-116v0,-93,39,-134,104,-177v-82,-127,42,-295,175,-295v83,0,137,51,136,133v0,13,-1,30,-3,50r-104,0v6,-42,-10,-77,-50,-77xm197,-383v-23,11,-47,40,-47,71v0,19,10,35,29,49r114,84v53,-36,67,-91,11,-130"},"\u00a8":{"d":"180,-618r-96,0r20,-115r96,0xm345,-618r-96,0r20,-115r96,0","w":273},"\u00a9":{"d":"322,-677v168,0,282,175,282,348v0,174,-114,348,-282,348v-168,0,-282,-175,-282,-348v0,-174,114,-348,282,-348xm322,-37v139,0,226,-148,226,-292v0,-144,-87,-292,-226,-292v-139,0,-226,148,-226,292v0,144,87,292,226,292xm358,-522v78,0,131,55,120,140r-81,0v-2,-41,-19,-61,-51,-61v-66,1,-100,83,-97,158v1,47,20,70,55,70v33,0,58,-22,75,-67r82,0v-35,97,-92,145,-172,145v-80,0,-121,-51,-124,-133v-4,-126,76,-253,193,-252","w":604},"\u00aa":{"d":"250,-737v65,-1,110,29,99,93r-30,173v-4,21,-7,43,9,49r-2,13r-81,0v-2,-12,-1,-25,0,-38v-31,31,-64,46,-98,46v-45,1,-75,-27,-75,-71v-1,-65,46,-117,104,-126r69,-11v21,-3,31,-13,31,-30v0,-18,-13,-27,-40,-27v-35,1,-48,12,-57,41r-72,0v23,-73,55,-110,143,-112xm263,-565v-32,23,-115,15,-112,75v2,42,56,29,79,10v25,-21,27,-50,33,-85xm305,-356r-14,80r-246,0r14,-80r246,0","w":303},"\u00ab":{"d":"193,-76r-112,-144r21,-120r162,-144r-21,116r-97,88r67,88xm418,-368r-97,88r66,88r-20,116r-112,-144r21,-120r162,-144"},"\u00ac":{"d":"442,-383r0,223r-86,0r0,-137r-279,0r0,-86r365,0","w":479},"\u00ad":{"d":"281,-345r-23,130r-228,0r23,-130r228,0","w":273},"\u00ae":{"d":"322,-677v168,0,282,175,282,348v0,174,-114,348,-282,348v-168,0,-282,-175,-282,-348v0,-174,114,-348,282,-348xm322,-37v139,0,226,-148,226,-292v0,-144,-87,-292,-226,-292v-139,0,-226,148,-226,292v0,144,87,292,226,292xm392,-513v56,0,91,30,91,84v0,49,-19,84,-57,107v39,31,11,77,9,142v0,5,3,9,10,12r-4,22r-87,0v-6,-21,9,-97,10,-114v0,-34,-64,-22,-100,-24r-24,138r-79,0r63,-367r168,0xm399,-409v0,-43,-68,-24,-108,-28r-13,79r70,0v35,0,51,-17,51,-51","w":604},"\u00af":{"d":"372,-712r-13,74r-283,0r13,-74r283,0","w":273},"\u00b0":{"d":"258,-712v57,0,95,53,95,113v0,81,-69,173,-145,173v-57,0,-95,-53,-95,-113v0,-81,69,-173,145,-173xm218,-482v46,0,88,-57,88,-105v0,-37,-23,-69,-58,-69v-46,0,-88,57,-88,106v0,36,24,68,58,68","w":328},"\u00b1":{"d":"442,-293r-139,0r0,130r-86,0r0,-130r-140,0r0,-86r140,0r0,-140r86,0r0,140r139,0r0,86xm442,0r-365,0r0,-86r365,0r0,86","w":479},"\u00b2":{"d":"231,-722v66,-1,107,48,107,116v0,68,-39,131,-88,162v-32,20,-86,59,-103,79r153,0r-15,82r-258,0v27,-110,63,-131,155,-199v51,-38,78,-74,78,-111v0,-27,-16,-50,-42,-50v-34,0,-56,28,-67,85r-72,0v21,-109,72,-164,152,-164","w":273},"\u00b3":{"d":"229,-722v60,-1,102,33,102,92v0,52,-21,89,-64,110v29,13,44,37,44,74v0,91,-72,175,-160,175v-82,0,-119,-66,-103,-154r73,0v-8,45,6,80,43,79v41,0,66,-43,65,-89v-2,-39,-26,-43,-72,-44r11,-64v54,3,84,-18,83,-67v0,-25,-12,-37,-37,-37v-33,0,-54,21,-62,62r-70,0v20,-91,69,-137,147,-137","w":273},"\u00b4":{"d":"399,-748r-146,146r-83,0r103,-146r126,0","w":273},"\u00b5":{"d":"510,-532r-93,532r-110,0r14,-78v-41,61,-83,92,-125,92v-24,0,-42,-9,-55,-26r-38,219r-115,0r129,-739r115,0r-58,330v-10,50,4,101,56,98v65,-4,102,-57,112,-121r53,-307r115,0","w":501},"\u00b6":{"d":"50,-480v0,-140,87,-220,235,-220r249,0r-156,891r-92,0r141,-806r-83,0r-141,806r-92,0r94,-538v-98,-5,-155,-39,-155,-133"},"\u00b7":{"d":"134,-312v34,0,62,28,62,62v0,34,-28,62,-62,62v-34,0,-62,-28,-62,-62v0,-34,28,-62,62,-62","w":228},"\u00b8":{"d":"81,51v42,-3,74,23,74,60v2,64,-63,119,-128,117v-23,0,-52,-8,-87,-25r26,-48v29,11,49,16,60,16v24,1,50,-23,48,-47v-2,-32,-30,-33,-62,-20r-14,-20r60,-86r55,0","w":273},"\u00b9":{"d":"288,-710r-75,427r-82,0r50,-291r-90,0r11,-62v64,2,102,-21,116,-74r70,0","w":273},"\u00ba":{"d":"249,-737v76,0,119,53,119,131v0,105,-77,205,-178,205v-76,0,-119,-52,-119,-130v0,-105,78,-206,178,-206xm203,-473v50,0,84,-67,84,-124v0,-37,-17,-68,-51,-68v-50,0,-84,67,-84,124v0,39,16,67,51,68xm305,-356r-14,80r-246,0r14,-80r246,0","w":299},"\u00bb":{"d":"413,-340r-21,120r-162,144r20,-116r97,-88r-66,-88r20,-116xm238,-340r-21,120r-162,144r20,-116r98,-88r-67,-88r20,-116"},"\u00bc":{"d":"614,-90r-41,0r-16,90r-78,0r16,-90r-150,0r13,-74r184,-260r89,0r-46,265r41,0xm620,-710r-478,735r-65,0r479,-735r64,0xm214,-283r-83,0r50,-291r-90,0r11,-62v64,2,102,-21,116,-74r70,0xm544,-343r-129,186r95,0","w":684},"\u00bd":{"d":"620,-710r-478,735r-65,0r479,-735r64,0xm214,-283r-83,0r50,-291r-90,0r11,-62v64,2,102,-21,116,-74r70,0xm567,-439v66,-1,107,48,107,116v0,58,-31,118,-69,149v-15,11,-107,70,-122,92r153,0r-15,82r-258,0v26,-110,63,-132,155,-199v51,-38,78,-74,78,-111v0,-27,-16,-50,-42,-50v-34,0,-56,28,-67,85r-72,0v21,-109,71,-164,152,-164","w":684},"\u00be":{"d":"641,-90r-41,0r-16,90r-78,0r16,-90r-150,0r13,-74r184,-260r89,0r-46,265r41,0xm656,-710r-478,735r-65,0r479,-735r64,0xm236,-722v60,-1,102,33,102,92v0,52,-21,89,-64,110v29,13,43,37,43,74v0,90,-72,175,-159,175v-65,0,-107,-42,-106,-107v0,-13,1,-29,3,-47r74,0v-10,41,4,81,42,79v41,-2,65,-43,64,-89v-2,-38,-26,-43,-71,-44r11,-64v54,3,84,-18,83,-67v0,-25,-12,-37,-37,-37v-33,0,-54,21,-62,62r-70,0v20,-91,69,-137,147,-137xm567,-339r-125,180r92,0","w":684},"\u00bf":{"d":"140,6v0,44,24,72,67,71v61,-1,97,-57,106,-116r116,0v-17,77,-45,136,-87,175v-42,39,-93,59,-152,59v-102,1,-179,-60,-176,-162v4,-127,51,-165,136,-235v47,-38,57,-52,71,-122r108,0v-21,117,-39,139,-118,203v-46,37,-71,78,-71,127xm369,-532r-25,141r-119,0r24,-141r120,0","w":501},"\u00c0":{"d":"546,0r-134,0r-12,-148r-217,0r-67,148r-130,0r336,-718r142,0xm387,-272r-23,-287r-127,287r150,0xm447,-788r-83,0r-98,-126r126,0","w":592},"\u00c1":{"d":"546,0r-134,0r-12,-148r-217,0r-67,148r-130,0r336,-718r142,0xm387,-272r-23,-287r-127,287r150,0xm589,-914r-143,126r-83,0r100,-126r126,0","w":592},"\u00c2":{"d":"546,0r-134,0r-12,-148r-217,0r-67,148r-130,0r336,-718r142,0xm387,-272r-23,-287r-127,287r150,0xm559,-788r-93,0r-51,-62r-72,62r-93,0r125,-126r103,0","w":592},"\u00c3":{"d":"546,0r-134,0r-12,-148r-217,0r-67,148r-130,0r336,-718r142,0xm387,-272r-23,-287r-127,287r150,0xm375,-911v2,-3,102,39,104,36v20,0,35,-13,46,-40r53,0v-27,80,-63,120,-110,120v-6,3,-109,-39,-115,-36v-19,0,-35,14,-46,43r-52,0v15,-43,32,-74,51,-94v19,-20,42,-29,69,-29","w":592},"\u00c4":{"d":"546,0r-134,0r-12,-148r-217,0r-67,148r-130,0r336,-718r142,0xm387,-272r-23,-287r-127,287r150,0xm372,-794r-96,0r20,-115r96,0xm537,-794r-96,0r20,-115r96,0","w":592},"\u00c5":{"d":"546,0r-134,0r-12,-148r-217,0r-67,148r-130,0r336,-718r142,0xm387,-272r-23,-287r-127,287r150,0xm503,-932v40,40,20,94,-21,124v-43,32,-110,38,-146,0v-38,-40,-20,-96,22,-125v44,-31,107,-36,145,1xm378,-840v37,37,125,-14,84,-60v-39,-36,-124,14,-84,60","w":592},"\u00c6":{"d":"753,0r-431,0r27,-153r-177,0r-69,153r-129,0r340,-718r558,0r-22,127r-305,0r-26,151r274,0r-22,127r-274,0r-32,186r310,0xm425,-591r-53,0r-147,320r144,0","w":820},"\u00c7":{"d":"408,-737v137,0,223,104,208,254r-124,0v-4,-78,-29,-124,-104,-124v-58,0,-106,33,-144,100v-38,67,-58,147,-58,241v-1,88,32,155,111,155v88,0,122,-58,154,-135r123,0v-60,165,-151,253,-273,264r-20,33v42,-3,74,23,74,60v2,64,-63,119,-128,117v-23,0,-52,-8,-87,-25r26,-48v29,11,49,16,60,16v24,1,50,-23,48,-47v-2,-32,-30,-33,-62,-20r-14,-20r46,-66v-123,-14,-186,-115,-186,-259v0,-184,69,-345,172,-429v54,-45,113,-67,178,-67","w":592},"\u00c8":{"d":"479,0r-447,0r125,-718r433,0r-22,127r-313,0r-26,151r287,0r-22,127r-287,0r-32,186r326,0xm427,-788r-83,0r-98,-126r126,0","w":547},"\u00c9":{"d":"479,0r-447,0r125,-718r433,0r-22,127r-313,0r-26,151r287,0r-22,127r-287,0r-32,186r326,0xm569,-914r-143,126r-83,0r100,-126r126,0","w":547},"\u00ca":{"d":"479,0r-447,0r125,-718r433,0r-22,127r-313,0r-26,151r287,0r-22,127r-287,0r-32,186r326,0xm539,-788r-93,0r-51,-62r-72,62r-93,0r125,-126r103,0","w":547},"\u00cb":{"d":"479,0r-447,0r125,-718r433,0r-22,127r-313,0r-26,151r287,0r-22,127r-287,0r-32,186r326,0xm352,-794r-96,0r20,-115r96,0xm517,-794r-96,0r20,-115r96,0","w":547},"\u00cc":{"d":"271,-718r-126,718r-123,0r126,-718r123,0xm283,-788r-83,0r-98,-126r126,0","w":228},"\u00cd":{"d":"271,-718r-126,718r-123,0r126,-718r123,0xm385,-914r-143,126r-83,0r100,-126r126,0","w":228},"\u00ce":{"d":"271,-718r-126,718r-123,0r126,-718r123,0xm375,-788r-93,0r-51,-62r-72,62r-93,0r125,-126r103,0","w":228},"\u00cf":{"d":"271,-718r-126,718r-123,0r126,-718r123,0xm188,-794r-96,0r20,-115r96,0xm353,-794r-96,0r20,-115r96,0","w":228},"\u00d0":{"d":"418,-718v132,1,190,92,189,233v0,172,-62,329,-155,415v-50,46,-104,70,-164,70r-256,0r55,-316r-66,0r22,-124r66,0r49,-278r260,0xm479,-462v0,-88,-35,-132,-104,-132r-118,0r-27,154r136,0r-22,124r-136,0r-33,192r119,0v53,0,97,-34,132,-103v35,-69,53,-147,53,-235","w":592},"\u00d1":{"d":"506,0r-123,0r-152,-515r-89,515r-115,0r125,-718r129,0r148,504r87,-504r115,0xm373,-911v2,-3,102,39,104,36v20,0,35,-13,46,-40r53,0v-27,80,-63,120,-110,120v-6,3,-109,-39,-115,-36v-19,0,-35,14,-46,43r-52,0v15,-43,32,-74,51,-94v19,-20,42,-29,69,-29","w":592},"\u00d2":{"d":"419,-737v142,1,226,108,226,263v0,140,-34,258,-103,352v-69,94,-154,141,-257,141v-146,0,-227,-111,-227,-264v0,-185,71,-346,177,-427v55,-43,117,-65,184,-65xm184,-271v-1,92,40,162,125,163v59,0,109,-32,150,-98v41,-66,61,-146,61,-241v0,-92,-40,-162,-124,-163v-61,0,-112,34,-152,101v-40,67,-60,147,-60,238xm469,-788r-83,0r-98,-126r126,0","w":638},"\u00d3":{"d":"419,-737v142,1,226,108,226,263v0,140,-34,258,-103,352v-69,94,-154,141,-257,141v-146,0,-227,-111,-227,-264v0,-185,71,-346,177,-427v55,-43,117,-65,184,-65xm184,-271v-1,92,40,162,125,163v59,0,109,-32,150,-98v41,-66,61,-146,61,-241v0,-92,-40,-162,-124,-163v-61,0,-112,34,-152,101v-40,67,-60,147,-60,238xm612,-914r-143,126r-83,0r100,-126r126,0","w":638},"\u00d4":{"d":"419,-737v142,1,226,108,226,263v0,140,-34,258,-103,352v-69,94,-154,141,-257,141v-146,0,-227,-111,-227,-264v0,-185,71,-346,177,-427v55,-43,117,-65,184,-65xm184,-271v-1,92,40,162,125,163v59,0,109,-32,150,-98v41,-66,61,-146,61,-241v0,-92,-40,-162,-124,-163v-61,0,-112,34,-152,101v-40,67,-60,147,-60,238xm582,-788r-93,0r-51,-62r-72,62r-93,0r125,-126r103,0","w":638},"\u00d5":{"d":"419,-737v142,1,226,108,226,263v0,140,-34,258,-103,352v-69,94,-154,141,-257,141v-146,0,-227,-111,-227,-264v0,-185,71,-346,177,-427v55,-43,117,-65,184,-65xm184,-271v-1,92,40,162,125,163v59,0,109,-32,150,-98v41,-66,61,-146,61,-241v0,-92,-40,-162,-124,-163v-61,0,-112,34,-152,101v-40,67,-60,147,-60,238xm397,-911v2,-3,102,39,104,36v20,0,35,-13,46,-40r53,0v-27,80,-63,120,-110,120v-6,3,-109,-39,-115,-36v-19,0,-35,14,-46,43r-52,0v15,-43,32,-74,51,-94v19,-20,42,-29,69,-29","w":638},"\u00d6":{"d":"419,-737v142,1,226,108,226,263v0,140,-34,258,-103,352v-69,94,-154,141,-257,141v-146,0,-227,-111,-227,-264v0,-185,71,-346,177,-427v55,-43,117,-65,184,-65xm184,-271v-1,92,40,162,125,163v59,0,109,-32,150,-98v41,-66,61,-146,61,-241v0,-92,-40,-162,-124,-163v-61,0,-112,34,-152,101v-40,67,-60,147,-60,238xm394,-794r-96,0r20,-115r96,0xm559,-794r-96,0r20,-115r96,0","w":638},"\u00d7":{"d":"419,-152r-61,61r-98,-99r-99,99r-61,-61r99,-99r-99,-98r61,-61r99,99r98,-99r61,61r-98,98","w":479},"\u00d8":{"d":"703,-707r-85,92v49,122,26,277,-20,391v-31,75,-76,134,-130,178v-107,87,-273,91,-358,-17r-83,90r-28,-38r86,-93v-18,-45,-27,-93,-27,-142v0,-138,35,-254,104,-349v69,-95,153,-142,254,-142v69,0,128,27,177,81r82,-89xm496,-551v-49,-81,-151,-73,-214,-7v-69,73,-111,203,-93,340xm422,-161v68,-74,112,-205,91,-340r-307,333v47,83,155,74,216,7","w":638},"\u00d9":{"d":"264,19v-124,2,-198,-66,-198,-188v0,-25,2,-49,6,-73r83,-476r125,0r-81,466v-3,13,-4,28,-4,44v0,67,30,100,89,100v75,0,121,-46,137,-137r83,-473r125,0r-81,467v-27,158,-114,268,-284,270xm446,-788r-83,0r-98,-126r126,0","w":592},"\u00da":{"d":"264,19v-124,2,-198,-66,-198,-188v0,-25,2,-49,6,-73r83,-476r125,0r-81,466v-3,13,-4,28,-4,44v0,67,30,100,89,100v75,0,121,-46,137,-137r83,-473r125,0r-81,467v-27,158,-114,268,-284,270xm588,-914r-143,126r-83,0r100,-126r126,0","w":592},"\u00db":{"d":"264,19v-124,2,-198,-66,-198,-188v0,-25,2,-49,6,-73r83,-476r125,0r-81,466v-3,13,-4,28,-4,44v0,67,30,100,89,100v75,0,121,-46,137,-137r83,-473r125,0r-81,467v-27,158,-114,268,-284,270xm558,-788r-93,0r-51,-62r-72,62r-93,0r125,-126r103,0","w":592},"\u00dc":{"d":"264,19v-124,2,-198,-66,-198,-188v0,-25,2,-49,6,-73r83,-476r125,0r-81,466v-3,13,-4,28,-4,44v0,67,30,100,89,100v75,0,121,-46,137,-137r83,-473r125,0r-81,467v-27,158,-114,268,-284,270xm371,-794r-96,0r20,-115r96,0xm536,-794r-96,0r20,-115r96,0","w":592},"\u00dd":{"d":"631,-718r-276,449r-46,269r-124,0r48,-271r-126,-447r145,0r68,312r171,-312r140,0xm568,-914r-143,126r-83,0r100,-126r126,0","w":547},"\u00de":{"d":"409,-620v98,0,149,67,149,169v0,142,-98,292,-234,292r-141,0r-28,159r-123,0r125,-718r123,0r-17,98r146,0xm319,-283v76,0,115,-63,114,-142v0,-47,-31,-71,-94,-71r-97,0r-38,213r115,0","w":547},"\u00df":{"d":"423,-411v44,32,66,57,67,126v4,149,-104,302,-246,299v-11,0,-27,-2,-46,-6r19,-110v102,12,156,-61,155,-158v-1,-69,-36,-80,-107,-87r17,-97v80,-4,105,-35,109,-112v3,-68,-88,-80,-126,-39v-15,17,-26,38,-31,65r-92,530r-115,0r94,-539v17,-110,104,-192,226,-192v100,0,162,50,162,146v0,81,-29,139,-86,174","w":501},"\u00e0":{"d":"293,-546v102,-2,170,50,152,154r-50,288v-5,38,-12,67,11,83r-4,21r-124,0v-1,-24,-1,-39,1,-63v-47,46,-77,75,-152,77v-71,2,-112,-44,-112,-115v0,-109,67,-193,160,-210r107,-19v33,-6,49,-25,49,-57v0,-31,-21,-47,-62,-47v-56,1,-73,27,-88,74r-110,0v37,-122,81,-182,222,-186xm156,-197v-30,26,-37,111,22,111v57,0,111,-53,120,-105r12,-68v-24,24,-131,29,-154,62xm344,-602r-83,0r-95,-146r126,0"},"\u00e1":{"d":"293,-546v102,-2,170,50,152,154r-50,288v-5,38,-12,67,11,83r-4,21r-124,0v-1,-24,-1,-39,1,-63v-47,46,-77,75,-152,77v-71,2,-112,-44,-112,-115v0,-109,67,-193,160,-210r107,-19v33,-6,49,-25,49,-57v0,-31,-21,-47,-62,-47v-56,1,-73,27,-88,74r-110,0v37,-122,81,-182,222,-186xm156,-197v-30,26,-37,111,22,111v57,0,111,-53,120,-105r12,-68v-24,24,-131,29,-154,62xm490,-748r-146,146r-83,0r103,-146r126,0"},"\u00e2":{"d":"293,-546v102,-2,170,50,152,154r-50,288v-5,38,-12,67,11,83r-4,21r-124,0v-1,-24,-1,-39,1,-63v-47,46,-77,75,-152,77v-71,2,-112,-44,-112,-115v0,-109,67,-193,160,-210r107,-19v33,-6,49,-25,49,-57v0,-31,-21,-47,-62,-47v-56,1,-73,27,-88,74r-110,0v37,-122,81,-182,222,-186xm156,-197v-30,26,-37,111,22,111v57,0,111,-53,120,-105r12,-68v-24,24,-131,29,-154,62xm448,-602r-93,0r-38,-82r-66,82r-93,0r119,-146r103,0"},"\u00e3":{"d":"293,-546v102,-2,170,50,152,154r-50,288v-5,38,-12,67,11,83r-4,21r-124,0v-1,-24,-1,-39,1,-63v-47,46,-77,75,-152,77v-71,2,-112,-44,-112,-115v0,-109,67,-193,160,-210r107,-19v33,-6,49,-25,49,-57v0,-31,-21,-47,-62,-47v-56,1,-73,27,-88,74r-110,0v37,-122,81,-182,222,-186xm156,-197v-30,26,-37,111,22,111v57,0,111,-53,120,-105r12,-68v-24,24,-131,29,-154,62xm273,-735v2,-3,102,39,104,36v20,0,35,-13,46,-40r53,0v-27,80,-63,120,-110,120v-6,3,-109,-39,-115,-36v-19,0,-35,14,-46,43r-52,0v15,-43,32,-74,51,-94v19,-20,42,-29,69,-29"},"\u00e4":{"d":"293,-546v102,-2,170,50,152,154r-50,288v-5,38,-12,67,11,83r-4,21r-124,0v-1,-24,-1,-39,1,-63v-47,46,-77,75,-152,77v-71,2,-112,-44,-112,-115v0,-109,67,-193,160,-210r107,-19v33,-6,49,-25,49,-57v0,-31,-21,-47,-62,-47v-56,1,-73,27,-88,74r-110,0v37,-122,81,-182,222,-186xm156,-197v-30,26,-37,111,22,111v57,0,111,-53,120,-105r12,-68v-24,24,-131,29,-154,62xm271,-618r-96,0r20,-115r96,0xm436,-618r-96,0r20,-115r96,0"},"\u00e5":{"d":"293,-546v102,-2,170,50,152,154r-50,288v-5,38,-12,67,11,83r-4,21r-124,0v-1,-24,-1,-39,1,-63v-47,46,-77,75,-152,77v-71,2,-112,-44,-112,-115v0,-109,67,-193,160,-210r107,-19v33,-6,49,-25,49,-57v0,-31,-21,-47,-62,-47v-56,1,-73,27,-88,74r-110,0v37,-122,81,-182,222,-186xm156,-197v-30,26,-37,111,22,111v57,0,111,-53,120,-105r12,-68v-24,24,-131,29,-154,62xm399,-738v63,65,-25,151,-99,151v-51,0,-97,-38,-88,-90v11,-68,130,-122,187,-61xm273,-646v37,37,125,-13,85,-60v-39,-36,-127,15,-85,60"},"\u00e6":{"d":"568,-546v107,0,160,81,159,195v1,30,-6,85,-13,123r-300,0v-10,77,10,130,78,130v40,0,69,-19,86,-58r118,0v-51,113,-127,170,-228,170v-82,0,-112,-26,-141,-86v-43,57,-104,86,-181,86v-87,0,-130,-40,-130,-119v-1,-100,57,-180,141,-196r112,-22v54,-13,67,-14,69,-70v0,-27,-22,-41,-66,-41v-49,0,-78,25,-87,75r-113,0v32,-116,90,-187,225,-187v53,0,96,20,129,59v47,-36,74,-59,142,-59xm134,-133v0,30,21,47,51,47v53,1,109,-54,117,-102r11,-67v-12,11,-42,21,-90,30v-61,12,-87,30,-89,92xm612,-319v8,-61,-15,-112,-71,-112v-49,0,-85,37,-107,112r178,0","w":729},"\u00e7":{"d":"299,-546v97,0,163,65,162,161v0,7,-1,22,-2,43r-116,0v-2,-53,-11,-86,-59,-86v-38,0,-69,23,-93,70v-24,47,-36,103,-36,169v-1,50,20,88,66,88v50,0,85,-46,95,-93r117,0v-33,107,-96,191,-209,206r-23,39v42,-3,74,23,74,60v2,64,-63,119,-128,117v-23,0,-52,-8,-87,-25r26,-48v29,11,49,16,60,16v24,1,50,-23,48,-47v-2,-32,-30,-33,-62,-20r-14,-20r50,-72v-90,-11,-134,-78,-133,-182v0,-104,25,-193,74,-266v49,-73,113,-110,190,-110"},"\u00e8":{"d":"291,-546v113,1,166,76,165,195v1,30,-6,85,-13,123r-299,0v-12,71,10,131,77,130v39,0,68,-19,86,-58r118,0v-51,113,-126,170,-225,170v-116,0,-173,-73,-172,-193v0,-105,25,-192,75,-262v50,-70,113,-105,188,-105xm341,-319v9,-61,-16,-112,-71,-112v-66,0,-88,49,-107,112r178,0xm345,-602r-83,0r-95,-146r126,0"},"\u00e9":{"d":"291,-546v113,1,166,76,165,195v1,30,-6,85,-13,123r-299,0v-12,71,10,131,77,130v39,0,68,-19,86,-58r118,0v-51,113,-126,170,-225,170v-116,0,-173,-73,-172,-193v0,-105,25,-192,75,-262v50,-70,113,-105,188,-105xm341,-319v9,-61,-16,-112,-71,-112v-66,0,-88,49,-107,112r178,0xm490,-748r-146,146r-83,0r103,-146r126,0"},"\u00ea":{"d":"291,-546v113,1,166,76,165,195v1,30,-6,85,-13,123r-299,0v-12,71,10,131,77,130v39,0,68,-19,86,-58r118,0v-51,113,-126,170,-225,170v-116,0,-173,-73,-172,-193v0,-105,25,-192,75,-262v50,-70,113,-105,188,-105xm341,-319v9,-61,-16,-112,-71,-112v-66,0,-88,49,-107,112r178,0xm448,-602r-93,0r-38,-82r-66,82r-93,0r119,-146r103,0"},"\u00eb":{"d":"291,-546v113,1,166,76,165,195v1,30,-6,85,-13,123r-299,0v-12,71,10,131,77,130v39,0,68,-19,86,-58r118,0v-51,113,-126,170,-225,170v-116,0,-173,-73,-172,-193v0,-105,25,-192,75,-262v50,-70,113,-105,188,-105xm341,-319v9,-61,-16,-112,-71,-112v-66,0,-88,49,-107,112r178,0xm271,-618r-96,0r20,-115r96,0xm436,-618r-96,0r20,-115r96,0"},"\u00ec":{"d":"234,-532r-93,532r-114,0r93,-532r114,0xm246,-602r-83,0r-95,-146r126,0","w":228},"\u00ed":{"d":"234,-532r-93,532r-114,0r93,-532r114,0xm361,-748r-146,146r-83,0r103,-146r126,0","w":228},"\u00ee":{"d":"234,-532r-93,532r-114,0r93,-532r114,0xm334,-602r-93,0r-38,-82r-66,82r-93,0r119,-146r103,0","w":228},"\u00ef":{"d":"234,-532r-93,532r-114,0r93,-532r114,0xm157,-618r-96,0r20,-115r96,0xm322,-618r-96,0r20,-115r96,0","w":228},"\u00f0":{"d":"429,-641v49,79,75,139,75,253v0,111,-27,206,-82,284v-55,78,-123,118,-204,118v-115,1,-181,-84,-181,-203v0,-91,25,-169,75,-235v50,-66,108,-99,177,-99v55,0,76,23,98,63v-10,-46,-30,-90,-61,-131r-96,47r-43,-52r97,-47v-21,-21,-38,-36,-52,-45r97,-49v21,13,40,27,57,44r91,-44r42,52xm240,-104v81,2,135,-112,135,-197v0,-60,-27,-103,-82,-104v-83,1,-137,102,-137,195v0,62,26,105,84,106","w":501},"\u00f1":{"d":"361,-546v95,-3,138,79,121,178r-64,368r-115,0r56,-323v14,-59,1,-105,-55,-105v-65,0,-103,59,-113,123r-53,305r-115,0r93,-532r110,0r-14,81v41,-56,69,-92,149,-95xm296,-735v2,-3,102,39,104,36v20,0,35,-13,46,-40r53,0v-27,80,-64,120,-110,120v-6,3,-109,-39,-115,-36v-19,0,-35,14,-46,43r-52,0v15,-43,33,-74,52,-94v19,-20,41,-29,68,-29","w":501},"\u00f2":{"d":"316,-546v116,0,181,84,181,204v0,179,-114,357,-279,356v-116,0,-181,-84,-181,-204v0,-182,112,-356,279,-356xm239,-104v92,-1,138,-118,138,-220v0,-69,-28,-104,-83,-104v-91,0,-138,120,-138,219v0,70,28,105,83,105xm367,-602r-83,0r-95,-146r126,0","w":501},"\u00f3":{"d":"316,-546v116,0,181,84,181,204v0,179,-114,357,-279,356v-116,0,-181,-84,-181,-204v0,-182,112,-356,279,-356xm239,-104v92,-1,138,-118,138,-220v0,-69,-28,-104,-83,-104v-91,0,-138,120,-138,219v0,70,28,105,83,105xm513,-748r-146,146r-83,0r103,-146r126,0","w":501},"\u00f4":{"d":"316,-546v116,0,181,84,181,204v0,179,-114,357,-279,356v-116,0,-181,-84,-181,-204v0,-182,112,-356,279,-356xm239,-104v92,-1,138,-118,138,-220v0,-69,-28,-104,-83,-104v-91,0,-138,120,-138,219v0,70,28,105,83,105xm471,-602r-93,0r-38,-82r-66,82r-93,0r119,-146r103,0","w":501},"\u00f5":{"d":"316,-546v116,0,181,84,181,204v0,179,-114,357,-279,356v-116,0,-181,-84,-181,-204v0,-182,112,-356,279,-356xm239,-104v92,-1,138,-118,138,-220v0,-69,-28,-104,-83,-104v-91,0,-138,120,-138,219v0,70,28,105,83,105xm296,-735v2,-3,102,39,104,36v20,0,35,-13,46,-40r53,0v-27,80,-64,120,-110,120v-6,3,-109,-39,-115,-36v-19,0,-35,14,-46,43r-52,0v15,-43,33,-74,52,-94v19,-20,41,-29,68,-29","w":501},"\u00f6":{"d":"316,-546v116,0,181,84,181,204v0,179,-114,357,-279,356v-116,0,-181,-84,-181,-204v0,-182,112,-356,279,-356xm239,-104v92,-1,138,-118,138,-220v0,-69,-28,-104,-83,-104v-91,0,-138,120,-138,219v0,70,28,105,83,105xm294,-618r-96,0r20,-115r96,0xm459,-618r-96,0r20,-115r96,0","w":501},"\u00f7":{"d":"442,-207r-365,0r0,-86r365,0r0,86xm260,-492v34,0,62,28,62,62v0,34,-28,62,-62,62v-34,0,-62,-28,-62,-62v0,-34,28,-62,62,-62xm260,-133v33,0,62,29,62,62v0,34,-28,62,-62,62v-34,0,-62,-28,-62,-62v0,-34,28,-62,62,-62","w":479},"\u00f8":{"d":"37,-191v0,-178,114,-356,279,-355v54,0,100,20,137,59r69,-73r23,32r-71,74v81,208,-57,469,-256,468v-54,0,-99,-19,-135,-58r-69,73r-26,-29r73,-77v-16,-37,-24,-75,-24,-114xm238,-104v100,0,148,-129,138,-247r-203,213v14,23,36,34,65,34xm296,-428v-99,0,-151,131,-137,249r204,-214v-16,-23,-38,-35,-67,-35","w":501},"\u00f9":{"d":"169,14v-79,1,-120,-53,-119,-134v0,-24,2,-45,5,-62r62,-350r115,0r-58,330v-10,50,4,101,56,98v65,-4,100,-58,111,-121r54,-307r115,0r-93,532r-110,0r14,-78v-40,55,-73,91,-152,92xm367,-602r-83,0r-95,-146r126,0","w":501},"\u00fa":{"d":"169,14v-79,1,-120,-53,-119,-134v0,-24,2,-45,5,-62r62,-350r115,0r-58,330v-10,50,4,101,56,98v65,-4,100,-58,111,-121r54,-307r115,0r-93,532r-110,0r14,-78v-40,55,-73,91,-152,92xm513,-748r-146,146r-83,0r103,-146r126,0","w":501},"\u00fb":{"d":"169,14v-79,1,-120,-53,-119,-134v0,-24,2,-45,5,-62r62,-350r115,0r-58,330v-10,50,4,101,56,98v65,-4,100,-58,111,-121r54,-307r115,0r-93,532r-110,0r14,-78v-40,55,-73,91,-152,92xm471,-602r-93,0r-38,-82r-66,82r-93,0r119,-146r103,0","w":501},"\u00fc":{"d":"169,14v-79,1,-120,-53,-119,-134v0,-24,2,-45,5,-62r62,-350r115,0r-58,330v-10,50,4,101,56,98v65,-4,100,-58,111,-121r54,-307r115,0r-93,532r-110,0r14,-78v-40,55,-73,91,-152,92xm294,-618r-96,0r20,-115r96,0xm459,-618r-96,0r20,-115r96,0","w":501},"\u00fd":{"d":"505,-532r-242,523r-49,103v-34,64,-57,126,-156,120r-54,-2r20,-112v72,8,92,-15,111,-78r-64,-554r128,0r25,396r159,-396r122,0xm490,-748r-146,146r-83,0r103,-146r126,0"},"\u00fe":{"d":"357,-546v96,0,143,84,142,188v-1,132,-46,253,-117,318v-38,36,-79,54,-124,54v-68,-1,-91,-29,-110,-85r-48,278r-115,0r161,-925r115,0r-45,257v39,-51,68,-85,141,-85xm185,-304v-23,77,-29,204,63,203v36,0,67,-23,92,-69v25,-46,37,-96,37,-151v0,-69,-25,-104,-75,-104v-63,1,-102,66,-117,121","w":501},"\u00ff":{"d":"505,-532r-242,523r-49,103v-34,64,-57,126,-156,120r-54,-2r20,-112v72,8,92,-15,111,-78r-64,-554r128,0r25,396r159,-396r122,0xm271,-618r-96,0r20,-115r96,0xm436,-618r-96,0r20,-115r96,0"},"\u0152":{"d":"373,-737v63,1,89,21,117,61r7,-42r386,0r-22,127r-273,0r-27,151r255,0r-22,127r-255,0r-32,186r273,0r-22,127r-386,0r9,-50v-44,45,-65,69,-138,69v-131,0,-192,-109,-192,-251v0,-180,61,-345,157,-434v50,-47,105,-71,165,-71xm198,-429v-34,113,-51,318,79,324v56,2,113,-44,121,-91r57,-325v12,-58,-31,-92,-86,-92v-37,0,-71,18,-102,53v-31,35,-53,79,-69,131","w":820},"\u0153":{"d":"610,-546v109,0,162,80,161,195v1,30,-6,85,-13,123r-300,0v-10,77,10,130,78,130v39,0,68,-19,86,-58r118,0v-51,113,-126,170,-225,170v-76,-1,-109,-24,-141,-74v-43,49,-95,74,-156,74v-116,0,-181,-84,-181,-204v0,-100,27,-184,81,-253v54,-69,119,-103,196,-103v59,0,105,27,138,80v53,-50,76,-80,158,-80xm239,-104v91,0,139,-119,139,-219v0,-70,-28,-105,-83,-105v-91,0,-139,120,-139,220v0,69,28,104,83,104xm656,-319v9,-61,-16,-112,-71,-112v-50,0,-86,37,-108,112r179,0","w":774},"\u0178":{"d":"631,-718r-276,449r-46,269r-124,0r48,-271r-126,-447r145,0r68,312r171,-312r140,0xm351,-794r-96,0r20,-115r96,0xm516,-794r-96,0r20,-115r96,0","w":547},"\u02c6":{"d":"357,-602r-93,0r-38,-82r-66,82r-93,0r119,-146r103,0","w":273},"\u02dc":{"d":"182,-735v2,-3,102,39,104,36v20,0,35,-13,46,-40r53,0v-27,80,-64,120,-110,120v-6,3,-109,-39,-115,-36v-19,0,-35,14,-46,43r-52,0v15,-43,33,-74,52,-94v19,-20,41,-29,68,-29","w":273},"\u2013":{"d":"466,-227r-456,0r18,-106r456,0"},"\u2014":{"d":"830,-227r-820,0r18,-106r820,0","w":820},"\u2018":{"d":"221,-454r-115,0r18,-102v17,-94,64,-151,142,-171r-9,51v-47,20,-67,40,-77,95r63,0","w":228},"\u2019":{"d":"267,-718r-18,102v-17,94,-64,151,-142,171r9,-51v47,-18,66,-41,77,-95r-63,0r22,-127r115,0","w":228},"\u201a":{"d":"164,-127r-18,102v-16,94,-63,151,-142,171r9,-51v47,-18,66,-41,77,-95r-63,0r22,-127r115,0","w":228},"\u201c":{"d":"217,-454r-115,0v14,-78,25,-169,66,-216v24,-27,54,-47,94,-57r-9,51v-47,18,-66,41,-77,95r63,0xm407,-454r-115,0v14,-78,25,-169,66,-216v24,-27,54,-47,94,-57r-9,51v-47,18,-66,41,-77,95r63,0","w":410},"\u201d":{"d":"262,-718r-18,102v-17,95,-65,152,-142,171r9,-51v47,-18,66,-41,77,-95r-63,0r22,-127r115,0xm453,-718r-18,102v-17,94,-64,151,-142,171r9,-51v47,-18,66,-41,77,-95r-63,0r22,-127r115,0","w":410},"\u201e":{"d":"159,-127r-18,102v-17,95,-65,152,-142,171r9,-51v47,-18,66,-41,77,-95r-63,0r22,-127r115,0xm350,-127r-18,102v-17,94,-64,151,-142,171r9,-51v47,-18,66,-41,77,-95r-63,0r22,-127r115,0","w":410},"\u2022":{"d":"206,-524v65,0,109,60,109,130v0,94,-79,200,-168,200v-67,0,-109,-60,-109,-130v0,-96,78,-200,168,-200","w":287},"\u2026":{"d":"194,-146r-26,146r-123,0r25,-146r124,0xm467,-146r-26,146r-123,0r26,-146r123,0xm715,0r-124,0r26,-146r123,0","w":820},"\u2039":{"d":"239,-368r-98,88r67,88r-20,116r-112,-144r21,-120r162,-144","w":273},"\u203a":{"d":"234,-340r-21,120r-162,144r20,-116r98,-88r-67,-88r20,-116","w":273},"\u20ac":{"d":"477,-605r-61,104v-29,-37,-62,-56,-97,-56v-22,0,-39,9,-50,27v-11,18,-22,53,-33,104r141,0r-46,83r-112,0r-7,29r105,0r-46,83r-76,0v-9,43,-14,71,-14,86v0,31,17,47,52,47v45,0,84,-13,118,-40r-30,139v-28,9,-63,14,-104,14v-117,0,-175,-54,-175,-163v0,-25,2,-52,7,-83r-79,0r46,-83r48,0r7,-29r-77,0r46,-83r50,0v26,-86,20,-86,45,-138v34,-71,94,-106,177,-106v74,0,129,22,165,65","w":467},"\u2122":{"d":"476,-637r-101,0r-53,305r-86,0r53,-305r-101,0r14,-81r288,0xm811,-332r-81,0r42,-241r-90,241r-83,0r-4,-238r-42,238r-81,0r67,-386r121,0r5,261r98,-261r116,0","w":840}}});
