/*!
 * The following copyright notice may not be removed under any circumstances.
 * 
 * Copyright:
 * Copyright (URW)++, copyright 1999 by (URW)++ Design & Development; Cyrillic
 * glyphs added by Valek Filippov, copyright 2001-2002; Vietnamese characters were
 * added by Han The Thanh; copyright 2006, 2008 for TeX Gyre extensions by B.
 * Jackowski and J.M. Nowacki (on behalf of TeX users groups). This work is
 * released under the GUST Font License --  see
 * http://tug.org/fonts/licenses/GUST-FONT-LICENSE.txt for details.
 * 
 * Trademark:
 * Please refer to the Copyright section for the font trademark attribution
 * notices.
 */
Cufon.registerFont({"w":556,"face":{"font-family":"TeXGyreHeros","font-weight":700,"font-stretch":"normal","units-per-em":"1000","panose-1":"0 0 8 0 0 0 0 0 0 0","ascent":"784","descent":"-216","x-height":"9","bbox":"-53 -962 1003 229.02","underline-thickness":"69","underline-position":"-52","unicode-range":"U+0020-U+2122"},"glyphs":{" ":{"w":278},"!":{"d":"242,-516r-42,309r-67,0r-41,-309r0,-210r150,0r0,210xm242,0r-150,0r0,-146r150,0r0,146","w":333},"\"":{"d":"188,-599r-42,129r-56,0r-40,-129r0,-130r138,0r0,130xm424,-599r-42,129r-56,0r-40,-129r0,-130r138,0r0,130","w":474},"#":{"d":"553,-424r-109,0r-31,153r100,0r0,99r-119,0r-40,204r-105,0r40,-204r-103,0r-40,204r-106,0r40,-204r-77,0r0,-99r97,0r30,-153r-99,0r0,-99r119,0r34,-174r105,0r-34,174r103,0r34,-174r105,0r-34,174r90,0r0,99xm338,-424r-103,0r-30,153r103,0"},"$":{"d":"39,-512v1,-121,85,-188,204,-197r0,-54r68,0r0,54v122,5,207,85,206,211r-128,0v0,-59,-26,-104,-78,-110r0,201v77,21,133,48,166,81v33,33,50,76,50,131v0,136,-85,203,-216,216r0,105r-68,0r0,-105v-131,-12,-226,-93,-221,-228r131,0v3,71,33,111,90,121r0,-213v-136,-31,-204,-102,-204,-213xm243,-427r0,-181v-54,11,-81,41,-81,92v0,42,27,72,81,89xm395,-183v0,-49,-28,-82,-84,-99r0,196v56,-14,84,-46,84,-97"},"%":{"d":"206,-701v100,0,184,84,184,184v0,95,-88,180,-184,180v-98,0,-184,-84,-184,-182v0,-98,86,-182,184,-182xm206,-435v45,0,85,-39,85,-83v0,-45,-40,-84,-85,-84v-45,0,-85,39,-85,83v0,45,40,84,85,84xm692,-709r-395,729r-107,0r396,-729r106,0xm679,-352v100,0,184,84,184,185v0,95,-88,180,-184,180v-99,0,-184,-84,-184,-183v0,-98,86,-182,184,-182xm679,-85v45,0,85,-39,85,-83v0,-45,-40,-85,-85,-85v-45,0,-85,39,-85,84v0,45,40,84,85,84","w":889},"&":{"d":"639,-373v3,88,-30,171,-68,219r123,154r-161,0r-46,-56v-69,49,-101,77,-195,79v-136,4,-238,-84,-237,-216v0,-47,12,-87,35,-117v23,-30,63,-60,122,-91v-32,-39,-82,-96,-82,-155v0,-96,89,-167,189,-167v100,0,179,59,178,155v0,36,-8,67,-25,92v-17,25,-47,53,-92,84r116,144v21,-42,31,-78,30,-125r113,0xm188,-210v0,56,52,117,106,117v32,0,72,-18,120,-55r-136,-171r-47,29v-29,17,-43,44,-43,80xm320,-614v-31,-1,-58,19,-58,48v0,13,2,24,8,34v6,10,22,30,47,62v40,-22,60,-51,60,-86v0,-37,-21,-58,-57,-58","w":722},"'":{"d":"188,-599r-42,129r-56,0r-40,-129r0,-130r138,0r0,130","w":238},"(":{"d":"163,-265v0,206,55,291,140,465r-100,0v-57,-87,-99,-167,-125,-240v-26,-73,-38,-148,-38,-225v0,-200,69,-319,163,-464r100,0v-53,102,-89,186,-109,253v-20,67,-31,138,-31,211","w":333},")":{"d":"162,-264v0,-206,-55,-291,-140,-465r100,0v57,87,98,166,124,239v26,73,39,149,39,226v0,200,-69,319,-163,464r-100,0v53,-102,90,-187,110,-254v20,-67,30,-137,30,-210","w":333},"*":{"d":"357,-579r-109,35r67,94r-58,43r-67,-94r-67,94r-58,-43r67,-94r-109,-36r22,-69r109,36r0,-116r72,0r0,116r109,-36","w":389},"+":{"d":"524,-200r-182,0r0,182r-100,0r0,-182r-182,0r0,-100r182,0r0,-182r100,0r0,182r182,0r0,100","w":584},",":{"d":"214,-146v-2,74,7,175,-12,228v-19,52,-74,85,-138,92r0,-56v58,-12,87,-51,86,-118r-86,0r0,-146r150,0","w":278},"-":{"d":"298,-207r-272,0r0,-135r272,0r0,135","w":333},".":{"d":"214,0r-150,0r0,-146r150,0r0,146","w":278},"\/":{"d":"291,-714r-206,728r-97,0r206,-728r97,0","w":278},"0":{"d":"29,-357v0,-206,42,-367,244,-367v123,0,188,57,218,154v21,68,26,128,26,217v0,207,-46,362,-244,362v-202,0,-244,-161,-244,-366xm366,-204v18,-104,24,-336,-34,-390v-26,-23,-96,-22,-120,3v-14,14,-26,38,-32,75v-17,102,-25,335,34,388v26,24,95,23,120,-2v14,-14,26,-38,32,-74"},"1":{"d":"378,0r-140,0r0,-489r-170,0r0,-93v123,0,195,-42,217,-127r93,0r0,709"},"2":{"d":"272,-724v144,0,244,85,243,225v0,48,-11,89,-33,122v-22,33,-64,73,-126,118v-52,38,-88,65,-105,81v-17,16,-30,34,-39,53r300,0r0,125r-482,0v11,-155,57,-199,164,-276v78,-55,128,-96,149,-122v21,-26,32,-59,32,-98v1,-67,-35,-114,-100,-114v-76,0,-106,63,-101,148r-134,0v-12,-162,78,-262,232,-262"},"3":{"d":"400,-387v72,37,115,73,116,169v2,141,-104,227,-248,227v-142,0,-241,-90,-239,-231r136,0v-1,70,38,111,106,111v61,0,106,-46,105,-107v-2,-85,-64,-105,-159,-106r0,-94v84,2,136,-21,136,-100v0,-57,-31,-93,-88,-93v-76,1,-96,43,-97,125r-130,0v-6,-155,83,-237,230,-238v129,-1,227,71,225,193v-1,79,-37,107,-93,144"},"4":{"d":"522,-157r-74,0r0,157r-140,0r0,-157r-284,0r0,-118r259,-434r165,0r0,436r74,0r0,116xm308,-273r0,-303r-185,303r185,0"},"5":{"d":"296,-479v134,-1,221,100,221,238v0,151,-105,250,-256,250v-131,0,-235,-81,-234,-208r138,0v0,57,39,89,98,88v73,0,114,-50,114,-127v0,-80,-38,-129,-114,-130v-45,0,-75,18,-90,54r-126,0r63,-395r379,0r0,125r-293,0r-23,148v38,-29,79,-43,123,-43"},"6":{"d":"313,-467v125,-1,206,94,206,223v0,147,-94,254,-237,253v-92,0,-158,-33,-199,-98v-34,-54,-51,-137,-51,-248v0,-127,22,-224,66,-289v44,-65,110,-98,196,-98v121,0,198,66,213,176r-130,0v-18,-41,-35,-62,-87,-63v-42,0,-71,15,-88,47v-17,32,-27,85,-30,160v40,-40,71,-62,141,-63xm278,-111v65,0,108,-55,108,-124v0,-73,-38,-122,-107,-122v-68,0,-109,53,-109,125v0,71,40,121,108,121"},"7":{"d":"528,-599v-147,181,-233,328,-254,599r-141,0v26,-210,68,-324,166,-472v34,-52,62,-89,83,-112r-353,0r0,-125r499,0r0,110"},"8":{"d":"409,-386v72,40,114,77,116,175v2,137,-110,220,-251,220v-142,0,-254,-83,-252,-220v1,-98,44,-135,116,-175v-57,-32,-90,-66,-92,-145v-1,-116,106,-193,228,-193v121,0,228,77,227,192v-1,80,-35,114,-92,146xm275,-425v58,0,106,-37,105,-93v-1,-57,-45,-93,-105,-93v-59,0,-106,36,-106,92v0,56,47,94,106,94xm273,-111v68,1,112,-39,112,-106v0,-72,-41,-113,-112,-113v-68,0,-111,42,-111,111v0,69,42,108,111,108"},"9":{"d":"28,-482v0,-143,97,-244,239,-242v77,0,139,27,183,81v44,54,66,140,66,258v0,128,-22,226,-65,293v-43,67,-109,101,-196,101v-117,0,-216,-78,-217,-189r135,0v2,42,39,70,86,69v78,0,117,-67,117,-202v-47,48,-57,69,-136,70v-131,2,-212,-102,-212,-239xm265,-359v68,0,108,-51,108,-123v0,-78,-37,-128,-110,-128v-68,0,-102,52,-102,126v0,74,34,125,104,125"},":":{"d":"242,0r-150,0r0,-146r150,0r0,146xm242,-374r-150,0r0,-146r150,0r0,146","w":333},";":{"d":"242,-146v-2,74,7,175,-12,228v-19,52,-74,85,-138,92r0,-56v58,-12,87,-51,86,-118r-86,0r0,-146r150,0xm242,-374r-150,0r0,-146r150,0r0,146","w":333},"<":{"d":"464,105r-376,-317r0,-76r376,-317r0,130r-266,225r266,225r0,130","w":584},"=":{"d":"524,-291r-464,0r0,-100r464,0r0,100xm524,-109r-464,0r0,-100r464,0r0,100","w":584},">":{"d":"464,-212r-376,317r0,-130r266,-225r-266,-225r0,-130r376,317r0,76","w":584},"?":{"d":"303,-744v141,-2,252,93,249,230v-3,110,-43,135,-120,194v-54,42,-65,38,-67,119r-124,0v-1,-106,33,-141,99,-198v29,-25,50,-43,58,-57v39,-71,-12,-173,-92,-170v-70,3,-115,66,-110,145r-136,0v-2,-167,85,-261,243,-263xm381,0r-150,0r0,-146r150,0r0,146","w":611},"@":{"d":"532,-741v268,0,524,251,392,523v-40,85,-127,168,-243,169v-59,0,-97,-20,-113,-61v-40,37,-84,56,-131,56v-100,2,-173,-89,-173,-192v0,-140,108,-283,244,-283v49,0,88,21,116,62r13,-42r111,0r-74,291v-16,39,-15,70,24,72v81,3,148,-119,148,-208v0,-157,-163,-284,-327,-284v-191,0,-367,175,-367,365v0,180,164,313,350,313v49,0,115,-11,197,-32r36,90v-81,31,-161,46,-238,46v-236,0,-459,-175,-456,-402v3,-191,114,-341,247,-417v76,-43,157,-66,244,-66xm371,-245v0,51,33,100,81,100v37,0,66,-21,89,-63v23,-44,36,-95,38,-157v1,-41,-35,-73,-76,-73v-80,0,-132,105,-132,193","w":975},"A":{"d":"703,0r-154,0r-48,-147r-273,0r-49,147r-153,0r259,-729r166,0xm460,-272r-95,-285r-95,285r190,0","w":722},"B":{"d":"645,-537v0,81,-41,109,-100,150v81,47,121,106,121,177v-2,136,-107,210,-256,210r-328,0r0,-729r325,0v132,-4,238,74,238,192xm501,-521v0,-55,-35,-83,-106,-83r-163,0r0,165r163,0v71,0,106,-27,106,-82xm522,-219v0,-63,-37,-95,-111,-95r-179,0r0,189r179,0v74,0,111,-31,111,-94","w":722},"C":{"d":"194,-362v0,142,55,248,184,248v99,0,152,-45,161,-135r146,0v-8,167,-133,261,-311,261v-211,0,-330,-156,-330,-376v0,-223,120,-377,334,-377v169,0,295,98,304,259r-143,0v-21,-87,-73,-131,-156,-131v-131,0,-189,107,-189,251","w":722},"D":{"d":"592,-645v117,131,117,429,0,560v-50,55,-125,85,-230,85r-285,0r0,-729r285,0v112,0,177,25,230,84xm531,-364v0,-160,-56,-240,-169,-240r-135,0r0,479r135,0v113,0,169,-80,169,-239","w":722},"E":{"d":"624,0r-545,0r0,-729r527,0r0,125r-377,0r0,165r349,0r0,125r-349,0r0,189r395,0r0,125","w":667},"F":{"d":"586,-604r-362,0r0,165r319,0r0,125r-319,0r0,314r-150,0r0,-729r512,0r0,125","w":611},"G":{"d":"192,-367v0,137,80,251,208,251v91,0,179,-66,185,-151r-166,0r0,-125r292,0r0,392r-90,0r-18,-100v-52,70,-109,110,-220,112v-201,3,-341,-169,-341,-377v0,-218,140,-376,353,-376v172,0,299,94,316,245r-141,0v-27,-78,-85,-117,-174,-117v-136,0,-204,101,-204,246","w":778},"H":{"d":"657,0r-150,0r0,-331r-289,0r0,331r-150,0r0,-729r150,0r0,273r289,0r0,-273r150,0r0,729","w":722},"I":{"d":"213,0r-150,0r0,-729r150,0r0,729","w":278},"J":{"d":"255,-116v53,0,81,-32,81,-85r0,-528r150,0r0,528v0,140,-90,213,-234,213v-139,0,-230,-81,-228,-221r0,-61r150,0r0,59v0,64,20,94,81,95"},"K":{"d":"717,0r-179,0r-239,-322r-75,78r0,244r-150,0r0,-729r150,0r0,320r285,-320r177,0r-291,314","w":722},"L":{"d":"579,0r-499,0r0,-729r150,0r0,604r349,0r0,125","w":611},"M":{"d":"776,0r-150,0r0,-568r-129,568r-150,0r-131,-568r0,568r-150,0r0,-729r224,0r132,580r128,-580r226,0r0,729","w":833},"N":{"d":"661,0r-150,0r-293,-504r0,504r-150,0r0,-729r154,0r289,496r0,-496r150,0r0,729","w":722},"O":{"d":"390,-741v211,0,352,167,352,381v0,210,-143,372,-351,372v-212,0,-351,-163,-351,-377v0,-208,142,-376,350,-376xm391,-116v127,0,201,-109,201,-245v0,-140,-71,-252,-201,-252v-127,0,-201,112,-201,248v0,140,71,248,201,249","w":778},"P":{"d":"398,-729v150,-1,235,78,235,226v0,141,-84,244,-220,243r-187,0r0,260r-150,0r0,-729r322,0xm483,-494v0,-77,-39,-110,-117,-110r-140,0r0,219r140,0v78,0,117,-36,117,-109","w":667},"Q":{"d":"745,-367v0,100,-33,197,-80,253r80,76r-76,81r-86,-81v-55,33,-118,50,-189,50v-211,0,-351,-163,-351,-377v0,-214,140,-376,351,-376v210,0,351,163,351,374xm193,-365v0,140,70,248,200,249v35,0,64,-6,88,-19r-77,-73r76,-81r82,78v22,-44,33,-95,33,-153v0,-137,-72,-249,-201,-249v-129,0,-201,109,-201,248","w":778},"R":{"d":"471,-729v122,-2,196,79,196,197v0,88,-41,148,-123,180v56,22,86,39,94,110v6,56,5,83,7,155v0,28,11,48,32,60r0,27r-161,0v-31,-47,-21,-126,-21,-202v0,-63,-29,-87,-93,-87r-172,0r0,289r-150,0r0,-729r391,0xm411,-414v78,0,106,-24,106,-97v0,-71,-30,-93,-106,-93r-181,0r0,190r181,0","w":722},"S":{"d":"314,-621v-68,0,-125,29,-126,90v0,27,10,46,29,59v38,27,156,44,223,58v121,26,193,64,193,195v0,159,-127,231,-299,231v-174,0,-301,-76,-302,-241r146,0v1,85,72,121,164,121v79,0,147,-24,147,-93v0,-29,-10,-50,-30,-64v-36,-27,-145,-43,-209,-56v-129,-28,-205,-61,-205,-196v0,-152,114,-224,276,-224v169,0,286,73,286,234r-140,0v-1,-80,-66,-114,-153,-114","w":667},"T":{"d":"598,-604r-213,0r0,604r-150,0r0,-604r-221,0r0,-125r584,0r0,125","w":611},"U":{"d":"365,12v-168,0,-289,-90,-289,-258r0,-483r150,0r0,483v0,87,46,130,139,130v93,0,139,-43,139,-130r0,-483r150,0r0,483v2,168,-121,258,-289,258","w":722},"V":{"d":"647,-729r-250,729r-127,0r-246,-729r151,0r162,549r159,-549r151,0","w":667},"W":{"d":"932,-729r-202,729r-135,0r-122,-569r-119,569r-135,0r-206,-729r159,0r113,546r113,-546r148,0r118,547r109,-547r159,0","w":944},"X":{"d":"653,0r-178,0r-140,-253r-139,253r-174,0r230,-367r-222,-362r178,0r128,240r134,-240r174,0r-225,357","w":667},"Y":{"d":"650,-729r-231,459r0,270r-150,0r0,-270r-242,-459r167,0r149,322r139,-322r168,0","w":667},"Z":{"d":"578,0r-548,0r0,-125r373,-479r-373,0r0,-125r548,0r0,125r-372,479r372,0r0,125","w":611},"[":{"d":"308,200r-242,0r0,-929r242,0r0,102r-112,0r0,725r112,0r0,102","w":333},"\\":{"d":"305,14r-97,0r-234,-728r97,0","w":278},"]":{"d":"260,200r-242,0r0,-102r112,0r0,-725r-112,0r0,-102r242,0r0,929","w":333},"^":{"d":"522,-270r-113,0r-121,-300r-115,300r-112,0r165,-425r125,0","w":584},"_":{"d":"578,189r-600,0r0,-69r600,0r0,69"},"`":{"d":"216,-598r-100,0r-126,-154r156,0","w":333},"a":{"d":"274,-436v-68,1,-91,15,-99,74r-135,0v9,-125,86,-187,231,-187v147,0,221,55,221,166r0,300v0,25,11,47,32,66r0,17r-152,0v-11,-13,-16,-36,-16,-68v-49,51,-104,77,-164,77v-95,0,-164,-57,-164,-155v0,-153,141,-161,276,-182v29,-5,51,-18,51,-54v0,-36,-27,-54,-81,-54xm244,-104v82,0,117,-61,111,-151v-37,20,-138,23,-169,49v-12,10,-18,24,-18,44v0,39,25,58,76,58"},"b":{"d":"348,-549v142,0,227,139,227,286v0,148,-89,272,-227,272v-65,0,-114,-24,-149,-71r0,62r-140,0r0,-729r140,0r0,259v33,-53,83,-79,149,-79xm317,-108v77,0,118,-75,118,-161v0,-87,-41,-163,-118,-163v-78,0,-118,74,-118,160v0,90,38,164,118,164","w":611},"c":{"d":"288,-104v61,0,82,-32,100,-83r134,0v-11,114,-108,196,-235,196v-166,0,-253,-104,-253,-275v0,-175,87,-283,255,-283v135,-1,226,82,233,211r-134,0v-15,-62,-32,-98,-100,-98v-76,0,-114,57,-114,170v-1,92,33,162,114,162"},"d":{"d":"29,-269v0,-148,90,-280,227,-280v65,0,115,26,149,79r0,-259r140,0r0,729r-140,0r0,-62v-36,47,-86,71,-149,71v-143,2,-227,-130,-227,-278xm287,-108v78,0,118,-73,118,-159v0,-91,-37,-165,-118,-165v-78,0,-118,76,-118,163v0,88,40,161,118,161","w":611},"e":{"d":"272,-549v171,0,262,133,252,316r-362,0v4,90,30,135,112,135v60,0,96,-18,107,-54r138,0v-28,101,-124,161,-250,161v-159,0,-247,-107,-247,-272v0,-170,87,-286,250,-286xm379,-326v-5,-69,-41,-116,-109,-116v-61,0,-97,39,-106,116r215,0"},"f":{"d":"313,-436r-83,0r0,436r-140,0r0,-436r-76,0r0,-93r76,0r0,-65v0,-90,46,-135,138,-135v27,0,54,1,80,3r0,105v-12,-2,-25,-3,-40,-3v-25,0,-38,14,-38,42r0,53r83,0r0,93","w":333},"g":{"d":"34,-264v0,-151,85,-284,224,-285v60,0,110,31,150,92r0,-83r133,0r0,558v-1,137,-109,202,-257,200v-73,0,-130,-14,-173,-43v-43,-29,-65,-65,-66,-110r145,0v11,42,44,63,99,63v68,0,120,-44,119,-110r0,-80v-48,45,-74,71,-153,71v-142,0,-221,-120,-221,-273xm286,-108v80,0,124,-70,124,-158v0,-87,-44,-166,-122,-166v-77,0,-114,78,-114,166v0,85,37,158,112,158","w":611},"h":{"d":"365,-549v110,0,176,71,176,187r0,362r-140,0r0,-330v0,-67,-29,-100,-86,-100v-61,0,-108,45,-108,106r0,324r-140,0r0,-729r140,0r0,267v39,-58,91,-87,158,-87","w":611},"i":{"d":"207,0r-140,0r0,-540r140,0r0,540xm209,-605r-140,0r0,-140r140,0r0,140","w":278},"j":{"d":"4,101v34,10,66,4,66,-38r0,-603r140,0r0,634v-1,88,-35,123,-123,124v-24,0,-52,-2,-83,-5r0,-112xm210,-605r-140,0r0,-140r140,0r0,140","w":278},"k":{"d":"548,0r-164,0r-129,-238r-56,61r0,177r-140,0r0,-729r140,0r0,399r177,-210r159,0r-184,204"},"l":{"d":"207,0r-140,0r0,-729r140,0r0,729","w":278},"m":{"d":"652,-549v106,-1,173,62,172,167r0,382r-140,0r0,-360v0,-43,-31,-71,-76,-70v-62,0,-97,42,-96,106r0,324r-140,0r0,-360v0,-43,-31,-71,-76,-70v-62,0,-97,42,-96,106r0,324r-140,0r0,-540r139,0r0,67v42,-47,72,-76,148,-76v71,0,120,27,147,80v40,-53,93,-80,158,-80","w":889},"n":{"d":"365,-549v115,-1,182,71,181,187r0,362r-140,0r0,-333v0,-65,-30,-97,-90,-97v-66,-1,-114,42,-113,106r0,324r-140,0r0,-540r140,0r0,78v39,-58,93,-87,162,-87","w":611},"o":{"d":"301,-549v173,0,268,106,268,283v0,168,-101,275,-267,275v-169,0,-267,-107,-267,-279v0,-171,99,-279,266,-279xm302,-104v82,0,127,-74,127,-164v0,-95,-42,-168,-127,-168v-84,0,-127,74,-127,166v0,93,43,166,127,166","w":611},"p":{"d":"348,-549v145,-1,226,127,226,279v0,148,-88,279,-226,279v-69,0,-119,-27,-150,-81r0,290r-140,0r0,-758r140,0r0,80v33,-59,83,-89,150,-89xm316,-108v77,0,118,-74,118,-160v0,-90,-38,-164,-118,-164v-79,0,-118,74,-118,162v0,89,39,162,118,162","w":611},"q":{"d":"28,-270v0,-150,87,-279,226,-279v67,0,117,30,150,89r0,-80r140,0r0,758r-140,0r0,-290v-30,54,-80,81,-151,81v-143,1,-225,-128,-225,-279xm286,-108v78,0,118,-73,118,-159v0,-92,-37,-165,-118,-165v-79,0,-118,74,-118,162v0,89,39,162,118,162","w":611},"r":{"d":"203,-434v27,-66,79,-121,167,-114r0,142v-99,-18,-167,20,-167,119r0,287r-140,0r0,-540r140,0r0,106","w":389},"s":{"d":"269,-439v-42,0,-81,14,-81,50v0,31,18,33,49,42r177,51v73,22,108,64,106,136v-2,122,-101,170,-236,169v-166,0,-251,-60,-255,-180r137,0v13,56,42,70,110,70v69,0,104,-15,104,-46v0,-15,-16,-27,-47,-37r-167,-52v-81,-28,-118,-43,-118,-133v0,-118,96,-180,222,-180v134,0,231,60,235,183r-135,0v-1,-49,-34,-73,-101,-73"},"t":{"d":"223,-154v1,45,4,58,46,59v7,0,18,-1,32,-3r0,98r-81,4v-90,0,-136,-32,-137,-120r0,-320r-69,0r0,-93r69,0r0,-145r140,0r0,145r78,0r0,93r-78,0r0,282","w":333},"u":{"d":"288,-110v66,1,114,-42,113,-106r0,-324r140,0r0,540r-140,0r0,-71v-40,53,-94,80,-162,80v-115,1,-182,-71,-181,-187r0,-362r140,0r0,333v0,65,30,97,90,97","w":611},"v":{"d":"536,-540r-186,540r-147,0r-189,-540r148,0r117,395r109,-395r148,0"},"w":{"d":"766,-540r-153,540r-145,0r-81,-381r-86,381r-144,0r-152,-540r145,0r86,378r82,-378r140,0r81,378r82,-378r145,0","w":778},"x":{"d":"535,0r-168,0r-91,-168r-92,168r-168,0r180,-272r-176,-268r168,0r88,163r87,-163r168,0r-176,268"},"y":{"d":"86,110v68,23,125,-22,124,-87r-201,-563r154,0r119,393r112,-393r144,0r-222,639v-34,91,-66,118,-180,120v-15,0,-31,-1,-50,-4r0,-105"},"z":{"d":"468,0r-447,0r0,-113r267,-314r-249,0r0,-113r420,0r0,113r-265,314r274,0r0,113","w":500},"{":{"d":"118,-150v1,-62,-21,-70,-81,-73r0,-92v52,3,82,-15,81,-63r0,-211v-2,-77,49,-141,123,-140r76,0r0,99r-37,0v-30,0,-45,19,-45,57r0,195v-1,79,-25,97,-97,109v72,13,97,30,97,110r0,195v1,44,6,64,45,65r37,0r0,99r-76,0v-74,1,-123,-64,-123,-140r0,-210","w":389},"|":{"d":"190,200r-100,0r0,-929r100,0r0,929","w":280},"}":{"d":"271,-379v-1,62,21,70,81,73r0,92v-52,-3,-82,16,-81,63r0,211v2,77,-49,141,-123,140r-76,0r0,-99r37,0v30,0,45,-19,45,-57r0,-195v1,-79,25,-97,97,-109v-72,-13,-97,-30,-97,-110r0,-195v-1,-44,-6,-64,-45,-65r-37,0r0,-99r76,0v74,-1,123,64,123,140r0,210","w":389},"~":{"d":"388,-222v43,0,51,-19,53,-66r78,0v-6,97,-48,146,-127,146v-90,0,-123,-92,-201,-92v-43,0,-51,19,-53,65r-78,0v5,-97,47,-145,127,-145v89,0,125,92,201,92","w":584},"\u00a0":{"w":278},"\u00a1":{"d":"242,186r-150,0r0,-210r42,-309r67,0r41,309r0,210xm242,-394r-150,0r0,-146r150,0r0,146","w":333},"\u00a2":{"d":"303,-91v53,-9,71,-42,85,-96r134,0v-8,116,-100,206,-219,210r0,101r-44,0r0,-102v-143,-9,-223,-123,-223,-281v0,-167,74,-274,223,-289r0,-86r44,0r0,85v123,0,214,92,219,211r-134,0v-13,-55,-32,-88,-85,-97r0,344xm259,-94r0,-339v-55,15,-83,72,-83,173v0,94,28,149,83,166"},"\u00a3":{"d":"264,-123v5,0,117,24,127,21v31,0,66,-10,105,-29r41,109v-51,30,-99,45,-145,45v-12,3,-185,-35,-197,-32v-33,0,-69,10,-109,30r-55,-101v42,-29,72,-53,87,-75v33,-48,29,-99,2,-161r-89,0r0,-55r60,0v-34,-65,-53,-74,-53,-145v0,-120,108,-201,238,-199v163,3,233,76,246,231r-132,0v-6,-77,-44,-120,-113,-120v-55,0,-98,37,-98,91v0,23,51,123,57,142r139,0r0,55r-122,0v25,51,18,98,-11,142v-17,26,-47,55,-90,88v52,-25,89,-37,112,-37"},"\u00a4":{"d":"278,-244v61,0,104,-51,104,-113v0,-62,-43,-111,-104,-111v-61,0,-102,49,-102,111v0,62,41,113,102,113xm559,-142r-66,66r-98,-98v-66,44,-166,44,-234,0r-98,98r-66,-66r98,-98v-41,-64,-42,-169,0,-232r-98,-98r66,-66r98,98v68,-44,168,-44,234,0r98,-98r66,66r-98,98v44,64,44,168,0,232"},"\u00a5":{"d":"552,-704r-192,353r137,0r0,59r-142,0r0,53r142,0r0,59r-142,0r0,180r-140,0r0,-180r-145,0r0,-59r145,0r0,-53r-145,0r0,-59r138,0r-203,-353r139,0r139,254r134,-254r135,0"},"\u00a6":{"d":"190,-357r-100,0r0,-372r100,0r0,372xm190,200r-100,0r0,-372r100,0r0,372","w":280},"\u00a7":{"d":"268,-621v-35,-1,-64,18,-64,51v0,14,5,27,18,38v44,38,140,84,199,117v64,37,97,87,97,153v0,77,-35,110,-94,138v47,33,70,77,70,134v1,117,-95,191,-218,191v-139,0,-210,-67,-211,-201r131,0v0,62,23,89,81,90v41,1,76,-23,76,-61v0,-17,-3,-31,-10,-39v-7,-8,-27,-20,-60,-39r-171,-100v-53,-31,-79,-75,-79,-132v0,-82,35,-99,92,-147v-41,-44,-60,-55,-61,-123v-2,-105,98,-172,209,-172v129,0,195,60,200,179r-127,0v-7,-51,-33,-77,-78,-77xm352,-167v44,-30,60,-65,33,-105v-8,-11,-25,-21,-48,-34r-143,-76v-40,22,-54,66,-30,103v7,11,21,21,41,32"},"\u00a8":{"d":"132,-618r-126,0r0,-115r126,0r0,115xm327,-618r-126,0r0,-115r126,0r0,115","w":333},"\u00a9":{"d":"369,-689v187,0,349,162,349,349v0,187,-162,348,-349,348v-187,0,-348,-161,-348,-348v0,-187,161,-349,348,-349xm369,-51v156,0,290,-133,290,-289v0,-156,-134,-290,-290,-290v-156,0,-289,134,-289,290v0,156,133,289,289,289xm281,-338v0,70,30,118,95,119v54,0,82,-23,84,-69r98,0v-1,98,-81,149,-184,149v-120,0,-194,-79,-194,-200v0,-123,75,-201,196,-201v99,0,177,54,180,148r-95,0v-10,-45,-37,-67,-82,-67v-67,0,-98,49,-98,121","w":737},"\u00aa":{"d":"321,-262r-284,0r0,-78r284,0r0,78xm178,-661v-39,0,-54,10,-59,44r-78,0v1,-75,46,-112,135,-112v89,0,133,33,133,100r0,179v0,15,7,28,20,40r0,10r-92,0v-6,-7,-9,-18,-10,-32v-29,31,-61,46,-98,46v-58,1,-98,-40,-98,-98v0,-79,57,-99,129,-109v31,-4,50,-11,57,-15v7,-4,10,-11,10,-22v0,-21,-16,-31,-49,-31xm161,-454v51,0,71,-42,66,-99v-32,18,-112,6,-112,60v0,26,15,39,46,39","w":370},"\u00ab":{"d":"255,-72r-167,-146r0,-114r167,-149r0,117r-101,89r101,89r0,114xm468,-72r-167,-146r0,-114r167,-149r0,117r-101,89r101,89r0,114"},"\u00ac":{"d":"524,-159r-100,0r0,-132r-364,0r0,-100r464,0r0,232","w":584},"\u00ad":{"d":"298,-207r-272,0r0,-135r272,0r0,135","w":333},"\u00ae":{"d":"369,-689v187,0,349,162,349,349v0,187,-162,348,-349,348v-187,0,-348,-161,-348,-348v0,-187,161,-349,348,-349xm369,-51v156,0,290,-133,290,-289v0,-156,-134,-290,-290,-290v-156,0,-289,134,-289,290v0,156,133,289,289,289xm421,-534v72,-2,118,42,118,109v0,43,-19,73,-56,92v51,27,37,48,44,138v1,11,7,18,18,23r0,27r-103,0v-17,-25,-18,-70,-15,-111v3,-54,-83,-33,-134,-37r0,148r-100,0r0,-389r228,0xm387,-373v37,0,52,-8,52,-42v0,-32,-17,-39,-52,-39r-94,0r0,81r94,0","w":737},"\u00af":{"d":"315,-636r-299,0r0,-79r299,0r0,79","w":333},"\u00b0":{"d":"200,-712v77,0,143,67,143,143v0,77,-67,143,-143,143v-77,0,-143,-67,-143,-143v0,-77,67,-143,143,-143xm200,-482v47,0,87,-40,87,-87v0,-47,-40,-87,-87,-87v-47,0,-87,40,-87,87v0,47,40,87,87,87","w":400},"\u00b1":{"d":"524,-300r-182,0r0,110r-100,0r0,-110r-182,0r0,-100r182,0r0,-182r100,0r0,182r182,0r0,100xm524,0r-464,0r0,-100r464,0r0,100","w":584},"\u00b2":{"d":"170,-718v82,0,133,39,133,118v0,26,-7,47,-19,64v-12,17,-36,39,-71,65v-54,39,-50,32,-77,64r165,0r0,71r-273,0v4,-87,31,-107,92,-149v42,-29,70,-49,82,-62v32,-34,20,-106,-37,-106v-39,0,-56,31,-51,77r-81,0v-9,-92,47,-142,137,-142","w":333},"\u00b3":{"d":"167,-718v71,-1,127,36,127,103v0,33,-15,59,-46,78v39,19,59,50,59,91v1,76,-61,122,-140,122v-84,0,-136,-45,-137,-126r81,0v3,39,22,58,57,58v31,1,55,-23,55,-53v0,-41,-34,-58,-88,-55r0,-55v47,2,76,-14,76,-51v0,-29,-19,-48,-47,-48v-40,1,-50,23,-50,66r-78,0v4,-87,44,-129,131,-130","w":333},"\u00b4":{"d":"343,-752r-126,154r-100,0r70,-154r156,0","w":333},"\u00b5":{"d":"523,-150v-1,54,3,82,50,69r0,87v-22,11,-45,17,-70,17v-53,-1,-72,-18,-95,-54v-34,34,-58,54,-116,54v-41,0,-74,-13,-100,-38r0,235r-134,0r0,-760r140,0r0,334v0,73,28,110,84,110v58,0,101,-47,101,-106r0,-338r140,0r0,390","w":611},"\u00b6":{"d":"19,-495v0,-121,89,-234,207,-234r303,0r0,72r-43,0r0,848r-98,0r0,-848r-63,0r0,848r-98,0r0,-458v-121,-3,-208,-102,-208,-228"},"\u00b7":{"d":"139,-325v40,0,75,35,75,75v0,40,-35,75,-75,75v-40,0,-75,-35,-75,-75v0,-40,35,-75,75,-75","w":278},"\u00b8":{"d":"218,50v46,-1,76,32,76,77v-1,67,-56,103,-129,102v-37,0,-83,-9,-138,-28r19,-61v46,20,81,30,105,30v28,1,56,-16,57,-41v2,-40,-72,-30,-115,-31r49,-103r63,0r-27,55r40,0","w":333},"\u00b9":{"d":"231,-335r-84,0r0,-254r-94,0r0,-54v69,0,109,-22,122,-66r56,0r0,374","w":333},"\u00ba":{"d":"334,-262r-301,0r0,-78r301,0r0,78xm183,-729v103,0,160,68,160,174v0,101,-61,169,-160,169v-100,0,-160,-69,-160,-171v0,-103,60,-172,160,-172xm183,-454v49,0,76,-48,76,-102v0,-56,-26,-105,-76,-105v-49,0,-76,48,-76,103v0,55,26,103,76,104","w":365},"\u00bb":{"d":"255,-220r-167,148r0,-117r101,-89r-101,-89r0,-114r167,146r0,115xm462,-220r-167,148r0,-117r101,-89r-101,-89r0,-114r167,146r0,115"},"\u00bc":{"d":"242,-335r-84,0r0,-254r-94,0r0,-54v68,0,109,-22,122,-66r56,0r0,374xm670,-715r-423,740r-87,0r423,-740r87,0xm758,-82r-40,0r0,82r-84,0r0,-82r-158,0r0,-65r146,-227r96,0r0,226r40,0r0,66xm634,-148r0,-144r-93,144r93,0","w":834},"\u00bd":{"d":"242,-335r-84,0r0,-254r-94,0r0,-54v68,0,109,-22,122,-66r56,0r0,374xm644,-715r-423,740r-87,0r423,-740r87,0xm642,-382v82,0,132,39,132,118v0,27,-6,49,-18,66v-10,25,-119,92,-133,110v-2,2,-7,8,-15,17r165,0r0,71r-273,0v4,-86,30,-108,91,-149v43,-29,71,-49,83,-62v32,-34,20,-106,-37,-106v-40,0,-59,36,-51,77r-81,0v-9,-92,47,-142,137,-142","w":834},"\u00be":{"d":"200,-718v71,-1,127,36,127,103v0,33,-15,59,-46,78v39,19,59,50,59,91v1,76,-61,122,-140,122v-84,0,-136,-45,-137,-126r81,0v3,39,22,58,57,58v31,1,55,-23,55,-53v0,-41,-34,-58,-88,-55r0,-55v47,2,76,-14,76,-51v0,-29,-19,-48,-47,-48v-40,1,-50,23,-50,66r-78,0v4,-87,44,-129,131,-130xm702,-715r-423,740r-87,0r423,-740r87,0xm758,-82r-40,0r0,82r-84,0r0,-82r-158,0r0,-65r146,-227r96,0r0,226r40,0r0,66xm634,-148r0,-144r-93,144r93,0","w":834},"\u00bf":{"d":"306,86v70,-3,115,-66,110,-145r136,0v2,167,-85,261,-243,263v-141,2,-252,-93,-249,-230v3,-110,43,-135,120,-194v54,-42,65,-38,67,-119r124,0v1,106,-33,141,-99,198v-29,25,-50,43,-58,57v-39,71,12,173,92,170xm381,-394r-150,0r0,-146r150,0r0,146","w":611},"\u00c0":{"d":"703,0r-154,0r-48,-147r-273,0r-49,147r-153,0r259,-729r166,0xm460,-272r-95,-285r-95,285r190,0xm421,-786r-106,0r-135,-135r165,0","w":722},"\u00c1":{"d":"703,0r-154,0r-48,-147r-273,0r-49,147r-153,0r259,-729r166,0xm460,-272r-95,-285r-95,285r190,0xm556,-921r-135,135r-106,0r76,-135r165,0","w":722},"\u00c2":{"d":"703,0r-154,0r-48,-147r-273,0r-49,147r-153,0r259,-729r166,0xm460,-272r-95,-285r-95,285r190,0xm559,-787r-94,0r-98,-70r-99,70r-91,0r130,-135r128,0","w":722},"\u00c3":{"d":"703,0r-154,0r-48,-147r-273,0r-49,147r-153,0r259,-729r166,0xm460,-272r-95,-285r-95,285r190,0xm193,-790v3,-67,32,-124,94,-124v52,0,105,44,161,44v21,0,33,-16,36,-48r63,0v-3,110,-62,148,-150,115v-31,-12,-64,-32,-101,-32v-28,0,-35,17,-40,45r-63,0","w":722},"\u00c4":{"d":"703,0r-154,0r-48,-147r-273,0r-49,147r-153,0r259,-729r166,0xm460,-272r-95,-285r-95,285r190,0xm334,-797r-126,0r0,-115r126,0r0,115xm529,-797r-126,0r0,-115r126,0r0,115","w":722},"\u00c5":{"d":"703,0r-154,0r-48,-147r-273,0r-49,147r-153,0r259,-729r166,0xm460,-272r-95,-285r-95,285r190,0xm370,-962v54,0,98,46,98,100v0,52,-47,98,-99,98v-54,0,-100,-45,-100,-99v0,-54,46,-99,101,-99xm370,-817v24,0,45,-22,45,-46v0,-25,-20,-46,-45,-46v-26,0,-48,21,-48,46v0,25,22,46,48,46","w":722},"\u00c6":{"d":"966,0r-536,0r0,-152r-223,0r-53,152r-153,0r263,-729r682,0r0,125r-366,0r0,165r339,0r0,125r-339,0r0,189r386,0r0,125xm430,-277r0,-327r-67,0r-114,327r181,0","w":1000},"\u00c7":{"d":"194,-362v0,142,55,248,184,248v99,0,152,-45,161,-135r146,0v-8,161,-122,255,-288,260r-19,39r40,0v46,-1,76,32,76,77v-1,67,-56,103,-129,102v-37,0,-83,-9,-138,-28r19,-61v46,20,81,30,105,30v28,1,56,-16,57,-41v2,-40,-72,-30,-115,-31r42,-88v-185,-17,-291,-165,-291,-374v0,-223,120,-377,334,-377v169,0,295,98,304,259r-143,0v-21,-87,-73,-131,-156,-131v-131,0,-189,107,-189,251","w":722},"\u00c8":{"d":"624,0r-545,0r0,-729r527,0r0,125r-377,0r0,165r349,0r0,125r-349,0r0,189r395,0r0,125xm396,-786r-106,0r-135,-135r165,0","w":667},"\u00c9":{"d":"624,0r-545,0r0,-729r527,0r0,125r-377,0r0,165r349,0r0,125r-349,0r0,189r395,0r0,125xm531,-921r-135,135r-106,0r76,-135r165,0","w":667},"\u00ca":{"d":"624,0r-545,0r0,-729r527,0r0,125r-377,0r0,165r349,0r0,125r-349,0r0,189r395,0r0,125xm534,-787r-94,0r-98,-70r-99,70r-91,0r130,-135r128,0","w":667},"\u00cb":{"d":"624,0r-545,0r0,-729r527,0r0,125r-377,0r0,165r349,0r0,125r-349,0r0,189r395,0r0,125xm309,-797r-126,0r0,-115r126,0r0,115xm504,-797r-126,0r0,-115r126,0r0,115","w":667},"\u00cc":{"d":"213,0r-150,0r0,-729r150,0r0,729xm213,-786r-106,0r-135,-135r165,0","w":278},"\u00cd":{"d":"213,0r-150,0r0,-729r150,0r0,729xm305,-921r-135,135r-106,0r76,-135r165,0","w":278},"\u00ce":{"d":"213,0r-150,0r0,-729r150,0r0,729xm329,-787r-94,0r-98,-70r-99,70r-91,0r130,-135r128,0","w":278},"\u00cf":{"d":"213,0r-150,0r0,-729r150,0r0,729xm104,-797r-126,0r0,-115r126,0r0,115xm299,-797r-126,0r0,-115r126,0r0,115","w":278},"\u00d0":{"d":"593,-645v74,87,117,283,65,435v-29,87,-74,160,-156,190v-36,13,-83,20,-140,20r-285,0r0,-339r-77,0r0,-80r77,0r0,-310r285,0v113,0,180,24,231,84xm362,-125v138,0,175,-97,175,-239v0,-143,-36,-239,-175,-240r-135,0r0,185r150,0r0,80r-150,0r0,214r135,0","w":722},"\u00d1":{"d":"661,0r-150,0r-293,-504r0,504r-150,0r0,-729r154,0r289,496r0,-496r150,0r0,729xm186,-790v3,-67,32,-124,94,-124v52,0,105,44,161,44v21,0,33,-16,36,-48r63,0v-4,110,-61,148,-150,115v-32,-12,-64,-32,-101,-32v-28,0,-35,17,-40,45r-63,0","w":722},"\u00d2":{"d":"390,-741v211,0,352,167,352,381v0,210,-143,372,-351,372v-212,0,-351,-163,-351,-377v0,-208,142,-376,350,-376xm391,-116v127,0,201,-109,201,-245v0,-140,-71,-252,-201,-252v-127,0,-201,112,-201,248v0,140,71,248,201,249xm443,-786r-106,0r-135,-135r165,0","w":778},"\u00d3":{"d":"390,-741v211,0,352,167,352,381v0,210,-143,372,-351,372v-212,0,-351,-163,-351,-377v0,-208,142,-376,350,-376xm391,-116v127,0,201,-109,201,-245v0,-140,-71,-252,-201,-252v-127,0,-201,112,-201,248v0,140,71,248,201,249xm578,-921r-135,135r-106,0r76,-135r165,0","w":778},"\u00d4":{"d":"390,-741v211,0,352,167,352,381v0,210,-143,372,-351,372v-212,0,-351,-163,-351,-377v0,-208,142,-376,350,-376xm391,-116v127,0,201,-109,201,-245v0,-140,-71,-252,-201,-252v-127,0,-201,112,-201,248v0,140,71,248,201,249xm581,-787r-94,0r-98,-70r-99,70r-91,0r130,-135r128,0","w":778},"\u00d5":{"d":"390,-741v211,0,352,167,352,381v0,210,-143,372,-351,372v-212,0,-351,-163,-351,-377v0,-208,142,-376,350,-376xm391,-116v127,0,201,-109,201,-245v0,-140,-71,-252,-201,-252v-127,0,-201,112,-201,248v0,140,71,248,201,249xm215,-790v3,-67,32,-124,94,-124v52,0,105,44,161,44v21,0,33,-16,36,-48r63,0v-3,110,-62,148,-150,115v-31,-12,-64,-32,-101,-32v-28,0,-35,17,-40,45r-63,0","w":778},"\u00d6":{"d":"390,-741v211,0,352,167,352,381v0,210,-143,372,-351,372v-212,0,-351,-163,-351,-377v0,-208,142,-376,350,-376xm391,-116v127,0,201,-109,201,-245v0,-140,-71,-252,-201,-252v-127,0,-201,112,-201,248v0,140,71,248,201,249xm356,-797r-126,0r0,-115r126,0r0,115xm551,-797r-126,0r0,-115r126,0r0,115","w":778},"\u00d7":{"d":"491,-121r-70,70r-129,-128r-129,128r-70,-70r128,-129r-128,-129r70,-70r129,128r129,-128r70,70r-128,129","w":584},"\u00d8":{"d":"40,-365v0,-208,142,-376,350,-376v85,0,158,24,218,73r65,-70r68,64r-69,74v47,67,70,147,70,240v0,210,-143,372,-351,372v-86,0,-159,-24,-218,-72r-64,69r-68,-64r68,-73v-46,-65,-69,-144,-69,-237xm391,-116v127,0,201,-109,201,-245v0,-47,-8,-90,-23,-128r-303,328v34,30,76,45,125,45xm391,-613v-127,0,-201,112,-201,248v0,47,7,88,22,125r303,-328v-33,-30,-75,-45,-124,-45","w":778},"\u00d9":{"d":"365,12v-168,0,-289,-90,-289,-258r0,-483r150,0r0,483v0,87,46,130,139,130v93,0,139,-43,139,-130r0,-483r150,0r0,483v2,168,-121,258,-289,258xm414,-786r-106,0r-135,-135r165,0","w":722},"\u00da":{"d":"365,12v-168,0,-289,-90,-289,-258r0,-483r150,0r0,483v0,87,46,130,139,130v93,0,139,-43,139,-130r0,-483r150,0r0,483v2,168,-121,258,-289,258xm549,-921r-135,135r-106,0r76,-135r165,0","w":722},"\u00db":{"d":"365,12v-168,0,-289,-90,-289,-258r0,-483r150,0r0,483v0,87,46,130,139,130v93,0,139,-43,139,-130r0,-483r150,0r0,483v2,168,-121,258,-289,258xm552,-787r-94,0r-98,-70r-99,70r-91,0r130,-135r128,0","w":722},"\u00dc":{"d":"365,12v-168,0,-289,-90,-289,-258r0,-483r150,0r0,483v0,87,46,130,139,130v93,0,139,-43,139,-130r0,-483r150,0r0,483v2,168,-121,258,-289,258xm327,-797r-126,0r0,-115r126,0r0,115xm522,-797r-126,0r0,-115r126,0r0,115","w":722},"\u00dd":{"d":"650,-729r-231,459r0,270r-150,0r0,-270r-242,-459r167,0r149,322r139,-322r168,0xm532,-921r-135,135r-106,0r76,-135r165,0","w":667},"\u00de":{"d":"398,-609v155,-2,234,81,235,227v2,143,-82,243,-220,242r-187,0r0,140r-150,0r0,-729r150,0r0,120r172,0xm483,-374v0,-77,-39,-110,-117,-110r-140,0r0,219r140,0v78,0,117,-36,117,-109","w":667},"\u00df":{"d":"445,-411v80,16,130,80,130,175v0,142,-82,254,-218,253v-15,0,-39,-2,-72,-6r0,-112v51,-1,89,-6,117,-37v22,-22,33,-52,33,-88v0,-83,-60,-128,-150,-123r0,-95v63,2,106,-31,107,-89v0,-55,-41,-83,-98,-83v-52,0,-87,28,-87,79r0,537r-140,0r0,-518v0,-141,79,-211,236,-211v123,0,229,68,229,182v0,68,-29,113,-87,136","w":611},"\u00e0":{"d":"274,-436v-68,1,-91,15,-99,74r-135,0v9,-125,86,-187,231,-187v147,0,221,55,221,166r0,300v0,25,11,47,32,66r0,17r-152,0v-11,-13,-16,-36,-16,-68v-49,51,-104,77,-164,77v-95,0,-164,-57,-164,-155v0,-153,141,-161,276,-182v29,-5,51,-18,51,-54v0,-36,-27,-54,-81,-54xm244,-104v82,0,117,-61,111,-151v-37,20,-138,23,-169,49v-12,10,-18,24,-18,44v0,39,25,58,76,58xm321,-598r-100,0r-126,-154r156,0"},"\u00e1":{"d":"274,-436v-68,1,-91,15,-99,74r-135,0v9,-125,86,-187,231,-187v147,0,221,55,221,166r0,300v0,25,11,47,32,66r0,17r-152,0v-11,-13,-16,-36,-16,-68v-49,51,-104,77,-164,77v-95,0,-164,-57,-164,-155v0,-153,141,-161,276,-182v29,-5,51,-18,51,-54v0,-36,-27,-54,-81,-54xm244,-104v82,0,117,-61,111,-151v-37,20,-138,23,-169,49v-12,10,-18,24,-18,44v0,39,25,58,76,58xm447,-752r-126,154r-100,0r70,-154r156,0"},"\u00e2":{"d":"274,-436v-68,1,-91,15,-99,74r-135,0v9,-125,86,-187,231,-187v147,0,221,55,221,166r0,300v0,25,11,47,32,66r0,17r-152,0v-11,-13,-16,-36,-16,-68v-49,51,-104,77,-164,77v-95,0,-164,-57,-164,-155v0,-153,141,-161,276,-182v29,-5,51,-18,51,-54v0,-36,-27,-54,-81,-54xm244,-104v82,0,117,-61,111,-151v-37,20,-138,23,-169,49v-12,10,-18,24,-18,44v0,39,25,58,76,58xm440,-598r-88,0r-82,-77r-82,77r-86,0r108,-154r127,0"},"\u00e3":{"d":"274,-436v-68,1,-91,15,-99,74r-135,0v9,-125,86,-187,231,-187v147,0,221,55,221,166r0,300v0,25,11,47,32,66r0,17r-152,0v-11,-13,-16,-36,-16,-68v-49,51,-104,77,-164,77v-95,0,-164,-57,-164,-155v0,-153,141,-161,276,-182v29,-5,51,-18,51,-54v0,-36,-27,-54,-81,-54xm244,-104v82,0,117,-61,111,-151v-37,20,-138,23,-169,49v-12,10,-18,24,-18,44v0,39,25,58,76,58xm95,-611v3,-67,32,-124,94,-124v52,0,105,44,161,44v21,0,33,-16,36,-48r63,0v-3,110,-62,148,-150,115v-31,-12,-64,-32,-101,-32v-28,0,-35,17,-40,45r-63,0"},"\u00e4":{"d":"274,-436v-68,1,-91,15,-99,74r-135,0v9,-125,86,-187,231,-187v147,0,221,55,221,166r0,300v0,25,11,47,32,66r0,17r-152,0v-11,-13,-16,-36,-16,-68v-49,51,-104,77,-164,77v-95,0,-164,-57,-164,-155v0,-153,141,-161,276,-182v29,-5,51,-18,51,-54v0,-36,-27,-54,-81,-54xm244,-104v82,0,117,-61,111,-151v-37,20,-138,23,-169,49v-12,10,-18,24,-18,44v0,39,25,58,76,58xm236,-618r-126,0r0,-115r126,0r0,115xm431,-618r-126,0r0,-115r126,0r0,115"},"\u00e5":{"d":"274,-436v-68,1,-91,15,-99,74r-135,0v9,-125,86,-187,231,-187v147,0,221,55,221,166r0,300v0,25,11,47,32,66r0,17r-152,0v-11,-13,-16,-36,-16,-68v-49,51,-104,77,-164,77v-95,0,-164,-57,-164,-155v0,-153,141,-161,276,-182v29,-5,51,-18,51,-54v0,-36,-27,-54,-81,-54xm244,-104v82,0,117,-61,111,-151v-37,20,-138,23,-169,49v-12,10,-18,24,-18,44v0,39,25,58,76,58xm272,-774v54,0,98,46,98,100v0,52,-47,98,-99,98v-54,0,-100,-45,-100,-99v0,-54,46,-99,101,-99xm272,-629v24,0,45,-22,45,-46v0,-25,-20,-46,-45,-46v-26,0,-48,21,-48,46v0,25,22,46,48,46"},"\u00e6":{"d":"601,-549v177,0,266,133,255,323r-362,0v-1,78,41,126,114,127v42,1,91,-26,104,-53r138,0v-29,90,-131,160,-250,160v-91,0,-157,-35,-200,-104v-59,70,-128,105,-205,105v-102,1,-168,-57,-168,-158v0,-162,155,-155,287,-187v21,-5,40,-22,40,-47v0,-35,-28,-53,-85,-53v-63,1,-87,18,-95,74r-131,0v2,-125,78,-187,228,-187v78,0,136,17,175,50v41,-33,93,-50,155,-50xm243,-104v83,0,117,-59,111,-150v-52,38,-185,1,-187,91v0,39,25,59,76,59xm711,-319v-7,-82,-44,-123,-109,-123v-65,0,-101,41,-107,123r216,0","w":889},"\u00e7":{"d":"288,-104v61,0,82,-32,100,-83r134,0v-11,109,-99,189,-214,195r-20,42r40,0v46,-1,76,32,76,77v-1,67,-56,103,-129,102v-37,0,-83,-9,-138,-28r19,-61v46,20,81,30,105,30v28,1,56,-16,57,-41v2,-40,-72,-30,-115,-31r43,-91v-138,-16,-212,-116,-212,-273v0,-175,87,-283,255,-283v135,-1,226,82,233,211r-134,0v-15,-62,-32,-98,-100,-98v-76,0,-114,57,-114,170v-1,92,33,162,114,162"},"\u00e8":{"d":"272,-549v171,0,262,133,252,316r-362,0v4,90,30,135,112,135v60,0,96,-18,107,-54r138,0v-28,101,-124,161,-250,161v-159,0,-247,-107,-247,-272v0,-170,87,-286,250,-286xm379,-326v-5,-69,-41,-116,-109,-116v-61,0,-97,39,-106,116r215,0xm322,-598r-100,0r-126,-154r156,0"},"\u00e9":{"d":"272,-549v171,0,262,133,252,316r-362,0v4,90,30,135,112,135v60,0,96,-18,107,-54r138,0v-28,101,-124,161,-250,161v-159,0,-247,-107,-247,-272v0,-170,87,-286,250,-286xm379,-326v-5,-69,-41,-116,-109,-116v-61,0,-97,39,-106,116r215,0xm448,-752r-126,154r-100,0r70,-154r156,0"},"\u00ea":{"d":"272,-549v171,0,262,133,252,316r-362,0v4,90,30,135,112,135v60,0,96,-18,107,-54r138,0v-28,101,-124,161,-250,161v-159,0,-247,-107,-247,-272v0,-170,87,-286,250,-286xm379,-326v-5,-69,-41,-116,-109,-116v-61,0,-97,39,-106,116r215,0xm441,-598r-88,0r-82,-77r-82,77r-86,0r108,-154r127,0"},"\u00eb":{"d":"272,-549v171,0,262,133,252,316r-362,0v4,90,30,135,112,135v60,0,96,-18,107,-54r138,0v-28,101,-124,161,-250,161v-159,0,-247,-107,-247,-272v0,-170,87,-286,250,-286xm379,-326v-5,-69,-41,-116,-109,-116v-61,0,-97,39,-106,116r215,0xm237,-618r-126,0r0,-115r126,0r0,115xm432,-618r-126,0r0,-115r126,0r0,115"},"\u00ec":{"d":"207,0r-140,0r0,-540r140,0r0,540xm207,-598r-100,0r-126,-154r156,0","w":278},"\u00ed":{"d":"207,0r-140,0r0,-540r140,0r0,540xm294,-752r-126,154r-100,0r70,-154r156,0","w":278},"\u00ee":{"d":"207,0r-140,0r0,-540r140,0r0,540xm308,-598r-88,0r-82,-77r-82,77r-86,0r108,-154r127,0","w":278},"\u00ef":{"d":"207,0r-140,0r0,-540r140,0r0,540xm104,-618r-126,0r0,-115r126,0r0,115xm299,-618r-126,0r0,-115r126,0r0,115","w":278},"\u00f0":{"d":"348,-660v132,91,218,188,221,384v3,177,-94,285,-267,285v-170,0,-267,-107,-267,-281v0,-181,148,-312,324,-243v-27,-43,-58,-75,-95,-96r-77,46r-42,-37r70,-44v-25,-15,-55,-31,-90,-48r67,-47v26,8,66,32,102,49r87,-52r51,34xm302,-104v83,0,126,-69,126,-160v0,-94,-41,-165,-126,-165v-84,0,-126,70,-126,162v0,92,42,163,126,163","w":611},"\u00f1":{"d":"365,-549v115,-1,182,71,181,187r0,362r-140,0r0,-333v0,-65,-30,-97,-90,-97v-66,-1,-114,42,-113,106r0,324r-140,0r0,-540r140,0r0,78v39,-58,93,-87,162,-87xm130,-611v3,-67,32,-124,94,-124v52,0,105,44,161,44v21,0,33,-16,36,-48r63,0v-4,110,-61,148,-150,115v-32,-12,-64,-32,-101,-32v-28,0,-35,17,-40,45r-63,0","w":611},"\u00f2":{"d":"301,-549v173,0,268,106,268,283v0,168,-101,275,-267,275v-169,0,-267,-107,-267,-279v0,-171,99,-279,266,-279xm302,-104v82,0,127,-74,127,-164v0,-95,-42,-168,-127,-168v-84,0,-127,74,-127,166v0,93,43,166,127,166xm355,-598r-100,0r-126,-154r156,0","w":611},"\u00f3":{"d":"301,-549v173,0,268,106,268,283v0,168,-101,275,-267,275v-169,0,-267,-107,-267,-279v0,-171,99,-279,266,-279xm302,-104v82,0,127,-74,127,-164v0,-95,-42,-168,-127,-168v-84,0,-127,74,-127,166v0,93,43,166,127,166xm482,-752r-126,154r-100,0r70,-154r156,0","w":611},"\u00f4":{"d":"301,-549v173,0,268,106,268,283v0,168,-101,275,-267,275v-169,0,-267,-107,-267,-279v0,-171,99,-279,266,-279xm302,-104v82,0,127,-74,127,-164v0,-95,-42,-168,-127,-168v-84,0,-127,74,-127,166v0,93,43,166,127,166xm475,-598r-88,0r-82,-77r-82,77r-86,0r108,-154r127,0","w":611},"\u00f5":{"d":"301,-549v173,0,268,106,268,283v0,168,-101,275,-267,275v-169,0,-267,-107,-267,-279v0,-171,99,-279,266,-279xm302,-104v82,0,127,-74,127,-164v0,-95,-42,-168,-127,-168v-84,0,-127,74,-127,166v0,93,43,166,127,166xm130,-611v3,-67,32,-124,94,-124v52,0,105,44,161,44v21,0,33,-16,36,-48r63,0v-4,110,-61,148,-150,115v-32,-12,-64,-32,-101,-32v-28,0,-35,17,-40,45r-63,0","w":611},"\u00f6":{"d":"301,-549v173,0,268,106,268,283v0,168,-101,275,-267,275v-169,0,-267,-107,-267,-279v0,-171,99,-279,266,-279xm302,-104v82,0,127,-74,127,-164v0,-95,-42,-168,-127,-168v-84,0,-127,74,-127,166v0,93,43,166,127,166xm271,-618r-126,0r0,-115r126,0r0,115xm466,-618r-126,0r0,-115r126,0r0,115","w":611},"\u00f7":{"d":"524,-200r-464,0r0,-100r464,0r0,100xm292,-507v40,0,75,35,75,75v0,40,-35,75,-75,75v-40,0,-75,-35,-75,-75v0,-40,35,-75,75,-75xm292,-143v40,0,75,35,75,75v0,40,-35,75,-75,75v-40,0,-75,-35,-75,-75v0,-40,35,-75,75,-75","w":584},"\u00f8":{"d":"35,-270v-2,-171,99,-280,266,-279v67,0,122,15,165,45r38,-39r60,58r-40,42v30,45,45,104,45,177v2,168,-101,276,-267,275v-65,0,-120,-15,-164,-46r-38,40r-60,-58r40,-42v-30,-47,-45,-104,-45,-173xm302,-104v104,2,147,-122,119,-230r-194,204v21,17,46,26,75,26xm302,-436v-105,-2,-146,121,-119,230r194,-204v-21,-17,-46,-26,-75,-26","w":611},"\u00f9":{"d":"288,-110v66,1,114,-42,113,-106r0,-324r140,0r0,540r-140,0r0,-71v-40,53,-94,80,-162,80v-115,1,-182,-71,-181,-187r0,-362r140,0r0,333v0,65,30,97,90,97xm355,-598r-100,0r-126,-154r156,0","w":611},"\u00fa":{"d":"288,-110v66,1,114,-42,113,-106r0,-324r140,0r0,540r-140,0r0,-71v-40,53,-94,80,-162,80v-115,1,-182,-71,-181,-187r0,-362r140,0r0,333v0,65,30,97,90,97xm482,-752r-126,154r-100,0r70,-154r156,0","w":611},"\u00fb":{"d":"288,-110v66,1,114,-42,113,-106r0,-324r140,0r0,540r-140,0r0,-71v-40,53,-94,80,-162,80v-115,1,-182,-71,-181,-187r0,-362r140,0r0,333v0,65,30,97,90,97xm475,-598r-88,0r-82,-77r-82,77r-86,0r108,-154r127,0","w":611},"\u00fc":{"d":"288,-110v66,1,114,-42,113,-106r0,-324r140,0r0,540r-140,0r0,-71v-40,53,-94,80,-162,80v-115,1,-182,-71,-181,-187r0,-362r140,0r0,333v0,65,30,97,90,97xm271,-618r-126,0r0,-115r126,0r0,115xm466,-618r-126,0r0,-115r126,0r0,115","w":611},"\u00fd":{"d":"86,110v68,23,125,-22,124,-87r-201,-563r154,0r119,393r112,-393r144,0r-222,639v-34,91,-66,118,-180,120v-15,0,-31,-1,-50,-4r0,-105xm454,-752r-126,154r-100,0r70,-154r156,0"},"\u00fe":{"d":"348,-549v138,0,226,138,226,287v0,139,-93,271,-226,271v-67,0,-117,-29,-150,-87r0,296r-140,0r0,-947r140,0r0,269v33,-59,83,-89,150,-89xm316,-108v72,0,118,-75,118,-152v0,-90,-39,-172,-118,-172v-79,0,-118,82,-118,170v0,78,45,154,118,154","w":611},"\u00ff":{"d":"86,110v68,23,125,-22,124,-87r-201,-563r154,0r119,393r112,-393r144,0r-222,639v-34,91,-66,118,-180,120v-15,0,-31,-1,-50,-4r0,-105xm243,-618r-126,0r0,-115r126,0r0,115xm438,-618r-126,0r0,-115r126,0r0,115"},"\u0152":{"d":"329,-741v76,0,107,23,151,64r0,-52r471,0r0,125r-327,0r0,165r299,0r0,125r-299,0r0,189r346,0r0,125r-490,0r0,-73v-45,53,-71,82,-155,82v-186,0,-297,-166,-297,-368v0,-205,111,-382,301,-382xm178,-359v0,134,57,240,177,240v51,0,91,-24,119,-73r0,-348v-28,-49,-67,-73,-118,-73v-119,2,-178,120,-178,254","w":1000},"\u0153":{"d":"665,-549v176,0,265,135,254,323r-362,0v1,88,32,126,114,128v44,1,92,-26,105,-54r138,0v-30,91,-130,162,-250,161v-75,0,-135,-25,-179,-75v-51,50,-116,75,-195,75v-164,0,-267,-109,-267,-272v0,-172,98,-287,267,-286v81,0,146,25,195,76v43,-51,103,-76,180,-76xm290,-104v76,0,127,-77,127,-157v0,-95,-41,-175,-127,-175v-83,0,-127,82,-127,173v0,83,49,159,127,159xm774,-319v-7,-72,-39,-123,-108,-123v-64,0,-100,41,-107,123r215,0","w":944},"\u0178":{"d":"650,-729r-231,459r0,270r-150,0r0,-270r-242,-459r167,0r149,322r139,-322r168,0xm310,-797r-126,0r0,-115r126,0r0,115xm505,-797r-126,0r0,-115r126,0r0,115","w":667},"\u02c6":{"d":"336,-598r-88,0r-82,-77r-82,77r-86,0r108,-154r127,0","w":333},"\u02dc":{"d":"-9,-611v3,-67,32,-124,94,-124v52,0,105,44,161,44v21,0,33,-16,36,-48r63,0v-3,110,-62,148,-150,115v-31,-12,-64,-32,-101,-32v-28,0,-35,17,-40,45r-63,0","w":333},"\u2013":{"d":"557,-207r-566,0r0,-104r566,0r0,104"},"\u2014":{"d":"1003,-207r-1010,0r0,-104r1010,0r0,104","w":1000},"\u2018":{"d":"202,-469r-135,0r0,-109v-2,-92,53,-146,135,-151r0,46v-55,10,-82,40,-80,89r80,0r0,125","w":278},"\u2019":{"d":"201,-620v2,92,-53,146,-135,151r0,-46v55,-10,82,-40,80,-89r-80,0r0,-125r135,0r0,109","w":278},"\u201a":{"d":"201,-16v2,92,-53,146,-135,151r0,-46v55,-10,82,-40,80,-89r-80,0r0,-125r135,0r0,109","w":278},"\u201c":{"d":"206,-469r-135,0r0,-109v-2,-92,53,-146,135,-151r0,46v-55,10,-82,40,-80,89r80,0r0,125xm433,-469r-135,0r0,-109v-2,-92,53,-146,135,-151r0,46v-55,10,-82,40,-80,89r80,0r0,125","w":500},"\u201d":{"d":"208,-620v2,92,-53,146,-135,151r0,-46v55,-10,82,-40,80,-89r-80,0r0,-125r135,0r0,109xm440,-620v2,92,-53,146,-135,151r0,-46v55,-10,82,-40,80,-89r-80,0r0,-125r135,0r0,109","w":500},"\u201e":{"d":"207,-16v2,92,-53,146,-135,151r0,-46v55,-10,82,-40,80,-89r-80,0r0,-125r135,0r0,109xm432,-16v2,92,-53,146,-135,151r0,-46v55,-10,82,-40,80,-89r-80,0r0,-125r135,0r0,109","w":500},"\u2022":{"d":"177,-425v65,0,123,59,123,125v0,68,-58,125,-125,125v-68,0,-125,-58,-125,-125v0,-68,59,-125,127,-125","w":350},"\u2026":{"d":"242,0r-150,0r0,-146r150,0r0,146xm575,0r-150,0r0,-146r150,0r0,146xm908,0r-150,0r0,-146r150,0r0,146","w":1000},"\u2039":{"d":"250,-72r-167,-146r0,-114r167,-149r0,117r-101,89r101,89r0,114","w":333},"\u203a":{"d":"247,-220r-167,148r0,-117r101,-89r-101,-89r0,-114r167,146r0,115","w":333},"\u20ac":{"d":"78,-454v31,-150,122,-270,286,-270v90,0,118,23,182,68r-45,129v-121,-100,-232,-97,-277,73r251,0r-24,68r-240,0v-3,25,-4,47,-1,68r217,0r-25,68r-181,0v25,85,69,128,134,128v67,0,82,-20,146,-52r44,122v-51,33,-128,61,-196,61v-157,0,-244,-115,-271,-259r-72,0r24,-68r40,0v-3,-16,-2,-52,-1,-68r-63,0r24,-68r48,0"},"\u2122":{"d":"432,-646r-130,0r0,322r-108,0r0,-322r-134,0r0,-83r372,0r0,83xm939,-729r0,405r-108,0r0,-244r-63,244r-105,0r-64,-245r0,245r-108,0r0,-405r151,0r74,283r71,-283r152,0","w":1000}}});
